[{"index": 0, "weights": [[[1.2601225587521112, -0.6760336707470431, -1.479249906734974, 1.7297469932137015, 1.6456149690875734, -0.926929196191332, -1.3173446433930769, -0.3484528223389547, -1.9599650561985187, -1.3719707386411644, 0.07040341230982783, 1.9325536669761356, -0.8950550264469865, -0.6206989492798307, 0.29620060922550273, 0.5366451880322263], [0.4064841666687804, 1.539976746172489, -0.5963214041896232, -0.6887164034306519, -0.9351193443887316, -0.5339497888576266, -1.2221997078948608, 0.27684647066829493, -0.1574661488024236, -1.278647144882886, 0.30218710764828627, -1.6392588066556244, 0.7662564722126612, 0.04032553747098078, -0.21695563452660238, 1.2852473245546494], [-0.8694097607384617, 0.302798594515727, 0.006617008089759846, -0.8446852498274442, -1.0820785656368335, 1.8902164882704868, -1.0406215325030614, -1.325117840886123, -1.0473414021141187, 1.971398588365156, -0.4240800304609791, 1.711986811265815, -0.8547364170002871, -0.4761674053915219, 1.5462680017119323, -1.6587623561360707], [-1.8908572074221888, -0.1883926158722442, -1.6815009910867422, 1.130357446717774, 0.8029996621901332, -0.38683522485915045, -1.8128698405302885, -1.2938492288055272, 0.28477123880889277, 1.6531483763457202, 0.12468659766439405, 0.5424389290911762, -1.4906764387435985, 0.17811095302770896, 0.8008327076618138, -0.6382387111807537], [1.6310901871385486, -0.9591690956366974, 0.920607974884958, 1.575883182450999, 0.5417956604198193, 1.525011015120759, -0.2263171864016953, 1.3722907931481485, -0.12838897711521557, -0.10691760654907556, -1.8107955968399891, 1.8626951816159996, -0.0015077853946792175, -1.4813668206102406, -0.08962293311392111, -1.7708520752651684], [1.9786548223397098, 1.960986169573054, -0.056784342951742506, -1.7714072784511838, -1.1526565632621484, 1.8569156704924965, 1.4897690728484871, -0.25454727359249096, -1.9835694324575344, 1.7648410286314427, -1.926266724585675, -0.8176844786816302, -0.8744998186002819, 1.1000479618642363, 1.476091947032192, 1.6293243824243473], [1.6622712954627725, -0.3583774930302712, -0.306698978812987, 0.7812514484015809, 1.782029953795211, -1.6718365388575793, -0.4394718194176064, -0.10255226260300176, 0.973009083885128, -1.47230656131131, -1.636790339890219, 1.4313096987874578, -0.5484782592235837, 1.4698166771337777, -0.07563010067763187, -0.40628871117110243]], [[0.3969223194032603, 0.8521813918674521, -0.7187074333996177, -1.6141220509099066, 1.8779572154891828, 1.799335204015668, 1.9432386541097997, -1.4123547903215026, -0.9366953034880217, 1.128045919103232, -1.2598165746155643, -1.343134158046528, 1.6519148701964563, 1.9315883468761283, -0.0827577690442225, -1.6861182174034255], [-0.7334411799966278, 1.3726711594374161, 1.3862878327644546, -0.4309942909699713, 1.9947575665833228, -0.19056148596703615, -1.8585754689612477, 1.7837245110968523, -0.8915228109139877, -1.07631416297329, -1.6585131284723165, 1.760022766420731, -1.5331456247505892, 1.8813636641448266, -1.0264618598718664, -0.856452915841099], [-1.6490682290773555, 0.3191397872850166, -1.2399014620606614, -1.6921918900041644, -1.374978830289284, 1.318290531140066, 0.7983260813310618, -0.37167141576057006, 0.06807004283655438, 0.9163793728998089, -0.06644095890055768, 0.37483739218363077, 1.1326526041695013, -1.347209439426884, 0.35270873945910086, -0.2532790409948551], [-0.481223930779183, 1.2396351496013178, 1.4044627223247446, 1.388376244567724, 1.1482787142997442, 1.8562421292639684, 0.6390854933831283, 0.9956947584084239, -0.40126346362428755, 0.9363296111943331, -1.5031729253363109, 1.3473153125739978, 0.17846957485557935, 1.896650931265381, 0.9601824988432193, 0.3964674150384577], [-0.35395070177144605, 1.4696826599720119, 1.0349689733466754, 0.8866933058172384, -1.3592847311320133, -0.2981367753681745, 0.20191642993187786, -0.12446396904777757, 0.24992844992264862, -1.0192765061144526, -1.3722131175924268, -0.8601757530270517, -1.4842290706002288, -0.8925464454947662, -1.186531849009556, 0.40496042413481614], [-0.5058490866983592, 0.9144816082037699, -0.28958602724079485, 1.5801853616973305, 1.0557711658130744, -0.5757252183171948, -0.16775393876870748, 1.9613182151859578, 0.8586122934088944, 0.6778501558067869, 1.6350877755679232, -1.370819814209185, 1.6543104500826864, -0.00031272447408303705, 0.5343280747053072, 1.8473098264781584], [-0.9535620890647531, -1.2858106498627935, -0.27538132816926675, 1.3402315060623242, -0.3839690269244289, -1.7565788253156986, 0.4429967501675547, -0.43561356852910116, 1.8739851946849835, 1.125382013243673, 0.5067726822878784, 1.0684875473917614, 0.0322684284265895, -1.3692595807317778, -0.7444135284301869, 1.3825161224503693], [0.32298047840151334, 0.21401258455062733, 0.6820825587342538, -1.0123711439617469, 0.767410542502287, -1.2444156795995678, 0.34127354840202306, -0.7323581470016909, 1.6319696705857458, -1.1693791285895845, 1.1274308516589349, 0.8364218683680797, -0.15061838509454528, 1.0436472140083302, 1.0894900706661925, 0.1723570246186128], [-0.15226205725041542, -0.9764704492593386, 0.48161147803606985, 1.8105770680175857, 0.9136199390432855, -0.483143120165495, -0.5691028089696997, 1.1130598814592338, 0.8757873283460813, 1.953422406722297, -1.2644290266071838, -0.10962879084568433, 0.7165048917771752, 0.213739044295707, 0.9713327654525203, 0.17756969786606236], [0.6988503017208609, -0.8218339621003725, 0.6038254648407109, -1.8099474914136247, -1.2293779304727859, -1.2095118972917565, -0.634011122554651, 0.6887435523706098, 1.2070728556469632, 1.5655081728851727, 0.15430693928176087, 0.14196601950912324, 1.8624413236503101, -1.4273900506544996, 0.9960045414819665, -1.6353883242568532], [1.4304800601398768, -1.0687355327618566, -1.4534454494983948, -0.505189751172066, -1.8142589461905976, 1.617087352533681, 0.9562834817657331, 1.3475223613170573, 1.3836337023250311, 1.9854971203064107, 1.8634299236833862, -0.8362135686848613, -1.7866697443752604, 1.5654424364718738, 1.3647365430064795, 1.3700451079301912], [-1.435417855655003, -1.1116190082606776, 1.891413375617403, 0.6765143244576106, -0.5301887807227135, 0.7389329916095906, -0.1425543554438491, -0.6774356071131913, -0.46980910519889285, -0.6252368086024473, 0.41018682478813195, 1.7269874326121064, 1.9353223565967808, 0.8074247691020546, 1.3447054825455154, -0.9593799433538583], [-0.3337014885284688, 1.782169344851078, -1.4869801995992713, 1.1191208011561837, -0.7713073358182418, 0.7982474725051492, 0.5537454342920713, -0.6995707039631642, -1.3360570905792204, -0.2236531868709064, -0.07874497079203824, -0.3783978016345486, 0.4706116840660983, 0.16171252936174874, -0.6150594580475088, 0.1301652258987911], [-1.2921888413842457, -0.6741735824619997, 0.36702944606782095, -0.9205079598388148, 0.9139105096733715, -1.824347222386705, -0.7441273204120615, -0.3315816706453041, 0.009888395219369794, 1.2635572406396531, -0.06791864812127235, -0.589471117215139, -1.7565007268937638, -0.12618783103512943, 0.8963922179714228, -0.06796252856488083], [-0.0892213908393229, 0.4129582929025899, 0.4284624428892516, -0.13775163747878016, 1.950600791294796, -1.232163191428194, -0.35454557994645475, -1.9984210950460852, 1.7862463578348757, -0.18654367752863887, -0.35117592447335433, -1.78465838777621, 1.348214144538082, 1.7627800758758991, 0.791969389082011, -0.43095809228095083], [1.7968535486233717, 0.2849305034625922, -1.2668883132159152, 0.536936210079642, 0.25474174500820457, 1.805740036999714, -1.1286720020788263, -0.1907426731370121, -1.7226151473934004, -0.5892976413015192, -1.6671222058438526, -0.021563017314468524, 0.462518725063946, -0.21053541788983576, -1.4735838822948435, -1.2038624884225047]], [[-0.10543543041729375, -0.9143905257695817, -1.395866391425355, 0.5716540852321748, 0.8261633862496551, 1.2971138056951288, 1.0873931940725727, -1.3360247140266108, 1.7442857875537978], [1.8422569676679301, -1.6402600146830038, 0.3992921295988694, 0.5714148405339254, 1.502481292643655, 1.811074270271165, 0.7319431898433262, -0.749524539129355, 1.5637772300121409], [-1.4752740989470303, -0.3524722126893587, -1.1824898929421837, 0.6410779045381658, 0.9838531175373744, 0.8492476098651491, 0.6654925605752839, 0.7360144857404443, 0.5483711748311313], [-1.8249919551717801, 1.2494126651085504, 0.14864649113330453, 0.8916331340531665, 0.1932755197578544, -0.7286757159800836, -1.2099791170307572, -1.2467638453392187, -1.9164770965424935], [-0.4420782222015567, -0.525684952579875, -0.7440301056605674, -0.7343941817686734, -0.9337496168716513, 1.5333436575979027, 0.7508031157518547, -1.1622588339035342, 0.2845340094829383], [-0.85019150404066, 0.24517859050966528, -1.0288875786533707, -1.2383727776549205, -1.5220292732064173, -0.0865501556385988, 1.3398957817422903, -0.21879355433347047, -0.2456002155402941], [1.0512285052746768, -0.1982959407997238, 1.582002208412272, 1.1471547245294853, 0.9052427961004987, -0.1796071826955079, 0.785590066898116, -1.462265466448816, -1.2660526933605958], [1.6643394586533051, -0.9767164719100756, -0.10944623286284205, -1.6721871033150824, -1.8469909244607297, -0.9287298529192567, -1.4762377131961757, 0.8380382769338941, 1.0898812844300956], [1.1399550047011795, -1.0550827181544316, -0.30061318618930377, 1.563221991145443, -1.5350819201322587, 0.15417948572004825, -1.8060199855689687, 1.0161416636066178, 1.649031376192815], [-0.008271793781900794, 1.8467246208209827, 1.0598452415668005, 0.5797440967943346, 0.5189786622854755, -0.3605640976147817, 0.4465675464706367, 1.992422969235455, 1.5832356144144981], [1.5295218611799077, 1.5041366682242496, 1.4377329921541895, 1.2493739347874424, 1.2673398593207605, 1.7160289533528403, 1.400852947449251, -1.0268887058978229, -1.7772340127230382], [-0.8010386125990907, -0.22492966746565735, -1.9486095465003737, 1.6251008640549065, 1.1352336461494752, 1.0073430639915655, -0.1606987815542631, -0.924183857346776, 0.20665663497888564], [1.0780413271032554, -0.08346159360804073, 0.4701738601272294, 0.8572593745020516, 0.36765888040465544, 1.1621831019226594, -0.6135048555675038, -1.9147619407373289, 1.594251823669445], [1.7474759593375078, -0.05429146745845692, -1.6938151675435367, 1.1606897464261263, 1.7596275093484097, -0.92971261462207, -1.2170782538324891, -0.867677740425552, 0.0007948486738809102], [-0.6719498712813095, 1.685824729789668, 0.31507677791635746, 0.5508611971702617, -0.1334292406363402, 0.27682175060261915, 1.233775673721563, 1.7483180895552861, -1.310607068646926], [-0.6641850542376879, 0.9071449816607289, 1.1545426471751274, -0.22274548012734252, 1.9028860890290282, -0.0488779462913671, 1.2275274123084365, 1.2738685230069047, 0.8164945564654573]], [[], [], [], [], [], [], [], [], []]], "biases": [[0, 0, 0, 0, 0, 0, 0], [-1.694362028231406, -0.5435890070496221, 0.4676789880047547, 0.04919295792574996, 1.2806388061679161, -0.39838340199601907, -1.0770085480731968, -0.14399887505610032, -0.3581912784801866, 1.0926197911348008, -1.97215674461683, 1.2193754825591152, 1.742702627259363, -1.4774923767127466, 1.5458006504238706, 1.869393563772809], [-0.5019279776653875, -1.7647929279634065, -0.33792341616565036, 0.1426246425867128, 1.6460235630473243, -0.8107220864172495, -1.1757027676474903, -1.765528020425335, 0.4336083250408822, -0.8211235672768389, -0.7163410649888644, -0.5876153055681144, -0.6083559115209103, -0.7936806169765815, -1.0846560100412863, 1.5729919169293627], [-0.09729337561672935, -1.3215089429923705, -0.3924573164089922, -0.9453754859556978, 1.0456736036762835, 0.6177970060949289, 0.44086778373456825, -1.4151140277592744, 1.5556323875668774]], "score": 300}, {"index": 1, "weights": [[[1.102773189977989, -1.6992986440826, 1.3857680542006094, 1.42578875170791, -1.7170987061129424, -0.1853448825103836, 0.9334652067952027, 1.2049474225486212, 1.5045198071184962, -1.6861700256917582, 0.9092976692580885, 1.0364905946307772, -1.8823550629267936, 1.481769072931483, 0.41994136237045954, 0.4172605318881595], [-1.3713915303199613, -1.619734389262867, -0.9177044801322509, 0.8404914414512881, -1.4853927313894437, -0.4656144349393663, 0.9087318074279818, 0.7352472237676766, 0.2724843102444736, 1.5801121872803336, 0.509340678509413, 0.5986731414242885, -1.4766439602382588, 0.9801996557204964, -0.3247516736438185, 1.2600605014775743], [1.335438017610318, -1.232079269859149, 0.19329461330352338, -0.344908161228791, -0.5487195841382091, 0.9725156038712863, 1.7748026679331876, 0.830622999884826, -1.0929992603329728, 0.1997553790448885, 0.8756586306267629, 0.7164227135361791, -1.200591073080333, -0.10208090898322997, -1.073076439688199, -1.880237986850485], [-0.9850821491199722, 1.3031980682265862, 0.7000488225371191, -1.9223365776988843, 1.9526239780324226, -0.3440057424434215, -0.09408686149302437, 1.2583268074804947, 0.9027955884637668, -0.22269009067877077, -0.05022240209975637, -0.6533032630012827, 0.3424907887956161, 1.9359954810071378, -0.12454783701355643, 0.5248636770168336], [0.01500951617996149, 0.8433566825785856, -1.5485800556064584, -1.7452251685203266, 1.0027151848500644, 1.5997554446515099, -0.3267851457926523, 0.9278432841626727, -0.17787034215601505, -0.6627760075722979, -0.029997858988106696, -0.13664727272855082, -1.1652096838310992, -0.6868119791658533, 1.0622213222992296, -0.5049062101591599], [-0.42679822417938507, -1.4764366921047358, 1.3353342113656326, 1.989563959420797, 0.6193855438977356, -0.22379445853721602, 0.7926920669368367, -0.7770364913156058, 1.991969744816776, 0.9944645608637317, 1.0225908022967474, -0.6496297525397265, 1.3855795987992239, -1.3497126667245234, 0.6732738378676584, -1.4610319293789815], [0.2047165931473165, 0.21424744440487187, 1.066988163686958, 0.4749014937957714, -0.24761290857340912, 0.8800624703724291, -1.3154221511836672, 0.7990920748047179, -0.0725111505837508, 1.9012253620043502, 1.7048258755069678, 0.34342583448060493, -0.3322314254603911, -0.48619545233173866, 0.8790284215682855, -1.27866398579798]], [[-1.4475313300359738, -1.8663528963642624, 0.592297456448514, 0.5017473152241889, -0.396114622374915, 1.5120369818114816, 1.988296869347296, -0.9557653854205652, -1.8709023004715153, 1.5810096738995716, -0.3544597803892131, 0.7844000354391136, -1.988973324480813, -1.0126430671536228, -1.8338271154623818, 1.739867487448132], [-1.7671831044048876, 1.7947419186861553, -1.8053398398795997, -1.1332977613043145, -0.5912818858316702, -0.9800919877775738, -1.4958574729498442, -1.084291538770056, -1.2005982740453036, -0.2553216799468325, -1.4920319595774503, 1.9547196404846519, 1.2644597490330147, 1.3843880912080628, -1.267745271573593, 0.6974956335348121], [0.5833777502165831, -1.212661372196493, 0.5496988186944951, -1.3387448621602016, -1.1728662059865234, -0.6219989730105784, -1.7436968033715772, 1.6790231145480528, -0.026864696993053272, -0.688189570817876, -1.798815824651046, 0.8601144387395836, 1.5552502488897666, 1.4212610442153761, 1.338634483074106, 1.2272730854665879], [-0.10277280815304612, 1.7464840953270762, 1.973050569887377, -0.29009335023430216, 0.4336190931627186, 0.3033688584415857, -0.18769701701551433, 1.9732982317913805, -1.5706561474731346, 1.2378575699866583, -0.5018185960160495, -0.29383224204411373, 1.2318094616843704, 1.0122540558270265, 0.6052858129015135, 0.5452605215276383], [0.014195135616449583, 0.6824644491589993, -1.0832871218670541, -1.6106886948967962, 0.3559925674831197, 1.1441920130546608, 0.9191755712122198, -0.30475176309528695, 1.7680186485317972, 1.185284887204947, -1.4790187463072262, 1.0166142328656265, 1.4118576462750743, 0.24684585872543785, -1.4285243660937703, -0.5884185921793557], [1.402689981605985, -1.0307845756137972, 0.9735087459914227, 1.372952746925208, -1.1998618978710631, -1.6563279968471356, 0.3741742953041536, -1.3773510033033092, -0.09204400319773853, 0.26713795178096245, -0.6713788965476821, 1.5497076995573775, -1.4033245948565276, 1.9782860062773615, 0.06683019665915158, 1.374321254310316], [1.6517681363805825, 0.259896458901542, -1.2461291581943863, 1.1318250894524802, 1.4824991725988697, -0.11302377521543727, 0.8440941152121462, 1.1638394903297846, 1.6047854600197229, -1.6985146049378357, 0.510734395133245, 1.416471112336544, -0.8144059682070424, -1.59234443788909, -0.8925172482192565, -1.6013951763178618], [1.0950573929957663, 0.9701480153321338, -1.2697736405753735, 0.27225092575110965, 0.7614119810377629, -1.8415647489284956, 0.03971331055829408, -1.0814760366245149, 0.1419295333132089, 1.6269057362594634, -0.23362917200884903, -1.7213713059628128, -1.4172395263692255, -1.150781472284677, 0.704190549484836, -1.622566743064752], [-1.4880424562016845, 1.7783426272206944, 0.09272452928251829, 1.5448046328783427, 0.2059944326941876, -0.6748243946959414, -0.9989141618680479, -1.1542470020012865, 0.4793556334587423, 1.0352844261962675, -1.869482911238907, -0.0687979562050729, -0.5535792652354989, -0.7736283902728172, 0.1647658336056419, -1.7360089875494666], [-1.261362679678852, -0.882069628716966, 0.9033084866494123, 1.0347225487115557, -1.1627227539544474, 1.694937587369719, 1.0402304279392096, 0.4565958154437295, -0.5835519383639571, 1.3250397117169284, 0.07895095818174269, -0.31616992859482806, 1.7700316802642764, -1.2736995319736906, 0.9165766642972941, 0.255357211985622], [-1.9616937986772292, 0.22554215636812103, 1.3454165092309989, -1.3535255333810752, -1.1726258449830436, -0.8903729048240052, 0.01894744975012319, 0.5937080366691863, -1.7350266412950792, 1.4820567484168716, 0.19973130555548435, 1.231407866294758, 1.5346550105394932, -0.5355053741851679, 1.6943909989841428, 1.5571822945930442], [-1.5549009589643967, -0.3631654519402896, -1.375007928424075, 0.7275973135460272, 0.2444544288786643, 0.7959563192185675, 0.9153585190615936, -1.8768420859761537, 0.3488865408235782, -0.5425336736172235, -1.4763837434906546, 0.3661124638872302, -1.2609795863206443, -0.5646633259145997, -1.8159657957600874, 0.895198624255221], [-0.8269976683927491, 0.9447682146963965, 0.609948154624091, -1.5957332682313186, 1.9992758398807884, -1.6916890294123381, -1.0915681634190366, -0.6540620955746883, -0.3544387474088704, -0.13082584112496365, -0.23805643151107247, -0.1505549016898602, -0.9149445760498973, -0.12900813860227256, -0.8103933509159007, -1.865839585752668], [1.6491606503102418, 1.9416206424783091, -0.8540564262371704, 1.1321811457454345, 0.14533672113214946, 1.7742681509529783, 1.7567849757375695, 1.1695677565423637, 1.5129954898956393, -0.7522741450391748, 1.8291587111291254, -1.0976012751044197, -0.24832986010937796, 1.790470661856589, 0.06170875901197714, -1.2461147154550218], [0.5196555502618891, -0.9772466248871967, 0.9645372454755168, -1.0899027035076263, -0.997660350791461, -1.606279213925832, 1.0308905348262019, -1.534856642527188, -0.1941535752479706, 0.5987838473899338, 0.7328343381415325, 0.022053862728058427, -1.7485593635808292, -0.2141268614239893, -0.6802699112512847, -1.1361598991742006], [0.8315416030045388, 1.0038582410181767, -1.2282492122390174, -0.7546692118180118, 0.9613796485847539, 1.1058392765130005, -1.0184891027288767, -1.8677891616270106, -0.5599628681684159, -0.8854942759702662, -1.3867063419904229, 1.583262251559444, -0.7645504526687761, -0.17763340506065495, 0.7226900255148236, 0.6581380671653507]], [[1.8267208644530308, 1.2040885407820205, 1.978324517608952, -1.2044064886976948, -1.710178564445977, -1.3189369891894471, 0.6822569573763761, 0.9166657267905225, -1.9285433000202419], [-1.289664941286719, 0.3441285603225892, 1.2258257336605807, -1.415206900805388, 0.6606335340391642, -0.9751156128588891, 0.3748820049672905, -1.5877734925072633, 0.9941524206406718], [1.597199822438173, -0.42628628595712703, 1.5309480637227897, 1.3414785766492154, 0.4840590337284483, 1.2351763899534838, 1.7682772632823713, -1.872892536611983, -1.2799521826291915], [1.6497703346419117, 0.31916030016611474, 1.8503266039059705, 1.842066796010652, 1.7320026907006403, 0.8157415521422626, -1.0988522786403592, 0.6533731271410965, 1.65634045237376], [-0.4353583164466688, 0.8580866690594986, -1.5966348194826407, 1.193293074983985, -1.9643297253303453, 0.44555699362475476, 0.003795081183170179, -1.3436119596784155, 0.5348030396073251], [0.18950162906061108, 0.32823671099722107, -1.6936552413821575, 0.8151295978989062, 1.2255335438870416, -0.11614343535765004, 0.4054259512459706, -1.422864868339507, -0.20897968237202136], [-0.7061830449684963, 0.874939131827015, 1.330981978707379, -0.9194458736420414, -0.9320353410206761, 1.2384056847781824, -1.4763772549222365, -1.1241587552341668, 1.7718377497934292], [0.2958942289656328, 1.411682149227881, 1.4870457717215397, -1.447987333218658, -1.540643710794984, 1.6804543997237418, -1.1932944785554502, -0.8693992454889177, 1.4969015962880259], [-0.10054092484418309, 1.9570477233899841, -0.09521080792738479, 1.654918189068134, -0.7816013920314377, -0.9551512310185868, -0.9195233635582443, 1.6435601820335721, 1.4978661087194092], [1.6022363909453499, -1.2566599804389376, -0.5218843069598869, -0.10145574428133752, -0.5409967829347142, -0.24398158797102676, -1.0667766083601258, -0.35606138817971233, 0.3474991888526606], [0.16555141463859702, 1.0772595995574927, -1.6825670682736185, 1.9419155622347004, -1.9367153365417749, -0.29659852562256495, 1.2223570590489459, -1.3583618692409378, 0.48496352914486973], [-1.5924249765215808, -0.866143363448995, 1.129943930096049, -1.2728290809585494, 0.23563990332719031, 1.815585036545238, 0.9925806695043473, -0.1009902217496843, -1.3869031883819098], [-0.6340747345790789, -0.6814704348655924, 0.046883067134108725, 1.040153039203929, 0.7308748850610396, -1.0261765479610983, -0.3401166661493802, 1.7808643797711263, 1.1540430862719226], [0.8463829550926198, -1.6514495536737606, -1.8409314938736894, 1.0194206477901222, -0.6608769408554691, -0.7250407459558144, -0.8360857042487679, -1.4390046696673968, -1.2445222391742785], [0.6657306633734135, 1.1005591076357217, 0.14065820412429053, -0.2679087223584866, 0.5297163885132208, 1.2721228566163951, 0.6542933876476882, -0.9510777440887739, -0.6946691011940733], [-1.2698014581465933, 1.2295966947665558, 1.6124625599137663, -0.14069392565324756, 1.1990631592529293, -1.9636399957026116, -1.6568811922009412, 1.0234211998038125, 0.45843354072765985]], [[], [], [], [], [], [], [], [], []]], "biases": [[0, 0, 0, 0, 0, 0, 0], [1.8038696778084509, -0.8294593355870328, 1.814779077134093, -0.38205796999934183, 0.8874697616269391, -1.0464867285718613, 0.44187019824526663, -1.489485967544876, 0.5691253875719458, -1.0493643109201316, 1.9343764922032003, 1.1283151533147397, 1.0566792202339435, 0.8189844443259902, 1.2850112724764569, -0.3564187305978339], [-0.1505446286475025, 0.15807779625822826, 0.06631796580065075, -0.3223090542256708, 0.10194595650939631, -0.3887009944253892, 1.580521270865174, -0.1348376750773279, 0.8197345142951162, 0.35861022328564296, 0.4882992727157185, 1.1983443091091992, -1.134966023092388, -0.8109867049856492, -1.6247207062557534, -1.9191847764837071], [-1.7267548363451732, 0.06943036969319749, -1.200653489993437, 0.7027427412575307, -0.9728752760622146, 1.5956150253214134, -1.5078963584112528, 0.8291115205480546, 0.6671325021373935]], "score": 300}, {"index": 2, "weights": [[[0.428942565115332, 0.5348460291291639, 1.8998761234973132, -0.027212629453044812, 1.0713843042136508, -1.9043537424269417, -0.04390291760257403, 0.9355574684243018, 1.3997719241561053, 0.0638975233307364, 0.9445258422063172, 0.870733681396767, 0.6316691966663464, 1.7820677492353698, 0.39508828411424446, -0.1916332598585102], [-1.019413530248833, 0.3644016036505482, 1.1612581296337159, -1.384743911676241, -1.3116702278646075, -0.7444099571321003, -1.8644094090163548, 1.8139023870967637, 0.23035724839960325, 1.689472337161157, -1.6646132128355458, 1.5442289493811723, 0.9221896270464325, -1.3406522141364428, -1.6446434210735763, 0.6788504201770684], [1.0490171526907508, 0.36184400085381885, -0.1600044355496344, 0.7797963499155163, 0.9599431717357412, -0.7505923764548648, -0.24732729605303883, -0.5512603173631798, 0.8177974510197914, 1.25173195320435, -1.429995331585324, -0.561357150542134, -0.6049714981391658, -1.840034671763037, -1.9309539723465035, -1.30180244976171], [0.7171919637333488, 0.511804158472819, -1.2516066906508896, 0.8812459296563322, 1.2280480586785152, -1.1461025768609914, -0.5123970737837187, 1.2228739408254499, 0.6662563101664989, 0.8690437831255053, -1.0833947830890485, -0.6924785000388072, -0.22236567060150625, -1.2044775098750535, -0.8029379022290009, -1.1829486515715737], [0.9236575352209755, 0.4612198689209386, 1.4262001425121023, -0.02523233599939445, -1.3508212890287519, 1.9399571285239294, -0.9154743494087194, -0.919707639415769, -0.8133791522348393, 0.8713043363304243, 0.017304596343294065, 0.014191720414555853, 1.4965763086033737, -1.9049297331748063, -0.5830782613807357, -1.7620896020182344], [-1.4831324176051122, 0.9682828949532296, -0.450977978297606, -1.2648374275220369, -0.7364478221556849, 0.17596279909730894, -1.5001297658929587, 0.12405965151118137, -0.619465001475509, -1.7701516224881062, 0.22166456880248342, -0.4159936526630532, 1.9770516250711414, -1.3370621665506692, 1.3304716784700235, -1.4557856605412245], [-0.7615880922401246, 1.7878355298485267, 0.8913386333220528, 1.9130766042502647, -1.5474219381109964, -0.12742446494762483, 0.1637635536840496, 0.3482690959276047, 0.5977934228688144, 1.762765887066576, -1.5137135620964126, -0.9158580970923711, 1.271839614698206, 1.4348966748207608, -1.9252794220979688, 0.4956567880204843]], [[-0.6531285965452653, -1.0355415459872912, 0.3023323639785227, -0.9816694018072334, -1.7434084222124668, -0.47694248459145383, 0.556809179022808, 0.3314223123426481, -0.7386179032716909, 1.0353146508424182, 1.2018366372429754, -0.034571014337047234, 0.5852711802789283, -0.8184576739451588, -0.9999434048083122, 0.8483099077885266], [-0.9692353878483297, 0.7122052606213871, -1.4912853453148336, -1.4156945245782313, -1.4006121463758694, -0.3760689709579004, 0.06750891703127282, -0.6692774654835643, 1.7546209601991651, 0.7693327185069885, -1.4745544142427218, -0.7967190854922066, -0.46025766902389664, -0.7829828719831258, -0.4261527453110294, -1.1139098523284972], [-0.4385768526625826, 1.5284502235545179, 0.4120068094518299, -1.5505370466891417, 0.18199398615622897, -0.15658223812040362, 1.1085506932772988, 0.6643970490658386, -0.3192580633832778, 0.6810330271531799, -0.9940948097310884, 0.3509973980647887, -1.0915963067185528, -1.5834761618296422, 1.1530364012477632, -0.9461796394670174], [0.4190570851208766, 1.013246574797578, -1.0445853821399895, -1.5295168150903038, 1.8360708323216635, 0.09549973045300986, 0.7543021638498355, -1.3759344938212776, -0.5925889834319782, 0.31458363992676075, -0.1730672973965799, -0.4611433248688752, 1.0228278112457918, -1.530895562562879, -0.507051129955657, -0.28432353430513], [-0.6331822523737336, 1.250141790321201, 1.488287123601343, -1.0433120658201709, 0.17158465155933778, 0.1505575096758598, 0.02798113199013441, -0.496549350896919, -1.456065993210872, 1.8159518899131277, 0.325014227232304, 0.6156674771244552, 1.124390668291385, 0.48796183027260254, -1.0683195485271475, 0.08050111464791287], [0.5803649277417913, 1.695528355934265, 0.1538780793804202, -0.6291150256817422, 1.3624844517913965, -1.567621205226303, 1.288005614656993, 0.7235389538413277, -1.1960798509937578, -0.5779036271761342, -0.8082170377244831, -1.693358910899426, -0.07639881970645401, 0.7985688847878674, -0.992207024012361, 0.2544455172790685], [-1.8644861930723136, 1.090619112756027, -1.928627507423541, -1.8275765444083643, -1.4902261708188527, -0.42426016666699917, 0.5984837511325165, -1.8018985760525061, -0.08794459876807492, -0.03261787204598576, -0.13812338128992607, -1.4911225868312776, -1.454183263435004, -1.5249906397095891, -0.322765286606308, 0.2053469583533638], [1.6280537662661927, 1.7359705136129748, -0.7406314397310387, 0.600461582876056, 0.31826585528745843, -0.7917734599056736, -0.3147956134710914, 1.667499637407647, -1.825039810095653, 1.5173093502459118, -1.8104683702699145, 0.6301143756434566, -1.6100785019215746, -0.22925846183180942, -1.0721786117983418, 1.2924049216077584], [-1.982251874606043, -1.4150455307290866, -0.11714346779968743, 0.18986144372742553, -0.5996873331930588, 0.87968001399478, -1.0433052347258984, -0.8126928976543368, -0.10178897469855386, -1.2231283290736075, 1.838918295224699, -1.665308726985391, 0.4444996179422023, -1.511791846893209, 1.4059233773274893, -0.5700741604542898], [-0.08313316507722801, 1.2289016921099183, 0.7257936322729321, 0.801122233325847, -0.6583400145194118, -0.9386181748970435, -0.16787961659166228, -0.5787411993404419, -0.4533856582636413, -1.1400578592893327, 0.4845454552993047, -0.1244962166704986, 1.9962913881467377, 0.915806790737006, 0.6937348433310633, 1.2985471775213182], [0.03606853277837807, 1.9735869294729218, -1.2081342287335857, -1.7645647539083162, 1.2163124700007888, -1.100975339549033, -0.45246721641822196, -0.7818526263946364, 1.6332681156098543, -1.2221678784718466, -0.05574741696816732, 0.7504057261873811, -0.5528573493865001, 1.5328134464777579, 0.6798486598730862, 1.8359836466940904], [1.816030459077906, -1.5959033298346008, -1.986044665898227, -0.5497981282300368, 0.36520932868255906, 0.005197242852625905, -0.35880911078318123, 0.7377302214219723, -0.19900792577743331, -1.6281915921821044, 0.5662293026533964, 1.1386455178006814, 1.3880533343780592, -1.367254767768772, 0.9035831849837925, -0.6944417652306449], [1.4716814209296145, 1.682310370588302, 0.6124559329309127, 0.8801912653533726, 1.2249829830646966, -1.7024054040534304, 0.7994976516788559, -1.8363266131023335, 0.6805990681342009, -0.266844181688362, -1.0856082672377276, -0.06329225280306039, 1.8739363121925252, 1.022091199216888, -1.2539087260870652, -1.6454804355522694], [1.9395548527047386, -0.4279824791091045, 1.6493685418466613, -0.6801992964086971, -0.018098114518053432, 0.21572555524179426, 1.4976774324361042, 0.3761836061082149, 1.8149426160065265, 1.3480655431333344, 1.9598824668490407, -0.7538362054608867, -1.1329939987616529, -0.10419457846748292, -1.3501064755466086, -1.5356940124782277], [0.0158050749864751, -1.2268022215930525, 0.5466065238393005, -0.8504176839479678, 0.9300252225947903, 0.7431210973133924, 1.747772393287955, 0.6212048315036829, -1.3728316272906635, -1.3123928772128015, 0.16123532504628635, -0.7981901172323647, -0.7318922624313093, 1.7081893548448943, 1.1683761514347695, 0.4496646126095212], [1.108155499489917, 0.08020713474713403, -1.8630584988474927, -0.15259711274162102, 1.6743290399257078, 1.8017798880097282, -1.437201648286488, 0.6887117292796359, -0.7804051149556783, 0.25274487775344756, 1.989541665664099, 1.6350594350245187, 1.8841501243993979, -1.155465410425983, 1.0756152334866833, 1.420947798241723]], [[-1.0606298093538742, 0.040883752906604176, -1.0447553558340328, -0.793519139607779, 0.6146025401148725, -1.8813762015911175, -0.9337565642418704, 0.23951879914883412, 1.0377189425143207], [-1.3605095225934716, -0.013944377585158207, -0.13630046945938412, -0.2966255092476455, -1.6614288910624282, -1.1419576517327839, -0.2856796357387643, -0.5432144135978696, 1.2585064864261102], [1.9671175579758389, 1.5933841876313832, -0.21876192811772643, 0.7369666712636938, 1.7596278505202756, 0.7095950516211298, 1.8832198131619489, 0.43692720232520177, 1.351228411169179], [0.6014431574350123, 0.09085884754161944, -0.6157233452104918, 0.06872125631978365, -1.9579114482032387, -0.9581976811887452, -0.16514377423040294, -1.0392960677359793, 0.6792184998010571], [0.2851602188635143, 1.9098622075384455, -0.37251878505676395, -0.13838944117376073, -0.22237123689208937, -0.19815015851278028, -1.5732534280292785, 1.5202542730696886, 0.08331662908931081], [-0.05759457309326965, -1.9617902628739894, 1.7003790024348522, -1.1092633458375034, 1.0054368040358472, 1.8090412957603617, 1.5834377619330073, 1.1474353263835226, -1.7906010650460527], [1.559281136116426, -1.790336806872384, -1.258767717703591, -0.13258254467239672, -1.8657223265458174, 1.9614319085735392, -0.10400575312409899, 0.42993330982701217, -0.10032823421404524], [-0.08657758970516438, -0.8365515086544066, 0.7935363866493867, 1.4368841335200875, 0.834870051443898, 1.3623206028045827, 0.48587175260276494, -0.5391334149121665, -0.8884358519371514], [1.5180308846461732, 0.8372056203571341, 0.9768246126193727, -1.2554655371578338, 1.4230904726234903, 1.4519766771039442, -1.1190613837243601, 1.4519372268679933, -0.009242657572017698], [0.5337726151753222, 1.6018914431249809, -1.7487935677284758, 0.7476063873533292, 1.6132121847210232, 0.008551900761271103, 1.9059598943626246, -1.3856420913593097, -1.5369994121092025], [-0.17272108401071717, 1.282076031992463, -1.881406270034533, -0.1450937563476038, -1.8311926829719813, 1.582881975429164, -1.8399319926666915, -1.0450678361268846, -1.4793767805401505], [-0.40476153632126, 0.31788758793541394, -0.45036570924823716, -0.15140687422600418, -0.14682515198128687, 0.02186706425874796, 0.49294221891744483, 0.7597594928156792, -0.591421662438048], [-0.8851991595788151, -0.23474082995694268, -1.6894373875403348, -1.768508753612874, 0.47254224475262596, 0.3566124829769879, -0.16783625090619703, -1.7985783615279907, -0.5560386239300588], [1.4328453607697051, -1.0735545703551117, -1.7053477769328795, -0.07799520600550203, -1.2542892133018118, -1.2311092754830493, -0.49995698019720347, -1.437149786325754, -1.4602882024876207], [-0.11900986005232683, -1.3433685557430222, -1.4156309524826667, -0.8449083687055485, 1.8823167889953147, -0.44729895783081774, 1.4796779380118212, 1.6436462364498716, 0.578793836363126], [1.3536040980377377, 0.4311213759993522, 0.9940573290802859, -0.6269804539754258, -0.9523893865329351, -0.8497977238922023, -1.1625731942032287, 0.4186580191332645, 1.7519299499653918]], [[], [], [], [], [], [], [], [], []]], "biases": [[0, 0, 0, 0, 0, 0, 0], [-0.21649592098049242, -0.8425576122779708, 1.2122361103797266, 0.6513294413511805, 1.5960804556749633, 0.19023619092424537, 0.8341502469055571, -1.6691327237434663, -0.7494250189103924, -0.5408432789053723, -1.8741160931718, -1.1519528982404355, -0.8927090093299119, 1.869957800693233, 0.8220735599481781, 1.6287588912832964], [-0.899710833801528, -1.7993872819446368, -0.8901533155918933, -1.9674835345466017, 1.5776729960987828, 1.5282645351650674, 1.0294402758891588, -1.8923451428602887, -1.402331619713829, -0.7950191513095852, 1.9313437901357, 0.30209091789810083, 1.9860269220757143, 0.9613167853102427, -1.0349495834407492, -1.986604232154483], [-0.26157454806322633, 1.6410205089957555, 1.6806406247223413, 0.053761994648855005, -0.3431622770446707, 0.29024683026991216, 0.08084262510035733, 0.4161694533845668, 1.096620691479255]], "score": 300}, {"index": 3, "weights": [[[1.083622321096271, 0.4445409998007652, -0.7536935673868705, 0.07902623579077828, -0.3142849765196414, 1.9402513433858992, -0.7325391229699405, -0.3861692808750137, -0.7067920116163529, -1.715075990999689, 1.9030658840744863, 1.1380101544830823, -0.6050346225845842, -0.15958181791420856, -0.5436847270038143, 1.7081117077995343], [-1.7637519505706392, -0.14915078840020257, -0.3722437265282652, -1.559865026448029, -1.7053855922389247, 1.5114525309187785, 0.036785934240595175, 0.6587067898484933, 1.6608257285632457, -0.9594842579572522, 0.33250323146375615, -0.35395589927120996, -1.3967714209234963, 0.4879619833613402, 1.8873843524675893, 1.2795166564947267], [0.901080256217373, 0.8945659940966251, 1.6099025435281318, 0.6133028450330125, 0.6530276650440396, -0.9782534786698225, -1.6975832408288625, 0.8988038149824065, 1.8815112509374021, 0.4797352108636832, 0.841370445491858, -1.3430780295158762, -1.7793737301695356, 0.965427692858638, 0.4069377041983171, 1.6131796389637092], [-0.9841550741815461, -1.5938284479246256, -0.6486396639178951, -1.2069400380347384, 0.46701655587846336, 0.8528952078984666, -1.170129362383578, -1.0178567970064418, -1.8069561898806414, -0.36486283262434727, -1.4678731018767923, -1.349927336156949, -1.3255673776761498, 0.16245837661625417, -0.4812188550144896, -0.8380562501350299], [-1.8466042750809875, 0.9083311495488751, 0.18144360862948794, 1.993327728796936, 0.6691794508507893, -0.5689126167513141, 0.20591760157015937, 1.8909424864141489, 0.3817753783806901, -0.32851603312506894, 1.2716164522286322, -0.43343404282134745, -0.11669581012701347, 0.2791058557784476, 0.7499846669042212, -0.4993813126565416], [-0.23420964669745414, 1.348697808654462, 1.0754437872405895, 0.5786722359220056, 0.1629570601746395, -1.9970568091711955, 0.6056668765194497, -0.4878348800236063, 0.1666077113874005, 0.0011787284046045343, -0.6397149459878309, 0.8372881030376949, 1.8226887418450008, 0.5182032129228458, -1.0774599479230589, 0.7354418438039172], [0.3536200159599674, -1.7396752086899934, -1.7235059096142966, 0.1511909254478243, 0.09200961897588433, 0.5847223742589107, 0.7108780052520669, 1.507614599160906, -0.5637875597699282, -0.036724907044849875, -1.5323421757904234, 0.7180195508397982, -0.29862999450093675, 1.1384146526308014, -1.0671026505975787, 1.8699966554584906]], [[0.3668061617305378, -1.0547492933583196, 1.119916575871466, -0.5993777304923857, -0.05838085662320047, -1.6326312209013483, 0.7844812032545856, -1.2138950398013142, 1.8719977856999845, -0.32632585746444054, -0.8294359832894296, -1.6376680769072203, -1.8036396765870726, 0.15463988580682386, 0.23896674083578606, 1.0609764921571778], [1.2447199490463032, -0.968026838072531, -1.4257444804010135, 0.5262175171807657, -0.7294090782372091, 1.7192923144895347, 0.11796291096770961, -1.525122613747762, -1.5917324929734442, 0.8993271101094908, -1.8915229090724597, -0.3430896630641955, -0.38879160305370153, 1.0761700049599021, -0.3664950114112626, -0.02653568046787269], [-0.3711264036237796, -1.9360457221925964, -0.9231366898811206, -0.28698491846451324, -1.6052436799037837, -1.9847491353052757, -1.2603819881037932, 1.6156875588645483, -1.2059407728315836, 1.5389745705103577, -0.7956520218800796, -1.6765951031177804, -1.8799556255502279, 0.04085413815146133, 0.4845324037761727, 1.0751809526226794], [1.8895225980742154, 0.7991134933693718, -1.2202148500583947, 0.8970574786277075, 1.4381360881430751, -1.9142679419275268, -0.9429070959981876, 0.8608213506913893, -0.13268406580642012, -0.3617059640865472, 1.6830544534675904, -1.9531089478651475, -1.0374684937298797, -1.8060490163907912, 0.641090124531543, -1.1721127230095028], [1.6943787554989171, 1.95042769280899, -1.2645313027559406, -1.282039351616727, -0.14550339494212672, -1.2738544581327984, -1.9036454192932486, -0.8290641666379752, 1.4809026737950104, 1.469150564461437, 0.5295837404789716, -0.2868985511583415, -0.56592810880072, 0.955397548648079, 0.4686834000807538, 0.34942351850177555], [0.9326941833769506, 0.08756943788848393, 0.2867011866868361, -1.3688772247448755, -0.9649956361717624, 1.6167253852877286, -0.20589530299423053, -0.4714405287490089, 1.0082370046582603, -0.6778443385558308, -0.24116681806087525, 0.7694076227334063, -1.7381297980161317, -0.020857539904591604, -0.38790564552086204, -1.7515541625501552], [0.4906296591639072, -0.13612976066792726, -0.1410274133921976, 1.9315594077329763, -1.7021056142419173, -0.15962614854892143, 0.4536775525363037, -1.644347727152284, 0.9063761887409916, 1.8390066108390326, -1.506901138186847, 0.7642681504130056, -1.1601631260029275, 1.933216541015391, 1.0613116137932868, -0.9706064696368433], [-0.6281865579371231, 0.07224998828183393, 0.7706828856730499, -1.0487847834295336, -1.5419805391526946, 0.41697135530655016, -0.29131992030560294, 1.0674434776297108, 1.440748052226151, -0.24657529673026124, 1.3276513949202857, -0.6709552432066084, -1.0140864171660309, -1.894469174455896, 0.13046178837990885, 0.602918616860979], [1.2487666830103041, 1.4747031124932088, -1.4703519767625428, 0.7990350219487494, -0.9617136739846655, -1.5594887738045626, -0.9203906374804522, -0.18169330296646047, 0.8355980771948635, -1.4894811116844138, 0.5911283373757725, 0.8240277646844847, -0.1863699260325018, 1.719549892133553, 0.2982074122291305, -0.4508731366178971], [-0.21649617380083708, 1.7930293219256717, 1.9544868750637576, 0.31407147372618915, -0.25637474431656804, 1.9664992080225283, 1.5482460709542551, 0.36596999697540644, -1.8621915372185476, -1.45399989631218, 0.5035540112961718, 0.4675749332185162, 1.1850614142810945, 1.676946711770181, 1.2336231849703667, 0.37112277857707676], [-1.847214592944443, 0.09373790824431927, -1.7990901054909711, 1.4693060738859662, -0.8679648618431628, 0.8117637297392388, -1.4371366642470398, 0.6699603981775653, -1.2966525324628027, 1.680363104197097, -1.052478466920984, -1.6454206802294422, -1.3498250894514703, 1.7993032260394948, 0.6388054315066358, 0.5106961905133152], [1.1991619271444942, -1.3047679875445581, 1.7908208650624107, 0.6946854899253649, -1.206647810513641, 0.9370935292405167, 0.10258451233238874, 1.7448581999462327, 0.771871401803871, 0.006726401689859163, -1.997034839666708, 0.656355528553012, -0.8101758125769103, 1.6744502433407065, -0.8903575190013968, 0.4882728208039735], [0.2883790888001667, -1.2352623320753748, 0.7048522073322547, -1.697523393824342, -1.750539775065751, -1.1787093416590628, 1.0629288380408606, -1.1176827162677605, 0.1367186387583934, -1.2991708393293395, -1.9211192840962927, 0.20675866919676622, -0.739340756164756, -1.8146002726809036, -0.9257174223836793, 1.7869196236228113], [-1.7728910181949873, -0.4201200380201051, 0.167545439710576, 1.7522908552481962, 1.1560747412996006, 0.8453836411340965, 1.970528059571405, 0.1714781051283376, -0.19587721139868508, -0.7693466264780087, 0.2151420582790915, -0.3392105849191882, 0.4209982929467153, 0.3836987351582337, 1.5264527144791993, -1.3222993194388546], [-0.26639729558652103, -0.7404880128242013, -0.9186434994206092, 0.874023392000685, 0.6244968636659118, -0.5196791040165558, -1.137561592963329, 1.2625027883853064, -0.23838459735507955, 0.0520599712067491, -1.2376203085785047, -0.1667913479038292, 0.6222225814760489, 0.7929510224520979, -0.8348405415176718, -0.6245336428606332], [-0.42498041319681557, 1.3172454973425873, -1.533824245437763, 1.8419711788103847, 0.8911911327647402, -0.6822423999202436, -0.6202626957462631, 1.1065884642515313, 1.843069591641163, -1.108271016521603, -0.32612588375661344, 1.439966195495904, 0.4955494187446847, -0.7679643201855382, -0.3619826932775516, -0.9653500473532466]], [[-0.60197304556679, -1.0038809434952412, -1.4866569649963952, -1.4807726586546712, 0.9525081314863071, -0.6439776977239555, -1.2614533341807643, -0.4723180015617059, 1.868100842600573], [-0.2130748179169295, 1.7798539351440161, 1.3259190223765493, 0.6419311620455681, -0.529862094848883, 0.8859189727713321, -1.4638335366664719, -0.04544117670357117, 0.9647097884570477], [-0.007075420842067359, -0.9810378109579134, 0.4066929308429672, 0.3616508472717239, -0.17129657950054922, -1.8902509832901715, 0.5237428837955407, -1.1287074852453873, 1.9080641438370973], [0.28022302697105417, 1.6399148394487226, -0.31263654012547226, 0.9887467549212468, -1.0157222030154998, 0.6421619048969993, -0.5518866656700734, 0.6216822260212211, -1.8490013154381875], [1.4262536900110794, 1.2546436337632771, 0.13841597467189226, -1.4665933998300522, 0.037046700038835034, -1.8326810524470427, -0.4142158650459158, -1.0626559816766896, -1.5691322192157324], [0.5656614928253343, 0.5164606742951032, 1.9952908888079013, -0.25339478364036916, -0.5097953751960058, 1.3928908227034817, -0.48057086745484856, 0.07172143832372502, -0.4673370842420774], [0.37241512667947774, 0.9479916518169671, -1.7928372124432612, -1.2459166273452746, 1.5101944034422012, 1.1296526921243033, 1.305099007726998, 0.4603974557044048, -1.1335937396934175], [1.71441091420199, 1.8289999368909955, -1.04621077289542, -0.6416072683652612, 0.7931536062169422, -0.8737630163834131, -0.30599867505972034, 1.8083805265096822, 0.7633907631154537], [0.07609271828191488, 0.40455157806553776, 1.5678571880499628, -0.0037499067996034086, -1.4438976449417003, -1.0973851930782361, -0.4582634140001973, -0.14777156773254596, -0.09342476371316355], [0.9987916163036443, 1.2331037689281827, -1.1267489702763487, 0.785258398972303, -1.580511590313873, 0.23659849619897422, -1.8269358277708232, -1.1043226143989333, 0.03631201992519406], [-1.2624543056278044, 0.32930927168712687, 1.6710727337307376, -0.15157950221138217, -1.7808551237669397, 0.5572293771949504, -0.1200302163317315, 1.1204221145830622, -0.4267031479485719], [-0.16466811702137552, 1.3354161773334559, 0.16197702981825746, -1.1910002485742557, -1.7319020519759962, 1.8023039206310454, 0.9079684866366242, 0.9381630818324687, -0.21042920514858654], [-0.607257489909601, 0.9646076082643571, 0.2754803417233238, -0.9567925629235141, -0.6629117821930972, -0.921046084200039, -0.8735261825818217, 0.5698564836037026, 1.5625237392888391], [1.1250636195428512, 1.231920231806424, -0.2005583764406791, 0.5245539953393403, 0.2801603578368792, -1.2402286604741066, 1.2353978028266521, 1.5159955086499788, -0.7689196498442108], [-0.8779554853089899, -1.5407032151473579, 0.758566177434941, -0.21381393351444444, 0.2057389227766504, 0.5576950205298221, 0.4854333785520466, 0.1863091461893953, 1.6333400639421334], [0.05067401511233305, -1.8218253863359455, -0.8632445792331178, -0.36075828887776673, 1.0539838322885693, -1.5657944571481153, 0.8848098954962964, -1.4237743835839298, -1.0655490565012604]], [[], [], [], [], [], [], [], [], []]], "biases": [[0, 0, 0, 0, 0, 0, 0], [1.0108958586150911, -1.6536802270311544, -1.217881949238556, 1.7242903196274257, 1.7469208703338088, -1.379861707133025, 1.036825413605293, -1.0758154387900523, -0.8572131556244065, 1.6765049322042818, 0.7995253721549038, 1.5991655081277147, -1.9743746490998997, 0.17350009123309018, -0.037827441028883246, -0.1778320382303593], [0.21462956590158777, 1.954936226147157, 0.6678387495861586, 1.5939281709229434, 0.8909563381799086, -1.6168321841892137, 1.1512317297880905, -1.9087920583233804, 1.87683155196859, -1.287052179857473, -0.6262893253621273, -0.3027160249236647, -1.8969593940228582, -1.0737493161237648, -1.2281095962765773, -0.8960328195614968], [0.41684333490311865, 0.44831186118078303, 1.097006468645639, -0.7623181991378081, -0.2270761913004038, 0.291894309389515, 0.739368999317505, 0.8147020629101349, 1.3207859126744577]], "score": 300}, {"index": 4, "weights": [[[-1.7086312986832888, -1.9429637134654638, -0.9766469936782878, 1.7042423857702325, 1.4593731692467364, 0.9560697124848487, -1.6542990990234712, 1.1398009848037196, -0.36175820594200525, -0.1705250358576773, 0.9968940493102809, 0.5528222505705753, -1.5867801436121574, 0.6901544017516916, -1.5538996204944366, 0.36089066840311546], [-1.1964325245846732, 0.8841586872186116, -1.1670330863578937, 0.07634186868745729, -1.607662253525175, 1.1486481343875665, -1.9816446561897445, -1.9988315640051053, 1.5433686449984823, 0.7960485858945869, -1.122200555917324, 0.3542508995016771, 0.08577184401562343, -0.17389749669439425, -0.5306513479812653, -1.8690386442582558], [-1.070978758618927, 0.8301594372801238, 1.3045016802925677, -1.973349550350521, 0.2018486020008834, 0.16654798797980241, 0.8009476583776518, 1.405995738937667, -0.9929776256217928, -0.23916427692749753, 0.37550190578142306, 0.5843762371007699, 1.6847123762347875, 0.7789115529534745, 1.3619152095554972, 1.819281583324369], [-1.6372571978092862, 1.441671586117843, 1.345059930246515, -0.1836439996699708, -0.2721865175421869, 0.010331074266671347, 0.8418823490378822, 1.129656475637991, -1.7496436263222312, 1.778070081512912, 0.9832963196360214, 0.6994641526934728, 1.1151388693877626, 1.6176966296166189, 1.7973703876224398, -1.4631437466512587], [0.3941917910676236, 1.7211138227751621, -1.8126994204987321, -0.07228812770241655, 1.025864832150948, -1.7503160993763252, -0.630845368403866, -1.1416905399152832, -0.8552634786734985, 1.9799487031860967, -1.1044975173196585, -1.7528389700691447, -0.828822879992805, -0.64987480517757, 1.0214405756581741, 0.9022878832100987], [0.15077111919298947, -1.4430960128561527, 1.6823403038929357, -1.8142681393977727, -0.13376536217873625, -0.7130258842237667, -0.8443771729394967, -0.18466817546304393, -1.1471093587792636, 0.33449264819278657, 1.648797221741424, -1.339449167143465, 0.021253622394003635, 0.32479760178123174, -0.2990073541781557, 0.8703429470122339], [-1.5407132751898902, 1.369614721911529, 0.6811839410138059, 0.7760616151032664, 0.8436553861377822, 1.372213582285796, 0.4142383275910655, 1.640655635187282, -1.6635258940241826, 1.8953064226166974, 1.2465891768897355, 1.389376966380346, -1.55166207340215, -1.1916516062330778, -0.7190302330663134, 1.0130470636801778]], [[-1.025621926188835, 1.641738695523879, -0.24838936668711753, 1.578404052058298, 1.3434617714314445, 1.476238490657145, -0.5563038988169722, -0.3887615268718574, -0.22450385713825805, 1.387560718895624, -1.841649952019869, -0.3300809128110411, 1.960068925367104, 0.24622838436842187, -0.5003271270124339, 1.6570945690083856], [1.3075841971315647, -1.6184174716316648, 1.422028964293303, 1.1355594911093343, 1.3855684613423112, 0.6758068164550486, 0.7027476722307755, -0.032786884950195994, 0.47148066228483687, 1.536348483388593, -0.6747834845215079, -0.9651861338708954, 0.8065891279392363, -0.6339969171060291, 0.5617142165040474, -1.272581255281367], [0.18861407079357484, 0.547868370697429, -1.4465277509946937, -1.8799206080582564, -1.1077822882014607, 1.618986623988648, 1.351985842030059, -1.2939084727017032, -1.1693232558043487, 1.0928313215443128, -0.28879133916782473, 0.18659637445156418, 1.1643426315313565, -1.0085206549550945, -0.4370319119930124, 0.7174698869496545], [-1.0334126295882515, -1.2212514447654792, 1.5689066936916793, 0.9324283447397148, -0.8721011480019318, 0.7889295019443363, -0.9116199251324009, -1.67815655018887, -0.6730306133837485, -0.4396613658832571, 1.8918926345016707, 0.8639148520015323, 1.0475170191151397, -0.6218194949654086, -1.3320747167087315, -0.1075402297210295], [1.1407258880750484, 0.9511083806291389, 0.7918711882690266, 1.0831677122673353, 0.8925246718731503, 1.2010631578833513, 1.778779723790616, -0.7280178179709749, -0.9309476473255129, -0.26689166924259045, 0.3363200862402156, -1.7739028909704508, 1.8058418908641292, -0.553856651069772, -0.5865256977528661, 1.3640891705968956], [-0.9123766518516039, 1.009366074536143, -1.9750251438529651, 0.28424968612422497, 1.3402370910695223, -0.09157895425652285, -0.10036571624855783, 1.1398804731746055, -0.80260914216908, 0.5493441118521627, -1.9190518750929266, -0.04446842293008446, 1.2918183537150045, -0.16903152883623385, -0.6486913510735355, -0.09962769319284348], [-0.13487966965170584, -1.0085817409017706, -1.4495296182500335, 0.120158425692098, 1.6591512217522508, -1.2834316945543645, 0.7663475097857817, -1.5733480599454919, 1.142107576765806, -1.445500001099692, 1.085002714329368, -1.469838469941105, 0.4503004309990062, -1.2287192716098807, 1.547730569519222, -0.19405186141217046], [1.7184321402908878, -1.0594607138754712, -0.08211723643183877, -1.4294121101723185, 0.1319685911030466, -0.7671986564205242, -1.985288420822659, -0.9819124442884517, -0.4712853910573589, 1.797396419789394, -0.6345181426172042, -1.952461517003763, 0.8330805313956287, 0.0317154943256166, -1.523130441967206, -1.9923820938601966], [-0.8616882180052179, 0.010825703383066099, 0.46470744366670846, -0.29363854768054054, 1.7288796475246144, -0.02673260578540626, -1.3491820605724691, -0.7804765712693218, 0.44866160725831383, 1.6667983199958316, -1.4116888515943722, -1.2444767072714265, 0.9831713231558243, -0.9183359802500504, 0.527560697250077, 0.5911098832289201], [-0.4698397347175596, 0.5258436032359532, 0.3374124636371145, -1.4394984498637333, -1.9370223607469699, -0.26724956481892503, 0.9464289494904703, -1.6523845907191221, -1.7249226159666082, 0.09745352304972243, -1.475594914648442, 0.6379045167844875, -1.0982387702737233, 1.5045677061844063, 0.049277931031132205, -0.778060915282341], [-1.4858900662894112, 1.3966619309557071, -1.446479737481292, -0.6698337958176488, 0.34043491324182407, 1.7532115509317054, 0.5192934702418794, 0.3528244104574525, 1.5735190598901143, -0.8313325587574663, 0.33178125816968507, -0.40669860390232015, 0.5731310445735991, 0.03871910088178021, -0.49598977978949144, -0.2797364625744341], [-0.15751186942280837, -0.41497424365988245, -0.630481695823589, -0.7310254314074376, 0.04060876492627541, -1.9433285839322232, 1.8600882510959775, -0.8056151966925942, -1.3894404781949832, 0.3828983127354362, -0.8762047915179152, 1.180168127408836, -1.4454909829789502, 1.951873369121821, -0.06843694326552852, -0.2392352836724454], [0.3173377603660854, -1.601492490404942, 1.4651491734552367, 0.866469073570256, -0.18734605540138283, 0.2799657167965579, -1.6050628319224454, -0.24874588300765055, 1.5742498108482743, 0.8280693968532051, -1.394308284963631, 0.01081418629014097, 1.2417353074935504, 1.5744565980969103, -1.9544531752570902, -0.7893054391414069], [0.8417013417428798, -1.428197655835492, -0.8378966628130051, -0.2993665836281587, -0.48955929149078914, -0.4048893760607837, -0.49504363981990407, -0.8578499218041817, -0.0862022784088321, 0.35529008334771417, 1.3614954852617807, 1.7365538334753112, -1.6021832513832988, 1.734748322356376, -1.4005564567346749, 0.15040856035141603], [-0.27006542718298876, 0.5700834813159172, -0.5448795094897858, 1.9537208529190844, 1.5105652998322978, 0.3701996388980362, 0.9229761325793815, 0.5716509401750178, 1.138143433861916, -0.28269420613477436, -1.6171047104600111, -0.891075748858424, -0.15232443941821794, 1.1022768793923658, -1.277114797704551, -0.048652181534157624], [-0.22819335118392559, 1.4918860757644845, -1.561042605794495, 0.09288445790906596, 1.2261171165170572, -0.6422041723377845, -1.5186645462949135, -1.8838373976874898, 1.289985610157255, 0.8080231526454877, -0.01418590179150847, -1.2182594656924421, -0.2653900416692925, 0.2716890902300162, 1.1403701309933156, 0.7092986158751522]], [[-1.130023871023559, 1.4663302213062637, 1.1415042162701052, 1.660157058302437, 0.7021379735936497, 0.9504399995269397, 1.783686104757328, 1.8236530149955112, -0.5861173355626512], [0.7010405696982276, -0.79188267753119, 0.6428521660583231, -1.6492694197033009, -1.816862209354528, -1.3522561196868441, 1.9566835819795618, -0.1537209731764828, -1.297513655179165], [1.5619480203586371, -1.1711448835084108, -1.662427498424838, 0.18213474688721076, -0.5194130211469639, 1.012130190805013, -1.4415758059170662, 1.4122315734490227, -0.18641451831778832], [0.8137428892063889, 1.0666630882389438, -0.8761194945315474, -0.8743790676755592, 0.812974138521795, -0.1400203852653652, -1.8723579051869486, 1.764333507793121, -1.5659498290015246], [0.47098980074574115, 0.12585462460914298, -0.18103718038485495, 1.7479229760480353, 0.053011709867090584, 0.32674881648936926, -1.7844073048114315, -1.7421442372712064, 0.1673450160830381], [1.8579371342711242, -1.1551859973295868, -0.3293199124949058, -1.8958644795414763, -0.03885835678315974, -1.3255250822555409, -0.9893535223578369, 0.3198705894305167, -1.5481992380760103], [1.2623986127344922, 0.8540863741242539, -0.2466634639030767, -1.7077835747882246, 0.1781685675691489, -0.06348868323073731, 0.22958630813099035, 0.6516051626763808, 1.9174778339163852], [1.0271268511101015, -1.5233531221303287, -0.6374608727181763, 0.9586536885929311, -0.653150750707761, 1.2869458375400527, 0.6470020462500492, 1.5267745878493741, -1.425416582923019], [0.11676403598832685, -1.2648805311043176, -0.9058228273025715, -1.4075518493793204, -0.36149930908148464, -1.0340467855576794, 0.7947654864549962, -0.889256440677777, 0.7302417050167254], [-0.8919613431882736, -0.5632937611718685, 1.4913469673523716, 0.07527535437436006, -1.1763922046846136, 1.1684225907085044, -1.766709561877298, -0.07466404108115832, -0.35884606190458124], [0.2128753329792521, 1.4321191764672512, 0.5836374582147981, -1.1176717221806087, -0.13889839731629072, -0.47248334195939945, 1.3567096199075643, 0.6685278222345521, 0.7496591935195305], [0.4789770019932269, -0.8382976108328246, 1.8350843196229722, 0.9339998640320206, -1.7693490333851738, -1.3782997727628588, 0.6565417038384367, -1.2305116163582452, 0.6402039576118654], [-1.6589599641275203, 0.33952944713548217, 1.717706960849691, 1.2803873578498552, -0.7280002681466407, -0.5817331222166238, -0.1191391366098351, 1.246119562552408, 1.3507555044265134], [-0.39763018312391507, 1.7977687947262413, -1.0882894026820864, 0.4324806780515438, -1.9747179722652493, 0.21702534483846092, -0.46058092732672895, 1.2536625934886088, 0.6767142531546675], [0.7617921968895263, -1.5113499090374365, -0.36443255053611256, 0.7416543548561974, -1.2736042561382654, -1.278199704531822, -1.6886562527103774, -1.8852524028061777, -1.5819883008034132], [0.11105812179295604, 0.32957297387433115, -0.1300105420290012, -1.120802013352649, 1.5064013465725976, -1.5224233530918427, -0.7624044636884153, 0.39698492169696964, -0.9990684643266832]], [[], [], [], [], [], [], [], [], []]], "biases": [[0, 0, 0, 0, 0, 0, 0], [1.3441400330275912, -0.6396166858886163, -1.9598668208622976, 1.2370898102179764, 0.6477093329460231, 1.904611592625002, 1.4547743777444846, -0.722153040865035, -1.2738341997672382, 0.9066279957651866, -0.16813842308903792, -0.9141681728380839, 1.4439515851211362, -0.7180780190856293, 0.2221374181393867, 0.2960518163864956], [-1.7544150991310392, -0.61400534911099, -1.0333443608249824, -0.8752526252059747, -1.3874990952806652, -1.1522161919666494, -0.836409897361305, 0.8012558337581677, -0.8155520014250417, -0.12326597288964747, -1.2347194037574334, 1.6096154728561198, -0.7475975222128706, -0.15597104372828108, -0.9465073270217674, 0.1998490159038444], [-0.02716144746414706, 0.4240443065487103, -0.9267806638256535, 1.4952927014359245, -1.1759256931595203, 0.6866995338454052, -1.2620033371143466, 1.3826455806516313, -1.7726273742661913]], "score": 300}, {"index": 5, "weights": [[[-0.2917154121567478, -0.4657484633926052, 0.06520106547289917, -0.7652435023412796, 1.8449218191202288, -1.942818265040568, 1.5554900651203845, -0.2476836562068967, 0.9497690333087858, 1.8129740162121681, -0.1913965324984921, -0.5576793917689407, -0.43786731374852783, 0.2757333726063389, -0.007183506887408431, 0.2032913414935953], [0.15084950843034273, 0.8058453991191223, -0.7477007080003468, 1.0901983951193208, 1.133086634500113, -1.5058573329629903, 1.2242299281348141, -1.9302179259914767, -1.7812464217552053, 0.2790255044154719, 1.4573681066111677, -1.0267300706541866, 1.8748017661906156, -0.43017331261119596, 1.8700646639778165, 1.5837283205062307], [-1.506420632019195, -0.8949668960109811, -1.5403209489752419, -0.8644502946942811, -0.11061280707617849, 0.6651698289556545, 0.23372433658983915, -0.777196348053482, -1.849437908672193, -0.001758138228884043, 0.340222558567878, -0.4360206022766726, -0.1345946721902771, -0.8670685500692787, -0.4626569161300744, -0.8433020797860782], [1.7172734508441496, 0.6080168374404873, 0.5941186334496407, 0.04117954118958833, 0.5925713144669436, 1.6874522402801166, 1.6770202293114571, 1.7661466158102286, 1.0088809832034324, -0.25287462196327404, 1.9322159183663308, -1.30999863208487, -0.9519438275544445, 1.44511059972448, -1.6799907643699732, -0.36467093214900004], [-1.6857212387913671, -1.6505481477591166, -0.23309666158938747, 0.2165009138385039, 1.8439582982004747, 0.29434180120900066, 0.49008368321038587, -0.4588172881229746, 1.588955657285914, 1.2325630283437605, 0.3126899353455723, -0.43532832946465216, -1.7023289493920961, 0.6705547789501662, -0.21992573226637502, 1.045292374207511], [-0.6467959278091495, -1.2751245123996608, 1.0907142694373442, 0.5681755932315493, -0.28708429727018325, 1.3421146186890112, 0.14497279845145528, -0.7327862815988508, -0.03388996095460328, 1.5330178894631317, -1.9706639931821015, 0.7553075697186387, -1.0401310463795332, -1.332632809981276, -0.8938545789241212, 1.0900047197255112], [-0.699238443710474, -0.3845367451192514, -0.07602420264411869, -0.9078176857945786, 1.9475533117718715, -0.6068461364081292, -0.0036061885269607075, 1.577450402025963, 0.7198859312393466, -1.5461136830421478, -0.7267612419555589, -0.6759694069689202, -1.4501336406383252, 0.36873167012053143, -0.8293457125898795, 0.19511445923317305]], [[-1.7092385332084001, -1.2055065779534102, 0.14171471850727535, -1.3228380810605032, -0.5748112518251016, -1.578070893782118, -1.727832310833127, 1.977836533324746, -1.4652072323117267, -0.9541959725463811, 0.841327004177459, 1.3379157580536538, 1.2863805565692665, -0.3465991080406532, 1.534879638013114, -1.9860518097616957], [1.1118869032916385, -0.46648284415682406, 1.2119192392373161, 0.18910613662501552, 0.9167893230831123, -1.0784403397177766, -0.43370462944362087, -1.0949714812896008, 1.81392291614869, -0.8194949053257394, 1.7306917971281015, -0.02836933590044488, 0.011987255912394357, 0.7501323004097751, 1.3942951341676886, 1.2855702262467261], [-1.15922612471892, 0.1664279994990494, -0.48797219180252904, 0.7173353889709211, -0.3320141327286592, -0.3471892546197539, -0.9884478611618253, 1.698565252779502, -1.40020491475972, -1.0811678306245902, 1.3428405368863272, -0.7746419792545649, 0.17241059299074335, 1.5106478260056377, 0.7184266799787249, 0.5610997760218499], [1.0312364210610308, -1.0853639690623944, -1.7803538866611945, -1.8216316258853302, 1.948683044397216, 0.04659253013012954, -0.56445197126193, -0.16872647474071822, -1.438145601465882, 0.7086407039852674, 1.584875930708932, 0.7360587217764905, -1.2374774963009276, -0.996807819140229, 0.7547058491454828, 0.32627938168794435], [-1.6684579180326229, 0.1548614355760507, -0.9635169051108781, 1.4513387700209206, 1.5817490659833555, 0.2302471850749348, 0.5149961066126081, -1.9377571752754577, 0.15338085503960075, -0.44369943847177273, 0.05169637012757766, 1.8643378064730656, 0.06009534022921148, 1.5845538571602713, -1.8849872779992425, 1.3608774955426548], [-1.7876588907504445, 1.2075429341718698, -0.6258922400119551, 1.7589655502806671, 1.7014872573547453, -1.3862823436173715, -1.7130419248876798, -1.6156372791953304, 0.5468938451361618, -1.2843241068229907, -1.3920497311052697, 0.4572042755124257, -1.937862149613638, 1.4018296384951285, -0.9615258539375606, 1.760790486090427], [0.5357599903968437, 0.765884890398866, -0.05080200062673201, 0.6463105370392577, 1.2782096258112738, -0.322111157939418, -1.62621474229082, -1.6797766940952656, 1.4492348296553157, -0.7809034849201932, 1.7895419760124511, 0.21435642321606174, 0.6789476804720374, 1.4298113516588131, 0.7218406404685624, -0.8515983216228298], [-1.081612398901441, 1.1734973339611336, 1.455465805274117, -1.800046415177441, 1.6636333513003523, 0.6838533114061636, 1.8283859621746212, -1.0900081582504426, -1.1570001088145858, 0.6131155317537735, 0.8340813139522711, -0.5510199665982984, -1.2141631420585748, -0.5827534132161101, -0.6840124220993196, -0.7260386086037212], [1.6667432021179653, 1.4214126365521538, -1.6395322355017807, -0.4590179103883374, -1.0668613180305213, 1.335118581679915, -1.2178600249493279, 0.41508872667602326, -1.7297159787334415, -1.5358986197702893, -1.8152432394425024, 1.872433342711413, 0.681270076808552, -1.4668292250951511, 0.9808645444040218, -1.531619980219371], [-1.1493337487181008, 1.0470858672802232, 0.2433857687231371, -0.7226316181348436, -0.5245341162000532, 0.26735549185865803, 1.9558626911563715, 0.43256082859451084, -1.0552317949410757, -0.893636660487922, -1.7553609895732247, 0.16919321940409393, 0.5784271747124157, 1.944477659339975, -0.437928614646129, 1.153059032276817], [-0.713656636786764, 1.7770968794271886, 0.8431478369839227, 0.16930426181714964, -0.5026767768976796, 0.7513678722293395, 0.33773746909390034, 0.028938450684346417, -0.9046680072298852, -1.8974912225485592, -0.5639004941674797, -1.2586522867159817, -0.29613771446648407, -0.025111343398767527, -0.59910699674868, 1.5021687984963306], [1.7935962321167773, 1.653563700019058, -0.59724024791841, 1.5302676961085573, 0.24754334215983675, 0.09193037507449286, 0.09349133518692199, -1.5972633765910418, 1.3697259667702903, -1.3741748252949155, 0.27769756438237536, -0.27692583298258366, -1.0538503327991178, -1.19438548737013, 1.0307735810217897, -0.07550674828895643], [0.32188427837071876, -1.93726789778759, -0.513001174179478, 1.7808217421379804, 0.6126811959166898, -0.6062615903797557, -1.2311245342924395, 0.4110607424993229, -0.9782896966015038, -0.2858811838661053, 1.5745897559354063, -1.95773334676344, -0.03751724577800353, 1.051323267022032, -1.7444475983188847, 0.04517751606984399], [1.321302345732105, 0.9264456481895884, 1.527200559336075, 0.881528087950211, 0.5133476833704682, 0.07509845404895765, 1.8350798769633063, 1.443172305758739, 1.5772607602144526, -0.06148435931474561, 1.1586158829829896, 1.6681281399140588, -0.5981799091430728, -1.61911460081802, 1.2036698566673913, -0.7367160920655045], [-1.5766691990583173, 1.26992026017369, 0.8814876469125634, -1.8691412127012095, 1.1331232332316268, -1.398365479489999, -1.3415932955932157, -1.903839999880709, -0.051357608311923375, 1.9951701556750887, -1.9254708517206143, 0.20291360123271662, 1.4713618483266195, -1.3874015457735722, -0.2770589507256944, -1.5623841982692084], [-1.9838433772743045, 0.5125318533365824, -1.3317195803749855, -1.9387043104933213, -0.8892656648239083, 1.9533823907946886, 1.2928681558018353, 0.013732418209253971, -1.378417119156357, 0.3121463129841735, -0.9264563984678502, 0.7115259206338522, -1.3799529820226861, 0.9122177334179709, 0.1927672447174933, 0.27346747782166103]], [[-1.3092794861663961, -1.987488989637416, 0.6975424133273971, -1.0447864131765665, 1.2992642273380057, -1.7208358986162606, 0.9089819047679022, 1.5837378890733755, 1.534656799891494], [-1.8521349096895912, -0.12754669514027128, -0.5645153108941545, -1.7174944516814667, -0.019602367465703097, 1.2717192977438474, 0.9815543504581243, 0.1505138600604563, -1.1219111936326915], [-1.38085839001561, -0.43908339003261787, -0.916251319006621, 0.15066679246568482, 1.401618476311297, -0.500989548567365, 0.3175477718521993, 0.1319982521204417, -0.42709000652659634], [1.797751097989038, 1.9827886764483136, -0.7088559879016323, 1.642724725273243, -0.2838294077126502, -1.4872176109450086, -0.6862893207820924, 1.362146422665226, -1.2358300949588568], [0.6322449807080335, -0.08698158076325502, 1.0511015650055406, 1.1035872005416132, 1.4801152779848716, 0.2603947081088056, -1.6807204547130294, -1.5260450500908473, 0.6152525554627335], [1.4985406219819364, 0.3911135029825519, 0.37798102525395505, 1.8879289211964374, -1.6746138379933235, -0.7003982897657806, 0.02004398328959711, 0.1102756176814439, 1.7978134939878831], [-1.8981411112564914, 0.224759095292828, 1.1718282770367643, -1.322160116556236, 0.2523955721610833, -0.28735933079545584, -1.093478376684752, -0.5437492322534987, -1.3506975813373252], [-1.1319627763138569, 1.6918730583561539, -1.1325372543947783, -0.6321213701639152, -0.11134290986729933, -1.940484456694381, -0.6566644554198922, -0.9532835350642812, -0.5749147497516014], [-0.5909839966648449, 0.5619332250003422, 0.4564576129682827, -1.3801127855618338, -1.8010241779378209, 1.7965652533766412, 1.5809385726595746, 1.1687996102900922, -1.6489098050609048], [0.8416107296762352, -0.6366282513898356, 1.670612639780488, 1.1427582790152697, 0.3693397971198644, 1.7224255530387866, -1.2747851127232286, 1.6118747741345865, -0.9673457418275349], [-0.18695525442850203, 1.8222113810126368, -0.5576436673488931, -1.6831344900806786, 0.6090329352285062, 1.2917095872855557, -0.690425504578227, -1.0159973437024816, 1.3660267126497985], [-1.2352147139480003, -0.6264901126288764, -0.6289028653203692, -1.8399301115118227, 0.4256679685982614, -0.2662147697784185, 0.5145851734499813, -0.3322681755050003, -1.4990673363889457], [0.402590463757579, 0.6093646696899238, -1.705552128792057, 1.075071313714024, -0.8987487023678877, 1.2368066078871793, 1.15155905032479, 1.515953859587877, 1.944273868851809], [0.9811855582497881, 0.5533213636584282, 0.9267856241911137, 1.7583276102395677, -1.1604194816471023, -0.7553823096462602, -0.7585290606654884, -0.19825876911572982, 0.20464141428361016], [1.9083526116004048, -1.594132427898328, 1.2658444559827573, 0.2992704103637971, -1.6126863960740474, -1.0124510115368297, 0.3735682859700544, 0.1450444773430113, 1.9530485327208345], [0.16126553613619343, -0.9996505357250771, -1.9304731036059817, -1.689680735602027, 1.3419706306187926, 0.7312169985706212, 1.3482080579968319, -0.0633896442066777, 1.1891781882281456]], [[], [], [], [], [], [], [], [], []]], "biases": [[0, 0, 0, 0, 0, 0, 0], [0.07556770725379147, -0.7500854697189756, -1.5779142735433664, -0.39156140396643613, 0.8626188509499411, -0.6551004400577742, 1.1092819135095322, -1.782139590654456, 1.5322023171356474, 0.6352433762091731, -1.7771948128739554, 1.881782998787723, 1.1372012979147166, 1.0431399601742166, 1.7643948462626677, 0.5217406095379973], [1.4335762952286881, 0.32327706134508327, -1.41923720572446, 1.4353549626711022, 1.0115142293138608, -1.588759228702461, 1.2269565364129185, -1.329094235985964, -1.5582209874679211, 0.5834962824189289, -1.105261263318435, -0.48143678800366985, 1.8691261923104165, 0.20061648356396455, -0.11994368689772728, 0.5876962534029233], [0.8060535893664804, -0.47169990357370484, -0.08486016473570723, -0.924445388090648, 1.8037000350848915, 0.5500081181800951, 1.4461645157547958, 1.1920842445538335, 1.8728908134324809]], "score": 404}, {"index": 6, "weights": [[[-1.4591805458832776, -1.5223309262263256, 0.27559526420391345, 0.8417333844852126, -0.14372741081141927, 0.6780938872451485, -1.4561020371004045, 0.8910957340449515, -0.49406650196936264, -1.6085252572028121, -0.06626546284169299, -1.0663475177293882, -1.512748482907345, 0.7173037000993214, 0.7068987229799859, -0.6942058635084201], [-0.347903195622528, 1.2167824884797174, 0.2277338296509086, -1.0416101860060354, -0.8017129449228664, 0.43119326255678203, 1.9253020678648372, -1.1347246273941582, -1.4855741884738065, -0.43989145856611067, -0.002851431517799874, 0.5039128491322349, 1.2534937409340117, -0.6379684382632771, -1.2150152520360544, -1.4083730407428239], [-1.2670912888651675, -1.10514109492384, 0.9985002584060205, -0.26323748445615847, 0.4713593911939782, -1.0649595012468875, 1.237085803131746, -0.7796483684939739, -1.163773539820355, 1.6269260630365627, 1.2638017415749139, -1.0045186854913397, -0.09357895603976951, -0.941994803071498, 1.474054664412113, -1.960545602724158], [-1.9029196066053666, 1.9076993631105585, 1.7637189251551613, 0.17880220110567846, -1.3784370034038362, 0.008283137811639918, -0.5788505526504966, 0.4382095811050979, 1.1429400934528595, -1.4467165406768139, 1.3940527281373285, 1.012139229222885, -1.2508493457107255, 0.3279617132149233, 0.8567923039582723, 1.7017313409441774], [-0.2507431526465447, -0.9992588474060975, -1.8281283271865925, -1.5986567104298484, -1.5001308170533285, -1.57890391978348, -0.4623500250627286, -1.2691028782835279, 0.3723258435132375, 0.878191177332547, 0.18357011556771674, -0.4829604938492875, 1.8647611814583542, 0.18845486438574577, -0.7325698279198098, 0.4683356404320822], [-0.9656941754878607, -1.8479373658181535, -1.333161330694094, -1.6888085206188101, -0.9630869769751662, -0.5177366767517277, 0.8048506883400357, -0.7500583170110442, 0.9168494743342497, 0.5743249049869359, -1.5572251552844594, 1.3527412638342482, 1.5963588071573072, 1.8262932665098508, 0.34399873175771134, 0.9075984444255503], [1.7565042278685774, 0.788065682360187, -0.6493410758510798, -1.359579494882854, -1.8992589372779252, 1.9770199452677546, -1.4065813332498762, 0.997842416614291, 0.3370405726026542, -0.2837471754906611, 0.48811611197676186, 1.88478978668617, 1.5161546757703621, 1.0028476237942456, -0.6631782679738119, 1.6971351836648467]], [[0.457479505830825, -1.5088752471346032, -1.6323433005122001, -0.06241515097248307, -0.26943963519999636, -0.23197028932471975, -1.3889800279552453, -0.5711128693742631, 1.7390150909357005, -0.52868558780006, 1.8841439310801817, -1.4136017097414793, 0.9630472780788719, -1.5882106504285205, -1.4433812067503884, -1.7867856183690711], [-1.414116582593659, -1.2800540348828675, -0.5312611792310591, -0.3238120051267095, 0.24600451847402072, -0.7317709826534085, -1.3887924172104151, 0.6339105366367925, -0.6807874747078402, 0.807487071181868, -0.7505491892677885, 0.514560589819677, -0.7299409546188707, 1.2877735685138383, 0.9577114225101986, -1.5258290912583745], [-1.6924674971971205, -1.8356640274836633, -1.3150921529493953, -0.29413808033911737, -0.7966211432060275, 1.623684354232843, 0.8951991649724262, -0.8800073634382692, -0.49037449943450806, -1.2868220693942618, -0.152061359082432, -0.5210470825496332, 1.578393296980651, 1.8327596304133493, -1.7100678901927173, 1.8013500123666857], [-1.3149213643081006, 1.7733193367256286, -0.44022703757050285, 1.3094807879718116, -1.4297012105274205, -0.8109925670507252, 0.28789588188931736, 1.717570256766063, 0.9503321663820374, -0.362034293371559, -1.1409847202350782, 1.3485503555705578, -1.0766269213453596, -1.1605558743635762, -0.14936671769464027, 0.16695764839887461], [-0.8031949247195747, 0.07274108528376955, 1.8220738927331777, -0.8914218161855398, 1.8971721497860474, -1.7837034139916788, -0.032760151035009066, 1.2746538858251144, 1.6173223733416435, 1.600928779793294, -0.755252234131496, 1.4391402366057373, 0.2116907468863496, -1.5281320675349321, -1.9366429655175597, -0.13377191213215722], [-1.8242267744575913, -0.6301949164414427, -1.5864868697899035, -0.33998174966326467, -0.4369524059044827, -0.1032572216975427, 1.1011942883190926, -0.5408837589680253, 0.04956095967979568, -1.4431609455116026, 0.3079264878304042, 1.1385601188857457, 0.8775979765231989, -1.7294111232734979, -0.8324818935116243, 0.0880729927551771], [1.0431079736357463, -0.3082047268251942, -0.48447681952830735, 0.9368616094431763, -0.23143348551265497, -1.0055772705080113, -0.6054891565879008, -0.5163149656770627, 0.46555704204881376, 1.4763586087032365, -0.4882504140106847, -0.9126373585108492, -0.2027895366002146, -0.8439394108641269, 0.9516194040856134, -1.2914493606759625], [-0.851162056324323, -0.746857155928883, -1.3623817824676796, -0.7377445598536245, -0.8104084379166965, -1.0991894113996228, 0.496649518133891, 0.9461429535565609, -1.7830822599866045, 0.7440673911656694, -0.23396113155148024, -0.4451494522074393, -0.7861533504997285, -0.1022531841524561, -1.580524327582177, -0.598502472044387], [0.6498564919260308, -0.8506866353601175, 0.6461397106045625, 0.1406128686373247, -0.15655682274907967, 1.5822981485122276, 0.021979535554445206, 1.3340043095012728, -1.6905537388262681, -1.675619174657811, 0.10450855730691444, -1.4838340492424735, -1.423294566054358, -1.2182067352450416, 1.1871471461309504, 0.2798859388459123], [0.888368034875004, 1.4917363703612878, -0.9612726793482662, -1.9425864507442046, 0.26713111151612434, 0.10532298237514004, 1.7733027504547176, -1.7534699920443675, -1.2474550906992627, 1.180712627069291, -0.2802738261843434, -1.6473432401195978, 1.2545140431424002, 0.9815022099840034, -1.3376502455207127, -0.2915660793548174], [1.9212408742244058, 1.3087015081485842, 1.4900395765397292, -1.2511650731749158, -0.7108720633642691, 1.402611929572727, 1.7823373355869854, 1.1668422341742168, 1.9183676546966897, -1.1901532358884723, 0.37102761692715003, -1.5765693393730316, -0.7003329192687269, -0.81445560278038, 0.7740896755441873, 0.9953195337479879], [-1.3186601460307128, -0.6469810780042113, 0.45238417682200494, -0.17951901139355186, 1.666863349489761, 1.6676990530751463, -1.9137274888931337, 0.01570722500630728, -0.03762857538218434, 0.373729954320682, 1.052922407681959, -0.9194178801553594, -0.38568361311118426, 1.2611895807219908, 0.1736436697185315, 1.3711837307022052], [-1.908084742986218, -1.356760289119391, -0.5382352834250197, 0.07403457508499622, -0.6889714748041809, 0.17205403620418203, 0.5468199821713284, -0.8174213154793128, 1.073027609964802, -0.9962901002201807, -1.51492886675176, 1.1667354237900427, -1.389286591716247, -1.8327636132946186, -1.2249636259595555, -0.6554936245492309], [-0.9215980573150073, -0.16423958395691063, 0.402992603798364, 1.625770546918158, -1.4651153849655945, 0.25182535773301806, 0.009190926112836895, 1.4962424640300673, -0.4830824038869932, 1.5351047677452367, 0.888181845634799, 0.3084004914150271, 1.5815339654365181, 0.9523976202093132, 1.8819411187963047, 0.09266691146860984], [-0.18113137535324197, -0.3998898175439902, 0.27866864479706877, 1.1113289751099606, -1.9092920735590302, 1.1464833812375321, -0.41223665890831596, -1.3956189240779358, -1.3606779608894533, -1.9109421853970603, 1.4424292178325295, 1.6689975861986244, -1.9246154649383374, -1.2675790636888284, -1.7659011430639837, -1.368343840520445], [-0.47598210977372934, -0.5943465535688381, 1.4548448129042066, 0.33819683655815735, 1.8976433963760968, -1.9652928258257298, 0.999868433311407, 1.345425773629842, -1.1176112934864184, 1.6616271048569793, 0.6081126504746739, 0.5822767178029826, -0.956842619894072, 0.12880903204059235, -0.5609884299162067, 0.9985287654604043]], [[1.0156289544054955, -0.7297588212890815, 0.24023987205203223, 1.377118891197128, -1.4539191955328525, 0.7536996984174098, -1.6941102574394376, 0.3352012367348136, 0.2989197016176983], [1.1438028936529254, 0.06555317212599387, 1.9494513507401123, 0.691150972407943, -0.8782276095920718, 1.8142177943919369, 1.7986560477038522, 1.0311860231427743, 1.5392784607321515], [1.977371290373748, -0.9270217526309619, 1.6688354733239867, 0.8568864728937435, 0.39584361213313235, -0.1325086921681886, 1.6163782096749988, -1.866429771572689, 1.7584144540948698], [1.3603044697381388, -1.3085718851373684, 0.007314647947108011, 1.486805537979555, -1.0674441703213544, -0.16285448580510664, -1.9171178344546673, 1.1412639496184451, -0.15585495212515443], [0.958572254705004, -0.38869856166411365, 1.075680503783515, -0.4419583438748873, 0.9751422783739336, -1.3837285560905488, -0.4476888525539686, -1.0369954870888307, -0.9444167893726898], [-0.8007427081415757, 1.035107587707632, 1.354443861693893, 1.819121460853022, 0.357869103039572, -1.523119297839699, 1.348635235830709, 0.4261426747126178, -0.5762473752254555], [-1.0455580014283474, 1.7233163405090073, 1.7063041036465254, -1.5834635798403474, 1.8811188036735875, 0.15712269455696815, -0.8460387170805799, -0.5540403465304569, -0.12444349927861653], [-1.5995665967981259, -1.633165820341807, -1.7462038229066161, 0.30052253155174435, 0.12284139490389911, -1.225476318004751, 0.21751304438582642, 0.3241977266318057, -0.7210983868903909], [1.204258338375916, 0.10154956573802698, 1.708607958751764, 1.4460463300862654, 1.1432698294355275, -1.6982308783606648, 0.6970553520379492, -0.913430811462558, 1.20520118823538], [-0.6009336091222797, 0.29589591571766194, -1.766130034325439, 1.711300112103272, 0.42096879345043536, 0.7678941909793005, -0.5924720221140332, -1.611407636455866, -0.5763878222286429], [-1.0537791804807237, 0.24044311068861823, -0.86021794746005, 0.7457342291946278, 0.16725007729157504, 1.4553028344560839, -0.054621829880629136, -1.4493416991161658, 0.0546019685365704], [0.5196933594834467, 0.9741326526433336, -0.8916004812623539, 0.2615890474123965, 0.9070577459801195, 1.7832950045587421, 0.9616612889567557, -0.9013196802309835, -1.237136129211621], [0.7456675316521708, -1.4110928627106891, 0.30100974476584774, -1.0477312710816755, -1.9113474792947764, -1.6698570212738706, -1.8545313072752267, 1.9565165089357892, -0.2563812795719307], [-1.959629208694929, -0.2427518914575768, -0.9181959248622724, 1.9560380005298978, -0.7326711016097844, -0.6391425234463428, 0.49810821356256385, -1.061276096618211, 1.5132627116374326], [-1.8471224965993733, 1.0542218028904697, 1.883830430258509, -0.5242881720402859, -0.9889541931871237, 1.075184833880173, -0.7442988473076295, -1.6426379570914538, -1.016477810106212], [1.4499829517756, -1.217376116878258, 1.4797776919410324, 1.9847019093408051, 1.4011573910087671, 0.0917318169692809, -0.8585846140507085, 1.7319502912883356, 0.3259073950150606]], [[], [], [], [], [], [], [], [], []]], "biases": [[0, 0, 0, 0, 0, 0, 0], [-0.7104576848667987, 0.069820053167851, 1.6806655343549664, -1.9400556626447747, -1.6287313906795573, 1.3786588102506374, 1.6498644502433462, 1.203111253557537, -0.35446262395172523, -1.497010993024424, -1.0804222683827418, -0.0005698674383634028, 1.304457478021337, -1.2213549286672176, 0.9553733529939823, -1.9925110429071147], [-0.40723507048312735, -1.8257436088554786, 0.4816204578291057, 1.6929900347845988, -1.134271464324156, 0.5345705390960984, -0.009474268485510695, 1.8142480519916586, -0.8300197678511201, 0.20500289803457372, 1.657033453195126, -0.7698953229950289, 0.5738252004954698, 1.9735937125624643, -1.8092346802374752, -0.6737781530361953], [-0.2352096530577681, 0.4761363799329956, -0.982137517789945, 0.8605843979399816, 1.503747134451435, 1.193656296285257, 1.1368955763871047, -1.7590684960220577, -0.6245499737570666]], "score": 309}, {"index": 7, "weights": [[[0.6377280928083744, 0.7497285506626628, 0.6279866449528315, 1.4315056238141866, 1.9592372331173293, 0.7140665697848543, -0.44297406763366354, 0.4288305803761472, 0.6768600429521192, 1.8720782607110298, 0.314898222483154, -1.4493175428520262, -1.0757356436128078, -1.1043845444422726, 0.123230561805026, 1.2197470795084295], [1.9546557065582117, 1.4372845826722234, 1.2344110867060962, 1.1631471553423354, 1.173024105551201, 0.6322739406935813, -1.8021630466829355, 0.297246283187365, -0.8340891952591778, 0.12178934951690445, 1.026000827314828, 0.06183021795356369, 0.6580790563875047, 1.4407245351168365, -1.9350756979138675, 1.6660516936146545], [-1.3312765195503875, -0.3804286132269379, 0.9976211320883368, -1.0744985995852518, -0.8898038920470803, -0.4301533020079762, 1.7612165891026534, -0.8655656098590958, -0.3587419623980117, -1.400565766010689, 1.2458479159607272, 1.4922291035987225, 1.4505033220281907, -0.7091082385412033, -0.1648240670895058, -0.17943568814406197], [1.7090596931230744, -0.6030147316259664, -0.6808586246129429, 1.9820301364265207, 0.7697636132790113, 0.8058689256068057, 0.628909176486895, -0.9260237960329616, -1.8574765236475432, 1.978227324153596, 0.25171242816456196, 0.06809585173752541, -0.1378133722041346, -1.8409928731223757, -0.1776322365310814, 0.6678342167123357], [1.3955370342370648, 1.4298825376205047, -1.6639538773458225, 1.784316719924353, -0.05368176183354345, -0.8948363007382518, -0.5784188278883606, -1.887286414579536, -0.7385422149543168, 0.834835498522164, -0.7217375289838639, 0.05433557399610667, 1.4117550385504378, 1.6467578430954872, 1.482909036742416, -1.3232907919629513], [-0.09972979602510357, -0.7139242923300309, 0.3710434040329793, -0.8974968758332005, -1.2261398159047832, 0.7463943097875361, 0.49447477557179775, 0.11267946366986203, 1.451736228633251, 1.3969062391716451, 0.7582160126742274, -0.6175329065108017, 1.7677166382930256, -0.5455579505330439, -0.26068982943078156, 1.6700026906523355], [-1.0635180762107415, 0.8635754413876198, -1.9484886887891708, -0.12094219462475175, 1.1989935676419994, -1.4662994620318859, 1.6590151524297836, 1.0062399118908978, 0.330763179498061, -0.46031638688092347, -0.8161128394836883, 1.9002069116965172, -1.0813475807827033, -0.7902172339464588, -1.3383073215154409, 1.0901195572510307]], [[-0.8291261333121231, 0.18511051851211446, 1.4967174886145056, 0.09717132962319308, -1.7028325880895112, 0.6187645455625916, -1.2288150239832762, 1.1175522809161382, -1.2117396708661872, 0.6906714513986012, -1.724211090938319, 1.5678017520105945, -1.4077099196229588, 1.3711785449426461, 0.7348670274323381, -1.8045248548326471], [1.2956327783606518, 1.9764070592859162, 1.3606594564262084, -1.085983718119794, 0.14942776395545776, 1.2697282929142713, -1.1293598580019335, 1.6893652394879224, 1.7263099325922537, -0.43990143880887755, 0.5346136909208052, -1.9301957331030408, 0.9369350083617611, -1.6185838811226483, 0.5822708533700176, 0.9619856529228663], [0.15854708213171387, -0.8030043769340578, 1.8079733260277542, -0.1484946822443889, 0.8160104204328396, -1.5382795307235213, 1.409536109824817, -1.8888105996016353, 0.4303411258445604, 0.08230209216507056, 0.05907936802396874, -1.145581938553542, -1.6307430232631632, -0.10838774373478754, 0.04425977057446806, 0.04700733550630076], [1.3704680142939485, 0.06747327296059114, -1.3654979040063937, -1.9098938297895653, -0.4342946520929454, -0.5966387077538768, -0.24675447718108012, -1.2860403743287327, -1.7266695602653592, -0.10825741647742726, -1.801123370691999, 0.4223719397462111, -0.7042328881435735, -1.904720156853009, -0.06979788498105588, -1.5435290480250368], [1.2835838439305212, 1.5607623339575372, -0.12129928781528054, 0.3942927825100835, 1.8847837823141171, -0.050790485395893814, -1.4846906114565672, -1.3973948074005627, 1.163253395362831, 1.8982686348165863, -0.44158084693919264, -1.1120381157707149, -0.27468384869300877, 0.14298516525056026, 0.002986624447093078, -1.275997069728982], [-0.22344076675519853, 0.04090184210925907, -1.554030028948385, -0.298567807240949, 1.949800295502107, -0.48617608075475127, 0.2455233677771873, 1.175615260538378, 1.5677434149179912, -1.7353633084249966, -1.0203598232611015, 0.7446145462754772, -1.362462487555752, -1.2293902486982953, -0.2545189079783605, -1.6025003597371068], [0.44354026399022306, -0.8050999831537506, -1.0150282943779776, 1.1853592721476756, -0.8165931135611313, -1.9641923402749972, -1.9851926152063015, -0.6629842502446759, -1.3852077906337095, -0.07970161334267711, -0.5733742212315476, 1.924627108379592, -0.10153102451553098, -0.05778168259643213, 0.4172401497193019, -1.3805043934172172], [1.328755455378757, 0.3410187357229666, 0.08285522447775939, -1.7890288069710065, 0.6079413318817948, 1.2985167320612176, 1.4634729745859154, 1.6868694158947974, 1.4707530066287968, 1.4940073730005605, -1.5544283013313356, 0.8075107689560705, -0.8295809232246256, -1.7465819353094698, -1.0533641003150436, 0.021750337134120556], [-1.6086119934549714, -0.2029510316772627, -0.27870982713856707, -0.7408929598808975, -0.12701726316412065, -0.0733705297361773, -1.934723660821207, -1.9096783440661835, 1.9753481873882999, 0.8493520889894102, 0.7131665927407185, 0.22369622127183098, 0.19195221272186602, -0.83495094981151, 0.2740226513633224, 0.6474226441970696], [-0.9705796040501924, 1.2833332347082278, 1.0995078499700863, -0.32334500628235396, 1.5199114578614088, -0.653143116983721, 0.9467417495140844, 1.4014372873578291, -1.6449925597817678, -0.5280714168097544, 0.9595543210847404, -1.8760802950487783, 1.1875420884745558, 1.8400044970356544, 1.837822015463106, -0.154974176234433], [1.0367499781932787, -1.6977940707512857, -1.106532457644335, 1.5420052985361972, -0.03822136053016356, -0.15335696593233106, 1.8898935337005676, -1.2270392819797933, 1.1023928135499061, 1.0627745251056804, -0.6160205462337833, 1.7805687754644528, 1.5082483142546153, -1.2231848860909005, 0.04259295997678647, -1.6796427497769684], [0.24926186313764997, -1.2041211615589056, -0.2770549057409952, -0.8982563549588622, -0.718712870547622, 1.5485724016289732, 1.8891206049739835, -0.31495692868378766, -1.7128018100830955, -1.793618441299608, -1.1897133235717012, -1.3406760279927097, 1.9022511552808243, 0.4750393088726237, -1.8163793655690221, 0.4494056566472371], [-0.9645725527264926, 0.6304644678719766, 1.7675433220204102, 1.7866532796536339, -0.8461941177358092, -0.46949342790405435, -0.4441531625290702, 1.3322187263850291, 1.2459071403838706, 1.55254279022743, -1.6655183884369258, -0.8499693375601649, -1.391186050524476, 0.5783084979623361, -0.43318803910971226, -0.1749543719483575], [0.02941653583305648, -0.4105604301898125, 1.5336244602700857, -0.4582524072261238, -0.21858383851284868, 1.8782596322107028, 1.7640424580008713, 0.9288132753789533, -1.0742292452058062, 1.996412556630478, 0.10551805905503997, -0.5961028922479663, 1.294780981176308, -0.17855600278535855, -0.4300406855299843, 1.4084730354484503], [1.5708184336597926, 1.289336785027452, 0.9609189634433157, 1.409503619409504, -0.25521586735904744, -0.06863903169820018, 1.0236646733911319, 0.07047221999169828, 0.9299595441155688, -1.5784505876468775, 1.2508030450260743, -1.7211751608622485, 1.040685308465136, -0.508277272195524, 0.3367907815810889, -0.2941474706686007], [-0.9914272853448787, 0.26735355608837263, -1.1994263630054864, 0.41551573561941746, 1.8847961723945788, -0.5770308094634307, -1.1742882159225094, -0.17483690996138135, 1.5879846854713353, -0.20610474952096558, -1.122613585920298, -0.8104527564648385, -1.3724730243698824, 1.721117185340446, 0.09619784732310022, -1.2539297347885467]], [[-0.026849086672098288, -1.3983122539997952, -0.98844038048605, 0.9242173999740708, 1.2397048533180057, -0.20127935751607806, -1.3950112465406659, -1.4659382195083417, -0.10913161731179777], [1.3261854966606514, -1.6937095698808453, 0.36882423035730083, 1.26894470303538, 0.9154202909547258, 0.5708259082303542, -1.314598872939464, 1.0783284532621167, -0.31184506766286324], [-1.5988944361584148, -1.6668178860158016, -1.4723465141716208, 0.9249425770431428, -0.2896780039113578, -0.3599680241841341, -0.6041489866996486, 1.0940037766720874, 0.1529920070761137], [-1.9499014601399445, 1.5359971356452036, -0.9603949694644975, -0.5962923178551955, -0.5077034897068442, 0.6831714319476059, 1.5641917789868631, 1.942084537568069, -1.6033904510894441], [-1.3447722191774738, 0.5066881205744651, 0.9203093027111189, 0.5477003463049899, -1.9001476020731451, -0.23067931882936676, -0.8926226926573091, 0.9881942910325741, 0.19177589828658137], [1.9275242322411952, -0.15241059423994807, -0.6626267586520043, -0.04437614704724169, 1.783515791188162, -0.1017240553171721, 1.344643871296542, 0.08005761382151633, -1.6021395522624076], [0.6830756491112311, 1.3688546232020267, -1.6831214499730658, 0.1732287050647927, -1.927958596590761, -1.5251066202884869, -1.8746968632661467, -0.09643793521868282, -1.2476705116557154], [-1.0763297749219323, -0.6324018514432725, -0.9557075994150179, -1.7873443108751035, -1.6074201353200936, 0.5085852287909765, 0.3287577285979806, 0.20219313854506682, -0.5880422761626525], [-1.0200114979003558, 0.6435313512341212, 0.14585425495470172, 1.5880194938060583, -1.5616438725914241, -0.2965729341589416, -1.4521157226181223, -0.3836597948787239, 0.7168426327022019], [0.9225866377510852, -1.0909457391440656, -1.4781395014296472, -0.8633181273719788, 0.1251198557459987, -1.7689362838761835, -1.2714185035177628, -0.002403581484264894, 0.6611130916254], [-0.2654099983435727, 1.7475311722974824, -1.887996774762707, 1.5511277469884615, 0.3394722962307819, -1.5382746175305568, 0.43101980542554363, 0.7278362595000982, -1.6689155236098352], [-0.5270275144220635, -1.2028256278790264, 0.586308155513962, 0.19709609051843824, 0.8546083135701039, 0.7272985123498943, 0.8122725288719748, 0.01702396669106765, -1.626703617189936], [-0.8687219265791577, 1.000424241745805, 1.3252698069167441, -1.483813577131596, 0.10068047409595371, 1.198118221690108, 1.0990135304040294, 1.210801851629752, 1.157282825491948], [0.2749842698587619, 1.7600372881418376, 1.119819931679901, 1.2791315349433692, -0.9823726846948055, -1.8028453550835524, -0.1586427701898816, -0.2423742130080364, -0.33985869615806097], [1.2270788709204012, -0.04243805897427677, 0.40321037971649787, 0.42652135558215454, -0.7331223997888334, -1.9930980870194155, 0.15203480311851436, 1.238821851714237, 0.8273595196050798], [-1.4832134104221617, 1.508421521801813, 0.18693380253207525, -0.031898888262690495, 1.0745082075057755, 0.8307834025924778, -1.5373999575988306, -0.5967826874103719, -1.067249730017474]], [[], [], [], [], [], [], [], [], []]], "biases": [[0, 0, 0, 0, 0, 0, 0], [1.338184355863159, -0.2945574808157816, -1.3011088499476835, 0.9487277983465376, -0.6630361487830201, 0.325842274527433, 0.48425918973554793, 0.20443547512038718, 1.2869523771910987, -0.8429356264788415, -0.28435746838953646, -0.7935529611894543, -1.046474592692003, -1.0734388618208315, -1.1678997173107932, -1.01608152547748], [0.6160705393494625, -0.08189723035094199, -1.6861120023759968, 0.8912103712236843, -1.352494270812448, 1.4498039012152981, -0.9521489518455462, 0.40824873074972157, 1.8818260200731203, 0.3264901185307094, 1.7965412529503966, 0.1674309344718501, -0.9049977507544802, 1.319978657152808, 0.5526952105554219, -0.5177835545411686], [-0.4680011699917208, -1.7766214880873172, -1.7193985935290401, 0.06152464587167428, 1.765348848880802, 0.015109292470156355, 1.4836322025225055, 0.5453842508249704, 0.332513187536879]], "score": 900}, {"index": 8, "weights": [[[-0.9518126707241077, -1.5441855787618883, 0.8151056805555763, 1.7802172891332386, -0.25085912613570915, 1.620126320340907, -0.11432547317245367, -0.060191329195510956, 0.627066446619656, 0.7027679481124944, -0.48921878949945485, -1.279654789979904, 0.4506030593586181, 0.42256974329492003, -1.234752239118408, -1.1077726300615915], [-0.7127876013892527, 0.021718221506773272, 1.691505635164765, -1.9008833477491582, 0.7435922019148276, 1.4641781070203512, 1.5740468377306702, -1.8728965296953883, -1.9600721654906699, -1.4381229936022257, -1.6455323016887582, 0.7144226316609164, 0.07413096553223619, -0.46778791900831784, 0.5129800748531945, -0.5095285447464111], [1.8240269064424433, 0.27793487746229095, 1.4173116302837006, 0.26300382047925597, 1.740378474712466, -0.4723752126207006, -0.4095442255023576, 0.9703238119892448, 1.8547175593858176, 1.208734053368731, 0.3701004146282827, -0.6374983609087885, -0.1977009772128686, 0.5039986067335018, 1.0042446943129533, 1.341765550713041], [-1.5787587318613605, -1.867185360594037, 0.24338038977832355, 0.1688146463455693, -0.22630356956169662, 0.19990286157321302, 0.22149664300234084, 1.8934514418341215, 1.3265936994953198, -1.0264803145075505, 0.7227684036151762, 1.9809303046383384, -1.8605284686969843, -1.1196847550384472, -0.11348979603464437, -0.13777936640247335], [-1.457350030997723, -1.9162703269107402, 0.30089294794801935, 0.09213820879049361, 1.4516918410737145, -1.8451534863688797, 0.3022270799627993, 0.3397186722525012, 0.8729568603634976, -0.4319172504201054, 0.5171250902219136, 1.1322567834870303, -0.1193258559284347, -1.2293903275257727, 0.5392200074312674, -1.6629385389516629], [0.62028606189538, 1.881517982665951, -1.8797970984390933, 0.771716964285714, -0.050640600125289925, -0.3445472185684322, 0.5301874166455276, -0.07254654004362093, -0.6045156189377385, 0.20518479576507476, -1.8584392846482922, 0.4462761246860074, -0.07128362923092313, -0.3408185374889885, 1.7176145226477524, 1.0712252249967218], [-0.7740586498181363, -1.2013881906238257, -1.4657872800725942, -1.6500429312813205, -0.4792696029165566, -0.9018500301562207, 1.7723890194838923, -1.9707515366390798, 1.4519653854753414, 1.9732730851860159, -1.123171686678707, -1.0001704236145539, -1.8371672598296769, -0.022969747098401605, 0.18645873534882407, 0.9825966727792581]], [[-1.8012267706967275, 0.15815897761295483, 0.5280773440324684, -0.31174588370175993, -0.03466971208515979, 0.04991841694491406, -0.9060793705095742, 1.591021822469168, -0.890900126342776, 0.11148600380766904, -0.2580729723259876, -0.4511207809757405, -1.9466780931743641, -0.5918018030867565, -1.9160054138656455, 0.7755676889315226], [0.3062602979470772, 1.6353922169321118, -0.3666180241646422, -1.5170060290651288, -0.11718939933121408, 0.20985228564934433, 1.134239671276136, 0.28334010811612886, 1.1247006260469594, -0.6195718856229453, 1.5618459259401734, 0.45499038683342663, -0.1335356861903927, 0.47941526205085383, -0.7217834706974324, -0.042661357687654444], [0.1770443463418916, 1.6982077640348714, -0.12106542354363814, -0.22033766769992447, 0.6453718930764292, -1.9494128959794188, -0.2047214059258029, -0.2375927722626061, 1.1410944322962813, -0.6523350575785765, 0.9549665683616473, -0.4915818035539705, -0.6805674696893584, -0.2545821172981233, -1.5902666138422545, -1.2389301382270488], [-1.5441592124054888, -0.7503789642336263, -1.9193436359881346, -0.27348682292871596, 0.1272364434788975, 0.6520334424211107, -0.19827918377956832, -0.9851601828435093, 1.0052810326314758, -1.6892122678825254, -1.2249383712857163, -1.4228639897666726, -1.974059652335097, 0.05187821256500946, 0.6285647728387782, 1.9198363587532112], [-0.7235742519720727, -0.29364344870704295, -0.3990429397372024, -0.19904889015277227, 1.668496478615734, 1.4975285335482762, 1.8270212681094304, 1.0183670652636092, -0.7649355928528339, -0.43275780370550265, 1.8458640445503107, -0.6456106338709104, 1.3280084793269613, -1.233816799879599, 1.0927630624257025, 0.05516038256330269], [0.700630690432666, 1.3213964833327139, -0.5926335244975505, -1.6103608079873557, 1.94527977498251, -1.0218343984084046, 1.315525620909233, 1.8694146041327673, 0.769791066425177, -1.359155003161527, -1.4648248549746223, -0.40526236066736354, 0.809321081971567, 0.2453291455115023, -1.9515671278210753, -0.5182437662409245], [-1.99031162529787, -0.22352982400364185, 0.22643357842454082, -1.7382287801380265, 0.07105524567376742, -0.904861250458183, 0.6586938137024965, -1.8097944720249388, -1.8736377295945932, -1.277073999751067, -0.7769060422963796, -1.548629815261232, -1.278661751215457, 1.715189616794392, -1.3988244919667099, 0.42250562044459317], [1.2145506993786426, 0.941784783551888, 0.8538977316609544, 0.1286434005268089, 0.5461416412388713, 0.8076166035390151, 0.16010480491778223, 0.028000729089614484, 1.031333199250044, 0.6167654555555595, 1.9061645906980775, 1.3063746456489609, -1.0171453643406863, -1.0258577556393216, 1.8544518830907322, -1.248807522401234], [-1.7430841946867748, -0.0857631131933907, -1.8976621840799757, 1.0806924183224278, 0.4649571524291636, 1.673956163173219, -0.149235786090002, 1.3258047402686808, -0.8100563679057391, 0.9378637099423908, 1.380007332333475, 0.41068883294347813, 0.9291437309018895, -0.9751235255568349, -0.28188807771065694, 1.1418626505854808], [1.900949787234811, 0.8167046890448484, 1.0254144876703393, -0.7844083010008629, -1.727817448897246, -1.5950772029989895, -0.27037141678508414, -1.3812574119270389, 1.6598686327295646, 0.2569563874878127, 0.35480586968543903, -1.7300645616145158, 0.1518908140554478, 1.1347498119314086, -1.0081629368484197, -1.637562682082843], [0.2861481395019969, -1.6571175259624575, 1.6019845968903765, 1.220845334527942, -1.2812815077002764, -1.2900375681286613, 1.8455195978794716, 1.9952240694399022, 1.6113290939355749, -1.7385701197005163, -0.07800205191263698, 1.4875237671001864, 1.8954718328502302, 0.07175682905545466, 1.0883741189759895, -1.6970015658656523], [0.9779123119441673, 0.0849738320464124, 1.3686992402481075, -1.506526865629187, -0.9045561576006156, 0.15909702776312162, -1.5866306915865054, -1.6940502399644162, 0.7168970316181715, -0.2712874979839204, -1.0899414725088077, -0.9341552735945142, -0.836986233009434, 1.3711794873871437, -1.4523165930573145, 0.5200333043179892], [1.943680287979356, -1.6758006155884595, -1.0579691195975092, 1.9771949315237816, 0.7102009359907102, -0.6255215243714178, 1.9608557904532011, 0.48538490035128223, -0.4930250007032706, 1.4254362829277754, -1.4617908360386478, -0.17494242011487104, 1.7194493604999792, 1.6718804368249294, 1.0927590776425515, 0.09897529668292337], [-0.43173663901109416, -1.4224230330926182, -0.6552946039992538, -0.014096544358449314, -0.6916597285812185, -1.2475997263821315, 1.023946117430464, 1.4068910022921246, -1.5826992269633622, 1.1166411169097716, 1.051212720743604, 1.1330850691962566, 1.021595450950755, 1.5452906370148316, 0.5824614794579976, -0.4199494622253783], [-0.9308081134975654, 0.9009685769268572, -1.4087764851321398, 1.351468426109073, 1.579828855721992, -1.0975620574102067, 1.874369819400917, -0.6242400660278578, -1.1004609462344859, -0.8039657028209737, 0.21215613800046906, 0.5456607108844578, -0.12413378471586745, -1.864277216569576, 0.3781316031584909, 1.1437891077283124], [-1.2993236626944933, -1.4106548076273135, -1.4299850573729418, -0.5884725187002577, 0.5778289549242523, -1.08164210376833, -1.7809954963782104, 1.3528403264830122, -0.7587804812496004, -0.9412712623647908, 1.9604511664208042, 0.2778875414619044, -1.5935577152157925, 1.137765393711049, 