[{"index": 0, "weights": [[[-0.8508436743303822, 1.013290117645394, 0.7010089265839892, 0.19150660811078968, 2.1263096308867313, -0.9169782926544455, -0.40915142473961924, -1.4764045755234798, -0.16555939486786647, -1.1430232238237161, -1.5670002838443344, 0.06116001064733123, 1.1940636925253318, -0.897197496807952, -0.5019191262311283, -1.0667704404202305], [-1.5705156733834735, -1.5617562714722149, -0.5167706981393778, -0.190945149299451, -0.940672069430964, -1.5024008010266239, -1.1181903880740491, -1.7414274324905203, -1.6944214224594756, -0.2952030709592598, 1.4961327560840147, -0.9553402949338611, -1.0446126831124443, 0.8452807524532098, 0.6839441477436019, 1.5361366968160888], [1.0080739850974663, -1.4765138819655335, 1.0527827356660184, 1.600338359505854, 2.0095436715364836, 1.9431632947277202, 1.4284468308600675, 0.14870570856960413, -1.0017196619719444, 0.003209584278180924, 0.5709231849594831, -1.820660449805011, 0.5766874387379138, -1.2332245392181156, -0.6261068048035122, -1.7002335253961622], [1.9767651582285906, 1.0719789766165264, 1.499442141988319, -0.07943899783089581, 1.7932263743218417, -1.1045429745449697, 0.24024457612138445, 1.559412965326623, -1.1297086726413192, 1.5468795627400298, -1.5970493488349262, -2.0227946996887503, 1.3330562110942987, 1.51479237382912, 0.6465278557039025, -0.21567451239842328], [2.1519933762558194, 0.8726267669080581, 1.9758932366799833, -0.8960011318984186, 1.4323483055874218, 0.9813044999533401, -1.0401211538209536, -2.1482669516494948, 0.7268431186168587, -0.8860967981635957, 1.6971191435085007, 0.3340542394394833, 1.767011711016611, 0.6520348701102292, -1.3169700175324532, 0.8773969621498998], [-0.01797655771628956, -1.09814848427606, 0.13361536683959438, 1.7036517981584849, 1.0700780575567672, -0.008627564569725375, -0.3795167712288435, 1.1329973927690344, -2.0572726268335857, 0.7803024573446928, -0.849517141843447, 0.8350635656827793, -1.132902621774786, 2.118904305344548, -0.6132982720522319, 0.0023664205298637234], [1.3001356225284475, -1.7512238463064427, 0.6342779428107157, 0.7838577944591769, -0.16166778760255382, -1.4542017846960913, -1.958332145751268, -0.2841281866050208, -0.10909838081536125, -1.1613353716706223, -1.0538546302193896, -0.9029359441394905, 0.5665754087441681, 0.06628668223491564, 1.0780722725588991, 0.038273346467412594]], [[0.9416484241351739, 0.24574148245251537, 2.0154101444859314, -0.4906361361447609, 1.2790451842638302, 0.6253706979668968, -0.9343411612057281, 0.9301644510055361, -0.6343590578530189, 0.7989612473498529, -0.16506029561783886, 1.8465182577596584, 0.17967948945764262, -1.8707711251694321, 0.03826227021644181, 1.6623510122000005], [-1.4982121018289352, 0.6153057050094456, -1.1997543654795086, -0.9269337164049634, -0.6315286475604669, 0.6917500468401685, 1.8266938901226228, -0.7563447726032174, -1.011462938249564, 1.2901546628903575, 0.8771313474936336, -0.42822247590993157, 0.781134994576289, -0.024288522691167796, -1.602985432601394, -0.7562649177355122], [0.6291450103361603, -1.5829292484385336, -0.20033407877077036, -1.3952321234341027, -0.6591033527655088, -0.6197840870611955, 1.3873758362334465, 1.170042967578605, 2.0505417117487554, 0.9003278250891495, 1.0890579561835976, -0.9693706339385623, -1.3670259802708518, -0.026996577711330197, -0.6275758930453621, -1.334024213037012], [1.4597529719097648, -0.8803571607001939, -0.36090485338248, 2.1841456235685808, 0.4227412388056047, -1.775120291604797, -0.8054638963791216, 1.432443923421789, -1.5803226629780425, 0.4989181504989789, -1.766152448355848, 0.8503177487830554, -1.7100788955459403, 1.5656375668001727, 0.05720967294319162, 0.9168799214587988], [0.4279552408204396, 0.3550431073492616, -2.066367370080215, 0.16385770697864888, -0.45344977154577215, -1.7727266538617248, -0.12847703040786612, -1.6331453989342595, -1.1290248335223823, 0.09183259051067452, -1.318522384386052, -1.742824505266383, -2.026406920713559, -0.41513780495842023, 1.0866392859502105, 1.5708994151461286], [-0.17875331822308518, -1.8159692431303374, 0.024489976027587314, 0.7131769981184494, -1.9226137238899723, -0.46576782409503104, -0.19547317831962618, 0.0835733524565575, 0.2789495140605461, -0.5440037850730213, -0.949167790559279, 1.4999046608629805, -0.13657585489026025, 0.9158287471058371, 0.5392416773245181, -1.3447555804949123], [-0.7198683797697683, 1.5779923851278763, 0.9149356049518226, 0.15343287894941204, 0.2283581637125793, -1.1907225587348074, 1.2421718500418384, 0.5440986882604789, 1.7793750255253933, -1.3917327360319003, 1.1088235176442385, 0.42774069282802774, -0.7145095806199079, -2.1777237498966335, -1.1619097285156905, -1.1328985074677118], [0.2923036776064383, 1.9046430650354726, 0.1870907483398257, -1.5260206317426626, 1.2879188464409383, -2.121669933765071, -0.3860666754049437, -0.6097649684962572, -0.409497757355639, -0.5710174382499933, -0.021690341622198163, -1.1102630314358422, -2.0392537806978037, -2.1999553659000664, 0.11714528852563856, -1.8234262077362742], [-0.7161166348770654, -0.9995295979873149, 0.3059474080259432, 0.754290291850857, -0.2671810166867227, 0.6547539342204093, -0.0008619823421602557, 0.7119809953088386, 0.12335465039460627, -0.6780164821208923, 0.6150077447033473, 0.4415389835190101, -0.08731584992666418, -0.044782971589964644, -1.7701182536839672, 1.5561158906717618], [-0.47382111395369214, -1.4815213090073853, -0.21685591327895823, 1.0471053032344597, -1.3666931770376725, -0.9613671980991819, -1.4148939921749693, -1.4351900082070308, 0.7517570188061561, -0.04952282418589157, 1.6650115083186057, 1.2934729713286894, -0.18386822726154678, 0.4352187438189221, -0.4170563603437319, 0.9529455805167443], [-1.0069570431821564, -1.281841809037526, 1.4300591973314902, -0.31099677894306677, -1.0564768381290297, 1.4730635070019167, 1.2675531512557578, -0.945719129492767, 1.7091753010669355, 1.5138769182713903, -1.2537397271114452, -0.02393061545117442, -1.3614972856011305, 1.7972020534295523, 0.7432791060408505, 1.3103091922509713], [-0.7177169977808996, 1.6978740175326734, -0.9717870316998806, -0.15146774542161967, -1.5719497029136247, 0.41194031853834623, -1.1190928328159213, -1.1770403739694273, 1.4166170706115175, -0.9488555068313821, 0.4671908936732961, -0.7027309019401261, -1.8295003960844305, 0.9975405293232444, 1.4854275261908592, 0.6270369139724008], [-0.10828112707857601, -1.240005851372008, -0.3433856599372056, 2.1393341698895916, -0.09182442376384065, -0.3329666731589275, -0.9387147331521948, -1.0650275965931995, -1.9214725362229805, 1.915844981365459, 0.7190972107822169, 0.5186075038881173, 0.4815799275042405, 1.7190567060882924, 0.7882622579760745, -0.39677491142628724], [0.5145177693713924, 0.8916068153823324, -0.047834228123056974, -0.0941274254778331, 1.2039633160560408, -1.2832117010889452, -0.44490334042204754, 1.8477249289889661, 0.12766243278315356, 1.0340753617272358, 0.6895533779911764, 0.3496334458107877, 0.560702761579505, 0.36555507069680315, 1.9381920104115908, 0.35738305432451756], [-0.7568147980853981, 2.009932515103944, -0.0816841466514532, 0.7483223984026408, -0.6192173906271762, -0.30244315699047347, -0.19780375422037924, -1.3115194575895845, -1.066078282668126, 0.10347692906866515, 0.5871481660991681, 1.1032843884216272, -0.11764060962518316, -1.9038729608121567, 0.6133694080589975, 0.5687387060406742], [-1.2554461994411124, 0.39650588195678776, -0.9688752852396206, -1.2415447960674968, 1.9357372747927406, 1.3018062982710386, 0.855203223092272, 1.436147174570606, 1.740088942788532, 0.6085749807531167, -1.3831062534515874, 0.9180678487077415, -1.0723935751171174, -1.8273448690131815, 1.3510395817876744, -1.7051651900180147]], [[0.4902119944225735, 1.6343329573078818, 1.7769936502761443, -0.417637765255335, -0.3395829402200523, 1.1193445732658538, -0.0882705411976484, 1.7622947543091538, -0.7195296436344019], [-0.41752594619553973, 0.3418105640431638, -2.016198000461237, -0.8766133271164096, 1.173857075557438, -1.3600797259121342, 1.0594232658418659, -0.017600162128386977, -0.1717093058567249], [-1.6399209125015808, -0.7162708151010796, 2.027926516891906, -1.0570383994570882, -0.7318040533674715, 1.7809314676617343, -0.5295174147524895, 1.0060058879467262, 0.06018703060820216], [-0.23490462230883535, 0.99193604886504, -0.581129896744139, 1.9101322301925376, 2.0436680499920246, -0.6196875323787331, -1.483418337278533, 1.0980121251970365, -0.33052763099853133], [-2.0640687803071813, -0.5752667458807474, -1.4100798137481156, 1.960152029575667, 0.0608630343169099, 1.0128783649735007, -1.568189518386364, -0.5255252386975894, 0.32001557269184894], [0.9163290531439108, 0.46471967682855536, 0.024451830293286295, 1.2018497241524193, 0.512650022128885, 0.8169476751480377, 1.8946802914961258, -0.5351467899813649, -1.4572241634972987], [-1.5667423886607075, 0.8744734296430257, -0.282275696713214, 0.48215492768609713, -2.0187751501070443, -2.0388890223535805, -1.4277782863642308, 1.1421926968715328, -1.66080163890785], [1.5632339284369678, -1.7784196711241052, -0.44062432062812107, 1.3349204669423447, 1.5783810641447922, 1.1398851145989897, 0.8932905230371073, -2.085069422239801, 1.5178353587879068], [0.8928091346386913, -0.6302642138581358, 0.48005947584103337, 1.904276923135947, -2.187817583058795, -0.9488615956585006, -0.09462815050627119, 1.0729670795220985, 0.6254011731979032], [-0.9270576658182464, 1.3622683803851832, -1.5973835086700463, -1.9048182242566252, -0.1441937237842032, 0.4470937885970888, 2.0493307855975713, 2.1086376047333264, 1.1943259755241882], [2.281970012290249, 1.4135335875744697, 1.5605837323185665, -0.3072673479943829, 1.2026357438359077, 0.7549604881248286, 0.20850386451468647, -0.6965137938207745, 1.8806556447208265], [0.7244694916996444, 2.1086302323579784, -0.04993420102811648, -1.8125290628165731, -1.1901395478001355, -1.962807968570327, 1.467830902912286, 0.9121743666152263, -0.042104031379205785], [-0.5410712672636249, -1.6758524754135482, -0.2515298711861063, -1.0785938055618307, 1.2719008134516638, 0.6554729316528403, 0.9846728301217138, 0.8088628165896861, 1.8606779305312668], [-1.2547097386321056, 1.5820513860478187, 1.3955481746678144, 0.806646532925551, -0.1388703089888699, -0.15970518784020687, -1.4890825670254206, 0.8666939397123055, -0.6792966014509288], [0.4499326342204104, -2.377872421859087, 1.084904340411996, 0.5944076048644631, -1.5465733266001027, -1.4364329754745373, 0.8590352203523625, 1.460951900049909, -0.22962651757457708], [-0.8330134282947079, -0.7038500423034728, 0.34009722439563383, 2.0529545657087014, -1.159030057854359, -0.7150908559408148, 2.1967140282430653, 1.3606376402249105, -0.762585872607944]], [[], [], [], [], [], [], [], [], []]], "biases": [[0, 0, 0, 0, 0, 0, 0], [0.25821707534870564, -1.2840819023099506, 0.8292707446014096, -0.6117832547931101, 0.12161243633654237, -1.1172427411248027, -0.975215003736847, -1.6314026581783438, 1.4551007237302322, -0.6229328818787989, 0.823940505009825, 0.8259935969567722, 0.691121002760672, -1.8989844053625142, -1.6783519961707025, 0.05541516466363307], [-0.4045917892125732, -2.014088853004487, 0.9433940404561124, 0.5909941850911999, 1.2586115179065098, -1.5906271486012857, -0.2938520747314999, 1.0777303436535846, -0.5995039044314563, 0.7537075337611114, -0.031126522232675286, -0.3439316606177466, 0.29311248122975253, -1.5453734062496176, -0.4582527065591877, -1.4388316508343995], [2.213511926944017, -2.06617384633035, 1.3650418370733746, 1.731054866401366, -0.37395454400085515, 0.09111420240378654, -1.1726585350913965, 1.5534953293106029, -0.6158757992670103]], "score": 600}, {"index": 1, "weights": [[[-0.826582702625536, 1.0112566451628575, 0.905415388582178, 0.2666405052391135, 2.1338405052752067, -0.6952103003670047, -0.5613587543603514, -1.518960189309015, -0.22544952673639795, -1.1157861392943162, -1.7507115841579772, -0.10744489155763891, 0.9090219162807509, -1.1819832531739896, -0.5070842677980788, -1.2534311444735757], [-1.3775576128316716, -1.6970210903219993, -0.655044596688441, -0.3810858344146213, -1.0365346614713797, -1.644346872719251, -0.9286220438428548, -1.8023905551152262, -2.0261766151380485, -0.46397116257329496, 1.228590754010182, -0.9544926222439254, -0.8484105919417183, 1.0457842659766472, 0.8663155999287441, 1.8600538710589611], [0.7867454781091466, -1.2970344314854647, 0.9727344206873382, 1.5696220967480785, 1.7424046895706187, 1.832352250923666, 1.4506591540765665, 0.10617755255967087, -1.3997571489922307, 0.1238892038752041, 0.4802224534766105, -1.961391683679868, 0.8501143823537736, -1.311772182501052, -0.5616198943351911, -1.8128944820882413], [2.2414621468656977, 1.393963627576447, 1.5291855876047453, -0.1000798956504054, 1.8145405781744834, -1.1619945000050502, 0.30995581071701045, 1.7195364561074702, -1.0468316196747354, 1.6198680287226381, -1.497972792623767, -2.169439402965124, 1.4014708193273882, 1.4708463450706863, 0.7000057727390444, -0.12002527291219343], [2.044059358470954, 0.7402480644270437, 1.8765508983424786, -0.866650847613897, 1.55289100988002, 0.810400306514628, -1.0905894440106245, -2.057598625870406, 0.8961349058626045, -0.9174257892775409, 1.678399176182576, 0.02338517553486008, 1.6189164412426968, 0.5559357191300736, -1.3834168592089042, 0.7064794845255312], [-0.25296131882849765, -1.0515934175277393, 0.038435409633386805, 1.7185570255923568, 1.0921959299687436, 0.0431263215416841, -0.41761053828416284, 1.4101498879192458, -2.169013825417038, 0.7949921917674726, -0.9727804501786163, 0.6330528186042125, -0.9927631320355941, 1.9662466389085618, -0.4807157213148549, 0.16962263078569928], [1.0987613960942606, -1.6652766437769841, 0.6647827382854105, 0.9047334864364113, 0.06727507969886092, -1.382574854341538, -1.9585121477066696, -0.47672430485139333, -0.22569520458876735, -1.205965995612856, -0.8599889397641918, -1.0896373547722407, 0.6355095970965393, -0.03858776957539077, 1.1611043589726453, -0.04255897358545281]], [[1.0858384328292119, 0.3758003935358979, 2.1465620827883716, -0.43866697323843185, 1.32077597695432, 0.632592282730759, -0.9896896602565088, 0.8285050667012219, -0.5725649290041926, 0.8109279655421655, -0.36541160637114184, 1.8625724507417722, 0.19767662501437155, -1.7506710101093863, 0.16163230781370885, 1.7608866261925868], [-1.37249079151463, 0.6068472649825815, -1.124473784779518, -0.6189715008385441, -0.6425645647764129, 0.8377727399276541, 2.002716477341381, -0.9707719725157337, -0.9992538725376188, 0.9595221796299399, 1.0121394649981317, -0.2700484205087505, 0.7186419206816053, -0.17659181163495635, -1.3489077602393726, -0.7463633961836545], [0.6591701475421182, -1.5743383459124116, -0.14122552454748252, -1.3131171600266673, -0.6985025964261546, -0.6421058241706893, 1.321277236498194, 1.1825837535984516, 1.9792403322006256, 1.069057308990987, 1.0301237966996812, -0.9681152546039566, -1.2931405718960596, -0.21525452867433187, -0.77072613644343, -1.3080530864781987], [1.5194281246766501, -0.9009491781081979, -0.2508548487862474, 1.9801381444330652, 0.38477282721641504, -1.8185717113210762, -0.8434941883887461, 1.38664053912088, -1.557972070066664, 0.6188642724112002, -1.7885150414635813, 0.8014031664455797, -1.697121187894034, 1.4587246673775107, -0.2333159577399892, 1.0187555022463843], [0.48982983385121265, 0.01615556184990183, -1.9734821352960095, 0.178723180642203, -0.31731411313065155, -1.5981157298504534, -0.17366803243213064, -1.406795282689064, -1.117370568382173, 0.06694567212069005, -1.1201893753716736, -2.023960509933328, -2.0921205335378557, -0.33423935014950124, 1.2849686779072207, 1.7311438165305935], [-0.47617735725241767, -1.7381787006897247, 0.00599982645375645, 0.49428586906562344, -1.8068177092242659, -0.2718230576002306, -0.21386493564568093, 0.2910705220337756, 0.20270421507441463, -0.4629671224603273, -1.3384418954237889, 1.3947667302233508, -0.12389229261505909, 0.9349634236927458, 0.6104602471882039, -1.407874073995174], [-0.9324289346888404, 1.779554999731736, 0.8109639880827552, 0.10335191037518059, 0.13396797384102355, -1.0385418950417251, 1.2008476968969175, 0.47446635056372655, 1.8956755394614369, -1.2017949679930047, 1.1632549847001368, 0.35760994991459744, -0.8964536015690098, -2.3135636210776136, -1.3028053121703134, -1.328621421430909], [0.24882504166021502, 1.864420323848184, 0.4297632084546652, -1.5352886670812516, 1.0748410419030283, -2.0772237174828785, -0.188554317964121, -0.765860757286239, -0.22876663469221054, -0.7597254763754948, 0.13385524576266467, -0.9817992589660323, -1.9237172878530204, -1.9465322669013683, 0.026656090449845113, -1.8293585105804826], [-0.7683916318728219, -0.8054318547657086, 0.2990033211476218, 0.6617300819097187, -0.21464242108867806, 0.7957569789037762, 0.1436288754033948, 0.5421491182148961, 0.0718825837323952, -0.48474609680573555, 1.0131345087634867, 0.6500390721814289, 0.006242880757288523, -0.04162879300886154, -1.867738592203002, 1.7065023714331184], [-0.7437946884043826, -1.5221415185612939, -0.13324655431424767, 1.1165344987023627, -1.5177852750458938, -0.7224243452777689, -1.3005380940818396, -1.371074254812851, 0.7782428983010667, -0.013912489058469455, 1.5816338152330496, 1.4151092369959024, -0.0156362830877598, 0.3123208193567978, -0.41288933540529527, 0.7419706164768995], [-0.7070103048817356, -1.4255241264648528, 1.5046739395493043, -0.2856838589375296, -0.8771323430483459, 1.3360079024683786, 1.2682664025910693, -0.9031507784953643, 1.8470059423837075, 1.4340112126865479, -1.3255610214212075, -0.15847087735939905, -1.498017757757993, 1.7439648274116821, 0.6501454136263803, 1.2229441284102618], [-0.7335230089260822, 1.9902438638993896, -1.1814799498762067, -0.3392675542483664, -1.6592170138716145, 0.46731145933578694, -1.0378241167442759, -1.2313065882039276, 1.3833049264060273, -0.9426197955461094, 0.6512135116717399, -0.8609490654942096, -1.9400821633881697, 0.8350613366328536, 1.7119803104001308, 0.4596866438983711], [-0.3923699710546521, -1.129744864221175, -0.5109419410929307, 2.250687781709845, -0.014036590140099052, -0.2790952607782579, -0.9207752811839247, -0.8812405695821379, -1.684547106180152, 2.1643649395420606, 0.7817044429709537, 0.3696351123407394, 0.42977879263959334, 1.7468770879110207, 0.44932932156664224, -0.18768378558307539], [0.6204836755931609, 0.9974053054663202, 0.10594882254712032, 0.06034332364299555, 1.2064082253813206, -1.175278357616292, -0.4585940168279128, 1.790280689886119, 0.20851072754669742, 1.0436453023792234, 0.836643346267663, 0.2808354741865342, 0.7345751436211876, 0.006372789035641924, 1.7717986977177986, 0.3424750445202534], [-0.8713607518021665, 2.168737085079103, 0.05155022644645038, 0.8402100133246456, -0.6385491079736592, -0.10698094681888773, -0.2224813101167779, -1.3731343927567938, -1.0641419758760216, -0.010215816147765747, 0.33724403392763286, 1.1753427137340675, 0.05017878981151043, -1.794348478096482, 0.674688281282827, 0.4314310774533093], [-1.2021639616299002, 0.13267854356671865, -0.8933651410716067, -1.1655557884176724, 1.8311756269139965, 1.3209818000896476, 0.8044587115160025, 1.6210937392363574, 1.6871288791257806, 0.4802782651983549, -1.480869050266495, 0.9674794876703201, -1.0902966754735024, -1.9128473664148238, 1.401903340648588, -1.5374021277221326]], [[0.3611690560504262, 1.564086953707167, 1.6199529738646716, -0.3958172078748736, -0.38370140323458163, 1.1084000506620406, -0.010467053334761656, 1.8257407199726008, -0.759975059751533], [-0.37326337516383645, 0.07774505935131484, -1.9066336173761544, -1.0322676043052612, 1.0070721634630153, -1.2604685474358446, 1.109095310010016, -0.09288442125828746, -0.0877797645361598], [-1.4468940252062765, -1.061353882554672, 1.9701604854161108, -0.9488301418121485, -0.6736919845385531, 1.8616958844143532, -0.7192034522445423, 0.9922758680569363, 0.2719102031344289], [-0.390012763043986, 0.9360681941804855, -0.8143873554643525, 1.8734924998867584, 1.950187023455877, -0.5089662705726604, -1.2987354375225444, 1.1633665095260748, -0.43021208371312736], [-1.8650407217419473, -0.5682379920855033, -1.243956643163116, 2.0116941654393843, 0.04095827978885101, 1.0059667243897061, -1.584311330280331, -0.46525409126812733, 0.2511145958053832], [0.9578951803154339, 0.16053589726926482, 0.003667085127930396, 1.2593144439601978, 0.5107008863325496, 0.7746073002377943, 2.032173342933343, -0.530486268748491, -1.4305164256769827], [-1.4653860033139414, 1.120572959811376, -0.3718488279720108, 0.39966269095783324, -2.061481401586805, -2.1692008572230326, -1.2906596444853795, 1.057649107168796, -1.9506142134847793], [1.5443041352576432, -1.684855464496776, -0.3438022522207948, 1.561744682132292, 1.6174269198778413, 1.32078448016975, 0.8226623215049698, -1.8858294196626777, 1.658433509945056], [0.7579455862115347, -0.7475862784210505, 0.5181600685237995, 1.795585828161082, -2.0941785969853606, -1.0804872420170673, -0.08585869738064476, 1.1120303583313396, 0.4632799311956881], [-1.0533075105027434, 1.5102503223440387, -1.4113126436497483, -1.7635568745336172, 0.09078158264375956, 0.5507914584864317, 2.055234145248815, 1.87224045483503, 1.2201832368835313], [2.23429385733914, 1.4976971262106007, 1.377406189180405, -0.35408926723011636, 1.3544297636554263, 0.8860828856443488, 0.26617995540698347, -0.8922996940043544, 1.9222591466715326], [0.9087846799007581, 2.106357713250799, -0.019451732499682177, -1.7402978238541422, -1.2410180554387291, -1.9514358551844084, 1.438928822539394, 1.0131383329115105, -0.10725895502857319], [-0.6161629576973815, -1.4845004025175301, -0.17276477531538326, -0.9572780325839754, 1.0899699073859872, 0.519526484247673, 1.1052816473158287, 0.8069580243926858, 1.8512377371757787], [-1.0580788792206213, 1.544332945684731, 1.4957239723268787, 0.7548648384915205, 0.04051169425757279, -0.09349482782621153, -1.4904412342112972, 0.6157231708625088, -0.7089352461556404], [0.3713852659257615, -2.1707284485669223, 1.0069772866540876, 0.3879599561613462, -1.2676087748936713, -1.3320027804255663, 0.9037501510200432, 1.9321324173913081, -0.2219118481731145], [-0.7889963416201394, -0.9447836348556491, 0.21948750414649612, 1.9778892609433238, -1.0447429641349717, -0.454117345123622, 2.1537869210858838, 0.8738311789459914, -0.6210644332930331]], [[], [], [], [], [], [], [], [], []]], "biases": [[0, 0, 0, 0, 0, 0, 0], [0.3478421983615016, -1.248783135262141, 0.7671352513798644, -0.5825360451531506, 0.33143806693715716, -1.0424227886157698, -0.9283789517986611, -1.711123031440522, 1.274223211962771, -0.5219504050521534, 0.882524534596148, 0.6885241339428618, 0.8397107593345264, -2.06978344148482, -1.8269312527693091, 0.06197953581543404], [-0.5860047827789997, -1.8063465076333252, 0.835957189131125, 0.449906386718391, 1.2298228431281477, -1.483940310431412, -0.19403097838010713, 0.9105623442535471, -0.8346535817605987, 0.6190277680202381, 0.17245013893481825, -0.1430153421217885, 0.16123971124765765, -1.4933954014609894, -0.3339301585604607, -1.78093122077216], [1.8952701592797379, -2.0169415650626688, 0.9719413551709223, 1.815332671653791, -0.2535268850093767, -0.15620697619885784, -1.042018846858141, 1.805435749850763, -0.5977133635739097]], "score": 300}, {"index": 2, "weights": [[[-0.9216224747021874, 1.028979012613797, 0.86136359783749, 0.39709709607133375, 2.347758874783828, -0.7115039652580138, -0.31985740001199375, -1.5526714736648026, -0.3419476619725144, -1.2344945230757842, -1.5314327622573376, -0.12937731469290456, 0.753236387932512, -0.9732776192318479, -0.6091965432206838, -1.1273757936289204], [-1.6185090540712048, -1.7108932439144935, -0.6264669751372752, 0.0074463265012637, -1.140677595955852, -1.5532828011354691, -0.8044165502474007, -1.758049589126695, -1.8974952311897786, -0.44553253356765327, 1.4103038559557766, -0.9091546650714507, -0.7864781491444527, 1.0816305791639147, 0.9052515345447226, 1.8087733322372606], [0.9350157992791065, -1.3321177392403716, 1.0048893384431765, 1.558278987873289, 1.9588234713751753, 1.8672778113865838, 1.6352053247032048, 0.04116263914279199, -1.2389934874320279, 0.12441887630560217, 0.2648415345698435, -1.6208900836020963, 0.9497005100350667, -1.3200125828860763, -0.6702019214258319, -1.8010258312683456], [2.2050382409173013, 1.363048469355218, 1.5486878211217867, -0.40412105468108694, 1.6382305286640109, -1.0748423856963352, 0.3346985115072112, 1.42019305110441, -1.0075751278790068, 1.524540646784153, -1.7062465310444555, -1.9826094887620613, 1.432316908776099, 1.3779236522563725, 0.7112102189436809, -0.1129852908236045], [2.0338403857913256, 0.8545992347168925, 1.9541598837762237, -0.9280867463217295, 1.2775180767212226, 1.0754897048838896, -1.1798667702641361, -2.0778216567265493, 0.8681286284613334, -1.0224984981991323, 1.717631867989476, 0.35659135562147365, 1.7634119481215773, 0.5500924413240474, -1.598961302562212, 1.054309389429242], [-0.08823373025695118, -0.8635866412606279, 0.04583302535696078, 2.1249544295858622, 1.0432183234533143, 0.09650626784802693, -0.443113284657063, 1.3674794378581079, -2.196089142583082, 0.6961636493860491, -0.8066571664652864, 0.8978369613450345, -1.2703618978376516, 1.9995138181986896, -0.4981324702325052, -0.09536938118806924], [1.3128195724072875, -1.7810856340479277, 0.7012361608049621, 0.80053485376432, -0.15284382566263266, -1.4374617892460746, -1.8527660296852673, -0.35035195056890767, -0.2247456156055537, -1.0641157721973054, -1.1122061194261355, -0.9633014065402894, 0.7222070300530021, -0.093623635768011, 1.1463418224483681, -0.023342916382059806]], [[1.1429280080728552, 0.2419242348831462, 2.2748724410271524, -0.510390676670318, 1.245888715948315, 0.6991794573886768, -1.0478903756329234, 0.9934857678580261, -0.5263620015644934, 0.7464463580718955, -0.2007140864428208, 1.781377238049258, 0.0898888444379704, -1.8450567400109252, 0.09500106415911441, 1.7661183957229714], [-1.3834669990451476, 0.6345868953474116, -1.3035697263639467, -0.7908066344332642, -0.5876347250959553, 0.9720290134859063, 2.154374433485997, -0.907194411356088, -0.9268183962942209, 1.0040503165633872, 0.7282562992889382, -0.2847496072859907, 0.6384528780212313, -0.11783578858475151, -1.5402469721674719, -0.6946874236424657], [0.6307038180842917, -1.5013803652325617, -0.04689278522443978, -1.4016018585550083, -0.6517790609933313, -0.5373744559786935, 1.3798916239575618, 1.0520574457332363, 1.970861593634446, 1.070127574378898, 1.0863947820770734, -0.7830791627557583, -1.283840563683186, -0.16566377961155643, -0.6873841614333663, -1.533444724488854], [1.585067857502115, -0.8469200163144092, -0.4719576905899999, 2.180642646355932, 0.3726923168484609, -1.6294813155909018, -0.9575302215293378, 1.554293021700694, -1.6109959202118347, 0.6253275743970026, -2.076785094756732, 0.8197202290089255, -1.7532161829648896, 1.5803052499340629, -0.07189005881831065, 1.1201560218347595], [0.4933810641199, 0.22326070935696507, -2.13731330410626, 0.008119176435775477, -0.2928724848789473, -1.6634943796817445, 0.0630125343969733, -1.5892117035211573, -0.9476671392188589, 0.09858853339718741, -1.1841967906697282, -1.9842044347095618, -2.0820589333657535, -0.4492809928064781, 1.3018789159232529, 1.6679801573774955], [-0.5412252997565753, -1.916563887562227, -0.18648500334502763, 0.3910069184686757, -1.965985264895306, -0.46109314620623953, -0.29732270966220287, 0.41794838372265886, 0.2695347240520953, -0.4848514387662239, -1.1171144633592986, 1.2941393059336037, -0.2213493370823102, 1.03156141546825, 0.4956932463514128, -1.293074921699718], [-0.8487265093996189, 1.9095433778935424, 0.7634693681886803, 0.1903143236120987, 0.10763390691571867, -1.1664508011963586, 1.1086972818089962, 0.692898736298043, 1.862444268991378, -1.300091568820151, 1.2140287995173145, 0.2676437714703463, -0.9454940178014235, -2.1170293955395274, -1.3534890357399687, -1.3639062474045116], [0.28988030026399225, 2.0886653842396306, 0.28822338726267654, -1.4800202792563681, 1.4031348428169055, -2.0973596009017608, -0.2648194001758972, -0.6055460101220155, -0.5321465252016613, -0.5836659650112341, -0.058943714747840235, -1.131226847465875, -1.9530107052820782, -2.037122266984992, 0.012959716787877579, -1.6495528325873137], [-0.8700897478026082, -1.0455984312232676, 0.27232652190955225, 0.9640349577021128, -0.3605256095095181, 0.8444257666951551, 0.10504551486980153, 0.5838602868469922, 0.15888977093806933, -0.44070430097417207, 0.8718555360384651, 0.5313580715898979, 0.06843783692614865, -0.11166161637448951, -1.5007802070015823, 1.5530288867894269], [-0.7467864500723598, -1.2052459016179868, -0.219348762095296, 1.306649948867369, -1.4938618594315227, -0.7554454678830772, -1.236172635788989, -1.343956324185568, 0.7476380746612536, -0.2259637128337208, 1.819314096303634, 1.4656340242720616, -0.006312838733697507, 0.4954990449466834, -0.36745379936909706, 0.8185030000434289], [-0.7485172896940595, -1.3364226776584645, 1.462887806623474, -0.21949998882707872, -0.9998509974035644, 1.667572353753933, 1.2390808060347522, -1.016693597070004, 1.7222322749658614, 1.424384866725003, -1.3607259968548382, -0.17535478289466563, -1.3188429046831938, 1.7983093582107963, 0.35282314219079103, 1.4131590721936012], [-0.7265711079069419, 1.6390841717920959, -1.3266438917442818, -0.3704960902605043, -1.676036310122816, 0.45613924760318425, -1.2337566647838782, -0.9686380143948733, 1.3235558399108487, -0.8432557214086683, 0.6870234704320823, -0.8088714609057537, -1.6898958847388637, 0.8611002586660398, 1.509375038817434, 0.7170162062217296], [-0.23039515792348303, -1.1835385601888495, -0.4741286203859676, 1.9422724526213828, 0.0832230806252393, -0.28631224343839484, -0.8729873063221878, -0.8815801346868324, -1.989072146428445, 1.9756715423968212, 1.015697072128858, 0.6371953255455837, 0.28567255108143214, 1.6211378223585584, 0.46668988468718636, -0.20483387835627878], [0.7273102266533243, 0.924715977174681, -0.09642599946244347, 0.06660157168499159, 1.0684902206408091, -1.127348741176066, -0.47106824111074386, 1.7135425968894518, 0.12412970136190679, 0.9626861702472082, 0.7982341331690502, 0.2934964295627918, 0.5669175960519638, 0.14615958846564525, 1.8946595657861496, 0.2780081165180865], [-0.812608186934989, 2.2393725371873803, -0.1488698347072967, 0.7853059981066255, -0.8080648343997361, -0.24639409021164588, -0.1855645147233271, -1.3116798122123563, -1.0787572238524519, 0.07071872939429176, 0.5068679009885958, 1.3739386383489827, -0.07259638191315282, -1.8266621612231904, 0.5725524269099331, 0.6071694048948602], [-1.2912815045696604, 0.42611191542210086, -0.8949918131121626, -0.9744668758762287, 1.8025929692013092, 1.2845523793368276, 0.8617743943238912, 1.6148889106653979, 1.966060787275787, 0.6002440777055695, -1.420755069305478, 0.9842733589951954, -1.0389602756501097, -1.8663965137570107, 1.2019704389476245, -1.5129601821187562]], [[0.34830880129117336, 1.3989182111389875, 1.7428466549392794, -0.2799475304144245, -0.5249315586266646, 1.1908131647258455, -0.17932814049651452, 1.9183455456499636, -0.7942403731407246], [-0.3274193375676791, -0.11736331296708621, -1.9368776901882199, -0.8656790424104063, 1.0753381318704158, -1.1387853894053597, 1.3565290467873332, -0.0015254044845315444, -0.18827541670195613], [-1.482679763210513, -0.8850045105845785, 2.134864478352432, -0.9381313206320193, -0.7200269716992176, 1.5209485908927836, -0.6305062596922469, 0.980879214898845, 0.38882389763575814], [-0.23076816156864813, 0.9993588981252973, -0.918873748637975, 1.9064650681487636, 2.0609803261113306, -0.5991924724776319, -1.4596009555090568, 1.0737777363644405, -0.2499766971324253], [-1.8684029277234733, -0.28742193659509413, -1.3980922340675206, 1.8165571747577987, -0.017157367565901846, 0.9801529303969281, -1.5146550628863795, -0.2984895392559014, 0.44879336302467276], [0.8046691509094759, 0.27661068906144615, -0.011633657523638203, 1.3172868892626188, 0.511621327315902, 0.7256093754168355, 1.9271881275067477, -0.5012141910420709, -1.1971440238509647], [-1.269124359761673, 0.9971449323343744, -0.22174857440620044, 0.32400991090259823, -2.077340397574634, -2.132979442507699, -1.5348956815143782, 1.0452834442868537, -1.8684069141402306], [1.5966543271462588, -1.9249460514068533, -0.21654486025530847, 1.4865320567219633, 1.6176424238886615, 1.1248007180275492, 0.9220593196020321, -1.971163132991144, 1.5071035870956384], [0.8470206088063708, -0.6918089329848861, 0.5449651696550055, 1.9146336652942508, -1.9806224377437138, -0.8802048417249182, -0.02611619334854625, 0.8420083501044832, 0.6018505153187597], [-0.932176408213449, 1.4260674364515287, -1.4908253252662778, -1.9119322133488474, -0.24709846083346226, 0.3684467092506136, 2.051748891899799, 1.9647794315644518, 1.1892006546099942], [2.0644005844193956, 1.2518065025961502, 1.5503407722411255, -0.21624703735094508, 1.2064510971466051, 0.9881503980232792, 0.36232524013193995, -0.7299246172344417, 1.7714623585472415], [0.8872252135986624, 2.1092081346323996, -0.06349255708899099, -1.681047868095275, -1.2832983675386573, -1.7958404551029876, 1.5584103293438782, 0.6536688742742529, 0.03463100336594058], [-0.5342140042418395, -1.4766629608111193, -0.15460144520146082, -1.0505891552474094, 1.232651039063558, 0.5922818596213496, 0.9459331753646445, 0.936088171769722, 1.7931559953366472], [-1.1147012601002435, 1.6275795669841204, 1.4705004460795572, 0.9037758223704306, -0.042624350343147765, -0.10818171745770479, -1.4145927393164794, 0.6112027163387387, -0.7726911931244262], [0.41916780947329035, -2.3326532061519445, 0.9703788079031521, 0.8159080088253865, -1.3015998103226083, -1.3741466714350994, 0.89894964961076, 1.9369661795313167, -0.2897266783471416], [-0.6762350181504946, -0.7058232737630737, 0.19168907178666547, 1.800990103999179, -1.0746944203197162, -0.4993028293006696, 2.2373779827586673, 1.2231717936775601, -0.6732294747606712]], [[], [], [], [], [], [], [], [], []]], "biases": [[0, 0, 0, 0, 0, 0, 0], [0.4597948843602935, -1.3206460823427109, 0.805833784122568, -0.6789736406286817, 0.2190287617145484, -0.9230373757027894, -0.9528925913718821, -1.624524081403655, 1.455283181850984, -0.4714782871342506, 0.8359470673300534, 0.8626454944263968, 0.6838578648919961, -2.028392192965317, -1.6442650911340346, -0.001978406528500752], [-0.48036956034871653, -1.8579350274407607, 0.6053511376219015, 0.677218286652209, 1.1917347062219545, -1.4341460038344722, -0.3919029473925511, 1.1683418976153441, -0.8161791722818396, 0.639918307230708, -0.04387207550963457, -0.2980035741977027, 0.22230584917280177, -1.5400019727458714, -0.522099404365109, -1.5198528929635164], [1.9492606552987042, -1.7080989257779284, 1.1138301746906742, 1.9129806858929368, -0.5221646277520899, 0.24682336825824253, -1.3401626120799817, 1.3498991759871286, -0.5534673377558521]], "score": 300}, {"index": 3, "weights": [[[-0.8237118744820379, 1.144766894216941, 0.9016641016702198, 0.5186276313587633, 2.287670802037711, -0.6460325218475994, -0.38589986597309667, -1.5167125053831418, -0.2106175042708588, -0.9549529995215138, -1.803560109444648, 0.06615964942453667, 0.9697596983893813, -0.8493737107035206, -0.5250613912633808, -0.9259848460172027], [-1.5107090670288426, -1.5040685301629428, -0.6315004314889651, -0.3150707089319737, -1.0238285179955873, -1.535139499802383, -1.0663269144038479, -1.8042479932246103, -1.7906547234780037, -0.3310369701316031, 1.29099597419326, -0.9699717872535852, -0.9960451154641883, 1.134702239216982, 0.7611355530730439, 1.7944713515033937], [0.8942977545777702, -1.2626322123947467, 0.9848290602029371, 1.6090236451821693, 1.8070007204458423, 1.9147458100212413, 1.419755488486667, 0.15231682816494704, -1.1172715213606355, 0.21532163178681743, 0.473603782651609, -1.685405469190024, 0.7176108356993081, -1.32312427239423, -0.5483821208841803, -1.9690841190680128], [2.17005504091276, 1.2135276265647794, 1.4284378175345107, -0.09619485797723051, 1.762444353578771, -1.062012697553991, 0.3825856697824735, 1.5216266331105037, -1.103861904278605, 1.545650253321146, -1.7273190388345276, -2.1886107047356, 1.4086789867399359, 1.4177263081625389, 0.5181193589068105, 0.07273211120896783], [2.1769249634381675, 0.7808586309784286, 1.9406845861564532, -1.1385469106823067, 1.2211702594255274, 0.8517942790938922, -1.238334564696609, -2.00178684705986, 0.8913565863085324, -0.8103336667430667, 1.6772797182093269, 0.4364957302247613, 1.8244299244763564, 0.5677603934301048, -1.583697745453095, 0.6433235229939123], [-0.21102007604331868, -0.852631597688161, -0.12182294546164757, 2.009320714166991, 1.1762721342849494, 0.09994813195309062, -0.4535270562478453, 1.2622256564710181, -2.465404917174304, 0.9027013207721102, -0.9643724897535177, 0.6757872476652634, -0.8876101184229965, 2.151548783742254, -0.5949795523903763, 0.06972052396074338], [1.2743446932459779, -1.8107622027142776, 0.6707050923768919, 0.6641835942025911, -0.24095671254218076, -1.5138379228428855, -1.97979460726342, -0.49237587026560514, -0.1975935823731272, -1.176961549436502, -1.0196438456710135, -1.0728593891134155, 0.8198759901656528, 0.17529128422306045, 0.9122741057576912, 0.13532348162806776]], [[0.82180771404433, 0.09248772934764818, 2.137253347711055, -0.6571700245013843, 1.2042599072964355, 0.6735225239154119, -0.988115964680474, 0.9457840629459391, -0.4065052013647318, 0.7515273087882275, -0.28261777408027683, 1.8590137008718766, 0.18460187195006564, -1.710767205605432, -0.05659530677855899, 1.633796761982745], [-1.3597589126961207, 0.5823997947525853, -1.1660945451651432, -0.7410086846208012, -0.6784611568041304, 0.8483725395035233, 1.9814787560682787, -0.7467667319974262, -1.1183894184882712, 1.195205911292204, 0.9660094457133377, -0.276900722147475, 0.595208597519444, -0.1168290566743256, -1.4665064461375608, -0.7969843818461156], [0.5000429842179652, -1.4800525013150958, 0.05892391798206237, -1.1404436347495677, -0.749084144970707, -0.5401448438020191, 1.448720510283917, 1.0098190408727676, 2.0823181554190766, 0.9321765990869099, 0.9864302207155656, -0.9843268246270299, -1.4027675190967506, -0.09789478211692416, -0.8805469631453354, -1.4155856615213016], [1.637094920286105, -0.7750095742699585, -0.17851724077322811, 1.8493733063905435, 0.30819343787583436, -1.569400825796503, -0.7351670875755787, 1.3241685833534822, -1.722425162499216, 0.609657108843529, -2.0496778485029097, 0.8313870590302159, -1.6359076309713916, 1.573574506816715, -0.05223044491287228, 1.0166776003441667], [0.7206534232776249, 0.19297406980077508, -1.9294664980611484, 0.23911609757306698, -0.37652172809490114, -1.8512137160177473, -0.05562391554393186, -1.478466162607777, -0.9922775079284522, 0.10796009534598011, -1.1506713999369667, -1.9799391227599148, -2.0876766102590576, -0.49576596838804465, 1.2344057838793745, 1.8079519845466328], [-0.44139644152467217, -1.5603606367257283, 0.08465958291942577, 0.5389770727374168, -2.087028188193135, -0.3893979670933019, -0.0966902859942553, 0.26349296310199494, 0.37084284962774505, -0.6234677494785821, -1.1648359423099437, 1.3721408179256216, -0.11966523917280965, 1.0781470331209526, 0.250685128546533, -1.305476978037207], [-0.8924583177688598, 1.728844217355311, 0.7564807656979111, 0.2599612840989794, -0.020333787850942003, -1.2479404215612657, 1.5083102734608242, 0.6519654125313621, 1.7184295430630012, -1.3322346903681919, 1.0522317292692003, 0.11679709059000205, -0.9522004103195679, -2.1661306548131227, -1.2004411559156523, -1.2714705003181626], [0.08220418028865115, 1.9615940783347006, 0.41319963046858327, -1.462813058525989, 1.3046628154344784, -2.095784259311995, -0.37801043635208587, -0.7240294680216727, -0.18790993045940718, -0.6863215743500817, 0.011876395088396795, -1.346735102410536, -1.7769260840230479, -2.0599753939033727, 0.14705644993238695, -1.8006702113312012], [-0.8053253515526457, -1.0343303584532273, 0.44779004385196297, 0.8537499197925204, -0.10469531604690643, 0.6329503129860737, 0.20089472764079067, 0.7407164312266755, 0.1827199800400641, -0.46544823195950225, 0.9385946861133885, 0.5690110345827044, -0.030400959281623004, 0.07226814571582463, -1.651488393259988, 1.7433148763053765], [-0.8286615210392938, -1.3724050882516092, -0.2594517206264245, 1.2765042172705008, -1.3072194319426784, -0.816614315022716, -1.3190088588010185, -1.2714979606399337, 0.5182151317791356, 0.055623945333066326, 1.7448058879638049, 1.456759277786927, -0.12648795418292488, 0.29244616074218965, -0.5077215931974488, 0.8759468408308807], [-0.8138169004883486, -1.2840388466401753, 1.6262188077606632, -0.4180441299528346, -1.0705848291806521, 1.4186429785677883, 1.0880677017254148, -0.7804310731774148, 1.6150237142309685, 1.4492753901553266, -1.2598500708172842, -0.26694816518774894, -1.3867157669498211, 1.769664407036409, 0.6686314680018444, 1.2359985084296725], [-0.822015190319758, 1.8285765629294066, -1.1906653059732404, -0.2174065541550801, -1.7262978907210922, 0.4002967352416463, -1.190843364066158, -1.0044061814402334, 1.3521905018677831, -0.8722038750185723, 0.5225201489114616, -1.0067523266286178, -1.9574973480035387, 0.9196689107312563, 1.6338345686762517, 0.604997933390595], [-0.1558997452310759, -1.1721741178280698, -0.47271402303298554, 2.1811821184034836, -0.05142134633278681, -0.3137101591294477, -0.7908717291815415, -1.0536991544195686, -1.6938758516853432, 2.0582666852683884, 0.8652065651315026, 0.4015305739292906, 0.5348903409157642, 1.7643541620497813, 0.593382598089956, -0.32287025083446236], [0.6909723247415556, 0.99865333130411, 0.138638285643289, -0.19620794347844836, 1.2084099480383796, -1.2767174468718803, -0.5130634150411629, 1.6708827859355042, 0.10231466902430011, 1.1474338444436134, 0.8938151928635395, 0.3213312289711416, 0.7174147131849852, 0.10377475929757286, 1.8815290266451368, 0.409766181693466], [-0.8584685285321936, 2.244523303571503, -0.058445407866941926, 0.8814929892782526, -0.6960668533842835, -0.28957005636560257, -0.3145814800086676, -1.5037293045841875, -0.8788277903191298, 0.0630015466951322, 0.4847991698062595, 1.2540096170774577, -0.09064159687160292, -1.9758756007853224, 0.5395145968637304, 0.43325114867731757], [-1.3688510662250133, 0.39394072177709816, -0.841431561499818, -1.1476254588594363, 1.8696583624378091, 1.4560526905815117, 0.813078350167403, 1.4949542193679113, 1.9651816958536783, 0.48619387289516497, -1.3901957144966162, 0.890943592769646, -1.1159066185939932, -1.5590945389132205, 1.1433613336201167, -1.4604027694598194]], [[0.4419175438663635, 1.5679535228043995, 1.9674386124978673, -0.1892775835111823, -0.30187537059067804, 1.1704865777326092, 0.03629390207519262, 1.8959593666134464, -0.8957779282627867], [-0.2699013558093525, 0.2804447684412045, -1.926459594652432, -0.9560295803608039, 1.0454683127002815, -1.2745508041758808, 1.3896337531234493, 0.043097483338669015, -0.257343505983011], [-1.5704515169975959, -0.8938483022133789, 2.103749657527297, -0.8395708259082038, -0.7090337403908741, 1.6430445568506906, -0.6967062807817941, 0.9431780685544359, 0.07593688777960472], [-0.4367801596906188, 1.0009221284627117, -0.7969488818909564, 1.9346195753007456, 1.952101857427975, -0.47138206652181736, -1.1732523062411755, 0.7913672410092686, -0.32386437152253], [-1.9842524773931185, -0.6109304447169607, -1.2416974601463495, 1.7940368330726315, 0.3164125971383449, 0.8780643843068909, -1.4985532743510948, -0.2972888233892341, 0.3232994813110548], [1.0427862674697894, 0.40931461464270225, 0.022636333843415377, 1.1770150275750422, 0.6167109483696224, 0.5285257492670616, 1.9170389999234296, -0.5869882440643179, -1.278631003179755], [-1.425617101857707, 0.9954401526051125, -0.41001329975759104, 0.297212569517985, -2.23114246619813, -2.0489291267140635, -1.5792176328380982, 1.2348293486085362, -2.0565486156075217], [1.4674626443244754, -1.8563756376207559, -0.26390349527836016, 1.2627740548707291, 1.656173880832383, 1.1744387666446825, 0.9651759600687558, -1.7741316686285216, 1.5471609837752438], [0.746982992786554, -0.6016197926527672, 0.4549403800519868, 1.9408555523863373, -2.3457701968279623, -1.0092848510708607, -0.23253729251013788, 0.9549284018323854, 0.7126817556398731], [-1.1254555858792787, 1.5159339280319766, -1.7361013397327447, -1.9141504223091423, -0.1885682632787853, 0.6201510357037502, 1.8891074659174165, 1.978282640173752, 1.205532421245588], [2.3043210802657823, 1.180332198162696, 1.5534284141979269, -0.19879598350196045, 1.2402248824122675, 0.8013815811310566, 0.18606197308107253, -0.7419245398635862, 1.9691489287478268], [0.6246969734215877, 2.1558857075153544, 0.07858476300256068, -1.71039795120493, -1.3528466782978354, -1.8964594386355853, 1.4480302004722336, 0.8402504386634639, -0.051917374958127455], [-0.4525253432044862, -1.5121789075611372, -0.2035202418534314, -1.0916601213388386, 1.0917522999675755, 0.5334001028091421, 1.1240164789730547, 0.8250332594364506, 1.7477154823451266], [-1.0802836369092055, 1.6904470487679868, 1.4354446737058915, 0.8641474365525598, -0.017292760824015263, -0.14801385598451822, -1.579655206424978, 0.6808156741715784, -0.7566991873446302], [0.3966520592521885, -2.3098933999601936, 1.0246600793067762, 0.6336304682983162, -1.446074914722195, -1.3108801419327, 0.9088640335150858, 1.868153453753457, -0.2684023292001217], [-0.8652866585099184, -0.9472525683675297, 0.07816794170596317, 1.7884353230562537, -1.0920958546894934, -0.5992625347830852, 2.2112111332940976, 1.042119915778805, -0.6302813373207163]], [[], [], [], [], [], [], [], [], []]], "biases": [[0, 0, 0, 0, 0, 0, 0], [0.38576931947828386, -1.4219218858844143, 0.6092243009396595, -0.7170666078839648, 0.2054048787411227, -1.102033342690221, -0.9063327326794269, -1.6664766473080899, 1.3540277519826023, -0.6318739245118166, 0.6740359726800447, 0.5359244038515094, 0.9623658573601546, -1.873039044221486, -1.6662486689229943, 0.013163683303341625], [-0.45314437438138405, -1.8036479139864001, 0.6240957171051807, 0.4943208621589526, 0.9944228644826828, -1.6455246440097824, -0.4998880110667958, 1.10690142712423, -0.9110582448002223, 0.6416158715898642, 0.22082870467048857, -0.17091745447042372, 0.20921180470822898, -1.3808304482138083, -0.3959866234467105, -1.5345020339129634], [2.130630132540131, -1.9129842760173414, 1.2612281702237629, 1.853470786624989, -0.4441591294628557, 0.21942723853212193, -1.2167868561638058, 1.577235987520117, -0.5446769034641632]], "score": 928}, {"index": 4, "weights": [[[-0.9359314612620899, 0.9743228913627842, 0.9927714824478167, 0.3381717558607209, 2.000303267754777, -0.6739109936430987, -0.39076156717343047, -1.3655520640879573, -0.3289110568101644, -0.9830960738003693, -1.6028639538218665, -0.25856987738091747, 1.0258954843669572, -0.8170569877300695, -0.4018253924723544, -1.0259154646509376], [-1.5002065757508682, -1.5809549531462448, -0.4464597245538646, -0.36749520166467076, -1.1302004096135787, -1.3996451893581368, -1.013735146291764, -1.735584535400645, -1.8272656005255545, -0.33336646725956703, 1.3567086052600126, -0.9116288377416583, -0.7591582766873829, 1.1837932009061818, 0.6940227445485929, 1.9698834399808056], [0.8232843779881323, -1.304271360492672, 0.8242312143288599, 1.5542723630494213, 2.0445254139221145, 2.02508274672094, 1.4235991134181316, 0.11665042141770629, -1.2944806593783458, 0.07595174440889008, 0.4620979780781309, -1.8504992766943098, 0.7844668835099327, -1.2531038397326406, -0.6182233768662835, -1.826616433320823], [2.1696439858722187, 1.427771680889312, 1.3679392468914449, -0.254939146747223, 1.9483841114938862, -1.272984508133769, 0.33795489809443496, 1.665784635014962, -0.9779585537841501, 1.578938730294681, -1.532729816350739, -2.090291776162557, 1.2392653233544115, 1.4661793009369033, 0.7099159755502636, -0.3277858386823953], [2.13710101428645, 0.8321745854643741, 1.8773692365409715, -0.8880530295964676, 1.3119672462007888, 1.0174246178012405, -1.120612565988222, -2.069876689683039, 0.8068080644443387, -0.8769852024289257, 1.524056466539772, 0.4667817290265226, 1.5521769315264702, 0.4420138487066657, -1.3128564109616083, 1.0631413454711596], [-0.1465503040340777, -0.786918844986264, -0.07603668415612677, 1.7954386335463985, 1.0076870411634267, 0.14872256253849586, -0.3714111507910222, 1.3351059524363742, -2.2263117378826234, 0.633137340800198, -0.9518172876598453, 0.8465804252147694, -1.0618554551827901, 2.1869802812755834, -0.5934788736099736, 0.030702853485063845], [1.2108799776775916, -1.6825705710756864, 0.7892058151150689, 0.8908758788813741, -0.048438253273703366, -1.4890986290723616, -2.0295514453771335, -0.2555389064204957, -0.274281053542203, -1.4015737296778812, -1.054668923044471, -0.8799211871518307, 0.6968203113033465, 0.030919457620746733, 1.0541847073476178, -0.07843346087855155]], [[1.1187169271952884, 3.447042537335632e-05, 2.1234813512833997, -0.552621241196361, 1.1387828980600476, 0.530307032653763, -0.8051656123456781, 0.8837258728003864, -0.344443830682409, 0.6429793605739239, -0.1678770555320537, 2.0282538551730678, -0.00984829205986612, -1.7403618322919021, 0.047755049322343805, 1.7750817831562478], [-1.2699701996820965, 0.640550160135365, -1.2071954289911617, -0.6932719278428967, -0.80004483977551, 0.7594620587469065, 2.0294439129098767, -0.9375489506232658, -1.014690370329018, 1.0252876721295745, 1.0649203528798306, -0.5321573737182067, 0.8152339931376783, -0.11952363630884667, -1.4122908844535007, -0.7558286675476132], [0.5453438562628335, -1.6803791057117399, -0.3573549900422629, -1.3025182413673322, -0.7199938051348163, -0.7277352605732164, 1.51133489617761, 1.113780463425388, 1.960965705348848, 0.9536755186462404, 1.0090476356941849, -0.8599660062684463, -1.1977103805607736, -0.040693250613220794, -1.03054616850351, -1.442318113209591], [1.6432186662744739, -0.9213864158773644, -0.3573285105002854, 2.0129514104740007, 0.5200595817187275, -1.5311541469407008, -0.7732141388666904, 1.4822950848049243, -1.7632559825603802, 0.5119439572235297, -2.0501315973792824, 0.7126063244054008, -1.8103565498233778, 1.385077192669756, 0.06993085670883925, 0.8960737978440132], [0.3757625259888704, 0.24686491512892905, -2.01602302268157, 0.19771233814495492, -0.265629192467769, -1.808573199853757, -0.019366986535792108, -1.4659426728550236, -0.9506165198610916, 0.3252379029486902, -1.321208534694482, -1.9491638197725418, -2.1260789027914853, -0.5210796498750082, 1.2326864817016656, 1.6584569546598928], [-0.44856873145338233, -1.7067283014017929, 0.06556203711561472, 0.30165553423872127, -1.9329532830815361, -0.5640058706577846, -0.18011163439535233, 0.16125393168076124, 0.24896214223896018, -0.5756768860178755, -0.9777839276374137, 1.4273614389150522, -0.0058792048967313965, 1.0208751589476432, 0.2204514943989473, -1.0858675258875963], [-0.6591090008761986, 1.8052341712296212, 0.8662869214490894, 0.12883124875652419, 0.13668041535866512, -1.2309734140409565, 1.387694788811225, 0.6156155889208279, 1.5219951452769276, -1.4645114332001827, 1.3249691874635259, 0.21288545676280135, -0.8366647004157179, -2.180511847626375, -1.2383504663417195, -1.317330208815625], [0.19204506646690417, 2.007632346102482, 0.5447308859061775, -1.492711082827171, 1.2722569777897916, -2.1507961674559772, -0.3258507679420241, -0.7231382640621498, -0.3945623896718687, -0.6363503157845466, 0.13302904905744706, -1.1723362112946647, -1.731295873301778, -1.841710977787311, 0.19263856711221236, -1.88970328208757], [-0.7086366505386741, -0.8895903810209886, 0.45242501589863293, 0.6530102841091955, -0.36963916841374345, 0.8742799067968248, 0.19413340208347796, 0.7626663398243991, 0.1571036742193769, -0.6537317881106937, 0.7865571383632843, 0.48324478787831165, -0.13860143251995563, -0.0523910313367841, -1.6472251204653143, 1.4329956878012784], [-0.6829282699945737, -1.5986044468996772, -0.23152787379436945, 1.169666108056524, -1.4158179519448355, -0.9045886169374372, -1.3462097160704853, -1.4358362042320225, 0.635325006078671, -0.01235113859708582, 1.6878376786257, 1.4787925789009717, -0.21480960544257982, 0.38171822931214067, -0.3949290498309122, 0.8115741531883768], [-0.9090322775563191, -1.4361597027062756, 1.5591414233395953, -0.2000961893321484, -0.9228306093216618, 1.6690151088312544, 1.3216632345094879, -1.0517536308317479, 1.8284127977050697, 1.541014858905916, -1.2309576544196086, -0.24440715418762318, -1.2909804731110606, 1.8350300454144106, 0.6354466999559584, 1.2048547930069102], [-0.8110467307584556, 1.793068191942922, -1.180352831795716, -0.14996824595902794, -1.7928276288623772, 0.3501621965550403, -1.0749430832733018, -1.1369587417375895, 1.620178119894374, -0.8305369581188806, 0.629677141254661, -0.8895146501629687, -1.9136377780336458, 0.7452586290310176, 1.6086099574837336, 0.45503319403737247], [-0.4031349020656364, -1.237768328398351, -0.35002726729942213, 2.347330788162945, 0.08105475238895127, -0.3490205626600178, -1.024410120307919, -0.8998008783625231, -1.7049904469589396, 2.013990219319222, 0.8079302922624823, 0.45147303204533645, 0.3263563015520992, 1.5569873801294158, 0.71981853940114, -0.16133463843552187], [0.4894106046136761, 1.0064354362392305, 0.0036384172001740628, -0.05845418538115603, 1.0563014256466243, -1.2366052726356787, -0.5427770574868747, 1.7568136006257151, 0.03535721670913537, 0.9832300929132006, 0.956107814797713, 0.5774704521566918, 0.45883323795417014, 0.18536147335915937, 1.9055319852364854, 0.13174495412064324], [-0.7994941110779642, 2.0007046909890858, -0.15036355676468438, 0.8435582094289553, -0.7719714765747375, -0.2794393688865606, -0.17541184646903024, -1.5882245572888445, -1.0602838066214038, 0.26451251297694817, 0.4116486735233049, 1.1758414176897634, -0.08096413799497397, -1.8060366876388931, 0.6903826454991066, 0.5433459303658692], [-1.3110120550344313, 0.37674837541475364, -1.0270209177500478, -1.3656742486939288, 1.7643207155447074, 1.1464976772773185, 0.798932952306673, 1.7113812679238116, 1.8421195297746205, 0.6021669076775293, -1.3240387216447362, 0.8193161142014544, -1.0383027058555452, -1.698235069993331, 1.3674923823259661, -1.5201411007586982]], [[0.5909319752970013, 1.5050318517988777, 1.5878032562397106, -0.3113939880229968, -0.3063647955836416, 1.1760465639513256, -0.07736487698372695, 1.75080724601444, -0.9126994623621576], [-0.08174284169243057, 0.22714997137658977, -1.8319572938381794, -1.0966395438743965, 1.1333306124446743, -1.2259295059615816, 1.139646229876381, 0.11413215849747307, -0.08138939815549417], [-1.5647073129767792, -1.033779343247546, 1.8056825556423188, -1.0039448792338634, -0.5349375643338795, 1.7188260071506472, -0.5532074745095446, 0.9815143315193596, 0.33237975987782664], [-0.1931548848293339, 0.8245007533967524, -0.8229584586363227, 2.0415350352631694, 1.7580713596967765, -0.25699506188491283, -1.4688964573897925, 1.2710677864104252, -0.3321197856932506], [-2.087491819322082, -0.5862524901075198, -1.3023312229777038, 1.74307730399144, 0.0022961375167343118, 0.8156381038055668, -1.574320193406386, -0.6056292570281222, 0.41091432780868065], [1.188343229872495, 0.25381429319267357, -0.13105928786383442, 1.1014617685668646, 0.6085726393956302, 0.8588853547720599, 2.0576794666473064, -0.5695455996778251, -1.2887998682146984], [-1.6036407343607755, 0.9953131717447642, -0.1851607761702611, 0.45649507599714223, -2.0333856137051245, -2.102012091877586, -1.253128852383852, 1.2249336735580432, -1.6349929291063252], [1.7359074253928677, -1.877637731099624, -0.4533947263690147, 1.384387070066285, 1.5394969568897097, 1.2379194730649044, 1.0405527217496138, -1.9184498155866585, 1.5079685249890085], [0.9052822566150341, -0.6757486651809546, 0.5851263838672955, 2.1247172976561455, -2.1512110752177884, -1.001768168638075, -0.025612146625328954, 0.9398222411137167, 0.2857461037078908], [-0.8706004902812908, 1.5256343526140015, -1.5311481249877932, -1.7482144063343397, -0.016054747968456524, 0.5564989731925332, 2.1279504615649847, 1.995593845304977, 1.2750767132253302], [2.022802810949812, 1.4375681942629828, 1.4218115153727742, -0.2929538905304984, 1.620310017934269, 1.0180995711784218, 0.3264613503867667, -0.6164069156919838, 1.8915416518316226], [0.8053088136787729, 2.121695360151259, -0.043768334277216006, -1.7700682598071762, -1.160786089086889, -2.0351368320226855, 1.5383522926424902, 1.0420505044960244, -0.06307838924321693], [-0.5181856859121671, -1.7666407571365284, -0.24920395429292314, -1.0215376362487643, 1.0713516070020785, 0.5914696200070829, 1.1855054220991725, 0.8527383256448293, 1.6998127594289658], [-1.0049660880938909, 1.4973708458431838, 1.5189063800804203, 0.8262665454046024, 0.09695304893625528, -0.3104756719207932, -1.4894152928084794, 0.5867372240390999, -0.604991821829635], [0.42520230698700756, -2.144384894098024, 0.9153051405619383, 0.662807717487636, -1.393337445946062, -1.3569948002761663, 0.9518655873519705, 1.9150788517373927, -0.301932482003799], [-0.72013483021887, -1.0223919729556028, 0.36163701051892666, 1.9226472164547213, -1.314672105644397, -0.5538685600181008, 2.1430817782265263, 1.2107730870669993, -0.5998165770590023]], [[], [], [], [], [], [], [], [], []]], "biases": [[0, 0, 0, 0, 0, 0, 0], [0.4595122281429234, -1.3165431116061501, 0.6604746385303166, -0.5675063974532457, 0.3284751597684365, -0.9902444161857745, -0.8465099321717524, -1.7329358035628621, 1.4744500095928976, -0.6297880413643654, 0.7854755760887674, 0.557053656560601, 0.826813194089669, -1.8752541023175104, -1.5455050048063788, 0.09661062007147711], [-0.4409050758076316, -1.8210511192872656, 0.5565081322885568, 0.4148704308880444, 1.0887187329581858, -1.5055905970747658, -0.49660950066929166, 0.9354898675509953, -0.8333295881886489, 0.5562996177623365, 0.236830648439271, -0.09027826270807285, 0.12320651600750145, -1.6272795281419414, -0.4980875349077114, -1.4978080888343535], [1.96517250748749, -1.744696631231607, 1.0636179449889833, 1.865819590694739, -0.1375382385265291, 0.13120288256616805, -1.1975981630921189, 1.5777304400813956, -0.6806813779974521]], "score": 740}, {"index": 5, "weights": [[[-0.7596793373376245, 1.2584138764248687, 0.932380336497424, 0.23608071030264866, 2.2384563607062873, -0.6640962387828115, -0.26930401003650234, -1.458028175297239, -0.38075496390955177, -1.2290022273554677, -1.6354026315307844, -0.1676133495029977, 0.9783683176366197, -1.0794704632870624, -0.6652692418105675, -0.8364308449202605], [-1.2916339635357441, -1.6001824149964579, -0.6255790749711766, -0.3315330355130353, -0.9886924054774249, -1.5153923074885824, -0.9761813178673, -1.6633548524745518, -1.930932012470277, -0.3754970529672516, 1.4639749682051835, -0.8878392746988721, -0.9176743503128035, 1.1902424065408619, 0.6570868224891371, 1.8044652448469092], [0.8855422645224429, -1.4292642376151665, 1.0578951365022546, 1.4746927728977084, 1.8524859210257243, 1.8017935678543318, 1.3293467687835514, 0.05131289686674996, -1.1177335652788087, 0.014055216424525938, 0.450524871993462, -1.8423606845838683, 0.7807805745545366, -1.2436036357130476, -0.5109676255625402, -1.6584220602969784], [2.1211416661505975, 1.2463771568994615, 1.5510900262863874, -0.1893602297930721, 1.7610029067156932, -0.9978593852403329, 0.4241533832227299, 1.4316622798621754, -1.0181290149280882, 1.4283578781370467, -1.4049298487475057, -2.0439602399071775, 1.3225173899567157, 1.3912842698116237, 0.7531460254627897, -0.02295385563090452], [1.9408105401019462, 0.7946702212981304, 1.8425210581897309, -1.0517847844142385, 1.2480038559258035, 0.9650478051838585, -1.3077910684854894, -1.8789181940587774, 0.9266336053105807, -0.9836730190068284, 1.6763446834400273, 0.18558991572372946, 1.7080753592890827, 0.5177136769872162, -1.410862795028504, 0.8847223785591586], [-0.3979266845238156, -0.9070356225561703, 0.03404626753590614, 1.8500022642955147, 0.9098186321058596, -0.04403271724800124, -0.2712994430516339, 1.2082103159820334, -2.0675858702374414, 0.790278411909266, -0.6695561747695103, 0.6900714227971189, -0.9497205914385412, 2.1433275327388666, -0.6238703836376069, 0.10699938502061228], [1.3413329809020909, -1.7567356343144531, 0.7170734884861261, 0.8971035844890056, 0.010301968992385238, -1.796698833154593, -1.9895153270333321, -0.34583864725969504, -0.22984622710863126, -1.3782918535030837, -0.8191818198130731, -0.7112222209987459, 0.625408754981699, 0.02856473495155103, 1.0545075594349849, -0.1789630366984585]], [[1.1421374944142766, 0.10990561877246548, 1.9961262222027072, -0.6603858921298834, 1.2730077129546973, 0.6157462271448065, -0.926051162253834, 0.8716565039611888, -0.40127925307183243, 0.6027385564732626, -0.30519558433582206, 1.7806472739955228, 0.13842900065710603, -1.7914830453263832, 0.14061096752146227, 1.7499065516530494], [-1.571377427981182, 0.5142227036960109, -1.1661851603502402, -0.7807934475775706, -0.5708838054911176, 1.1087745510873683, 2.1827051549560808, -0.8266491732436881, -0.9020725766714008, 1.1272956318486427, 0.9774845004725317, -0.2918652469124555, 0.6232921765685245, -0.17390296186107737, -1.072499857290062, -0.9014636648673904], [0.6957820022359485, -1.5102612824292083, -0.27692810929743883, -1.526651587537116, -0.8514020600130111, -0.5711361168455372, 1.2154256609922804, 0.9606155105847225, 1.9025687955315114, 1.132424779304864, 1.0353380466099813, -1.0356013117074385, -1.3457413809598253, -0.06732087874849808, -0.7606072625547144, -1.356573723834003], [1.6302099997486044, -0.6887740969623533, -0.34789372053028345, 1.9293706176893453, 0.33763041092869844, -1.5550929643559384, -0.6465287834097372, 1.3570781545500465, -1.5376303281438637, 0.47081331734272686, -1.8126110268883528, 0.7714828104939533, -1.7423767414069196, 1.482961853901213, 0.048812596333052245, 1.104851022593615], [0.5804141085588197, 0.07733239555451676, -2.1533697715306395, 0.3289327396697441, -0.2845647941986559, -1.7003200608696918, 0.15101796417734933, -1.5693765552213532, -0.9683644669456694, 0.10548970292652923, -1.0868813319645927, -2.0506873751502988, -1.857829918234013, -0.39896886387466174, 1.2021315399445553, 1.7453932454979886], [-0.403379099176183, -1.6937186586722517, 0.09216040025524372, 0.5502767726031417, -2.063426184217546, -0.40638046273557543, -0.15129496367207373, 0.1976519575687482, 0.32353067610942987, -0.6225498969070941, -1.1762105194708998, 1.5178611921332241, -0.1337731318398997, 1.0062380609844517, 0.392449241341189, -1.1997649228068683], [-0.8313759751830131, 1.6680598219396425, 0.6021437468647016, 0.16346095838553182, 0.136371308105374, -1.1703213178497454, 1.0786339678232704, 0.5804437987766041, 1.6310145001938257, -1.1267810881626046, 0.952315848438028, 0.17098523544053104, -0.9340248854051793, -2.22065190839428, -1.3109487755962619, -1.404870786923642], [-0.0007915284561928748, 1.938356142127449, 0.3914305810387636, -1.5540804362876688, 1.4165929659616479, -2.1639871636001002, -0.22539753691487535, -0.41636111817195864, -0.3274329755687736, -0.7024381310137646, 0.06744796221502875, -1.0739884749382087, -2.1093991750983965, -2.0283691348715847, 0.1077471637435132, -1.8523011957757234], [-0.869417720147923, -0.8474502760264789, 0.3284150592307296, 0.5933705685588944, -0.4013760652624404, 0.8465069970078553, 0.29602342712618934, 0.6926258105491884, 0.23528807772653762, -0.4902874468266451, 0.8328921623153895, 0.4713637478854675, -0.2254024190991763, -0.14400126238610123, -1.7802578116128824, 1.727277313424238], [-0.7542254752609702, -1.3924044545019352, -0.07983739126884776, 0.9823872148264311, -1.3263352993173971, -0.7716948172711849, -1.282882091834807, -1.4848730738566487, 0.8891229119781641, 0.06405246459820976, 1.822818684926431, 1.4688791219340833, -0.12277543014384171, 0.19319227085459906, -0.4306763211485964, 0.8535497820783088], [-0.7542440860722868, -1.3288763889878847, 1.5250986918919645, -0.37503744620989665, -0.7086903936369484, 1.6629464094156816, 1.2973507568172853, -0.9191550962237685, 1.8278311749366205, 1.4292138951808209, -1.370303437755946, -0.31921927941483624, -1.4615140561791151, 1.7299719823031305, 0.5096083533880993, 1.3659311664295763], [-0.8905500079564006, 1.9761433800694217, -0.9639973543837529, -0.2173917852208907, -1.7128962557651681, 0.33661121939546446, -1.1358245907389912, -0.8213753004965725, 1.4513251427592755, -0.9081720036706256, 0.674992992206617, -0.6982306702118285, -1.6755808570212658, 0.8362454125694858, 1.5277385828328223, 0.5476680293671968], [-0.17723146987413912, -1.2467243591382118, -0.4739202132960622, 2.110484345117727, 0.0982422353528093, -0.39191027793221855, -0.8583057461642452, -0.9482329822078926, -1.7565745089854243, 1.947365056426363, 0.9302227725825165, 0.36082228787582954, 0.13016786905055644, 1.6213315971168791, 0.516599726847497, -0.1738509009042311], [0.6487050839284388, 1.2003065755294766, 0.08170849750297149, -0.007388017028299103, 1.2611411621778879, -1.1435054120671257, -0.6015104594207958, 1.7250905910825745, 0.2952529569325145, 1.0214923776334253, 0.8307834141048577, 0.44502000594559565, 0.5732016923430365, 0.1242042171270629, 1.6515754926251625, 0.34559726711837063], [-0.9564594779290904, 2.096794342421215, -0.0673961692795596, 0.8025408130198448, -0.8738582196798435, -0.29353802986417277, -0.20931353003326128, -1.2805220620512396, -1.1860274421221622, -0.0926467416008512, 0.3867802442879179, 1.2951903708285344, -0.039073984661320026, -1.7687719255373504, 0.6588552312201, 0.5082372805915335], [-1.2252463307881676, 0.28059370029096375, -0.917658455710026, -1.0459529446431537, 2.084883097344296, 1.330715225535639, 0.8050251407689389, 1.5840460566425218, 1.863506278492987, 0.7148803792334885, -1.6232063756823845, 0.9179376297399091, -1.0125813979652185, -1.8062378050955215, 1.320212394947438, -1.5319655551578142]], [[0.5890225698963231, 1.5230292429987082, 1.8239837016430422, -0.16991390860873998, -0.331720587058961, 1.2454477537108428, 0.03516589963171196, 1.9220897046983618, -0.6453270205818017], [-0.181178724895125, 0.1407276357343369, -1.7443201771522734, -0.9425062338574185, 1.001874647987036, -1.0527825502539256, 1.2294632274528403, -0.0735317482340834, -0.006148552615129019], [-1.646068917996973, -0.8469547903798047, 2.0600773512670174, -1.0464646994750093, -0.5890046052392102, 1.7004305992550324, -0.5039583044832789, 0.8426720368562517, 0.17897683286914895], [-0.11151821079436444, 0.9106764843995945, -0.6887351282194137, 1.7992229948840537, 1.7896955317512482, -0.5948061426659795, -1.3708663439982198, 1.0952877035365103, -0.18001874998854345], [-1.896697897620189, -0.3963590074344424, -1.3728258489516265, 1.894680289451173, 0.1389638891990609, 0.8601399377288297, -1.5832146520672958, -0.27963979698563834, 0.4067993553124219], [0.9836299860042769, 0.2447698635412724, -0.07490255516076993, 1.1476403060998965, 0.6132901476871566, 0.7608261175007905, 1.9771397530662769, -0.36086514008060067, -1.3444835592021989], [-1.4767189102802238, 0.913767846331963, -0.3751127514008146, 0.5229535536904013, -2.1448900758789233, -2.191538896736255, -1.381871116434116, 1.080015578385725, -1.9950662598631148], [1.466467168238541, -1.8839597980194513, -0.3380563437330668, 1.5190165474933712, 1.5087436719268925, 1.3674369469967567, 0.9681203012077266, -2.077890646239723, 1.5259758473418286], [0.8215317117374228, -0.7891702254498639, 0.4215374601302453, 1.8456031731224547, -2.129495825171247, -1.0970766382308772, 0.017986573893830828, 1.0968011299933322, 0.5029302922473501], [-1.0655517632897313, 1.4338507591211704, -1.536789891022628, -1.8092980342067226, -0.0995728991757501, 0.4318456588661487, 2.169621982219431, 1.858519452552961, 1.184865269060886], [2.1991297754035646, 1.1552935334968737, 1.4495091679494436, -0.13465736088835312, 1.2662815273828039, 0.8538265952836189, 0.27540155648979, -0.6878092917597969, 1.9441923451616248], [0.7959031535763771, 2.0294215864760616, 0.25828214532966143, -1.5587718294157256, -1.247387852439203, -2.0667399997679032, 1.622956200431805, 0.8097097337384918, 0.09515981424667201], [-0.5800161353368287, -1.5982386364088332, -0.10558518237213901, -0.8413007924887179, 1.081813446990164, 0.5744201292816178, 0.9406148907118119, 0.6005604737283463, 2.0287970198442116], [-1.089925239386519, 1.5434166556213087, 1.510129436806753, 0.8637359834932136, 0.03602748430633587, -0.12110172102537267, -1.4865568808325236, 0.6739888479646527, -0.5976792451994756], [0.4574008930749561, -2.090933443054106, 1.0221921382004278, 0.5394374060691238, -1.41931226140634, -1.47138732112176, 0.7445942211578731, 1.90808445605161, -0.2707811685018627], [-0.8008289164473926, -0.943263956082068, 0.258872660931967, 1.781911186120297, -1.1812049737236903, -0.742711788209456, 2.2338779444922268, 1.2722945030342274, -0.5703661372127616]], [[], [], [], [], [], [], [], [], []]], "biases": [[0, 0, 0, 0, 0, 0, 0], [0.4277662607707294, -1.3792788600681696, 0.7994903599542286, -0.5400152311350402, 0.2670690774636628, -1.1359918492450938, -1.0019379594140037, -1.6384031060588196, 1.4849297913794504, -0.4782316119181881, 1.049241938877003, 0.5975767784516273, 0.8796614541273241, -1.9964117108186679, -1.7062397655805372, 0.06536048848551432], [-0.7107644882387895, -1.876602756902306, 0.9085546733359651, 0.6893739515571976, 1.1040190658931852, -1.6231898986261182, -0.30650423366446733, 1.0635650973087731, -0.6869866459437036, 0.8469819106564271, -0.012713145797715292, -0.14614170046471575, 0.21130310687434142, -1.510877323971529, -0.2126809620676745, -1.6570874083422076], [1.996801424179924, -1.8284830563991934, 1.2595759024193542, 1.8070350921223648, -0.2586364275521916, 0.19556177174220474, -1.2135329178831158, 1.4180185694576855, -0.53842193814527]], "score": 704}, {"index": 6, "weights": [[[-0.7463330743609224, 1.1424429295452543, 0.9863365814483065, 0.3034987900268424, 1.9851316852606427, -0.7040400908188329, -0.40353723037436984, -1.5673677371891772, -0.2457278522716243, -0.989230557234364, -1.71635526043246, -0.2187879858613831, 0.9996785371531932, -0.9650237402445363, -0.3333809250557955, -1.028194581182075], [-1.7381003698131592, -1.5107979710731834, -0.5380258853863594, -0.28370514890016857, -1.0880771259796354, -1.4504110052321944, -0.989960048608763, -1.5731766245322616, -1.9845805927041524, -0.3832570541255221, 1.2451640086828168, -0.9689695306699104, -0.8785217600379898, 1.335502655550354, 0.7637302831090397, 1.8761297877926293], [0.7901762284865995, -1.339580525895896, 1.0177394199026462, 1.4998680250531509, 1.7576187970531878, 1.889562292409123, 1.3632157018124955, 0.03503448542631238, -1.057744118669115, 0.15679483213047696, 0.5160980446287347, -1.7961185778779722, 0.7209612611341443, -1.2994637112502803, -0.6661895494431754, -1.8877646486575845], [1.9533692547932173, 1.1843954486723407, 1.5514003675823478, -0.13217595484092923, 1.7829680921734088, -1.076924836898549, 0.5176715864703484, 1.4749288741974897, -0.8575511898212814, 1.6306843622661222, -1.6632056692637827, -2.098638001205201, 1.387908509068629, 1.5764288693007291, 0.839927306853604, -0.1422290788909772], [1.903047695364475, 0.6821855390574265, 1.8774283996525734, -0.8732773974957947, 1.442891885832629, 0.8622990371303945, -1.2877384513746082, -2.006502502737197, 0.6143117521899579, -0.9234182590725907, 1.6797159824721133, 0.3632288478077416, 1.6107468162163714, 0.6336648770037387, -1.3197123436433913, 0.8756150594610653], [-0.20331927454450158, -0.885607477853503, 0.007995194914891972, 1.7972146591452909, 0.9779352132301221, 0.09065976476095111, -0.2737696482285957, 1.169615932849659, -2.1701387621653554, 0.7819318497623666, -0.8947720742523402, 0.7976452035642696, -1.0966281265841458, 2.0824746319, -0.5820381154015724, -0.07187081244544956], [1.3693576700540118, -1.7301374265089597, 0.6527053315088354, 0.7721846168328772, -0.34783568334746806, -1.487358773933061, -2.068748813204354, -0.5019780505263861, -0.2318098353341391, -1.417201669331258, -1.0072179401057058, -1.034032214524124, 0.7767601899561626, -0.04417796791361313, 1.197836113522853, -0.08328864154817721]], [[0.9911797115183753, 0.22736669275387159, 2.080175038856426, -0.36131290871245403, 1.1858693922156844, 0.5761583684137024, -0.9344980467880452, 0.9028260911155108, -0.3274380011126684, 0.6287675053604237, -0.07396485841804645, 1.9665661027538386, 0.04179215466701677, -1.6707390693951527, -0.07217178335039952, 1.7670671865728382], [-1.4527336763254615, 0.6956382772696177, -1.1713129062049084, -0.6082019415867035, -0.7004562751484067, 0.8860019656255471, 2.003877431071902, -0.8834042027784352, -1.0799778610226103, 0.9755010720154383, 0.9446008024391597, -0.33866452819362675, 0.7244282552699433, -0.0957167763488871, -1.0944159285140964, -0.5567548621373413], [0.5267232686959357, -1.4328765051298515, -0.2113392020383641, -1.3265337314573218, -0.7875144049731766, -0.6828966564046334, 1.6155740802348366, 1.2227960850896569, 2.036836060855136, 1.118676791310359, 1.0396825049017864, -0.9451255140646244, -1.3345377142984671, -0.18480598505225074, -0.8549921460562848, -1.4937696464318644], [1.4874395832873746, -0.7609008693232184, -0.39509472892652076, 2.0930177778634365, 0.3450007501224938, -1.6424997049350825, -0.9287339285340174, 1.3519621892047862, -1.50980885958045, 0.5709594174219252, -1.9019067823351192, 0.9114163280081892, -1.6217354222117502, 1.4848032186660696, -0.17977967068417675, 0.9221306848948854], [0.25453438106283155, 0.12020093285569687, -1.9464193418248752, 0.2508536442675083, -0.38978601030003834, -1.7494319272212364, -0.05684841162944595, -1.4825251234077614, -1.1091018534704746, 0.3099315738305645, -1.3815180790785115, -2.0400639666878515, -1.9887390290509865, -0.3445772248793702, 1.3525418364046087, 1.582948982057491], [-0.4017114626659497, -1.6603901829115624, 0.07113796469812526, 0.3943427194581687, -2.053343579964268, -0.4422101735508281, -0.029466026628870767, 0.25957492362581486, 0.371011644788602, -0.4635496940421971, -0.9695237207837406, 1.2986565636808458, -0.09302433315095097, 0.7442610075165108, 0.3299023075777258, -1.3055334267271952], [-0.6226574402832135, 1.591329763853318, 0.6551567538842649, 0.11949565747033285, -0.08117858057277341, -1.0640465976305313, 1.3780295748347278, 0.5005899062691518, 1.682953750071882, -1.3230239990793835, 1.0765019920925503, 0.1657534098027843, -0.7990793982138595, -2.1061555799109812, -1.0495954869061253, -1.2434947458384809], [0.11016497363560676, 1.8713382052400416, 0.3841421156214955, -1.7798553072202559, 1.2672036124889625, -2.0676400268950625, -0.3050003743286347, -0.5387863673926946, -0.3805519115375526, -0.658436061345507, -0.07932247026506509, -1.0670736878460256, -1.9766399879565186, -2.0950241695668517, -0.0035236347801656798, -1.7265802196031697], [-0.9087058768831242, -0.9863950061137348, 0.32363459412315, 0.8429500488794581, -0.19189035457591933, 0.620984954886747, 0.08866774117638038, 0.6444810161890248, 0.03699884100206367, -0.5949178317308803, 0.7677277297756012, 0.5153130542692949, -0.24105953788040535, -0.08641845320231502, -1.6845968038030892, 1.5059848974892656], [-0.5537348576605587, -1.3301971974402125, -0.029295981521810066, 1.4040967495735364, -1.4778477396025738, -0.857208759417443, -1.2248531379317558, -1.4211892746612143, 1.0574619454156322, -0.03868348928052549, 1.8033432044635804, 1.345110840989844, -0.0547067695990127, 0.2723921431821409, -0.3946102522158642, 0.6691433507752137], [-0.721029824370016, -1.2074466957170782, 1.4606655012683083, -0.2649779939454806, -0.7649486712057977, 1.5100681263631417, 1.1213707042509324, -0.9430788676101685, 1.87075148137337, 1.646052114920986, -1.296279390240075, -0.10741109903377592, -1.3686467869574994, 1.8782982283309777, 0.5702363895717244, 1.306096198693217], [-0.6941257944736986, 1.733128594083176, -1.1534232867685819, -0.2249690579249346, -1.6635692068910066, 0.32074204396829037, -1.1491380450748019, -1.000157046399447, 1.3586574788296584, -0.7233651560762095, 0.7756995261728509, -0.8132327522221195, -1.7370938846518909, 0.7847580416408253, 1.469031746624313, 0.6605632077142339], [-0.32743039174779287, -1.1650093965738941, -0.5632659389797698, 2.102831742038471, 0.021616252840692463, -0.31691867129905127, -0.7910579292885386, -0.9692959636842605, -1.8620697790836493, 2.1346222206144594, 0.9253541603778265, 0.40886317634362657, 0.2063273535001606, 1.791542724007227, 0.3801437897489006, -0.2966488987897655], [0.8206785019027585, 1.0328382645724368, 0.08261117344215539, -0.09834898003571213, 1.106250839679114, -1.0408873706984385, -0.47239408129319904, 1.7734260095232315, 0.1244823924575448, 1.0265798029402278, 0.9117458919694602, 0.32514020777962105, 0.5729837605200709, 0.12737525785965556, 1.7804230285528932, 0.444111993916956], [-0.6707441839854494, 2.138583909225567, -0.20900837057976088, 0.9213525392985261, -0.7255357029404699, -0.38543266067165993, -0.1867965987315985, -1.631661130851212, -1.0801851533806108, 0.08362886817140114, 0.4654407222442519, 1.368439305276244, -0.008702804331112037, -1.9179838951512485, 0.5457146318848086, 0.5911377839809139], [-1.2520057527633561, 0.041026362098005364, -0.9326516154460248, -1.1255114379767677, 1.8618402711130437, 1.1661937232422703, 0.8519048351825159, 1.5278307772834836, 1.88229840561361, 0.6322887325719644, -1.5341131008356668, 0.8904620116735357, -1.0279873824279346, -1.68356146428633, 1.2903680058851512, -1.4686747311784067]], [[0.7162918984280251, 1.4795464370020335, 1.8204976508617146, -0.30174574781907765, -0.38328042650697836, 1.2029715409178705, 0.025880033887095834, 1.8406556113601522, -0.7276003817771568], [-0.07778861290644773, 0.3106425959625786, -2.0924047420721004, -0.7403577985844838, 1.006609171152283, -1.1424701364398069, 1.4625819018770463, 0.0683994586883774, -0.0987906898651219], [-1.3189106482894128, -0.9285363440983303, 1.845661878158907, -1.0326113535532622, -0.7700721485523185, 1.7466270968019248, -0.5579003208774411, 1.0145703401562114, 0.08640940110633043], [-0.27716639033565493, 0.8471270393839332, -0.7828113567407304, 1.9332384477943276, 2.0114440969595853, -0.5711050528843777, -1.4842886540300728, 1.0650285081015491, -0.26145176356837213], [-2.027860132696433, -0.6094218945628433, -1.2237329572427533, 1.814407192458533, 0.08003142938088476, 0.9064748128653011, -1.450053789228877, -0.3648890707867639, 0.32495979429611493], [1.004247115542405, 0.2879356197813927, 0.09772301362912812, 1.166332184785213, 0.6274085510117704, 0.6280596152135854, 2.0308864783905185, -0.5606573513155849, -1.4557566655553884], [-1.427184608289089, 0.9070636959329256, -0.1742129830810924, 0.5245944285913662, -2.076553426285569, -2.078480146816433, -1.373677279238748, 1.2692462889231735, -1.9178402130499792], [1.5395297454230532, -1.8860303647226044, -0.293604691764995, 1.5287364871579048, 1.4208913954004965, 1.0987570331092407, 0.959157352100022, -1.9494770785481066, 1.705871682875832], [0.7699313431531669, -0.7681899815069331, 0.4844296607842088, 1.9580627791269711, -2.22299002938593, -0.8923924049964661, -0.1289002461177971, 1.067356503316648, 0.5782189116666802], [-0.8639338731706503, 1.5409049994438662, -1.3811691566172861, -1.7710677961880081, 0.014300961015602569, 0.5272526075073435, 1.9268686139718134, 2.0586382396274954, 1.067070013031764], [2.4802837778516738, 1.1204022300416288, 1.5074625577658223, -0.154272390727268, 1.2072981099927371, 0.9898044914451168, 0.02875136785891591, -0.7554102424076417, 1.9465706030845804], [0.7660394385867939, 2.284831130882971, 0.042939082049863936, -1.581419104326467, -1.3568722893594358, -1.9529328833478523, 1.7020957165366026, 0.9979214993575058, -0.04538504897148048], [-0.5738958416312963, -1.3785512805213656, -0.24857736697749494, -0.9958074378943926, 1.1036999731207882, 0.59466601367749, 1.113073366249284, 0.6752777931859846, 2.0450510134792443], [-1.2735096286102496, 1.6290874520599397, 1.3410950841280724, 0.8600329103004722, 0.0360134746337055, -0.07249725337114274, -1.5092853939044535, 0.704099665082906, -0.6851409278499413], [0.27689956607934374, -2.0288872040102626, 1.136691274691525, 0.557494055160044, -1.3833827260098, -1.2544037256258858, 0.8982555701510703, 1.9777253941590145, -0.2760487727463635], [-0.9567932179685286, -0.8762343526545644, 0.30675265129651574, 1.934705446869139, -0.8672925008120453, -0.5878850047052755, 2.1163718359700376, 1.25981913662359, -0.5584233034554384]], [[], [], [], [], [], [], [], [], []]], "biases": [[0, 0, 0, 0, 0, 0, 0], [0.4664805294488954, -1.3721392484756567, 0.719209737110372, -0.7164775309063315, 0.15613044133042703, -1.1763265683414308, -1.0891460964439246, -1.5815854051776594, 1.3643824348655864, -0.6850267041992245, 0.906613994780396, 0.7499997581476705, 0.8865733657043939, -1.8084820821303143, -1.793217614378449, 0.18529756140223508], [-0.5598090388680708, -1.8756361949505291, 0.6263310638576758, 0.34990466247683416, 1.4141524380159172, -1.573373029046696, -0.35425967404717773, 0.900280017181282, -0.5956975657933655, 0.7128861494321108, 0.18337081966184474, -0.35025144234086236, 0.25463084982369677, -1.5501767714225418, -0.37956712761102707, -1.5110334065094022], [2.119239239619117, -1.6135548131403226, 1.1267804547142883, 2.131072157043754, -0.3237100436981206, 0.27659098216468325, -1.1654871047156914, 1.6044755137612778, -0.5809357207387983]], "score": 600}, {"index": 7, "weights": [[[-0.9480772125637961, 1.0429585473515262, 0.8124389918197414, 0.2870026156180074, 2.149471928504428, -0.7030323965590486, -0.387901325111244, -1.6216759792707156, -0.3049253129732377, -1.0897060716024638, -1.5961601262537795, -0.0954176522170592, 0.869565026400682, -1.0160936001095824, -0.7611588542935204, -1.0078816198660185], [-1.49561836427455, -1.4807456789312907, -0.5436437048639271, -0.2829334027366749, -0.9663218800167941, -1.5030092329980507, -0.8996500492981785, -1.8607960800147323, -2.0161335384968724, -0.4086216834708142, 1.2719519321944683, -0.8639288679406142, -0.947356145643637, 1.1420190343899812, 0.9314775589779493, 1.7600292075503492], [0.8603303554118669, -1.4354934659164933, 1.0627024363111195, 1.4186138639666432, 1.7553477346954856, 1.7604882116922553, 1.3879758583678445, 0.25710811130700295, -1.1416966243660536, 0.10090547770240128, 0.39097940162696676, -1.6696966622381195, 0.635852544810958, -1.2600630321685986, -0.5741558193396142, -1.9124509354077421], [1.9408622772306436, 1.2916809434154435, 1.5658022614175666, -0.13102445642287164, 1.7410440657833524, -1.0938682730277787, 0.21731373388271566, 1.4195986571709973, -1.0573111407575817, 1.5856410361025473, -1.6477207905147886, -2.0492932670486765, 1.4344177975149777, 1.5244286749536577, 0.5768778499589604, -0.17808943413351455], [2.1551108813096307, 0.8987315208311308, 2.0207998739204673, -0.934177261103912, 1.322588455578063, 1.0020878299453844, -1.0144837715480775, -2.066133676899856, 0.8671444737805449, -0.9371654170791844, 1.747896878001689, 0.2505622361394118, 1.622199676339642, 0.7531650306693517, -1.4267324858487793, 0.8624277427960085], [-0.31215246939191016, -0.8354960524816039, 0.009001600776366935, 1.853096209988126, 0.8581151634137243, 0.15248583176562994, -0.5333536018097412, 1.443318696502416, -2.1883904991367698, 0.7826391855695509, -0.8948736154942123, 0.7677033635236685, -0.946231126087666, 2.0248404623618943, -0.5758539215013289, 0.10975695529166088], [1.2495984818397072, -1.65367921595655, 0.6189757219547039, 0.8548583543565951, -0.15726782619702745, -1.4335767629496492, -1.9452407195543273, -0.5094596760837676, -0.23951636894717201, -1.4436227640304125, -0.9968907257025016, -1.064865257609966, 0.7552371030347523, -0.056665801686399245, 1.1658595608932398, -0.1748090553798139]], [[0.888718680125753, 0.10433600367316331, 2.3247362086492585, -0.7899324676621194, 1.1715876951259365, 0.5237162637346497, -0.9854959750485498, 0.8806854197191046, -0.3466718968365782, 0.6969648565718701, -0.2387147118727908, 1.9150226651797577, -0.015306053088199961, -1.9116626962367445, 0.18173265562239066, 1.7090805074759987], [-1.4813449408584913, 0.49159629383464876, -1.075918392205596, -0.7688501259224814, -0.5969945563646822, 0.9049182981979648, 2.1110089199748074, -0.8909658282647813, -1.1417613657795092, 1.004306555360998, 0.7476221971828534, -0.3532228207576003, 0.6516329106015687, -0.31125390269578634, -1.2383374795306568, -0.9246488792861196], [0.5667567652143297, -1.6511843811433315, -0.1890804406198463, -1.399806631853674, -0.8308496076682866, -0.5291207232902189, 1.4040536906908536, 1.0768950107638227, 2.1457539863744697, 1.1318315436463213, 0.8922446572813261, -0.9699571606604591, -1.3451674715969284, -0.07101455340577477, -0.7617614506689632, -1.3821940113044042], [1.3688377385313655, -1.1605735615722252, -0.5572328997747827, 2.133344428715653, 0.5685798282021642, -1.493538262775867, -1.0005753760663911, 1.547741981991042, -1.4296690686817266, 0.5105732519216355, -1.8634640660484116, 0.9526707331834643, -1.6702273725385797, 1.4448878543712673, -0.0776782848653336, 1.0676795126295882], [0.6443916296074901, 0.0009084692506255154, -2.0390792458268514, 0.1948024769644469, -0.29839878420494287, -1.6047856793188415, -0.150720591250663, -1.6545602509583694, -1.0061689806061385, 0.1371699793599209, -1.2583605337214152, -1.8596695053790608, -2.101530825800056, -0.4077672887867103, 1.1372745365744534, 1.675509922198521], [-0.44246665341410707, -1.7201250932680836, -0.18471526576616157, 0.4167436109143224, -2.021530873314631, -0.3898345897184857, -0.010690411461266924, 0.3489014419680457, 0.3737661935465345, -0.5606055196632922, -1.1354341455702648, 1.3154073473809855, -0.14272029502882527, 0.9472468452629246, 0.36390365540563385, -1.2745453161791283], [-0.778688923771454, 1.834678989494204, 0.6677601468801354, 0.21041059552056696, -0.04188670855064225, -1.1886077839711935, 1.4547622242593232, 0.5563969890626652, 1.681265102827956, -1.3291552789482097, 1.0149880238420164, 0.20830990148557438, -0.9583674834085228, -2.21036308899169, -1.240738144514334, -1.3584453928437032], [0.2400428798529895, 1.697732299435364, 0.3174319951681892, -1.7319477472230456, 1.3448343648745118, -2.123369722780477, -0.12692865912658666, -0.7343805296926111, -0.49339110726927116, -0.5590965853327968, 0.016648394104524428, -0.9680175608704531, -2.061861501210314, -1.9973342210207603, 0.11818951499995259, -1.6884232539209454], [-0.8324430616843569, -0.9708916792279861, 0.3785660226371212, 0.6109241175784607, -0.47398027387800057, 0.5294978616737113, 0.18250444713230235, 0.8237936805153384, 0.0031064721836822906, -0.49215097493062143, 0.804796275005626, 0.5764185725143439, 0.059781407122699096, 0.14432266165587238, -1.7645144765582015, 1.7890856657956435], [-0.6266026851091835, -1.4587752321343057, -0.16103227549567115, 0.8499056497214541, -1.3432846829025469, -0.8628088747174815, -1.268017283222242, -1.477822067260016, 0.7799449477408564, 0.004253705353989536, 1.750221562681106, 1.4653579668434698, -0.10061915600709985, 0.24399415728101326, -0.33589763788292326, 0.7509968101577554], [-0.9622410008373409, -1.2326441404767492, 1.4919662131947127, -0.30743286785894997, -1.0739304427312901, 1.5099845839071118, 1.4793869639042372, -0.9327536254701011, 1.8501694916679876, 1.4168234593274471, -1.413976077726316, -0.2305923671889895, -1.507122242897278, 1.8050334266461692, 0.6656484879085485, 1.2614486333773791], [-0.6718694594600378, 1.686667834357583, -1.1163705682876675, -0.24331207902535185, -1.7441297367370907, 0.3325448113395714, -1.1663387202469464, -1.0816552300583795, 1.3030414665020715, -0.8732156428045318, 0.5909209020565188, -0.7232407790889176, -1.7814357449068805, 0.8127734832281975, 1.7467907411903592, 0.3751328614251439], [-0.33057101896891056, -1.0044985598467995, -0.42078525434828246, 2.3468791046196116, 0.19013562757959473, -0.341768252239607, -0.9660921026856505, -1.013861444827018, -1.7668311976659123, 2.0386762976271164, 0.8120583665992989, 0.4764263312328263, 0.34932147402729957, 1.6608637215445126, 0.47023048921060084, -0.2255264605570056], [0.5126546414689732, 0.9902031967645517, 0.03674502955466073, -0.2449205709059467, 1.0888422224716687, -1.1468343884107364, -0.715094453526177, 1.8277229618071067, 0.235501614105884, 1.028049565449882, 0.9043508154712155, 0.3383064894364529, 0.7403627733650233, 0.19683500105902677, 1.9373624682841597, 0.36458186458211367], [-0.6726696166314092, 2.1776913096939445, 0.043470390713071586, 0.6063986847304218, -0.6875095024411367, -0.2398060894964104, -0.38177865373532005, -1.5826372632216519, -1.2079379967887198, 0.17674702939774223, 0.5210820728590058, 1.3434209925623273, -0.0047049979616958105, -1.8602411400182515, 0.6787279279036132, 0.3717618936580687], [-1.1583923896625454, 0.29959415509224896, -1.005657970717623, -1.1152529489524856, 1.790296851703139, 1.1573417308056158, 0.9702502030473314, 1.610055634468029, 2.013416800596358, 0.5034113827966679, -1.4415292897209604, 0.9595542068691186, -1.121313246451198, -1.9308429756944174, 1.2746578255572663, -1.4945565255718491]], [[0.46073935899584256, 1.3542474762893462, 1.7978527758050717, -0.3320939464372934, -0.6543517727527025, 1.2431368407638965, 0.12877056845143653, 1.813374059353171, -0.668696093305012], [-0.191049678802431, 0.021102256461513924, -2.0177419479269605, -0.7556717951742964, 1.1741120020257902, -1.3682032030164128, 1.2527312466528642, 0.024405050530206772, -0.033047376350841415], [-1.536957423793184, -0.8512690621286972, 1.9830543408963148, -1.0148078798821625, -0.6521626110825062, 1.752657108202554, -0.6146346688781861, 0.9803254138600612, 0.17185325862732426], [-0.33748303196375007, 1.0662919789149834, -0.9158832728682579, 2.0166791249804, 1.8723807134358992, -0.46778842178562097, -1.2994031095880645, 1.0627227205719387, -0.3227960914456741], [-1.8800792585817152, -0.6394028721781012, -1.424071566132342, 1.7569317741786166, 0.11497034243500173, 0.9747116924081343, -1.6265034047552012, -0.3688037859921655, 0.29124240661665524], [1.1311220282956338, 0.3461597104382399, 0.0021280676764991284, 1.3538979723138107, 0.5343693093846865, 0.6481520519245758, 2.014397072865808, -0.3812537885849549, -1.465737051701046], [-1.4240476963729536, 0.9308744658373306, -0.4291650558352901, 0.4145782658126774, -2.1753097631926464, -2.0066310114476544, -1.3864537535575678, 1.1335269221515505, -1.902136528075774], [1.5636229856307622, -1.6719141974686924, -0.35078825995103535, 1.44655301339775, 1.6027917684454738, 1.312446152923614, 0.8861511285589235, -2.0526891174350257, 1.672747139407757], [0.6917609057945343, -0.7469003100313062, 0.5764924878692181, 1.9310881004091813, -2.0193758303078058, -1.0228329324969172, 0.07264203934408406, 0.92445616772194, 0.5789536827414392], [-0.8277643957909694, 1.2660091223649315, -1.4423134778908815, -1.8864821988384062, -0.2643391432618927, 0.4324681897992879, 1.821043421018359, 1.9829085878224395, 0.9981396959379203], [2.2993273264426333, 0.9436580539554764, 1.6308273701623999, -0.1602325430729991, 1.4002876879999753, 0.9948735351925999, 0.08900976158785244, -0.5857728460150824, 2.0075876571954687], [0.7616605687402924, 2.047043765214126, 0.09730764905457062, -1.6193651375431326, -1.4341833425364363, -1.9920507416390623, 1.495383642577922, 0.8982037560909356, -0.02931582948904901], [-0.441552374880334, -1.735537153565609, -0.11048940754895234, -1.0818971784736806, 1.2357410097540975, 0.5345784657202637, 1.2082960682747348, 0.8728074968185654, 1.7967702215723458], [-1.3600750763205893, 1.6219911501948228, 1.2702365244927645, 0.9650337369107382, -0.06813559395896232, -0.15994513674026548, -1.6605013240005277, 0.9137456351840909, -0.6337151475602627], [0.41576312701288265, -2.3347446942094887, 0.8860000448413623, 0.43779783850850285, -1.397530506564199, -1.3774809805435524, 0.9300150936559118, 1.728906758632912, -0.2973393145133486], [-0.7096843894352631, -0.8726916901188655, 0.24196466325149737, 2.101655272404343, -1.173058941572816, -0.7177332764041356, 2.2432343232539207, 1.222526455960169, -0.74572427329031]], [[], [], [], [], [], [], [], [], []]], "biases": [[0, 0, 0, 0, 0, 0, 0], [0.4864893615203021, -1.333519501001141, 0.7043944032842531, -0.6007658286537234, 0.2169088417939213, -1.1448141413971682, -0.7857983257908763, -1.7448140602953917, 1.4028043157656807, -0.623944917345688, 0.7889203839344924, 0.5995869495555305, 0.9159162126623028, -2.0468405917335044, -1.5233107286878622, 0.01306672022006062], [-0.30849516157223755, -1.8377016020279495, 0.7886845823407667, 0.44736818275201146, 1.0857951244479844, -1.406631751417977, -0.3453579693138569, 0.9044408727539788, -0.8007396570650633, 0.6777734455460123, 0.18205714902297238, -0.2964898668998712, 0.22860702491447527, -1.5188886716028354, -0.5183929579506104, -1.467596957848227], [2.1313653744865855, -1.787086826969368, 1.0046411769649184, 1.8285927514126867, -0.3843550225292587, 0.3803136712168885, -1.311046525751951, 1.4924273030585147, -0.48177620414747296]], "score": 665}, {"index": 8, "weights": [[[-0.8797432583590377, 0.9315397795822074, 0.8055641941807375, 0.29050323311906534, 2.2293365602040356, -0.8632542814891443, -0.4392232546249136, -1.4575371835830857, -0.45603739601591836, -1.2497596709082552, -1.6173980160640882, 0.00822394405437371, 0.9112561352996105, -0.9603960370007354, -0.3946873679504448, -0.9825241881151062], [-1.5683736018248409, -1.6324035121367464, -0.6105053219590344, -0.2597253345636908, -1.0690560364822732, -1.5221854351625197, -0.9547924677660192, -1.5178609160349024, -1.7536569386821792, -0.3650953430521579, 1.1792990143593538, -0.9291317682061787, -0.9073387345339096, 1.14624263832688, 0.8838712572901217, 1.8689360079649329], [0.9011453810793287, -1.3271797361873625, 0.9791988201260916, 1.4572401548940483, 1.8152489532877656, 1.8931787429136975, 1.5601292801168867, 0.01932847308598999, -1.153848319631496, 0.06538483483613566, 0.3551915053578611, -1.8367162966083739, 0.5400058880571049, -1.2153718593255614, -0.5613724961184066, -1.8619076067847], [2.207655988047864, 1.1752213210155078, 1.554487648356285, -0.18851422613534452, 1.7951892104291924, -1.1050249891210455, 0.48539704413580165, 1.6148439522812141, -0.8337667815420271, 1.6839860177064387, -1.6770703444333674, -2.164588441433323, 1.375760739951446, 1.412704322123236, 0.7386300401111576, -0.13804653150392443], [1.9722996013882517, 1.0156523653951754, 1.8946325575157155, -0.847446181410985, 1.3997815284389183, 0.8884986642788082, -1.021493477642889, -1.9819909796125992, 0.8407715723702451, -1.0932559740961982, 1.7335891065406976, 0.39689424626733827, 1.6749192911677075, 0.5271288533277172, -1.308366693972184, 1.0494144964677665], [-0.12297654983009249, -0.7698392006652133, 0.07758091493397709, 1.7764329192938448, 1.0393476079840214, 0.20312822911271533, -0.41474034966311957, 1.1297013918977479, -2.2223756244748274, 0.6293882691205656, -0.9357890956335941, 0.7064031590442901, -1.0389675982096633, 2.0533902210770676, -0.44994324265610147, -0.0281673290583806], [1.2398342720903621, -1.8456513171270084, 0.6390965067187503, 0.8069629369132688, -0.13831344903517107, -1.605765715857558, -1.9830895601873229, -0.34655166527745673, -0.04799209401390914, -1.1871981995029695, -1.0259117494553134, -0.863634316601825, 0.7780076845548511, 0.09037544261033256, 1.0524322072648067, -0.2014109667748536]], [[1.1584021015138297, 0.22500929485976656, 2.1533828120725365, -0.5545847028413178, 1.1092758807885135, 0.6751047766241606, -1.0674764698646153, 0.6974834885805239, -0.4739277088715181, 0.8654977971476034, -0.10328064449182646, 1.6532052536594535, -0.010246099293947791, -1.7270888766443178, 0.08673526383106814, 1.6707118092741624], [-1.504826528181674, 0.5513360639660522, -1.2205767302806765, -0.7449878910202801, -0.5977252593725073, 0.9080078197529607, 1.9636646283227068, -0.9320360992809861, -1.1695407010451648, 1.0759185827760118, 0.9646515915389754, -0.49078125593000343, 0.7016023393166839, -0.29079253083576995, -1.2783332125436286, -0.7914955009889404], [0.39682998419030524, -1.5354955438098277, -0.1712396548652385, -1.4344428759971481, -0.8250522402059007, -0.6624968324011519, 1.366978415841907, 1.2128882966962409, 2.0576250000804786, 1.1288561964949184, 0.7912238874724687, -1.054340598570729, -1.2400485741991985, -0.15047570062211973, -0.7652591227492297, -1.4506216057797878], [1.59043422122252, -0.6867013336949305, -0.435137136846507, 1.9592225657957114, 0.41604311603145555, -1.413030411942053, -0.6398696136708558, 1.404940038751539, -1.5675652850532529, 0.5965678333396058, -2.085812037947043, 0.9113865533453888, -1.8421915887544407, 1.659691836100311, 0.12761431055990646, 1.1339071610451188], [0.49724991452424977, 0.1253326767728252, -2.0238413037465954, 0.19822816478459462, -0.48686093969525396, -1.6150989498416082, -0.07144593975175909, -1.4672108044325776, -1.162963613411139, 0.21745614773761812, -1.2270378954553207, -1.9782582659079049, -1.9774895381323685, -0.41352474300030934, 1.0635431284011425, 1.7565663495974555], [-0.3565239172984963, -1.7383327648009086, 0.036370995455406216, 0.46132338032519715, -2.0233447059945364, -0.31548077516364914, -0.16204204009332018, 0.11499286616281063, 0.4201972669624243, -0.6640724959219743, -1.0522416423700056, 1.3127439872465554, -0.33824984304626093, 1.0916954016016445, 0.4054700864437891, -1.049443290723917], [-0.7346615508871138, 1.7542582619003853, 0.7919739200301374, 0.24724934528604622, -0.008175219861169938, -1.2551219523930854, 1.418552245327744, 0.541014379199565, 1.8459170497458508, -1.5506894497417771, 1.0892219606875786, 0.228891316322982, -0.8836729896530147, -2.2993284371208436, -1.289034182596249, -1.2601121076207293], [0.1992923089780995, 1.999733019175119, 0.44214671509165643, -1.7669007719320282, 1.4244136508700234, -2.0661465523005065, -0.179518900773378, -0.6770458259916926, -0.2730390385252809, -0.7066171062526622, -0.0013763552762471598, -1.0594380414619926, -1.8692393356134902, -2.1053157708206567, 0.24561804933784584, -1.8644058722212917], [-0.6996464091650427, -0.9525654082745821, 0.5048248843126396, 0.8170407166536208, -0.21100083426167882, 0.7262273069787053, 0.12320352758268985, 0.6428745112736196, 0.13908538268187784, -0.5593764792533589, 0.820284246913942, 0.5734777489981125, -0.1036905789594323, -0.259837788221675, -1.573482506212387, 1.6045607213473354], [-0.6417310943720796, -1.2950121819187246, -0.1887392814224964, 1.3538308705128714, -1.3269916950335694, -0.743102199444166, -1.337809554646375, -1.5189318537818264, 0.7636294001907246, -0.1094850636753259, 1.5133731253194507, 1.4775537704321697, -0.11494515046612143, 0.2848349316910472, -0.44641553857172606, 0.6738007201393115], [-0.87151287015777, -1.1876371535079142, 1.4805276465760921, -0.19662963290636354, -0.8834199201578534, 1.3651320324646863, 1.138800084186197, -0.9421732930055247, 1.7697330805900646, 1.5168010063735045, -1.093194863252526, -0.1895278257400466, -1.1887497268105753, 1.9246259610747545, 0.6708126979266551, 1.457211127043124], [-0.8174788249840662, 1.6467309664022867, -1.2215198045961744, -0.1679380218509298, -1.4919831361136786, 0.34653532506397144, -1.0645924028988734, -0.9815541169372949, 1.156354831464822, -0.8191820567214413, 0.5721441084771196, -0.8686429135871847, -1.7318672817888074, 0.8247404490567232, 1.5082471714676147, 0.5878039485883055], [-0.36900929255320836, -1.0985388068750597, -0.5884707705243395, 2.07718613098734, 0.039333939592954274, -0.3138817454152039, -0.793149340451506, -1.0411079314250484, -1.876119418263129, 1.977322830728002, 0.8560700344784373, 0.4083846478876234, 0.45722988962021166, 1.7798276590727788, 0.5979783073713778, -0.3079531116203882], [0.6082278794522269, 1.1821993685330743, 0.2454192974793984, -0.12483552320379289, 1.1308723335240378, -1.1215397819411204, -0.5563184091393756, 1.8151075003091366, 0.18198937847550625, 0.9428299201606324, 0.897761091443659, 0.432479869949209, 0.6642941518813253, 0.1336241516332176, 1.7294047935724433, 0.2957076847726895], [-0.8658040411524457, 2.262995749591731, -0.15387894659653364, 0.7908640655451037, -0.7598744504811604, -0.2490903147862267, -0.3947559286256744, -1.4049245141918474, -1.1233541713466693, 0.19470044101750061, 0.3685042419414198, 1.2953722239532428, -0.02135699462275359, -2.008589142259591, 0.6277823078056963, 0.559089852684423], [-1.3200390277723393, 0.3762148231061905, -1.0684252735223059, -1.1945598226742447, 1.7984358609825872, 1.172328367465773, 0.7549033576611099, 1.564979021975727, 1.8598955192134117, 0.49952389850927337, -1.4609574065145905, 0.9046726690342087, -0.9374132000360809, -1.715578441259297, 1.1364671125691703, -1.703789461430024]], 