[{"index": 0, "weights": [[[0.7754900848128626, 0.7320693325129659, 0.4551145809221717, 1.3861234499151418, 2.2112350811589843, 0.8577883649128497, -0.33679729209312986, 0.5036977723332289, 0.7253877133512845, 1.8209317633345068, 0.5072140930040349, -1.5524431457304386, -1.0561650202079857, -0.9671797727463602, -0.01830972276553268, 1.377228223677718], [1.998353745578275, 1.2499717677865834, 1.1084905189940335, 1.1469930091829723, 1.16699951100627, 0.48032928226075533, -1.8134539369058809, 0.5036856063842261, -0.7116645966277289, 0.08633442484641943, 0.9742050085770717, 0.07295603630813736, 0.7313329900459943, 1.487948581189381, -1.8590213850619624, 1.569662474227091], [-1.1481964699052187, -0.5700747920503039, 0.9880674571398154, -1.3164712480835186, -0.7452765574100831, -0.319216403481955, 1.6843378028672067, -0.7980302000121723, -0.40555310373666487, -1.2836045779727543, 1.2622424530177776, 1.4040026473981606, 1.6135677538863664, -0.9501528529302137, -0.08258206591255532, -0.34148756618531073], [1.6500330982630913, -0.6243641897132224, -0.8389903593357592, 2.0930469992798235, 0.8295610280553132, 0.7190346224342324, 0.7034001641807053, -1.062474415799253, -1.8057737583957447, 2.140623605015901, 0.22878017131870648, -0.25536507799844826, -0.12726812313898694, -1.8823450611307608, -0.18043977607766104, 0.48209539762161113], [1.4418102842278777, 1.5254986536355903, -1.724534032728772, 1.782035286797106, -0.01774432110264565, -0.8904550025987342, -0.7248158798913724, -1.8413777186361906, -0.35594474901390916, 0.757327804406902, -0.8558215297141882, -0.0592479425767323, 1.238847345778427, 1.6946627530953684, 1.5836080681924516, -1.3954579632057702], [-0.16494406582624055, -0.6761863638830884, 0.750014713125309, -0.9339986750729984, -1.0145733506909718, 0.5329279163152036, 0.47363483037001297, -0.004395609121596145, 1.481366114967193, 1.3979237924953918, 0.8017420322306792, -0.9491211804530273, 1.6119904916627499, -0.7648971920970327, -0.37662754977262486, 1.751370197817757], [-0.8371231247132606, 0.8396267388607108, -2.073818937262193, -0.024145584568751294, 1.2306681018095411, -1.6076580004960361, 1.5526438224765147, 0.9570062186524848, 0.128230123136429, -0.6275336654180187, -1.0180995596637619, 1.8159632176369858, -1.0362756542404163, -1.0285823975617803, -1.5521842540425395, 0.9757765291373962]], [[-0.8096535768751867, 0.2637937108082321, 1.58926644883645, 0.08426408708928385, -1.8021874005664105, 0.7025586769605489, -1.2893137273396822, 1.131865152154597, -1.2682477273916815, 0.9464724511755348, -1.9003729565627094, 1.405108158686404, -1.5104287894573178, 1.2890453473047223, 0.934028052662847, -1.6992821516082348], [1.4375887496793303, 1.8356183436133766, 1.35890753112161, -1.1576138545183987, 0.13106672218183668, 1.2453055800789847, -1.094325606090698, 1.3302890673689034, 1.3217938999662586, -0.3245340776943871, 0.5889847210440403, -1.887980033189429, 1.050979774533337, -1.6034020211963451, 0.7602977982659058, 0.894116896221985], [0.08938352828739486, -0.6615407947488172, 1.7562259290793216, -0.2753490053741753, 0.6630561965354422, -1.4772682158585728, 1.4645643396054593, -1.8165789827988255, 0.2239461662647258, 0.24432747661057158, 0.19295721030001614, -1.0084380631747476, -1.6966434631988567, -0.292543925947382, -0.060489438241958834, 0.1529260602387372], [1.5282495581691866, -0.0037839042463490152, -1.2552110532350789, -1.9361402818418494, -0.4115259706710709, -0.5873896188765364, -0.3651750006306317, -1.4438572926907884, -1.4243295812831787, -0.055533259008600025, -2.056392612201534, 0.5686290455602243, -0.6057590456409785, -1.8396828144385742, -0.06643636613210475, -1.514708753679026], [1.3788731742481337, 1.578111716144162, -0.19684132641278157, 0.16545544393070288, 1.7287257455221456, 0.18667908572916117, -1.7176624522966182, -1.5314691362709478, 1.3247406039561767, 1.733989830707229, -0.6287916450244743, -1.2483039138048737, -0.1052547142257575, 0.013408670923560961, -0.041479600850778106, -1.4135023163001932], [-0.10417188919295037, -0.012812638670423575, -1.6144119685548768, -0.5308647599889632, 2.0773272501675515, -0.4834464652423862, 0.46982104496542565, 1.0344056978154894, 1.3985884186369473, -1.723757845364203, -0.699976883644125, 0.7007618845904476, -1.3044859738735306, -1.0796960666335151, -0.38362240696152006, -1.7145374743619484], [0.17900856434373866, -1.0082313810180903, -1.0982294878952983, 1.019047103164881, -0.9665662735648204, -2.051542984810149, -1.9297986181853346, -0.7380083731058932, -1.789067898141015, 0.07536524151395979, -0.5092952150543655, 2.18173622275667, 0.10618642099914885, -0.14055631835788818, 0.559801810707028, -1.461617086064838], [1.4200064659018614, 0.37363719056647626, -0.12527374374933792, -1.9519611629028113, 0.7275982757718816, 1.0721627157393603, 1.4370885677164777, 1.785823530165749, 1.3101247205283746, 1.3745801496008296, -1.6014183391381454, 0.7274327572567465, -0.7499386364463902, -1.9385623935646232, -1.2048387559688776, 0.022094882879563474], [-1.905512708603055, -0.2612048627385471, -0.3058760818543204, -0.6062078205737349, 0.08785772255137027, 0.07690230747238223, -1.5907351572410793, -1.983994445859596, 1.8815464772900043, 1.0214239321271414, 0.6602248430830355, 0.2557937942903873, 0.13956858680373252, -0.9128005090323388, 0.47170608209025244, 0.48757637539382187], [-1.02994634784246, 1.3058777438432614, 1.0020777719778666, -0.1967623250176284, 1.2979369881104663, -0.6779365297425886, 0.8293554081416035, 1.4580759994798618, -1.7832837969507818, -0.6349591431547372, 0.9935956371325556, -1.734293662887803, 1.280679447162376, 1.8024502357302106, 1.6366201975532066, -0.2658263553153164], [0.9058442960822921, -1.8035525353221666, -1.0451990471685972, 1.5476807087338853, -0.023577295602142695, -0.24630949007830003, 1.9566746602418197, -1.2463080594733194, 0.9983775342048533, 0.9831342678373811, -0.5688958889895283, 1.733352258051628, 1.31433847702013, -1.1267944993135828, 0.2448636315556414, -1.5722502155157785], [0.2412080477727529, -1.2176052866026825, -0.4004426493761969, -0.9354386299011368, -0.7112686547617919, 1.6853641772407282, 1.9701276632341198, -0.3370499104311052, -1.7616587454729598, -1.782892885616626, -1.1116848683667198, -1.4797078270580646, 1.825766760511057, 0.47096778881833, -2.0206490868267912, 0.4738306510014564], [-0.8959608149135583, 0.5887702203869435, 1.8300714342310282, 1.8952186392314692, -0.8440784910148175, -0.31059661044227804, -0.4885013401711286, 1.3498229242961084, 1.4262477059828742, 1.6294846623131527, -1.7192771094656745, -0.7038579765104597, -1.227178032031079, 0.6243257338096267, -0.25286404799494644, 0.24894467423359684], [0.017961976249646544, -0.4994992052676957, 1.5419100736552809, -0.46434919523399537, -0.23417152773233196, 1.9235549751879966, 1.7911299948964767, 0.8518272347421486, -1.1968569546983299, 2.0142105355948154, 0.2495806003647775, -0.6762778266200908, 1.1279529112979176, -0.25129054722544814, -0.5271825311960863, 1.4052769094802735], [1.8678280042280444, 1.358039714239379, 0.978628020244312, 1.4787703118032098, 0.002352246075574063, 0.08709568733219586, 0.9878901267025904, 0.04205918019505116, 1.0820140197083752, -1.6582155619948329, 1.298378987370238, -1.854364222963362, 0.8077735709826511, -0.4031741380189563, 0.47566701984080795, -0.6334361939855414], [-1.0047034079660546, 0.2344235607080355, -1.0348813217648503, 0.22141421335839914, 1.946822055833483, -0.680574171237686, -1.1484791236306933, -0.07065749508709476, 1.6345806414865625, -0.29543987357232443, -1.0018201071166644, -0.673350955930035, -1.3563430029407422, 1.69878135903498, 0.2548006156005732, -1.343409457172952]], [[-0.05634957532041488, -1.5782803678726798, -1.2920523798084655, 0.8312632157021679, 1.553087804088217, -0.09630267469181633, -1.552620820854662, -1.5252065146416913, -0.2215176514812875], [1.3933722780352562, -1.6949138367177559, 0.5285882201218384, 1.0965122569182062, 0.9473263960025473, 0.6240451152591887, -1.3714389134390232, 1.2585167719731898, -0.44093235060614583], [-1.5354499993745034, -1.837256069117399, -1.470258533899631, 1.0461863485063552, 0.01530807069991344, -0.12800822986134536, -0.6959071325129614, 0.9949623796266787, 0.11355465415716376], [-1.881851670604015, 1.5023655115768073, -0.7739614781952535, -0.38238720503357293, -0.2608827303926122, 0.6214852584513654, 1.7479587532424954, 1.997900800394037, -1.7861470876943337], [-1.5342955616027245, 0.5173231870436263, 0.7045525766303674, 0.5694762296858419, -1.8123706482774704, -0.028311834239478542, -0.8152755119318272, 0.8537020534653655, 0.13559334473101167], [1.9326757822517235, -0.12442959353746975, -0.4356744153951926, -0.06280751902461362, 1.6816813730649365, -0.19439028772819983, 1.320008419409808, 0.11243430781095834, -1.5240347865611774], [0.42757784483527117, 1.4537056750718507, -1.724424847242059, 0.1915773822906663, -2.1762528322479247, -1.3002638258837091, -1.838489308841884, 0.1129494202977612, -1.1784648643220124], [-1.1059682121819734, -0.6589481188690514, -1.0709486971339455, -1.9164827656650636, -1.5700840624322832, 0.6008197176705093, 0.37938442660670035, 0.20266719504123748, -0.5580578287707756], [-1.1069885947096727, 0.2934868749349177, 0.09762854920833514, 1.4394646990904472, -1.3759592213737242, -0.03423391355048103, -1.4741141788916658, -0.39162647351245633, 0.6724048184708198], [0.9750495116125206, -0.9247843146421032, -1.5512932646355344, -0.835530692699158, 0.1420876326124565, -1.7334282351207233, -1.2597485452709396, -0.12074062638572546, 1.040269697574781], [-0.45624378513514713, 1.9002003867172002, -2.0852659887255123, 1.5709549749654181, 0.22156937338945465, -1.4452215248879305, 0.29439915380467846, 0.5281653250428342, -1.9282247040161082], [-0.557564906975836, -1.2904352384928102, 0.3746790626152703, 0.3409351322382779, 0.8550036560132114, 0.748769329556068, 0.7233279293311597, -0.13806417818693995, -1.6489220003220046], [-0.7605865143918475, 1.1524051172141796, 1.2425639404302529, -1.4716453464914754, 0.044958524203072094, 0.9784394836701412, 1.0732462446128501, 1.1791806821228108, 1.2918474207744988], [0.3907605498569239, 1.6536112360923092, 1.0180082742094394, 1.3379654064096431, -1.049340531444739, -1.8652149488292504, -0.38350129166161867, -0.4150621557616687, -0.4720143661134941], [0.9742562588894721, -0.2570603701253155, 0.22259964171128202, 0.6729782829865365, -0.9120514973324282, -1.922347917892548, 0.2500516574396856, 1.4269052441759065, 0.9401800835396694], [-1.6212291608943086, 1.527928441248068, 0.19245181281976087, 0.2415212397023494, 1.3873857956111602, 0.7956433344382146, -1.579229211262649, -0.3356931846085607, -1.0225042979314565]], [[], [], [], [], [], [], [], [], []]], "biases": [[0, 0, 0, 0, 0, 0, 0], [1.4151630461383202, -0.01615447972150802, -1.47886926228919, 1.1387648106071397, -0.476133385560526, 0.42181373059491667, 0.23459056821879995, 0.045164232570294754, 1.3361525571329274, -0.7732164678484243, -0.5096469109874808, -1.2851389971007627, -0.8812495266856046, -1.2175064394486104, -1.1719933332426862, -1.0060001975727852], [0.5154629264244853, -0.2115831511748344, -1.681544398968703, 0.8704266071109046, -1.5862511723542658, 1.2840092226003275, -0.9221107302869431, 0.334409210385496, 1.6053422444047352, 0.4248107663655979, 1.7781483141390564, -0.0012806386664982877, -1.0472620821398884, 1.2481943213733562, 0.6050819061218322, -0.3819479359705623], [-0.3966582735024121, -1.927360645788589, -1.8270801838060693, -0.09573551925726065, 1.874920120449235, 0.011837371802028623, 1.479004393773411, 0.5841473566550356, 0.5854404115608077]], "score": 962}, {"index": 1, "weights": [[[0.7358601745182317, 0.687812310483381, 0.6430081914361514, 1.2306442413875578, 2.0340918520994573, 0.6144670594242758, -0.35800666900094613, 0.5921389898196386, 0.7932862931199595, 1.9611488864917666, 0.24779376660137506, -1.3297170549016115, -1.1160572743558153, -1.0824405716392365, 0.09472728664860813, 1.4479685953904542], [2.2192001301204805, 1.3947824074077628, 1.2917983957251602, 0.9687613558997497, 1.0985340713440879, 0.6723642370717678, -1.8146321875400153, 0.27735766371795423, -0.854746909529553, 0.08324016843070901, 0.9640628027233851, 0.1283878942982883, 0.6047157154609735, 1.3719072786742728, -1.9464191519331533, 1.2513816917401996], [-1.1741580470776922, -0.18834368764978432, 0.8599159116675311, -1.1898360222199214, -0.8972954632813566, -0.6542838565332512, 1.7372270324848718, -0.7833003374109584, -0.32142748839019936, -1.3913386864909207, 1.171564621097358, 1.376609592437401, 1.46347637629029, -1.0120068966394034, 0.01332722768871425, -0.20223682620742894], [1.650583614520632, -0.3982851054497065, -0.6819302116435401, 1.9217601894930532, 0.8524622509426041, 0.8230572152902661, 0.5863519697158612, -0.6902191525651262, -2.076394324133806, 2.113949244895955, 0.2758259830801215, -0.14856375466210703, -0.32622418185313135, -1.894159311222877, -0.16696697636838048, 0.6382407804078509], [1.4124058049299137, 1.4184558592066991, -1.8115982900456797, 1.6409604883171114, 0.006074830141356069, -1.0207436472285942, -0.7627034896019116, -1.8083898396817197, -0.42900133905616056, 0.8655822803917527, -1.021181950896969, 0.16274958692807226, 1.2695358904639888, 1.4649424968188833, 1.576675122076393, -1.4667344211005409], [-0.040279625957824514, -0.7483192406785389, 0.4738323006838922, -0.9405212124296566, -1.207558696352183, 0.6537083711133364, 0.42547300333278026, 0.2604893889981773, 1.5736325765157737, 1.2186758757086498, 0.7072503734109217, -0.8755501910691021, 1.8255477941917275, -0.7353112838611253, -0.3863044135575702, 1.5486706791330056], [-0.7673692726922153, 0.8202162233535037, -1.9865100784318757, -0.26089482340852466, 1.326334504969779, -1.5399250788097503, 1.9070190867473162, 1.161851749359922, 0.2501776195176481, -0.6658092947304701, -0.6380301153821536, 1.9621487172467382, -0.9303243453105837, -0.8355351556147894, -1.5155004979211146, 0.9498592802278066]], [[-0.8259717611752091, 0.2815837711472319, 1.626455133256449, 0.14660691946046814, -1.869934738063831, 0.7293529922246172, -1.3755404488623697, 1.189589396010444, -1.193203756192208, 0.6239878817084064, -1.9031320892652706, 1.50355277810838, -1.4734733278664527, 1.4104528955745235, 0.7074373999213108, -1.7923062734435702], [1.3958870732965052, 2.0313282400404797, 1.4484570283352332, -1.0846892056600987, -0.040151579105213914, 1.1548926532486492, -1.1110549696525707, 1.4143353314042393, 1.73490534422807, -0.44103379256484865, 0.49431166242214863, -2.0901367506412205, 1.0833786000714025, -1.783624284403874, 0.5278376342906889, 0.8773987438161318], [0.1800895957095122, -0.7871380799531645, 1.7495739012712486, -0.27289170403038054, 0.8263072509639221, -1.456305244552728, 1.378969409051853, -1.7484669672857622, 0.49435223794354444, 0.1428254194282722, 0.33298494173353266, -1.1231999595849067, -1.927397039868028, -0.3594653730171035, -0.03827118488909851, 0.05670275513729594], [1.5811162561269212, -0.1184325620853039, -1.3143642075536, -1.8689246693089598, -0.07260361743370641, -0.539046927744161, -0.3004378516764694, -1.4503591017429711, -1.6798417665020047, -0.23987764175826656, -2.168936021341125, 0.3826505966725933, -0.697663849650279, -1.8904958246008507, 0.029352967380215575, -1.6657892536878491], [1.343841950273145, 1.4469884597877047, -0.1866750258162912, 0.033423645550506476, 1.7274286698278007, 0.08240439814286765, -1.4384720093536454, -1.4149084457439978, 1.5262291010132079, 1.8164692731652312, -0.3873645855025769, -1.2812239555781468, -0.08455669983192611, 0.25110230242489356, -0.057207966457239516, -1.310981344171637], [0.0937780391715772, -0.11378048114539524, -1.6124321751214907, -0.4348157339773805, 1.9853426889246866, -0.5387704163714511, 0.5016971172242387, 1.0689637579645732, 1.6471038758244312, -1.6640285996221125, -0.7842139713255776, 0.6893164680300324, -1.3290746918937657, -1.063578762815467, -0.3658139624600195, -1.8065864166264165], [0.18769709070752869, -0.852818257963232, -0.8915900876381939, 0.8520123346964134, -0.8381024329663854, -2.0280922342456265, -2.1173799473804853, -0.6413184656984223, -1.5428243720146946, -0.06155663910627583, -0.7519055087556158, 1.8155870119231774, 0.024701134545306702, -0.15832878638203815, 0.5267464658416744, -1.3561335941095485], [1.484099217440795, 0.38511081684460774, 0.04780749937396017, -1.9331786517409515, 0.6252585929651001, 1.0441632283060196, 1.4871809743110056, 1.5901542374237485, 1.5787082129713113, 1.3755458672843675, -1.5878504508027849, 0.7661824711987852, -0.793077931055116, -1.787462009190095, -1.141387413637169, -0.0018759716989349244], [-1.59846001342871, -0.46620312318944396, -0.3540929494232713, -0.5807766622088384, 0.021438017181712378, 0.010380087529385972, -1.7368953487730605, -1.9393519595557787, 1.8690427029774133, 0.7969711512612613, 0.7614584158361968, 0.3657143604469427, 0.058285262377197805, -0.8128230544615918, 0.3245323647400982, 0.5756773261177892], [-1.063259519973286, 1.2986704922876713, 1.0408378607826472, -0.14813638924833156, 1.3883404805014161, -0.5472554684254652, 0.8524004343834662, 1.4135419848956536, -1.5074170263223554, -0.5483678101884928, 0.8522319463958594, -1.7739695687023167, 1.3316097620579308, 1.9098747889318632, 1.6238459603574549, -0.2957700871085131], [0.9754666542079541, -1.7017963851595534, -0.9830299981453983, 1.4937410508353848, -0.2705993487579756, -0.22830116201050477, 1.867428133215851, -1.398093640617368, 0.9375406850595758, 0.9411055052640301, -0.5409124637894784, 1.7899974944722814, 1.3043888891236368, -1.0817354008253324, 0.12831801958851824, -1.8148305889756642], [0.2969926420364673, -1.2533691138034373, -0.3333742994000589, -1.0106791460818416, -0.5872848207705899, 1.6763535869656012, 2.053297524313937, -0.3361988414866814, -1.8214216953032025, -1.8557103669826582, -1.3003781782744501, -1.3598478599784751, 1.9313208442098897, 0.3056337438158931, -1.884480415708984, 0.3714497630594503], [-0.8544276798888164, 0.5279892244859984, 1.7815067131168234, 1.9890397843267535, -0.8263336980581918, -0.30168756437679933, -0.6263682661923233, 1.3233174072808556, 1.4438578276534622, 1.7183925119980652, -1.6727932107388555, -0.5628464581114954, -1.4353443891219806, 0.8144877311180635, -0.21812865157582215, -0.15151568289332784], [0.07655523141793927, -0.4933965931534018, 1.4924134664737836, -0.5596118473595239, -0.020499678033529478, 1.8890631179264046, 1.5760339843543718, 0.9478232744997623, -1.031311767474151, 2.1693610211516803, 0.2897799264427314, -0.575691735835584, 1.0767181332701894, -0.31546419272291804, -0.2636924641630171, 1.1326763400635302], [1.8132660110391154, 1.0999892944507526, 1.0436371222850207, 1.3784137255817177, -0.21995382380016548, -0.11510934031298642, 0.9785823897793512, -0.009089201595952084, 0.9948600822377595, -1.6913277509862348, 1.1867917652418527, -1.9874241799060228, 0.815930432608308, -0.4215411962957615, 0.3791807973376482, -0.5747830765162787], [-1.1739257875277591, 0.02904349107963236, -1.1293761082927525, 0.37038883162180675, 1.9409962410022408, -0.6477284498341378, -1.114558350872823, -0.09912247583310135, 1.722807661153223, -0.20292445249484384, -0.9018676810208522, -0.7932794520116024, -1.1850518121323392, 1.689136860217988, -0.09076812730871284, -1.061489785050245]], [[0.061153429427403476, -1.512174517800566, -1.1223801723822286, 0.8553179638164624, 1.5575471975487605, -0.2547648465325319, -1.619568301318155, -1.5680559226135458, -0.012482548738402613], [1.3973591162135595, -1.809172127919511, 0.4434642666766502, 1.2562820485191082, 0.9081999029798473, 0.31217594775013413, -1.5366098070485799, 1.1911272400679616, -0.29389249774429016], [-1.5478346867605688, -1.7531612065458217, -1.4458261077289403, 0.863824156919003, 0.08089662593724922, -0.2022531155225482, -0.7682563410224981, 1.1940311971992066, 0.10671800748498844], [-2.0356289430785663, 1.5593271409651601, -0.8645879818067111, -0.5776201651626791, -0.13881794521414131, 0.8336241978755671, 1.5122452874081367, 2.1620297350575575, -1.7303735349176161], [-1.5848717887534622, 0.3721747535639577, 0.8277252920001774, 0.5688408126879096, -1.7567827017161215, -0.17863241116222572, -0.9023222197385321, 1.019558542432778, 0.2577957924386699], [1.8931264574337647, -0.06398703472519413, -0.7595029836920656, -0.023199960053184893, 2.202204333835346, -0.3215341749786137, 1.4653406401130393, 0.14313681457887015, -1.5076251468368085], [0.41993738551359994, 1.2687911868922017, -1.6344576654960719, 0.22548147995304044, -1.9924950963462293, -1.474269632976821, -1.8122855702023677, 0.19929214818356633, -0.9222891742334209], [-1.263362603924982, -0.7253339157202394, -1.0290777272995686, -1.952250981740009, -1.6329482223875547, 0.4564174276172369, 0.41749950089798055, 0.39952574528090035, -0.6931350190824683], [-1.077858486920608, 0.27989849901355346, -0.010178765679492163, 1.5793715355210063, -1.473458347673929, -0.2892823709396507, -1.2714895434964855, -0.3468427453016976, 0.6700078814471011], [0.8655526820383923, -0.9413280416684805, -1.5342636702779326, -0.7062903519017537, 0.17469484938700033, -1.696476494760173, -1.471627171235976, -0.1830514230974583, 0.6161880007074563], [-0.4617754439857878, 1.7927428916253354, -2.1700149643119073, 1.7061488091649266, 0.20377332399872955, -1.640490860637495, 0.6103773649440601, 0.5456975032714335, -1.5890265925695375], [-0.7523379786091118, -1.4317711180497399, 0.5280365751114628, 0.234357013744272, 0.9132752437515244, 0.44207674783343154, 0.8547994176292353, -0.18829119557270477, -1.600688315598586], [-0.9662575790040296, 0.7773555451090592, 1.267831442917955, -1.3836806742678431, 0.216668929274422, 1.063120300414578, 0.9222572022158796, 0.8570046532712068, 1.2117979736720574], [0.2167006995195438, 1.4714199138359816, 1.1107669613445665, 1.1577493687967364, -0.8041549179751045, -1.8969100188275663, -0.23240400387558874, -0.46219161099098255, -0.43766017860712], [1.1849786785563472, -0.03403603530303649, 0.2947326601692492, 0.6638425013068482, -0.6624263201865047, -1.9280784271153795, 0.18875726400165274, 1.0609150279063373, 0.924238950010709], [-1.5510830030339786, 1.5456635068438451, 0.09070241336595405, -0.07351356493895438, 1.3175220891409878, 0.9722663849110227, -1.5147827032235714, -0.48829153010680826, -0.7438679713393714]], [[], [], [], [], [], [], [], [], []]], "biases": [[0, 0, 0, 0, 0, 0, 0], [1.4737863822383541, -0.07356505637452057, -1.6573835583423089, 0.9212844974726558, -0.5557467255351785, 0.4084291548632581, 0.29709462390134295, 0.41584568569928904, 1.4465785519374004, -0.8221146176969584, -0.2900156401110256, -1.1838283057937173, -1.1791833311556272, -1.2155521517552967, -1.1597778983260858, -0.998848693040874], [0.6359788367036796, -0.08260719446384815, -1.767708238197239, 0.800953187214641, -1.4621893846273837, 1.2339020824234155, -0.9616461053754632, 0.5673719777300137, 1.7602868039958, 0.3590172273482192, 1.7741048233796133, 0.1377899413637962, -1.0417063749211641, 1.2977775452919988, 0.43064839260230503, -0.5543714522188413], [-0.45697807055608713, -1.6930869036047964, -1.744745557684818, 0.009012134497625057, 1.8589533230194843, -0.17061679164565402, 1.3746906780798205, 0.7469533984843053, 0.3237195725865375]], "score": 734}, {"index": 2, "weights": [[[0.6677869816379538, 0.7641287140094006, 0.6229487916669227, 1.4510139943510183, 2.0144280623769846, 0.5394303195491278, -0.3705043878872711, 0.45231517746517547, 0.7189322594899896, 1.8348883278380541, 0.17143347047024102, -1.3903836464516934, -1.3202427976249047, -1.1825147568916927, -0.04661449573033663, 1.3279437674538241], [2.104657687906516, 1.381994536172111, 1.0616999238610154, 1.2431456039969604, 1.1297401627682075, 0.6300682295751248, -1.636427235792173, 0.3972391824920503, -0.7703251298766587, 0.21209752762889, 1.016434379052839, 0.14551764073759535, 0.6229727066848718, 1.3015925798652859, -1.8157564863875613, 1.5211763668466918], [-1.1984388625073414, -0.36163268076268174, 0.7145607698110283, -1.4499557979674758, -0.6797355098193257, -0.42910293314812414, 1.8122158905031498, -0.6750183419961593, -0.49723726621553865, -1.3434793477718074, 1.285734368349509, 1.2896006608153605, 1.525809194413922, -0.9502512547464698, 0.19734784927872748, -0.14857439251819748], [1.587871732630138, -0.36384991486532015, -0.9421415905661892, 1.8077733927039785, 0.6624650889048521, 0.8799366980427781, 0.6842440328233586, -0.9052562646445165, -2.007615853720931, 2.1798701126111215, 0.394172607038653, -0.03612972601542083, -0.12058085818336325, -1.9685718488711041, -0.22743145033142345, 0.432033350222822], [1.2689207301733774, 1.365921422230206, -1.7977980402179825, 1.6416656244918202, 0.010147524141203346, -0.9915456517529071, -0.7226595382081424, -1.7800653404576119, -0.45430246492709864, 0.8440240452432294, -0.9929704696840475, 0.15242354024540442, 1.529694948294981, 1.641104129195374, 1.7866073903329864, -1.2826974479118567], [-0.06706394660374121, -0.585660907338025, 0.5483027670482024, -0.7398975111799593, -1.2851429455306531, 0.6240497906407538, 0.2292007801877854, 0.11910908765206184, 1.5709231879201184, 1.3401106065359756, 0.7610108392829616, -0.7984920395106354, 1.882916865580264, -0.5856048586349231, -0.5014005852442455, 1.652824829199046], [-0.8129852761741204, 0.9878192275576734, -2.1788308085895176, -0.2883932768350739, 1.3988496315991454, -1.7203400220832414, 1.828774532583408, 1.1059192404730978, 0.15409693689632148, -0.656680099083867, -0.8977794370390867, 1.890352423727585, -0.9462576238722198, -0.9223979086376779, -1.4111365139566896, 1.0427447608860758]], [[-0.9197896208666814, 0.15950922508298648, 1.547336373419674, -0.20790660630491017, -1.7643767042581626, 0.9111246593959466, -1.4155351188670868, 1.065373012987938, -0.9993360754247844, 0.9163551771032886, -1.8472575634786408, 1.4332694778087178, -1.3721038289603456, 1.1577856920866996, 0.7666960624305199, -1.8829275096680447], [1.4432213303868069, 2.2064252299308347, 1.2118657211328716, -1.1734618510059334, 0.26555027848795704, 1.169519936997814, -0.9928236472878222, 1.5001185316756267, 1.4466410580623281, -0.3233751723284865, 0.4084971533405889, -1.9725376832993173, 1.0137841002137673, -1.748538144888881, 0.7692078635115721, 0.7184159271848325], [-0.01239538782507571, -0.8152653259806204, 1.6543890012412952, -0.19910105866622388, 0.7276656759419837, -1.386849490481505, 1.6651090253444574, -1.86472470096955, 0.5103035005268877, 0.047511123461789935, 0.051980981145854366, -1.1021492101058599, -1.8814715052475155, -0.1958794403097312, -0.01912650133121504, 0.06477351506584153], [1.4211731474262823, -0.03437030989592857, -1.1346919944317924, -1.8801996491128465, -0.3630634745387546, -0.6235938588842319, -0.24914699518390038, -1.403221883558966, -1.6158259781281177, -0.16428799478854245, -2.0607702129077357, 0.5085092579568102, -0.755944288162256, -1.9131328371567649, 0.1014201016747109, -1.5256057957487692], [1.4699910363646627, 1.584302326617509, -0.14651085599433794, 0.37151047989871233, 1.6510675866102533, 0.029851566016235842, -1.4190273205036994, -1.3599902658705791, 1.2731998511434688, 1.7903777111422277, -0.5031447533988137, -1.2159521863306084, -0.2265171139064598, 0.037867245683432596, 0.2696294884554483, -1.1467531047977317], [-0.001550299490627391, 0.06357574446397352, -1.420952722282936, -0.3282757296155103, 1.9005377517752682, -0.3396252564257195, 0.4875904385119676, 1.0908039899661675, 1.4198201837535618, -1.7373624391038753, -0.7714161778362945, 0.8046361012152494, -1.3901052421827913, -1.1124938146044494, -0.2103705972002725, -1.6933337445812295], [0.3170969494079022, -0.8316088026098544, -0.9089058893293466, 0.8669060759668211, -0.8125881122678343, -1.920909953366595, -1.9544427205013974, -0.6995576040462239, -1.4339379606668146, -0.13407730024062242, -0.5449561006503975, 1.9329211828958057, -0.054100244795794894, -0.11537161181776476, 0.34166848909740355, -1.4665834337718064], [1.4514712119746378, 0.34725697349400086, -0.06654197692969419, -1.823997291604887, 0.6832397305483779, 1.3765172221294504, 1.4623270484614825, 1.6314233927969226, 1.4924993922151266, 1.2413851198273378, -1.5473370285089163, 0.8292995229995224, -0.7161362134941445, -1.8358273590298522, -1.3488845180683744, 0.24987845298106476], [-1.7231586135879453, -0.16232639622478917, -0.21151702882415288, -0.5378220574054806, 0.006058831429092457, 0.12514092733397603, -1.5607326517020093, -2.0039328917033292, 1.9903330014147391, 0.7263622432681864, 0.6347294661953993, 0.20800530039509968, 0.25044489623161653, -0.7157339150874145, 0.22194058545287676, 0.5788225834765935], [-1.2624669918296159, 1.479894850017956, 0.9399427575453284, -0.3251240972497024, 1.4436894591541276, -0.6401797452234796, 0.9314434988881959, 1.5317315187099452, -1.9082930004722973, -0.6127883486251046, 0.8374372471688722, -1.913278463423131, 1.3213609801916855, 1.8830507585324088, 1.6856703738587133, -0.21248303954294434], [0.915281089460717, -1.6986918119298615, -1.24783103077855, 1.592243409698694, -0.1319206611063593, -0.30102699298429836, 1.813222630405672, -1.3442598754548298, 0.9088456686198231, 1.034983704848208, -0.5799869937232498, 1.989107977815786, 1.0383882352344407, -1.1041629443713399, 0.16058184623134314, -1.4268295300379734], [0.3714762277475342, -1.180563614699853, -0.4236085316989998, -1.056919014317335, -0.7938696021590445, 1.5196263161503996, 1.9651539350814724, -0.14770170984120234, -1.7733135676957643, -1.9615523732300488, -1.3235091516532635, -1.3942999332952415, 1.7407243381971966, 0.30260683319689496, -1.7821876141497288, 0.14356956049216874], [-0.9899383435829712, 0.6569902808710042, 1.7436844980957187, 2.088903855626901, -0.5231702218262748, -0.4065405362275909, -0.4892836500961907, 1.2310862567559966, 1.329895449042732, 1.7124063156921185, -1.7258877119707252, -0.41699379109148715, -1.4347015380718788, 0.6299833846545282, -0.2963743316961832, -0.012125708777297767], [-0.03786018516441365, -0.578322069707742, 1.4568141265069814, -0.37108566990574293, -0.2518577695655543, 1.790613376880935, 1.7297115814836475, 0.9299459846590539, -1.230840374433799, 1.8373547242085584, 0.19875915623633209, -0.6259840875132971, 1.0351166256694273, -0.16884709581260227, -0.32887438719485895, 1.1897257128129235], [1.8169435033226597, 1.4048176549966842, 0.9264873195391912, 1.3777854476754294, -0.14019981269460857, -0.052190369776975276, 0.9172117689020408, 0.052394923322923545, 1.246437675792662, -1.579522762048295, 1.3422782025303384, -1.959060146713501, 0.8221176349295284, -0.4273037734215277, 0.6859009333047208, -0.7077121393598766], [-1.0717258736554744, 0.2847570579764131, -1.0885989967569711, 0.48486666620656427, 1.7338668644242745, -0.6821909087989436, -1.1339944325856635, -0.30515301196466454, 1.6420634481540624, -0.319762979530089, -1.1833346907034346, -0.6996575705089122, -1.1771407477457307, 1.6671149861850332, 0.22766764338302636, -1.2422649340026328]], [[0.05403261604283373, -1.3072860185283628, -1.294703306053326, 0.847109892829954, 1.5016726489377017, -0.3439098722882072, -1.755919192427675, -1.673256175240278, -0.03216343550184583], [1.2019106250568963, -1.6231742228921984, 0.574394726955154, 1.191568770332831, 0.8141064063469354, 0.3596591346479197, -1.5349092726257183, 1.1249559145467583, -0.2886268253281151], [-1.5402112789416003, -1.7687377611227595, -1.4982491644340026, 0.8640002775706171, 0.010960891536501233, -0.28180815979603785, -0.7092556535176254, 1.043780702318728, 0.12750940383659493], [-1.8506500073071204, 1.6958705910137932, -0.9045552071046644, -0.6206144975928579, -0.47408487561863916, 0.6755967164280198, 1.5890960832302303, 2.040835600731229, -1.749511736420341], [-1.5986782375673299, 0.5935094920280853, 0.8821114409868533, 0.39224103050948655, -1.8707866251433192, -0.09604701528032904, -0.9110560896985146, 0.8253576345575999, 0.40189806218940904], [1.881963855885628, -0.10950034911152387, -0.6319862421034269, -0.22348569532349633, 1.8626932355342836, 0.082066259417017, 1.4343803716626948, 0.08641270652707705, -1.5433065328324727], [0.6528953128384858, 1.4582641288250167, -1.8296646164337806, 0.11135648661691314, -1.8685431261120327, -1.4055041429539323, -1.8392922100785858, 0.163567079519028, -1.0659836258678383], [-1.1026452515008325, -0.8081504600531969, -1.1635352457061827, -1.8785924195014858, -1.6376013321461058, 0.7474274360571587, 0.4194425298494336, 0.17590161615788857, -0.5612601940455758], [-1.1122544502444718, 0.4152850822984586, 0.03757069684411414, 1.63375158461375, -1.584529324634775, -0.1571718230336773, -1.332161370256492, -0.34837434880352713, 0.6939970630917374], [0.8007337374325323, -0.7880871037825561, -1.4190798295782832, -0.7822067256273026, 0.06577395963475577, -1.8354472753547488, -1.4435415432730885, -0.10567190098816158, 0.8099019670541739], [-0.5704260658192077, 1.9865650006719335, -2.0420533991560057, 1.6934352479281576, 0.2614717499803355, -1.6723916753430654, 0.5619086490559856, 0.5350401192427159, -1.8081076871609507], [-0.5329716797950247, -1.342970551902206, 0.4889601243693388, 0.3506851524554363, 0.8330281908718863, 0.5362905140009055, 0.6114503335538626, 0.03361715148403564, -1.434550402536801], [-0.803900143848413, 1.0307593666270052, 1.181454904638136, -1.505887604460789, -0.0051475421849698985, 1.1434906695842113, 1.038458517650723, 1.147221173724589, 1.1545825602534205], [0.17577905071885658, 1.96183167582721, 1.058552897528982, 1.3308210525116282, -0.7721926339274714, -1.8294534862513487, -0.4273789047750646, -0.2514640354722697, -0.42269985735594234], [1.2141957058446773, -0.33182855813769246, 0.2921993546503374, 0.5183938802544565, -0.7165512563696033, -1.9916994115486697, 0.119494921025269, 1.252474212368817, 0.883866939632237], [-1.6554043227950124, 1.5322284430899775, 0.15308903066090596, -0.02713211626956695, 1.2184995126464597, 0.6693586647814227, -1.588047466415319, -0.33869794144903065, -0.8640359228797456]], [[], [], [], [], [], [], [], [], []]], "biases": [[0, 0, 0, 0, 0, 0, 0], [1.4772376665472804, -0.3778887020460195, -1.2480107337629107, 0.9329570010799901, -0.4896846598316805, 0.4679341005141191, 0.3701403835738722, 0.2910389634338534, 1.3596846440870276, -0.8366926659524381, -0.42695360097011803, -1.0842325030109226, -1.061495409898048, -0.9970841852094301, -1.0808902977791646, -1.0607765485487164], [0.5414264725233732, -0.2199417878803909, -1.7472182244070025, 1.0398514107884735, -1.4372742691999694, 1.138842372011145, -0.9334341666778139, 0.22252978721995792, 1.7472729663608546, 0.4375563248632595, 1.8476754228271512, -0.02808119581311369, -0.8957307250822834, 1.2889837314345327, 0.5457811067036922, -0.6147867317966952], [-0.3162219239766261, -1.9048139516958802, -1.5624446230776596, 0.23556360665535975, 2.0665914114743744, -0.16657076648733615, 1.477904079971923, 0.7514200113111533, 0.4579443585812545]], "score": 600}, {"index": 3, "weights": [[[0.7846489591732843, 0.6286628856434622, 0.5272081384689788, 1.4015750727552467, 2.166153569998353, 0.7647612382936775, -0.3227171231654768, 0.4563366478390485, 0.5669920100349509, 1.7247671640749829, 0.37606860920096963, -1.5127409788923947, -1.1802887316130244, -1.0920230007080514, 0.1815647761038574, 1.496963721850936], [2.1682065602539664, 1.3845607364621921, 1.4041090057820869, 1.1118947161247215, 1.213051835657793, 0.5163196349908288, -1.8035297513848716, 0.33027620618387016, -0.6829887051402777, 0.3728819389977508, 1.2140778705069155, 0.03868832876842351, 0.6128005030530473, 1.3573156736718313, -1.8878046558652077, 1.5641238168604727], [-1.1679050602987686, -0.29413174652676555, 0.8256474284713435, -1.2334414150979214, -0.8935150251991006, -0.36929284150077435, 1.5570412159328857, -0.7136126396633073, -0.1587555120074896, -1.2919486657876789, 1.2132808864879139, 1.3578860028177395, 1.5869214320299636, -0.837220837135875, 0.05127762984660553, -0.197687992796646], [1.5670582631184196, -0.40430097399548814, -0.8598537339935683, 1.884438751861417, 0.8300481296840482, 0.6164967305470346, 0.4222922556295676, -0.7281459506143614, -1.907870476557781, 2.0039430866546084, 0.3573966367845175, -0.13514406640806106, -0.110761994292845, -1.8578423150432049, -0.28316953326496436, 0.7140468554545144], [1.4772435519621414, 1.235034223112363, -1.6551236250239643, 1.7369950805051522, -0.12797241084590436, -0.9642927073346106, -0.820624868585573, -1.8677493989055276, -0.5560007456048732, 0.8127314959612021, -0.878563793664446, 0.27574289471962216, 1.3286227693384822, 1.564111089019039, 1.7218505562450295, -1.385628942698228], [-0.2737516934086811, -0.5489344191090324, 0.3884759178001347, -1.0186675375845784, -1.0518058436095563, 0.6436424998747434, 0.22294454544359343, 0.05737852521610327, 1.4174834176351412, 1.349382156962377, 0.7826279520488477, -0.8385763763301401, 1.709774064329455, -0.7919756841815005, -0.24913779136288167, 1.6604110390222961], [-0.8415034754193556, 0.8467610057332148, -1.9278969803700985, -0.19004999189001892, 1.3960052483956027, -1.7077958049139141, 1.9313713895079054, 1.1373821388627678, 0.3266263136937974, -0.5189349036740866, -0.9856425326653735, 1.7515135832016306, -0.8860803079407129, -0.9311381837275113, -1.3595502014977754, 0.8753223428550355]], [[-0.8531885495188156, 0.40278858396760964, 1.5777688778300956, -0.018100293137373536, -1.8055938212458094, 0.5893928517917949, -1.4521874598740543, 0.9863550721366654, -1.2287574174234215, 0.6790036929412564, -1.7359657314567194, 1.433089785303114, -1.4708548745024013, 1.3370302416217625, 0.7272071016119864, -1.5824340270727901], [1.5295682186713682, 2.1653771506815045, 1.2517899795341234, -1.168329993751415, 0.20696375491447075, 1.2013876640524717, -0.9990902133059856, 1.4630409339386485, 1.5659440530549202, -0.3184312398498408, 0.5657869115318783, -1.889836827452826, 0.9849849855554076, -1.7067117039717485, 0.546984335436932, 0.8583385203473217], [0.017901664971536918, -0.8416191457078313, 1.913623135805419, -0.11565121230281454, 0.8180072521393706, -1.609293007817218, 1.4786569160004248, -2.05584472980984, 0.32547751705551586, 0.07866068548798247, 0.2560185385171174, -1.0388707215073845, -1.7393026664098095, -0.20812363889312935, -0.07330306773892514, 0.09992796541139068], [1.5349594214406725, -0.11807311649132733, -1.4415898580445818, -1.7138099668734845, -0.3189693941800511, -0.5241576695142521, -0.26848685545178697, -1.355174298669567, -1.8507588514287565, -0.19108887727807058, -1.9664450041184425, 0.39590488635713966, -0.7505534771860819, -1.8962477619207676, 0.04584033615517865, -1.4664201525016038], [1.4433531062448928, 1.6328046865816404, -0.3611625140775888, 0.5841969844246941, 1.638276252933213, 0.018341527681360367, -1.342051705607136, -1.4778933137202137, 1.2956299606156594, 1.7966552516003667, -0.4457158858189113, -1.2353254654555634, -0.07765121995124591, 0.16167904052922027, -0.09415650296327897, -1.479892258367653], [-0.17095230951388757, 0.02667168708387996, -1.381699482451456, -0.6122330605903907, 2.1970255429389876, -0.4108046001480137, 0.4683058751006023, 1.1050380681891774, 1.5393143710093866, -1.8351802591991084, -0.8078454445260477, 0.8343198290802172, -1.2490385366127028, -1.2478101989488848, -0.2181205154620804, -2.0419521497890942], [0.289621928306738, -0.8550375742027791, -0.9879781557933465, 0.936458319477173, -0.880142354618975, -1.8759885218142565, -1.8364386760506197, -0.6381320778212421, -1.6188048028560325, -0.029864806419856692, -0.7607418703136638, 2.1017194339832823, 0.01801785968395747, -0.034764656182399684, 0.3495295259424953, -1.327672596658458], [1.2837106355526136, 0.1218941057182473, -0.19346194850962636, -1.8367010233474441, 0.7045199158493172, 1.243197080679943, 1.3089404700650578, 1.4959921061205406, 1.5396380946931985, 1.3141107811103254, -1.4261687807621233, 1.0236493113748881, -0.7171040713670607, -1.746843307384683, -0.8711200516654901, -0.08042384739692526], [-1.581101786105073, -0.25275991650279234, -0.2159659609151519, -0.538073687403869, 0.11293786037163467, -0.009587662952312365, -1.5336811388688414, -1.9150494197993333, 1.915302940074856, 0.7183019792357436, 0.7981364035493672, 0.30031317744496455, 0.25949463572936193, -0.758941116402338, 0.29028320873076446, 0.4520315043768567], [-1.0190427662307098, 1.2516396123263176, 1.0752238678766102, -0.1279531821455156, 1.336782652334011, -0.7532162180336492, 0.741018605888485, 1.5206065879673556, -1.6270125290069852, -0.6401830763207155, 1.0543397511508368, -1.861502763482896, 1.1969651061008844, 2.0992668846704503, 1.6298411641858994, -0.2384876943595583], [1.0953678156066284, -1.6706706351035254, -1.1391676459736253, 1.469563290560255, -0.008906899686230568, -0.23540259983644668, 1.8764213940869752, -1.2225013926105004, 0.9707907950568206, 0.8708023679181065, -0.6700574589085139, 1.9199236186273054, 1.324752613752171, -1.057346502310919, 0.3919809641818808, -1.606690904766683], [0.13760436342599414, -1.2515914115804656, -0.3975102827797426, -1.0156904653303873, -0.8024739297400558, 1.6599878757097422, 1.8848938840962182, -0.3049821762509119, -1.5450402617882242, -1.8567289485797445, -1.2044170184503646, -1.4145829189656598, 1.999126208347092, 0.35539081537660633, -1.7838070213979684, 0.28227571121118944], [-1.0144629826567433, 0.5882577192725992, 1.7811758594260618, 1.9408018645145144, -0.6772679639014176, -0.3547464174089875, -0.5175212272287407, 1.375524969978862, 1.3586337132615063, 1.5535209390121385, -1.697378040582866, -0.5991736391584964, -1.4274341456921742, 0.6234532767126877, -0.1288747846614977, -0.2438172360181878], [-0.007720218444553464, -0.4077357651100698, 1.5674878621273864, -0.5199354866554705, -0.14900019172002724, 1.9469383845285992, 1.826154774397604, 0.8815863526331288, -1.1539461706156924, 2.201127803648272, 0.09480127787850018, -0.6390008393903743, 1.1898695145688813, -0.2759496579783379, -0.26052413551271103, 1.35335564497902], [1.6742482201865978, 1.3874988530969263, 1.022407708757826, 1.301846468647993, 0.08020178949483636, -0.024689114924082635, 0.9603727997813746, 0.00635854074629319, 1.204790432797188, -1.6114189144242823, 1.2868875263948534, -1.8749557567129695, 0.7261299370337597, -0.6191285145272594, 0.42873272757350017, -0.42164526809471425], [-0.9348864391218414, 0.10145872249753984, -1.115435190295565, 0.21759549162522282, 1.8277272745737108, -0.5573242085176335, -0.9960037119151445, -0.2049041777277045, 1.6253324061897483, -0.281773314551173, -1.1926238967085045, -0.6301146652309211, -1.2500108656171873, 1.8530200890545352, 0.03962000475828068, -1.339675046275086]], [[-0.05697097503172021, -1.461741539083286, -1.1971672735100443, 0.9710408161386913, 1.4859358849178943, -0.22245870517636873, -1.595683741472692, -1.4567765486520936, -0.07085181775697028], [1.3001371569676652, -1.8641236796008425, 0.5939073798776328, 1.1378343561140531, 0.9910623786058067, 0.5852236390484268, -1.4686584626671833, 1.3503970169795505, -0.4754784835887306], [-1.6401031448914916, -1.7903756130814399, -1.4507299273091048, 1.0010209898117746, -0.19480156295037043, -0.2009017741555522, -0.7882978772462971, 1.1405128207063024, 0.1614665211001852], [-1.9470512808367721, 1.5145846649549048, -0.8123881098818927, -0.5825494008700968, -0.3422100905286873, 0.7568535474459649, 1.5105491332441845, 2.1229996462004803, -1.8923737663479525], [-1.6132648250441264, 0.6224707724736867, 0.7498245969122361, 0.5562768108316268, -1.9024590796074246, -0.12342889144996572, -0.9515017757317588, 0.9634247864792618, 0.2774544475183102], [2.082322383504778, -0.06441698533791712, -0.5559428564586161, -0.12497320846030302, 1.9685039019846602, 0.01594902084264503, 1.1425325447184425, 0.22578645910264128, -1.4511447428738797], [0.6177637055390354, 1.2122453074453414, -1.700957094311073, 0.20816716127729648, -1.896546371102332, -1.5928048578379093, -1.975348597951399, 0.09070215622677738, -0.9561442445165752], [-1.0395323321342251, -0.628785417282825, -1.0245387821522907, -1.9767837700101736, -1.6927551503656377, 0.6881550665093747, 0.4011388672762574, 0.18215463252989778, -0.7911772322433516], [-1.061103929338766, 0.3534733426109783, -0.15297205262390853, 1.4768900949721717, -1.381917745753453, -0.1831704353425024, -1.3839626935299207, -0.3333694171921876, 0.8410135735611911], [1.121647889263583, -0.7031921876975212, -1.4035495843265038, -0.9121497552843846, -0.0028334546233322877, -1.7209430352339559, -1.4260551412542029, -0.018206852443755597, 0.7946405285273437], [-0.460451774699901, 1.8231041048174794, -1.8720906113069398, 1.62590427155671, 0.37334590941746215, -1.5121500587611152, 0.35587225383150933, 0.7389179872582254, -1.6241173532960722], [-0.7205567033817744, -1.4577570110639404, 0.5167052783613231, 0.333996029458345, 0.9156505848791378, 0.6390167137554238, 0.576355665350835, -0.08606439145465902, -1.6385379883943432], [-0.7712940714128573, 0.9840666631477724, 1.3629574941534597, -1.4896579233128744, -0.062119776962195554, 0.9506565718322306, 1.0362905440457693, 1.323348868472469, 1.2106905008239728], [0.2678118464792271, 1.546184759340121, 1.1173615518127462, 1.298746762007267, -0.9447175937016987, -1.9007768756577073, -0.28576661889165095, -0.18093282904813573, -0.1917719912365148], [1.2501205245622382, 0.0069257192567951376, 0.389780961449863, 0.4920667429277477, -0.8629665358981801, -2.0311509193593404, 0.16729867707137636, 1.0752672919367694, 0.8848453305364906], [-1.554228147024091, 1.4524965947198805, 0.16752111729691746, 0.1781830694281232, 1.2668278030551556, 0.8687340827511475, -1.5703003187388835, -0.4054259026852295, -1.0289493278416817]], [[], [], [], [], [], [], [], [], []]], "biases": [[0, 0, 0, 0, 0, 0, 0], [1.2114627871341628, -0.12193546835576932, -1.3843427324466837, 1.071580229916486, -0.5182213739386157, 0.4449920632422468, 0.40617121682029333, 0.218097914312687, 1.4627429839041106, -0.7517035547747941, -0.520261968298051, -0.8574824620538822, -0.8173824554014548, -1.162939118934493, -1.1550101470903276, -1.0582474323590199], [0.6562412924093994, -0.44168064404592566, -1.612504514150957, 0.9195970304696224, -1.4865669749730301, 1.2445169707356571, -0.9207294847487116, 0.5397534127931707, 1.67091956234246, 0.5457047560612489, 1.8477023941960824, 0.0575735032069541, -1.0009586506715697, 1.19803671040664, 0.4325301689561431, -0.4767538271103806], [-0.19158852432888746, -1.8421746687062024, -1.7260734192416722, 0.179374867227684, 1.9058933395482711, -0.01056273374735086, 1.385871239897239, 0.6163119863433776, 0.4342023962323868]], "score": 600}, {"index": 4, "weights": [[[0.5655110740817852, 0.5094393275911754, 0.5523404971553603, 1.3366849643853624, 2.120081818804503, 0.7129504948568557, -0.31464752155651754, 0.4801518711246801, 0.619866646665801, 1.8701697332700562, 0.24465166666704458, -1.4691046377285826, -1.095749414666638, -1.0920282977122733, 0.03056394643283151, 1.4189728409399331], [2.127761846606174, 1.4926968323972547, 1.160519544545362, 1.0580225371566447, 1.1165337607410524, 0.640765372969882, -1.6573035577396142, 0.21565094761566017, -0.6732827039551238, 0.1841046776203893, 1.1469853631295541, 0.02022260910426671, 0.6341618435155871, 1.3005222361852236, -2.0891330037915985, 1.5828179369945443], [-1.2631564013480332, -0.3555909751395817, 0.9097560587991378, -1.2416403197643808, -0.7431990342949928, -0.30631720900395426, 1.7735702278330523, -0.7651777919079197, -0.3325080209645101, -1.5236659338044056, 1.3455519402071556, 1.492357987489177, 1.527090137761565, -0.8443762224613793, -0.2279805380963031, -0.14926338866054417], [1.8210650438968192, -0.4875006098336026, -0.9832701294426124, 1.7940847639179573, 0.7054613615185154, 0.6581694540175949, 0.6022696131265134, -0.8019212360553043, -2.0126877876502793, 2.1140314908047317, 0.22348177181575168, -0.001599036612932106, -0.18210320040669709, -1.8254731801146236, -0.3018120001682171, 0.5585877176345809], [1.2085334179846428, 1.3879279585761695, -1.9499276509031978, 1.6395995260448972, -0.19559703832952835, -0.9642688444684939, -0.7254963745862407, -1.636858870020905, -0.7300050686671233, 0.7702231009717996, -0.7003912045380415, 0.1884886942809419, 1.3436374959545208, 1.5928579304237862, 1.5445497479716288, -1.1591404769466376], [-0.17425907796918, -0.5760919181971369, 0.5779586379867157, -0.8363849048045788, -1.3551116577645994, 0.6673984621032196, 0.6885001745933315, -0.09788824284996622, 1.6368204934656145, 1.4168295788891057, 0.7481986012568755, -0.8155416747423783, 1.7869304864626574, -0.8468721381324602, -0.34751740953195354, 1.7169943857501908], [-0.9903386747960473, 0.7951867761655816, -2.092487457197832, -0.19042657247576664, 1.3292413670109504, -1.6074492448457665, 1.7022659290736744, 1.118216659160491, 0.2610366076987008, -0.4337964236401464, -0.903712708539989, 1.8176902517592666, -1.0342139344081205, -1.0020904058318407, -1.302783341851138, 1.0134434184411636]], [[-0.6810795552310793, 0.2785765749057639, 1.5332564652978147, -0.05386629703062104, -1.8115870329511699, 0.7665148414863456, -1.3731906489927206, 0.8843699370646267, -1.2886520315249488, 0.7566629241072219, -1.8979995345466616, 1.4280690087590446, -1.3829031378024768, 1.366190425742589, 0.7851239231111444, -1.896643482797769], [1.3281531464271499, 2.131420611457983, 1.4424321142750638, -1.2480164895793493, 0.2002582713815733, 1.1444977381608075, -1.1262708116842572, 1.3623774912979092, 1.4663317362925816, -0.4643026948476565, 0.6565253749135798, -1.9840364583587906, 1.1033219952658744, -1.5688915318216128, 0.4131582022827388, 0.9390649556471894], [0.13730540770783836, -0.7994813963274409, 1.908260507036977, -0.17992795636733916, 0.9400823360356487, -1.528093831525784, 1.5664314832726578, -1.7787347115479142, 0.3719020206756113, -0.01943745643546893, 0.021527077832958208, -1.2663819370164997, -1.818085668483007, -0.13074217598566434, -0.10016677400561949, 0.24852316310052544], [1.5677073645523758, -0.1516059525153277, -1.2006649165611356, -1.9033972422584642, -0.19041748315967252, -0.5907340398642877, -0.2475817194079991, -1.3780829744890906, -1.620748649594232, -0.07550098343877235, -1.932883408957515, 0.43900534235887345, -0.8368413889439567, -1.8316530788666283, 0.06879575419135668, -1.4415962909016624], [1.3548060280068457, 1.811805626112797, -0.03299982597513916, 0.2584027684093969, 1.7382503528245177, 0.17514797088015896, -1.5033563982507803, -1.4369858805283946, 1.1176736239890723, 1.538754908554601, -0.5529822976950197, -1.3228899174237196, 0.00045931246937713777, 0.21024030677267602, -0.07552745463615868, -1.311922197953759], [-0.23505467244002579, -0.07106543753446523, -1.5871058281063726, -0.4607376166894501, 2.0321537401562235, -0.42942974919533194, 0.3887802696545588, 1.1592646784450542, 1.4016369715966333, -1.6374615172646323, -0.7139193549362497, 0.6976378993081076, -1.2817762287929584, -1.1209586161224976, -0.12547934901108607, -1.6227731417193818], [0.26682178861317757, -0.9018227723247407, -0.8815603557027927, 0.8421899290305619, -0.8487523659052298, -1.9454431080131316, -1.9595867508214826, -0.8782541272832622, -1.5011286971130993, -0.18232242866116205, -0.521182038488043, 1.964627839107673, 0.11643102955879936, -0.05749166505773054, 0.7277403235898356, -1.3171906372941915], [1.4690430948498674, 0.3587585979139624, -0.1840440989274985, -1.865740912484905, 0.6617508790602835, 1.2954449258380083, 1.4208276048589283, 1.5846600843347798, 1.291199035640672, 1.3614171592215656, -1.6186928496401198, 0.9262297195246461, -0.8217443291133558, -1.8838073401101278, -1.0113174277244932, -0.08801781396746798], [-1.637641339788774, -0.5886968965574713, -0.05966228050995526, -0.7181405309362581, 0.09033178782087843, 0.12515198868738564, -1.639729237905781, -1.9514036355629936, 1.9074417921904783, 0.7888337895106046, 0.6719037694687874, 0.262672345385479, 0.338124044314803, -0.8930597447146293, 0.460612551110298, 0.5048619043567284], [-1.1427066471600034, 1.3311341240167605, 0.9720612666697505, -0.36159219853773306, 1.2676496822785916, -0.6019827022106303, 1.0090981460589714, 1.5405779235702877, -1.7070514844549032, -0.5716975796672763, 0.8639779236113595, -1.7927198570682001, 1.4589093172911343, 2.0090007773396015, 1.7955467209614768, -0.21132758940177362], [0.8650553772321576, -1.7065792996716502, -0.9420159508943364, 1.6325677913650105, -0.11438014245457069, -0.5318743369281436, 1.9078070453484068, -1.311272991626766, 1.004068478025602, 1.009225022778126, -0.6767465238864947, 1.8041406578768353, 1.2877024124957404, -1.133279175344233, -0.07963974434100143, -1.5244563177204984], [0.36951427043088647, -1.2337373460616514, -0.2623485027243878, -0.8086897030247239, -0.8237058341448433, 1.6628089768010936, 2.2670333422300115, -0.30972911811505993, -1.624951540334011, -1.9955490468959236, -1.0341726960915902, -1.6243724839985956, 1.9855539748129145, 0.47804543548979184, -1.8379315139168806, 0.34658913686923787], [-0.985669912072214, 0.6700809412277919, 1.8579706392385738, 2.041866409426788, -0.7570060476221231, -0.20470959296027363, -0.4960951278460486, 1.3534480364555592, 1.4155920215386868, 1.6885472897392426, -1.7410975880014838, -0.5524692528915028, -1.308157040805215, 0.6963491015142972, -0.32057537091460775, -0.1961067835798435], [-0.13203846618259324, -0.48349283699162743, 1.3465332476673093, -0.3417228770567029, -0.24125750050751965, 1.9416894875732837, 1.724010205399342, 0.7906678975897861, -1.1050081656229487, 2.1109841702983108, 0.20294311114016342, -0.6659187864489318, 1.2385800302609473, -0.2010434169851163, -0.46782099525418563, 1.260689935005647], [1.8485201119597587, 1.5343320716389184, 1.054552104388889, 1.4840865157206224, -0.1776124130495901, 0.11048582873803198, 0.945104071958987, 0.028970293005717754, 1.0339131634060577, -1.546376065426205, 1.3623961198632661, -1.8883575978099743, 0.8529684161554053, -0.5606816869897742, 0.2143513637572693, -0.558289768787032], [-0.9751360366127492, 0.20488761421178636, -1.029840731675143, 0.43283391570575025, 1.7798275516663624, -0.39621006430105415, -1.1487388098626046, -0.2705061308324124, 1.478595225189899, -0.26384514039650075, -0.9647865783239387, -0.5985655333091771, -1.272714541811966, 1.9688346447744869, -0.02294404192571367, -1.1451248198065827]], [[-0.037257879303429754, -1.55424348663379, -1.0042912045728352, 0.8006643779824139, 1.392877286423457, -0.31441275711091765, -1.476500309456811, -1.5504957647704911, -0.10439221945224858], [1.377330926653463, -1.7370134060156204, 0.5066092728805922, 1.129818582621644, 0.7951507331765995, 0.6178973597091636, -1.3533346394271446, 1.2583723560845508, -0.44932340610369137], [-1.335803744804922, -1.618576150119358, -1.5431203266771198, 0.9885366603923764, -0.09845879363727622, -0.3545050869347649, -0.6423646340680074, 1.1004747591761574, 0.1978520663066527], [-2.012805831255261, 1.4328376690056388, -1.008679269885517, -0.7298288833624325, -0.4816124910016697, 0.5633551525829097, 1.4929103096891128, 2.147516383908431, -1.870674838573539], [-1.5255522328302833, 0.36215946814156064, 0.7689766792082969, 0.5220584176203538, -1.8502743660951135, -0.040372548950836765, -0.9866265905547873, 0.8374105881170856, 0.1373060471490609], [1.8714184294518847, -0.3455719884035017, -0.5171388620183506, -0.21901923297837603, 1.9755267446285294, -0.0351282491129912, 1.4689812277641556, 0.15423229527991617, -1.5210962960217613], [0.538119240413362, 1.289015634925565, -1.7284974988777952, 0.2509876327897822, -1.7980559389169903, -1.4146205626542485, -1.7396615550051828, -0.014451336788196184, -1.0884211732516071], [-1.085974147280725, -0.6355580401830603, -1.1099529615650878, -1.8150765397522817, -1.6510646618948603, 0.697457355226731, 0.07377153534569517, 0.19132811244920073, -0.7985396216252649], [-1.0251427121957926, 0.6674105941637012, 0.012451809744881082, 1.5612541749235829, -1.331087306826675, -0.134655044023719, -1.3698584093778463, -0.3114182682713943, 0.6031973565228779], [0.9947959375614375, -0.7906429116474728, -1.3433781734666372, -0.8967483834402071, 0.07921905058424746, -1.6863708888265092, -1.204738657966937, -0.2572909644253781, 0.6525553744805164], [-0.4079053778660099, 2.074175780164991, -2.1763986625358687, 1.7930288109979793, 0.15704429645342183, -1.7186906791895944, 0.5118511645510898, 0.6489507036602252, -1.7498518490352513], [-0.7464388772277625, -1.425847939351825, 0.3833919508540984, 0.28631030100199334, 1.027861988063156, 0.5854633285674946, 0.7902384502057513, -0.09504198633313007, -1.6310424783652842], [-0.7672060237466445, 1.0591268045853357, 1.3776834453613471, -1.319078075215516, 0.041981703937700336, 1.1015313770390198, 0.9861828340216812, 1.2513469887585482, 1.2845861425273704], [0.38933961345244666, 1.6463837149952945, 1.1171614073572305, 1.3989793702464883, -1.0000125352211024, -1.845297084928971, -0.5023822957904189, -0.18623369430480302, -0.530180170676538], [1.2564851001828155, -0.14892518068823574, 0.5003775984582393, 0.43261402231696267, -0.9761715960840961, -2.0181099150314634, 0.23668382707124153, 1.2835107550694664, 0.9181842667079185], [-1.5661666441678146, 1.574867831135863, 0.17978203582944852, 0.17096394942683685, 1.3721296941260335, 0.8260949508422065, -1.6920659150620645, -0.6588273858730674, -1.097264764411704]], [[], [], [], [], [], [], [], [], []]], "biases": [[0, 0, 0, 0, 0, 0, 0], [1.3704118256439504, -0.0700848621468518, -1.4635117767821408, 1.2066385553369345, -0.7842161951705399, 0.4897934587847706, 0.30283876938917653, 0.38794273571148197, 1.3392163719990278, -0.9448566241033078, -0.4630408974531503, -0.9532399434787799, -1.1928199120768157, -1.1957540020779012, -0.9939823986001957, -0.9615610263712863], [0.5547539559111875, -0.08194373094949403, -1.6641261664697808, 1.1073008709316103, -1.2648224232462866, 1.297837984708651, -1.0025355180828683, 0.5295425162666348, 1.893373506563069, 0.5747425390179555, 1.6898298351488508, 0.1860811484817264, -0.9621642381155222, 1.310916829110296, 0.5806987471292219, -0.6624511892888922], [-0.4168646682068725, -1.7712805714809563, -1.7637272252461285, -0.010480905987934705, 1.6851820223842273, -0.04214158722197128, 1.3837366738689267, 0.6513384519076744, 0.4732538003332131]], "score": 600}, {"index": 5, "weights": [[[0.48141447174560625, 0.7003076284467515, 0.4260118029257811, 1.3565722681980183, 2.017047540626776, 0.6431397135289134, -0.292132133374477, 0.41810079170575676, 0.6154208026939973, 2.058760469373786, 0.34620143624680805, -1.604936346862345, -1.2505310376001146, -1.1175323509885144, 0.05399012390667907, 1.5978022455641374], [2.069264172160354, 1.2735601320713983, 1.1935024087327415, 1.0209481206571087, 1.1733301303172428, 0.5680492749589788, -1.858877815311811, 0.39027755448133744, -0.7436176590286694, 0.15521846062232916, 1.156943051280479, 0.08819918184924544, 0.5774756891344088, 1.4159777155431439, -1.9495862340549617, 1.547045275298869], [-1.1594258597773206, -0.3211204755708999, 1.3333186189387134, -1.3189034225596574, -0.8980513495800622, -0.4340236112391984, 1.6290791783750225, -0.6824289360318949, -0.29728046440358175, -1.4926956608211221, 1.2586462465874848, 1.3939376188069867, 1.5843777639513736, -0.8913923303376897, -0.16012279874979318, -0.24493646995487028], [1.8752644471939737, -0.33231647523112195, -0.8454865216481752, 2.0738596336868014, 0.5408036208248637, 0.6854472739283257, 0.6630083773948371, -0.7508342692556882, -1.7935638390258302, 2.1883789510744696, 0.23886611762674906, -0.14529829349097767, -0.3062053499599307, -1.9226694941321267, -0.20763004936584536, 0.8469449920204183], [1.3707108725784323, 1.3097601342610785, -1.8080471636718511, 1.853102307137887, -0.2636757075023878, -0.9014629696575851, -0.7195607818065219, -1.6590853566051948, -0.43857857775264925, 0.9045263003625538, -0.8960887633027969, 0.21323589010466704, 1.281454483070609, 1.3829457122470807, 1.4946930468290338, -1.2182783142406848], [0.04286084796939227, -0.571374718904517, 0.6737462089795917, -0.9509955930348691, -1.1543350878582581, 0.6972496046195908, 0.6417570297952909, 0.15080551443108217, 1.4610654747300162, 1.6032046091905647, 0.5962714029873075, -0.9018274623122319, 1.6805824833668523, -0.9454456344511581, -0.3794367222478513, 1.6761924214651198], [-0.8608086014713541, 0.6774503548955089, -2.086235086808644, -0.211764808885672, 1.3174387754252042, -1.5599488020491257, 1.7225742867758518, 1.114687566719677, 0.31535203180293747, -0.3459592599884618, -0.7416131219235934, 1.887190567949137, -0.9416667659966473, -0.8171796362140746, -1.44571601809087, 1.0499279641861703]], [[-0.9228822333185653, 0.19517992835085093, 1.553938369590466, -0.08802877936906284, -1.8798637074706415, 0.6866193681848235, -1.3815690074438722, 1.0662864469082578, -1.0807713490478004, 0.805408169989759, -1.7938629376113069, 1.564859182747547, -1.5129870524031561, 1.2014019038908559, 0.9058526648321082, -1.7767554986274494], [1.3525806679002246, 2.087241317271895, 1.312863619046159, -1.2806010990879437, 0.024162734863436203, 1.1835854385435853, -1.1747992220693184, 1.3934731718093258, 1.4311592238444915, -0.42194167388217946, 0.5948531892723371, -1.9969666017818, 1.277159858256564, -1.6583639934309362, 0.5485226217604445, 1.0263164306698247], [0.0011445923378633205, -0.7034541374198192, 1.5753280661399587, -0.2049477053989464, 0.6489823966280741, -1.4557967120660813, 1.66134223663245, -1.7384155772060346, 0.3351014138272868, 0.04361205405494636, 0.19835436194848147, -1.0918720423808121, -1.87737374556369, -0.21236574309074058, 0.07334505371672512, -0.1020454729549917], [1.5414255483700885, -0.032887269284402054, -1.4713345130692437, -1.9486825237308987, -0.29200162161575904, -0.4453704345309303, -0.19478185491729239, -1.4149129391800979, -1.5460182730928043, -0.1072004221956739, -1.948384679552141, 0.3693753250650419, -0.786911933853977, -1.717008095806931, 0.06458192464919116, -1.3408765327349645], [1.3378932227918003, 1.6886596726909247, -0.29326498975281035, 0.421205551010044, 1.809994310971466, -0.0045043083808194995, -1.6016001396773203, -1.3293117188046748, 1.070357706314787, 1.5137070328936517, -0.5132849954812075, -1.3536097460538228, -0.14792491257100215, 0.1937588306402537, 0.007862748974524512, -1.3425008758428545], [-0.10169053581813128, -0.0528721605141871, -1.529767985976119, -0.4103873485767048, 1.9401178381367024, -0.5056022005543532, 0.5984463469155566, 1.0650983288110218, 1.4423773187723574, -1.8259175335258084, -0.8920461490445857, 0.859760896852783, -1.3051874296704489, -1.1571720149755427, -0.3184633233442804, -1.7491395615026684], [0.34823428159320113, -0.6599053297950455, -0.8696302448197898, 1.058403770248725, -0.9283172142822794, -2.0457886245032, -2.238702929120577, -0.7054802363948618, -1.673352529291288, 0.04527377534257438, -0.5281099418332074, 1.813492652453817, 0.15488695163866428, -0.09372748628656546, 0.3750849633467635, -1.3714588766796303], [1.5152699386787314, 0.2531272191873988, 0.057415362041577156, -1.8858263751088042, 0.5309590600023187, 1.2781103564033087, 1.3877438162943276, 1.5863567704512358, 1.515443314782774, 1.6157121419096296, -1.5819675293386517, 0.7168796785069935, -0.7414171172844162, -1.9164570579354072, -0.9386599459344603, 0.04645140764333905], [-1.6698048708261222, -0.37483936733561896, -0.2764238246149067, -0.6345699050054675, 0.23634349833859106, -0.008053899996366088, -1.576334671810351, -2.130266840329832, 1.7763204933159071, 0.8891033362696782, 0.6165806470932496, 0.2424651260826272, 0.32693085185517246, -0.7937184539196712, 0.32676534307721505, 0.5580379667088475], [-1.0235206033165294, 1.3095866792911521, 1.0446535435840172, -0.13056135000268831, 1.1757824545421751, -0.6308352559028676, 0.8156620172512733, 1.453498760644815, -1.7215551027557503, -0.5256625740016394, 0.9798874022015106, -1.5967338182664896, 1.297987756671893, 2.0948707512550144, 1.9705771828264091, -0.4511449001157299], [1.1376365220334144, -1.6324181979830334, -0.9709942352479143, 1.4523077303171512, -0.0523365372216304, -0.29797096364594705, 1.8539278038933749, -1.2672227466202848, 1.120245997442329, 0.9938906662658026, -0.685057879960334, 1.7501222540187347, 1.2870689025989546, -1.1905268454516114, 0.18574734334931944, -1.5817075216232503], [0.26423021374586225, -1.2388539955276694, -0.36622073557825885, -1.007766887969566, -0.6936376711121446, 1.7750777772400692, 2.0584631050458886, -0.42529626537538867, -1.831662175664353, -1.9021720850375565, -1.082952072441637, -1.3931295347346961, 1.9564722058416453, 0.28014422841819797, -1.8658579064439427, 0.28136283656360783], [-0.9575906988712808, 0.6388467031513523, 1.748194603677795, 1.8941097817867274, -0.7812663967777572, -0.420119748373384, -0.4644936207921701, 1.2891592686621163, 1.4522287551872446, 1.5752244514095788, -1.843679091103334, -0.5875343702283233, -1.4481040557012708, 0.6788229349238872, -0.23340898544651412, -0.07109601599690935], [-0.16706324702320524, -0.6526865703013204, 1.6150891226047153, -0.4305578543026987, -0.10889997882307542, 2.0403522733902637, 1.6939122281830006, 1.0153865070148251, -1.226481883909558, 2.11650152073058, 0.3762144985579927, -0.672502407613114, 1.1043689663196392, -0.18549349760473752, -0.4208810283285496, 1.0993450437942216], [1.624086920356041, 1.2639835535808397, 1.0550390502776865, 1.286743503762886, -0.05292641565448368, -0.008669106316638399, 0.8822695797861679, -0.041047416304195984, 1.3338638376835779, -1.4046495317365892, 1.3192837376825428, -1.9550576031312086, 1.1049654863512341, -0.47400827628410086, 0.1619494592187632, -0.6523001937699076], [-0.9467640837966862, 0.19850072906930083, -0.9791992028272258, 0.3176180579871558, 1.9031083932896509, -0.7080474723121815, -1.1584995133598415, -0.17982967340186054, 1.5632443768378939, -0.2738199037763833, -0.9939140549585389, -0.7084714353061741, -1.2017146134887382, 1.6752548042418138, -0.004132179391482804, -1.2166447562030074]], [[0.10865141447477406, -1.4802919504989354, -1.086925252548182, 0.8543078707044793, 1.4470248818784137, -0.24779963034827546, -1.5192723719167374, -1.552902642016928, -0.06795578550724521], [1.362659294440427, -1.6075672541426935, 0.6189358252706132, 1.1785370028098412, 0.9381175656787112, 0.5884840529614023, -1.4941356127277874, 1.2906773922561299, -0.35395351761886507], [-1.5330475947595559, -1.6482702267794562, -1.68252306952742, 0.9767422375800288, -0.12159198795473083, -0.17550023171164986, -0.7148833082812838, 1.051094006717376, 0.16094674534521727], [-1.805410187865017, 1.3924933805965973, -0.9091622078001775, -0.6351383584499544, -0.40436089783358525, 0.7167938029219683, 1.8723322846538848, 2.033609034615362, -1.7539555631946935], [-1.3955810183794428, 0.5024268329099777, 0.8928990578065482, 0.5189954912973043, -1.9531953446356907, -0.28123740487599747, -0.7918601717500748, 0.7122436945811834, 0.17041892391001998], [2.1092704814630765, -0.0067199114969036106, -0.4457171990556974, -0.07846172422804397, 1.9980255717230269, -0.20309536468138814, 1.2216720284696452, 0.09615129580928103, -1.5677252565763977], [0.6497007217025296, 1.3383495727486412, -1.7178960573054538, 0.23982876494719083, -1.9976718090861463, -1.431512843612219, -1.8678280080531167, 0.2634544732506704, -1.0105279394869875], [-1.1482665118222255, -0.5646153578627744, -1.0097013525307281, -2.143730036310868, -1.8139405540002864, 0.5416547357292627, 0.2980912329118568, 0.1839338417701337, -0.6696057242776331], [-1.0937421278220028, 0.5027737174963031, -0.2584225584306851, 1.3871176570442303, -1.5261711393856057, -0.13230215096043157, -1.3782911416507984, -0.4716543594795024, 0.7879364239966982], [1.1009118521242467, -0.7664883601205383, -1.4658449999443786, -0.8814997364983765, 0.15259715487564793, -1.6154199286851816, -1.4245603351439011, -0.20262911787561683, 0.8282675411306875], [-0.5005013225518535, 1.7565089116541275, -1.8598641662495337, 1.7917580151982768, 0.23724306950356264, -1.6043979233298662, 0.3665635684965371, 0.5148848402216671, -1.5672028077739284], [-0.705025182495293, -1.3958819331884795, 0.5813609237748506, 0.2929948544650708, 0.8201937403338573, 0.5455553598555414, 0.7465143723215792, -0.23500891188291761, -1.3959504006749888], [-0.7725462052762861, 0.8789585704012728, 1.237525636564368, -1.3889093079177541, -0.13673986148878992, 1.1466381890411488, 1.0519362954339013, 1.1605386752724975, 1.1702841678165177], [0.2243173281000135, 1.7033710550642274, 1.2568336820685706, 1.305204328746827, -0.9236888777101431, -1.8641405120101737, -0.30695301619025206, -0.00929341583959803, -0.25348361000570757], [1.2888349133551418, 0.1270382008733924, 0.6060565674311242, 0.6265020944517691, -1.0226497805344537, -1.995758257697672, 0.08415044013782258, 1.290861691762251, 0.959166744480751], [-1.4475491623370618, 1.4399075515094495, 0.07200683387848121, -0.0034107902541439666, 1.2501183262238678, 0.8531884596187463, -1.3491716320845528, -0.4093161715627497, -0.988055059117463]], [[], [], [], [], [], [], [], [], []]], "biases": [[0, 0, 0, 0, 0, 0, 0], [1.447700546433621, -0.24742505691488123, -1.3905634620952252, 1.0359370088481892, -0.6166995633603624, 0.4857784830832868, 0.2483233770683449, 0.188189035383244, 1.2480803491705825, -0.6714030048576367, -0.4754288833290457, -1.0328987975936645, -0.8805667237057987, -1.296681013023221, -1.0080612757159026, -1.1884276131444074], [0.44232482864533146, -0.2651770622845072, -1.668391562173854, 0.8010253250310001, -1.4369783373511298, 1.334592300675634, -1.1554654495544918, 0.34519593704140045, 1.6824582814788955, 0.4324660231452222, 1.5914199508244673, 0.21544754499981567, -1.085825536354823, 1.437481159361365, 0.6729124249187579, -0.7091932580090251], [-0.26860758890748077, -1.7337790812874996, -1.810498063661669, 0.2764833324555479, 1.900577768502241, -0.02486455679589169, 1.5144360029832578, 0.7390918310650338, 0.15980100929485214]], "score": 600}, {"index": 6, "weights": [[[0.6812304798171197, 0.7265565561347453, 0.3808152306987852, 1.2377013678986895, 2.1405538260124617, 0.7237558731690747, -0.44770988982392956, 0.581786375066383, 0.693674749278189, 1.9793796917895967, 0.45379352642328474, -1.4187910607220287, -1.1803551398060526, -1.0469544771984343, -0.030391450114191407, 1.2492064452709821], [2.264105575350536, 1.3250310110355545, 1.201970171098675, 1.4067241930807408, 1.0910466726490635, 0.6767796596885162, -1.8066219084799533, 0.48972399691344737, -0.902079090423146, 0.06658533323522517, 1.0722940553282287, 0.05594738976086807, 0.879596184059207, 1.3089134247855994, -2.080782254294769, 1.4059526574626686], [-1.287761725211986, -0.4240296448564871, 1.0116966352277654, -1.4137867063291913, -0.8030369623998327, -0.6127705981577559, 1.5412508743646638, -0.6862883711530523, -0.3628860631009188, -1.4550855953894553, 1.3185731268463763, 1.3272777607341648, 1.5554937269912537, -0.9488167509447472, -0.2031561816859555, -0.26838550855695076], [1.6936767567149826, -0.5041307059393871, -0.9198002744523169, 1.9770434128381535, 0.6250104779903957, 0.5809089095462695, 0.5823962662606631, -0.9554894246660249, -1.92393298423626, 2.0107273436157853, 0.09594668274824336, -0.31193496497210316, -0.32556441534844555, -1.809565925510874, -0.1007609236701009, 0.4062175094415897], [1.34982612358549, 1.310223560235915, -1.7766798320218977, 1.847563679622337, -0.01900389478899467, -1.0593943800941032, -0.49453860622264656, -1.595911306260248, -0.4347887263159226, 1.0563040510268031, -0.7987303626280435, 0.010684374768652527, 1.4635360935707902, 1.608223343729025, 1.7314455227715428, -1.4234602665712917], [-0.3012146189527438, -0.6063075634753248, 0.483456464904561, -0.7680368435902747, -1.0321292916905687, 0.5072814612687402, 0.34637850036166284, 0.20415718190932997, 1.6537673753631599, 1.3746719034677235, 0.685004212286429, -0.8340829475883051, 1.9668738873896652, -0.9175957325932086, -0.2992360014104979, 1.567680795797154], [-0.8977181864806693, 0.8434570833399075, -2.0153131449975663, -0.18064398426381592, 1.2405252148913082, -1.7330729089289933, 1.5381205197680439, 1.2053886896762285, 0.19438584350623156, -0.6917634695014391, -0.9467065889743, 1.902531908996566, -1.1929081003773332, -0.9226761809057268, -1.3771679923805606, 0.9353411975658036]], [[-0.8154881387105732, 0.3112445312126693, 1.354237981314608, 0.09869007852245582, -1.7882653347139326, 0.8652848832612359, -1.2322976101377796, 1.0628275502266584, -1.2683630978141776, 0.796474527760956, -1.735797298604431, 1.4231765060907866, -1.422639041063919, 1.3713589461685762, 0.8668703007457262, -1.8241982204083582], [1.5364529547049386, 2.116355285449764, 1.4462617150794144, -1.074721850555885, 0.11182820966853482, 1.2306371510699206, -1.0980065031489659, 1.4899635241737825, 1.5310033367002154, -0.4908555047208488, 0.4026173618231866, -1.8689456390853305, 1.0506428975308664, -1.7031753311383544, 0.5653872032916234, 0.9755836666684732], [-0.10059441655451867, -0.8371221107097593, 1.8009004188643216, -0.24172559920027722, 0.8589602648856125, -1.4464796455947038, 1.5656414618781473, -1.9001231631142985, 0.2762282323468147, -0.0176550598541768, 0.3171364429694032, -1.1357033194932402, -1.6950955304360613, -0.1919029956663666, 0.026867989147378563, 0.17886260656113923], [1.527561073865187, -0.08707602348610327, -1.3305824910314454, -1.9154970035631387, -0.06753872747079967, -0.5567110212660263, -0.5181029306065412, -1.3492609434302578, -1.818508625269514, -0.0760794226616105, -1.9944772042575862, 0.39951928911736995, -0.8287157296932615, -1.7641529860855665, 0.04873019027733976, -1.6655830219276009], [1.270850037746576, 1.401045811255021, -0.29168481760089165, 0.1800917331399241, 1.8800415031788402, 0.020435229950110212, -1.4829429545004307, -1.371562320876627, 1.240154929111141, 1.5897235529806617, -0.5114339088412183, -1.3314228439188878, -0.1506071075830995, -0.09476821481953904, -0.05986865758881717, -1.45304775677084], [-0.13085659230779695, 0.022532921838223564, -1.5312863016191303, -0.6023823144588839, 2.161709254872557, -0.48394992314136503, 0.28010494494736105, 1.216732126639486, 1.526103988454887, -1.7036220704727272, -0.787680242567506, 0.805067624906989, -1.394501000495801, -1.180282404196009, -0.06652622007545328, -1.7505886749445148], [0.24901851189520577, -0.8952326100307351, -0.9578246481339139, 1.0559500308792023, -0.8749509968042357, -1.900216738400457, -1.8051519339772035, -0.8784393623338573, -1.383067306072573, 0.1634414929464245, -0.5573803008425913, 2.0069863852192427, 0.04663734841665153, 0.08154705197288126, 0.5549736400780435, -1.429844248694105], [1.4763863365898755, 0.25472405875224613, 0.06605840530059855, -1.962061766759659, 0.6753713308708179, 1.237118374907583, 1.3896482294152581, 1.748805529372035, 1.5244241621245855, 1.4000046437193936, -1.6626512186927505, 0.9029873175668264, -0.6159242117494028, -2.028172216400816, -1.3540985143051023, 0.0812748217683027], [-1.6620158995368908, -0.2550104502911531, -0.19777717520908616, -0.6863342351445044, 0.17325865368884635, 0.14135963278912272, -1.8307646579225287, -2.0264695979813223, 1.8949200232144408, 0.9821996754929528, 0.7288746575096477, 0.2664224755241126, 0.03760495148820256, -0.864548144428551, 0.3610826888420402, 0.49495909211763167], [-1.1023422021500597, 1.327404346780191, 1.078546419095742, -0.2470259012712856, 1.4568808889099651, -0.5511839172869251, 0.95374427430494, 1.4255578732376601, -1.590922024380443, -0.6292172169055644, 0.8927663790798527, -1.9545181901682005, 1.4307363360957617, 1.8228768120769185, 1.947540561378936, -0.32551444080491054], [1.0179116233712266, -1.7841034180934794, -0.9637554938438662, 1.5958849071254053, -0.18101671433051075, -0.31250537618022206, 1.703630751815974, -1.3158894256328697, 1.0433974615014798, 1.0212834480680573, -0.7782886164607393, 1.9144077483817883, 1.3416544866132005, -1.0731190016640924, 0.059669196896062884, -1.5778117053690988], [0.03350411243559692, -1.2632212126956772, -0.5037514690930385, -0.9001694749398763, -0.8971753502859138, 1.632191488749168, 2.0742668893336673, -0.10105724903353572, -1.7603805431781419, -1.9577214802797527, -1.028554879277123, -1.3258057035654267, 1.8030021743558644, 0.15437989912414496, -1.900893216181937, 0.43865960749927513], [-0.9178586423928717, 0.5927575829305102, 1.7426854441206445, 1.8859601437353744, -0.9471350979331297, -0.3271618992316194, -0.35699656847556704, 1.4076461835109597, 1.1882660422958273, 1.5006833036484195, -1.7718665261337523, -0.5785235525558214, -1.4657002106353945, 0.7875870666218165, -0.08944682113483068, 0.0238870607113561], [-0.2159556947087966, -0.4633297607430896, 1.463799591367432, -0.6531376171871875, -0.2882461332324081, 1.8543178937393372, 1.9441260526509274, 0.8188761109476157, -1.2069189995352523, 2.002358524109369, 0.26750638313787, -0.8629277607110447, 1.099342593697758, -0.23033519190818105, -0.5312526994383255, 1.357952979922821], [1.7840273298497813, 1.4712184209493937, 1.034352674117311, 1.207921010295574, -0.11532489817376748, 0.05734951767679245, 0.8486865646558595, 0.1389638262301096, 1.1884458846245805, -1.8280956858776982, 1.2936036989979742, -1.8683309068218799, 0.9300547901976657, -0.43540654605502177, 0.346321597647047, -0.517342176396173], [-1.1759320813946879, 0.25450117350451185, -1.2445294858839726, 0.4079105056945011, 1.8167002016248386, -0.5752476767198548, -1.0430110703303492, -0.1523769647589714, 1.694609980066631, -0.3368633647965671, -1.0403565474863865, -0.6645592864551426, -1.3545896667600896, 1.6310113014838445, 0.11609665036880745, -1.093965746055633]], [[0.026653946724889178, -1.4885051789927015, -1.1084841306622677, 0.9878523273932412, 1.330816767336176, -0.28699866918680844, -1.3929019150728166, -1.5256542596071407, -0.022916327086430474], [1.3792435667421261, -1.7380587914750212, 0.4290367497046207, 1.2853064563163736, 0.8826474205580008, 0.38411741043154535, -1.533904081357675, 1.3183850725384199, -0.4695025594799798], [-1.4229250076984505, -1.6382492972658846, -1.6196385264947224, 1.080064569248561, -0.1254465929493756, -0.1274183496691429, -0.7442860546640007, 0.9217246596043821, 0.06329015518907741], [-2.0056351508377506, 1.4736216196314844, -0.7699257714996595, -0.7133845635179709, -0.4731972977842296, 0.6892230818057337, 1.412042294264788, 2.1196891844515977, -1.8464508274224007], [-1.717621607554824, 0.6496968929914549, 0.7404648438405698, 0.47716138543882647, -1.7957031795544216, 0.02533896944442858, -0.8984234762579231, 1.1047628915713692, 0.47588825337909757], [1.9795590043330136, -0.04448753680458427, -0.531272022302169, -0.06584992469986146, 1.9416823231411824, 0.04092812289574488, 1.2796867324164525, 0.148175043701143, -1.6426403711240165], [0.5749255910838746, 1.1980959157425446, -1.7775833376249144, 0.319794183282062, -1.7713871743757, -1.2625066301562153, -1.7820282461947452, 0.17608466360510996, -1.0790695653766615], [-1.3595859017501135, -0.6819558016674507, -1.0139280326383184, -2.0290341892456794, -1.7411682321105098, 0.7724191912388196, 0.49019634427619424, 0.14454006240297684, -0.7418091447729482], [-1.2102538613410434, 0.42701055680169203, -0.20935675493719838, 1.7212627698611094, -1.4429715740222993, -0.043031743908354375, -1.2110238506752844, -0.49873858358568995, 0.6080325707567189], [0.9015118821513886, -0.84016168660645, -1.4839474865377356, -0.7914507653325139, 0.256432758893318, -1.567141574448648, -1.2774345598345551, -0.1363542264349673, 0.9190493392745515], [-0.5939664366483278, 1.7439302423924108, -2.0624870575165284, 1.6253451925308262, 0.3397195211579367, -1.4699105758740714, 0.20547510586450535, 0.7300846627762821, -1.6252209253563132], [-0.45302337204234566, -1.285269566396512, 0.3763014265127931, 0.31395673743274616, 0.8688805412860013, 0.3317482823925336, 0.7178251244937087, -0.09499321262636537, -1.4555735967117245], [-0.8688178300252921, 1.034067650721349, 0.991719205121395, -1.457244020437639, 0.04880542954526189, 1.049159378699117, 1.1443350531347871, 1.008634751650642, 1.399555690053615], [0.21214906810852824, 1.6563647957521261, 0.8482239369423462, 1.3507518753259695, -0.7821098872895625, -2.035916454573867, -0.29796666081223605, -0.23309701724474727, -0.48515206737958544], [1.1762174138793118, 0.11329953390694587, 0.30076119883951596, 0.5023167743741246, -0.881915483068527, -2.1100094538400542, 0.02865320665250154, 1.3245751119777989, 0.9318419509887769], [-1.604843536166121, 1.672405573545448, 0.1841053042826589, 0.11968673924232615, 1.1787993741387093, 0.8174211409966297, -1.605837163771607, -0.5333954663300745, -0.959428014875265]], [[], [], [], [], [], [], [], [], []]], "biases": [[0, 0, 0, 0, 0, 0, 0], [1.3977606410835655, -0.077268963272314, -1.3236751796209456, 1.1656478281731049, -0.6009763920032724, 0.4953259612109966, 0.2924050718990036, 0.24900599309032656, 1.3398610452868167, -0.793896858569783, -0.35229247769872973, -0.949470062002245, -1.2542005237080107, -1.2239993770078479, -1.1952755817182108, -1.2019855689660526], [0.5318272625136362, -0.19279556507242795, -1.481106925057791, 1.000664261019622, -1.536211499157153, 1.3169544109056874, -0.9093638591143197, 0.40247977539323776, 1.6972470935059596, 0.5615513496096071, 1.785909107930479, 0.12367545322647619, -1.0715792523971324, 1.2580160050135558, 0.5242467869776861, -0.6355735608722218], [-0.3800411445479045, -1.8188995007811437, -1.7010814413338262, 0.11539471055110927, 2.0614755702058645, -0.19988927584034477, 1.4124164184291281, 0.7386496030405301, 0.34047117329314514]], "score": 300}, {"index": 7, "weights": [[[0.614547404918882, 0.6299922599586073, 0.4047011663287377, 1.4429122668466046, 2.0699213816973163, 0.7243109224724411, -0.3766060725271445, 0.46900183859073685, 0.8576466938815214, 1.8940052749699308, 0.3991867088139449, -1.3970976507629558, -1.0379743422520165, -0.9515837641746913, 0.08235632522683926, 1.563660686471262], [2.12550920952881, 1.2467054451709485, 1.1911438977613358, 1.202425781857428, 1.1959414425320423, 0.617930869731934, -1.8099816415946126, 0.41356041692341855, -0.7293340926302762, 0.15142169776997677, 1.1253059788431727, 0.11633699729022645, 0.8903444579947217, 1.108573565178622, -1.7970827060311403, 1.3361318672012534], [-1.0830200298694026, -0.49318503413190196, 0.9956474853958269, -1.1428994407863187, -0.7487334976635031, -0.3973395050442951, 1.717750346701848, -0.7746883162530321, -0.45766872592238805, -1.3680640029407867, 1.1378273792598228, 1.4293455752280937, 1.287918874532341, -0.7581662614301555, -0.0461812629211349, -0.327775483022003], [1.7495016397092071, -0.6859813955693687, -0.8820132991647045, 1.855292823884893, 0.7794558008913519, 0.5710740292463419, 0.6900566303953143, -0.9119842903488873, -2.035866751081489, 2.1436570445281675, 0.07257770282611031, 0.037228867521607145, -0.4566929031623531, -1.889379720177023, -0.15091973301859907, 0.4751844667575731], [1.4579976982825253, 1.4460621455198346, -1.778913123139776, 1.5406785527020113, -0.3049251344248266, -0.8038338487583794, -0.7699523174870829, -1.7267126854128434, -0.5918990442649197, 0.7883412844680974, -1.0600841081894419, 0.19676626143075154, 1.3448331069486548, 1.5696018615584486, 1.5461049414842096, -1.2729109039710602], [-0.12376453268892545, -0.616865469148274, 0.6215912732891566, -0.937626859205347, -1.0054152324713403, 0.6491944804487542, 0.18563011141194607, 0.1956558341604061, 1.6542162403030571, 1.3557906047504789, 0.8630039859403228, -0.67830603241269, 1.8568700207951911, -0.723857823980693, -0.4652828501706055, 1.4490178528492215], [-0.9733324685653796, 0.7337318314395114, -2.0402963967440506, -0.3960398607845419, 1.4083253423464004, -1.8014199334421446, 1.8732541110871281, 1.1114056785622708, 0.205857275728822, -0.6845166362746884, -0.9825334471241761, 1.948378923440989, -1.090420442122459, -0.8999680434711745, -1.4392221685821704, 1.145054062945781]], [[-0.8885178342209334, 0.27666719085068353, 1.506396208470193, 0.06704886409034908, -1.6290144439207102, 0.6296993595889988, -1.3990943806209741, 1.1723081704500427, -1.0972668944272885, 0.627879289509939, -1.9404544726279622, 1.4035573587017203, -1.3951100815186142, 1.21942007407948, 0.8746180047933872, -1.7957457733850728], [1.4870564304598215, 1.9141921243666484, 1.3794386560925598, -0.9665651024063617, 0.052766126602832225, 1.2943278552281292, -0.9341206928732207, 1.3505678158293222, 1.5435525101178598, -0.41360995961955865, 0.5557988985981663, -1.9226290144445743, 1.0874927529532883, -1.7026663884291369, 0.7105268191679888, 0.9155627399817263], [0.042633597463440726, -0.9674393558592196, 1.893927497516049, -0.20494899996437457, 0.9227258397244864, -1.5366330227332792, 1.534038369146109, -1.9541588521610564, 0.4002711331625731, 0.1300739767289863, 0.047729725142698604, -1.1076146700401504, -1.9202282321411612, -0.0013278037111681962, -0.12273654236711194, 0.11529192104898245], [1.4392400430131205, -0.17131359270411536, -1.513357063529015, -1.9763215324593644, -0.308197930693003, -0.44299798613517816, -0.2992720530357298, -1.5119497271034572, -1.5715310433526508, -0.10134855405374074, -2.032821964463974, 0.4632845355729826, -0.6473397162235076, -1.943337979122084, -0.034042069620158974, -1.4738197929048436], [1.3665748028103135, 1.4557598346679086, -0.18449064411490082, 0.1540539731789083, 1.7890998237032942, 0.04098300458579518, -1.3787138744567933, -1.3799628689271468, 1.2983474461043416, 1.6027310033506246, -0.6217921091868593, -1.3821511043779648, -0.21345293495921042, 0.044143587612725535, 0.19660267341580362, -1.386585875696913], [-0.18014219556718966, 0.16055998173933783, -1.4610941960273376, -0.4925004249118133, 1.973953806837976, -0.4496547688777683, 0.5281880347929199, 1.3151579264095656, 1.4874139415101366, -1.7947109989501926, -0.6741642809663164, 0.6832755800757395, -1.318574365495026, -1.1825223704694967, -0.2342974525382808, -1.719619300414492], [0.3566471900018612, -0.8330238255539122, -0.8926576660396262, 1.066128360470318, -0.8501002999310345, -1.950435869062767, -1.9644488926427388, -0.8403197540264917, -1.4989504309388495, -0.2125687888590059, -0.7202502754163289, 1.8463588524701695, 0.13424493009558167, -0.14330876851784194, 0.4888174244682508, -1.4841707443045882], [1.4466487240182533, 0.3696880086763825, -0.06694633398763353, -1.9558108285540243, 0.6027582863516703, 1.2819778846876662, 1.4590242821587753, 1.4645491433771967, 1.3119489396076458, 1.3303829297653305, -1.5675302968290807, 1.039428922078194, -0.7396645883469699, -1.8124788436892298, -1.09017914331336, 0.02248615395914148], [-1.3554922612175817, -0.328179873903977, -0.3477336296960575, -0.5748279863383216, -0.015014247388675642, -0.04350069876082652, -1.60728359316431, -2.049767490305648, 1.9577034391943673, 0.8989714682697254, 0.5442160076635647, 0.45556523633766854, 0.2847041079678703, -0.786926968875245, 0.3513164411618436, 0.46268057678407937], [-1.110887816888416, 1.3262380563352352, 1.030337514557747, -0.39421302058050955, 1.395272291812909, -0.8505770102077048, 0.8408011014729162, 1.5243944196976353, -1.8678084653864524, -0.5429364334422186, 0.9000836174862946, -1.8622536756241566, 1.218411398206187, 2.0535718167683545, 1.6541775987598437, -0.395342699374621], [0.9865490162377328, -1.7198567073882682, -1.1143101383829033, 1.706686520727368, -0.13007291802228063, -0.13543675192268156, 1.998669859950322, -1.3332250165502857, 1.0153052729001042, 0.7456856599428496, -0.5937418755100725, 1.8798430886901591, 1.2736056045526083, -1.3085919449079526, 0.1945710298185142, -1.5472552934970745], [0.3137884372844191, -1.0648107091028152, -0.39672621158059984, -0.9442761727540143, -0.8047823003317569, 1.5467525690846458, 2.005764091096766, -0.1311841632344566, -1.8754333889864512, -1.816539709074111, -1.2670005211555568, -1.3280816283675938, 1.949528298598249, 0.2362959391404733, -1.9978678188223977, 0.33727903702360634], [-0.9502852125771617, 0.6755077824161221, 1.8200381139308353, 1.8834780889256169, -0.6170449804228467, -0.4028669028745965, -0.5371835320323579, 1.3699422694858905, 1.5118498305979993, 1.66859915391472, -1.7006225786520848, -0.6667746643875337, -1.5114807675732163, 0.7055232794377823, -0.1074813699927551, 0.13014865530477082], [-0.15851993595319913, -0.46466749997195794, 1.6352707788309286, -0.4338001751312015, -0.16156783562552596, 1.9025736707636993, 1.7877929023066115, 0.6691091380166287, -1.194668718920912, 2.2190886167002506, 0.2935741266678332, -0.7505049279504121, 1.2350423715707932, -0.19146064200009094, -0.28555436136671725, 1.3637334519178028], [2.0190187447255887, 1.521775071551516, 1.0905122944888535, 1.5839162618815492, -0.23713450301034647, -0.09774107626332332, 0.9239687842071097, 0.05721979323861821, 1.1680904074796898, -1.600851226998067, 1.1993944250748487, -1.8671401381321293, 1.0022192303143684, -0.39265774200915377, 0.545398081627477, -0.446121052156253], [-0.93467885916263, 0.07580781686939791, -1.106779834945882, 0.289665386862909, 2.054405689618738, -0.5719830625851867, -0.9893674070728471, -0.14419602750506283, 1.5534652320087128, -0.1235105657866995, -1.096536641359499, -0.7405133152359635, -1.281930358894122, 1.9751314745429425, 0.14074439905473196, -1.2600919278075027]], [[-0.06505279764525423, -1.5206801636005096, -1.2030886370185578, 0.7610317273984026, 1.3390466290262202, -0.24180493506741002, -1.5490869616343241, -1.4355909303056262, -0.1473293581921778], [1.4031105234868229, -1.7822237260965992, 0.56267170756319, 1.3744385847778964, 0.886907977144605, 0.2626188550656043, -1.3395142743043342, 1.2241498293168802, -0.5506926049524143], [-1.6869932556317278, -1.5706257010244775, -1.57532157681161, 0.944194640236142, -0.028803930282897527, -0.20601022686972467, -0.5364735516943032, 0.9571484906828716, 0.25425832569017737], [-1.9563630279316149, 1.6968484073335244, -0.9436850013211187, -0.5865524079851934, -0.351210165241254, 0.7806263355022018, 1.7030131004464109, 2.3159589566094576, -1.7543291791128022], [-1.5287468352667224, 0.4302650945320906, 0.661134082664184, 0.46681413984318654, -1.9131748151272259, -0.09864611690301608, -0.7197953079412949, 0.950808214227761, 0.0033372092171032597], [2.2096538296772854, -0.08899557061603486, -0.649307678116018, -0.14821682746072792, 2.063161989522786, -0.08297300104140858, 1.3716425566512713, 0.062235186570947246, -1.567739084685275], [0.5983652826860772, 1.2703965334527372, -1.8769393304777346, 0.1378660811781634, -1.7797025722057034, -1.4106535323082536, -1.8368259810633116, 0.21817996054608213, -0.9133675757269109], [-1.0342589500958428, -0.5852107659008889, -1.032534734211915, -1.8664537683225282, -1.6186280728850804, 0.5697464570542824, 0.13161332970833234, 0.2153103433292817, -0.794077920064532], [-1.0840362462002178, 0.39117829453114733, -0.03959400951780611, 1.2164598119091372, -1.3231502478521375, -0.20596379274742446, -1.485369140844389, -0.33926645242920717, 0.8675726588480777], [0.9546513415798353, -0.7456471750132289, -1.0883096918872566, -0.9017405940077745, 0.20095893801511738, -1.8622099507200982, -1.2456326953126822, -0.13585789580919866, 0.6082761955207243], [-0.5752549547088368, 1.999683732486532, -2.2184459061213193, 1.6065395406181235, 0.22718096367242466, -1.8315136947580366, 0.3063547318571789, 0.581247554963717, -1.6920128311208733], [-0.5411088292423065, -1.5517225944858768, 0.43569826564296626, 0.35400325200911026, 0.9211692375426646, 0.6573864086583963, 0.7005394300175983, -0.038152908466108644, -1.5797524539484653], [-0.7987596490567764, 0.9883358119854099, 0.9721634213717978, -1.4033873243585637, -0.00808948857664829, 1.0129716240679643, 1.1883422349715258, 1.1716163315551262, 1.2085082808342262], [0.23709746253153674, 1.771897194000415, 1.0607759406883268, 1.1962352765969864, -0.9559577973801281, -1.7184363269820169, -0.3431813111279277, -0.18916848593132712, -0.5575023591108352], [1.242087507048863, -0.060751643964717786, 0.33902521952299275, 0.6340085339007067, -0.8351611465230763, -1.7228892143427934, 0.15967790328326348, 1.40543273962656, 0.9786205675668715], [-1.6487212687994761, 1.7495787856175338, 0.14770940514175063, 0.05627510681741373, 1.1991445861842676, 0.6936165546950253, -1.60392043024146, -0.5544230236989733, -1.1002987622033034]], [[], [], [], [], [], [], [], [], []]], "biases": [[0, 0, 0, 0, 0, 0, 0], [1.4274543023131396, -0.24360073005204289, -1.6187474827846164, 1.036123441075697, -0.6439382082713727, 0.4183131768039603, 0.302051015879965, 0.23140504121502298, 1.298230896995924, -0.6883346883210945, -0.3703027799852675, -1.0726893682129712, -1.0462264611588041, -1.1953171210493776, -1.1797515639139402, -1.3515639569519837], [0.5121352207525248, -0.25988991378691834, -1.603163561185496, 0.7593098509126677, -1.5551624675200042, 1.3282564570056667, -0.9127282466719658, 0.572825596009682, 1.743243545413992, 0.6754817686575523, 1.6565808416644894, 0.022959065947786683, -1.0055584499362191, 1.296881691360448, 0.4819350316561454, -0.3945106535683215], [-0.3697049318184347, -1.9301436922967032, -1.7178256044606441, 0.026368561978481322, 2.127151691249537, -0.069079252548571, 1.5385555803396709, 0.6159761665787762, 0.4294827319281815]], "score": 900}, {"index": 8, "weights": [[[0.9081652533865293, 0.5169399297279454, 0.7198683326966081, 1.2872871303399378, 1.9086005318558334, 0.5965822880444251, -0.37323051322663936, 0.5681378980100567, 0.5632449582982677, 1.9231249130201338, 0.13843778454092168, -1.4313939398563247, -0.9631420115559295, -1.1593045161296751, 0.1962810312060834, 1.5120495001288081], [2.3171892214220287, 1.42262308195578, 1.1333970084793803, 1.0703163535862856, 1.2260294191810304, 0.5927014664347193, -1.6857066333765418, 0.39613726890613776, -0.7443394736722366, 0.19306680395677767, 0.8207990497054332, 0.09597377798627736, 0.7019946200074308, 1.202952322703826, -1.8706694155102457, 1.7167293088149211], [-1.195925943902683, -0.5087696759335543, 0.9208249330846489, -1.2712726960642755, -0.8111276233183493, -0.35212040757552765, 1.6428910495299922, -0.7595034798590653, -0.11613539654948069, -1.3580488775384874, 1.2061818051091073, 1.3434866360838364, 1.588813698234877, -1.0053758061662772, -0.17519321488221248, -0.21144662435407544], [1.789535662850022, -0.5755387749903275, -0.8494639989603233, 1.9753174657531853, 0.8974529721256931, 0.8269594246312868, 0.7368448633417611, -0.9546083829261185, -1.8695836067228189, 2.1749072711849857, 0.31623711544630206, 0.048147608279701326, -0.20207944134656838, -1.8192502798414143, -0.3222532496207232, 0.48154733510501746], [1.3138205783878596, 1.5198065398471778, -1.686321651862373, 1.776594682026402, -0.2160046036012259, -0.9763399192182506, -0.6836606442934259, -1.670480428131969, -0.4560105663431153, 0.8451355793521823, -1.0782816570396263, -0.2755453030378412, 1.3238559150805551, 1.4236022029928854, 1.86948286674095, -1.2795245920567857], [-0.12109946322051379, -0.5451113644474221, 0.4247679583514334, -0.9712367954121947, -1.0374843861853216, 0.4787394818463423, 0.5501792433580794, 0.06074512746458735, 1.4282411571725346, 1.3818141420643233, 0.7566743242060285, -0.906680947240104, 1.6116628466607312, -0.7995606099364828, -0.4200695213056449, 1.499738370009653], [-0.8103778148573697, 0.8623478784367984, -2.063992651014656, -0.19216086961391118, 1.1949589719665115, -1.5317799475132379, 1.6162312178817775, 1.1871503510367294, 0.13978774685511747, -0.5511665908383511, -0.8491148117492502, 1.8691534868142063, -1.0443337092748535, -0.8451491278387971, -1.3859831311720887, 1.0129496338584056]], [[-0.659139288290219, 0.23841376791739718, 1.5348929153010897, 0.03669538127535474, -1.933949222827401, 0.6591789720062478, -1.4497807530222004, 1.2692125210359304, -1.3205190425643245, 0.7989960034554944, -2.0040312614743705, 1.431281535390173, -1.3878593827006087, 1.2504482493832978, 0.7538412091162975, -1.77046756225155], [1.440581570718044, 2.052213661999692, 1.4409404513608344, -0.9045317005795912, 0.2265852981294159, 1.1814192548312257, -0.9950801647331795, 1.438068500860282, 1.5577686456526108, -0.41748209163532213, 0.5203301159233884, -2.033291185656925, 1.1033179355297804, -1.607722217909461, 0.8049872508650499, 0.8829116901138218], [0.0987360977917951, -0.6327260921500699, 1.6107443802872878, -0.10179974447808411, 0.7645283049293641, -1.4134905947097427, 1.6563130265912547, -2.0362842303608097, 0.4825117333639424, -0.006518231030187158, 0.12638841825317199, -1.0421405898680731, -1.6969147906435278, -0.2492841015913006, -0.1998647761622652, 0.08292138276910986], [1.4295037017916816, -0.038012010347266686, -1.1458154686254451, -1.8350755983532883, -0.36326494506502693, -0.40610503168907625, -0.441768531377842, -1.402095650391707, -1.5577742700598973, -0.12254119041246908, -1.965254552075571, 0.3379221498886939, -0.7624725581417842, -1.837704137538981, 0.0746499450338442, -1.6052571638640805], [1.6258435598921654, 1.471129503825049, -0.11648423193647095, 0.3137441368367571, 1.7482649500958931, 0.22570258863797898, -1.4663522088692016, -1.2947645097388207, 1.2229245778726927, 1.8173382700515812, -0.5406041676416401, -1.1889391511631024, -0.013308601392890917, 0.051678990091794746, 0.003156172060333036, -1.3729103637564875], [-0.21868081813312432, 0.02016195390912278, -1.6498999126839968, -0.4425679993062187, 1.9942154551950528, -0.5053497478980068, 0.544538269523488, 1.0002790622753654, 1.5601274543734756, -1.8001808792967016, -0.7158632306062588, 0.664675941943323, -1.17709611071043, -1.1943461216310878, -0.37341693236353424, -1.612969250979566], [0.3027862545452123, -1.0925566557210813, -0.7657700468496582, 0.9615343524369618, -0.9315997904027652, -1.9280927724092, -2.0136360336425057, -0.754907616920775, -1.5761790397268964, -0.21459438737196418, -0.5836250250428278, 1.9725136130367678, 0.05980336036237603, -0.22311742140009533, 0.43621737869172883, -1.266274820596319], [1.1938802882023587, 0.4913897950031762, -0.0629688153623438, -1.8616453734263496, 0.6744350687682378, 1.291232717546037, 1.261974000944138, 1.3791420368378184, 1.5832973096034477, 1.2935297928657463, -1.4478290168092305, 0.7039036340057822, -0.7131151244858742, -1.7274330418337156, -0.9204622510914995, 0.06207706504237802], [-1.7663241199444366, -0.47838869260623995, -0.2645928491743333, -0.4266124878041675, -0.016897296689243113, 0.12931972845965908, -1.6224150261326908, -2.020025559036079, 1.7956957064977184, 0.9927877358256367, 0.6609164179265038, 0.35033579165188083, 0.2685524849702192, -0.7955943290677583, 0.27763734224181236, 0.5826329280573483], [-1.1393033425533607, 1.2195901804139067, 0.9166390068211838, -0.2113540226459042, 1.413597264198864, -0.5353760881193181, 0.7035130167992244, 1.5552095548795695, -1.6777626938553076, -0.6506972940656796, 1.0265324879156106, -1.768264825859972, 1.3483446607554619, 1.8400008173046314, 1.7912384928773797, -0.394426456558014], [0.9449656970189584, -1.9316241498451339, -1.0658844346948493, 1.360988003419798, -0.3175697499386787, -0.3625737825374038, 1.9756462714789658, -1.2384320024578215, 1.0279273144574765, 0.8991161303978963, -0.5069472025353429, 1.9122710090548782, 1.5052656697084967, -1.121603708751065, 0.22358630739396024, -1.6502825864329023], [0.32844511809416627, -1.1377501814324908, -0.25939081611121073, -0.8776861814412353, -0.7249283263373234, 1.8733177207552432, 1.864453234320174, -0.15847864720889693, -1.7125948856021134, -1.9642692489376166, -1.0437047422551442, -1.3881887507384287, 2.046339787354029, 0.2551304921994883, -1.8969515817774774, 0.2935491645955036], [-0.7903565527295514, 0.7127797336886017, 1.7084301043065042, 2.0599881579105044, -0.6521171611689723, -0.40766182816241536, -0.5300684530557475, 1.4109650373167164, 1.3972204344431465, 1.6531464313461053, -1.6543838073215271, -0.4873132621335231, -1.3282770257935976, 0.6282271608422362, -0.3380857416508226, -0.04681017052248992], [-0.07334648621567251, -0.5096609922518549, 1.4134219508419807, -0.3649404055667947, -0.027387385374914947, 2.0246878950287033, 1.7699002927445158, 0.8157689043545875, -1.199488016372637, 2.1797583412315187, 0.1714371231873336, -0.6872030628168292, 1.1153244523016796, -0.2593738438493633, -0.28640736097735386, 1.2961805749539108], [1.6269051796461813, 1.256974559107113, 1.1361043925085372, 1.3057253753605742, -0.272301648986534, 0.061843336900455334, 0.8892111132244531, -0.13250299525509288, 0.9954616973853032, -1.618954698543884, 1.4537908139402869, -1.9217962621488778, 0.8676351970946509, -0.35103910637889385, 0.19203632959351086, -0.4529012221081189], [-0.9150013583896989, 0.17133725220784332, -1.1826982871211924, 0.39707960959847916, 1.963632985150102, -0.6531847907222522, -1.1504739344562995, 0.005938658262322483, 1.630529382533925, 