[{"index": 0, "weights": [[[-0.9912558513667611, 0.9081625368548406, 0.8318684792016612, 0.4990692710212944, 2.054682084207372, -0.5316333121877981, 0.21222015928171356, -1.4364278936498733, 0.12569638987237775, -1.0436984190397316, -1.9731328114350588, -0.08319955802262605, 0.5729883426338989, -1.1946344583639898, -0.4281000100627249, -0.919126121280568], [-1.6907683732076824, -1.3115681739699885, -0.6134176909642439, -0.2455148093346889, -0.7806903767366917, -1.9986778725343153, -0.8566787731797019, -1.6324576110954265, -2.051171047493322, -0.6983341668715186, 1.404836379927921, -0.9986601351930074, -1.011970658162851, 1.1671373587055356, 0.7557559269229299, 1.6545561078225721], [0.7784295256448126, -1.2952984795176579, 1.3272120456684138, 1.5945411016626403, 2.0235789671849616, 1.5967751646837192, 1.2329248919813662, 0.2461316477879259, -0.789111652213875, 0.19258030648715233, 0.48075891342294785, -2.0563997836805736, 0.5983351596813548, -1.1199111310841179, -1.237042533960512, -2.0757507814539764], [1.7861989626384107, 1.2064843222599753, 1.384536128344857, -0.05342196716185944, 1.8497231730624861, -0.6785718928214344, 0.7390411752848309, 1.1460701710630876, -1.1426540010201645, 1.7155809402855233, -1.2710221271658408, -1.9362649305998165, 1.456732539454984, 1.1049209296457831, 0.6556906816405377, -0.4293406625781733], [2.0922317086967968, 0.4550178424643764, 1.7333121943005356, -1.4238155386468343, 1.1837226250685, 1.2192113936132738, -1.353831293809281, -2.051559970101162, 0.4960230023395899, -0.9953739610349861, 1.7858079054588603, 0.10782301886297233, 1.7201703055170943, 0.43603316239163464, -1.1732110670603646, 0.9956016263257285], [-0.12229827823605058, -0.5812091622628732, -0.41398287424333496, 1.8333149892234861, 1.0752371011676654, 0.03569593097724469, -0.663665404230466, 1.290077467692446, -2.097636431320517, 0.8841852317951654, -0.725992981844935, 0.604973398883985, -0.8659117768364473, 1.6592021575314961, -0.524075342756871, -0.38490378612462833], [1.4086631158462273, -1.895099980184206, 0.9673713328368452, 0.4930902322110189, 0.2725490854636309, -1.2378433052761468, -1.5209956883902425, -0.6692174979620491, -0.3432571110387741, -1.5522175525694597, -0.703944795296573, -1.3020455235014763, 0.3975045021383482, 0.23023141585951898, 1.299620285352536, 0.05518944573619766]], [[0.9803672311064248, 0.4016975837960105, 1.4032774882140253, -0.6016096029820082, 1.5776104403471707, 0.47246482168217824, -1.9043227940230751, 1.0990706210750372, 0.12335661451436192, 0.2837803853329482, -0.126850382917538, 2.093590026736125, -0.188150647830498, -1.4285798464993515, 0.06997219063499252, 1.830755855382065], [-1.5206307690626695, 0.3614802018824829, -1.487058787803103, -0.6936475137064076, -0.8333517085967964, 0.7550334188978578, 1.6688419694294976, -0.7793715800520785, -0.9013208981158463, 1.6184929636909178, 0.9307413906176145, -0.12382247698987674, 0.623058273299554, -0.7250582266092201, -1.6453502440712913, -0.8616254059008506], [0.5481857333302692, -1.3223117420252946, -0.3126448685095499, -1.4493849059149235, -1.1691380686102295, -0.7264143325261417, 1.6841725686358657, 1.6335267476428728, 1.9660405156891576, 0.5823948730556914, 0.6084612504614135, -1.2402979055898822, -1.2994015427865948, -0.364531128476171, -1.0231635905819783, -1.612629585354813], [1.3649010485159307, -0.719703895555577, 0.21283784482979995, 1.726866781609367, 0.6609522101600357, -1.4492749087107044, -0.9756048293033157, 1.4718750915856282, -1.7705835595673738, 0.4540900366284557, -1.6375817692414598, 0.7253222924889979, -1.4775637022535748, 1.3685310559630204, 0.13691211846958742, 1.0112918718343133], [0.2889459472711958, 0.013031005599902057, -1.7348456182761112, 0.4539545867643695, -0.7377150612073787, -1.7143176537976208, -0.284656708382455, -1.4703409208060734, -0.6777065657648309, 0.4172973542153646, -1.2876226935322528, -1.8417425079899372, -2.028170747435685, -0.5913535840836052, 1.4980236301959866, 1.5624651324802934], [-0.7460585711424186, -1.8514226156653653, 0.159626792926025, 0.25044858118536817, -2.1672846227098796, -0.7218035601094411, -0.19097042365517428, 0.022953581458444422, 0.9615516989737176, -0.3771802374579305, -1.368713922084813, 1.6020075725770995, -0.0898121362214425, 1.0894264630303037, 0.33770217406084674, -1.286146513821137], [-1.5424653665739196, 1.6315327592919808, 0.8301688305820265, 0.20238791576158, 0.09181141981159491, -1.3454813043622937, 1.3141739904351144, 0.3754090610972671, 1.7958851135394875, -1.1459034461475905, 1.34497887387694, 0.473944222486628, -0.5951488224164857, -1.8617219166119634, -1.6623848580909053, -1.6737404229868738], [-0.12226780107679255, 1.8420230349244997, 0.37247407513380193, -1.5849145444231238, 1.1252352849370206, -2.0583312894362438, -0.7090095832248497, -0.5911978133218327, -0.2940442702822086, -0.07241968039608801, -0.11966363269318595, -1.249309315076812, -1.6206448995799818, -1.7473749773194265, 0.2724160075522513, -1.6963778287744207], [-0.8340357227082487, -1.0047781104284583, 0.6210491157915653, 0.6583529884174589, 0.020384414609553314, 0.8002172023864191, 0.18134750147094286, 0.7306374312232464, 0.3134231745865236, -0.39447730653275836, 0.8238858507978124, 0.48401492368918475, 0.39270471983989547, 0.07441307231015695, -1.7168567433682163, 1.2248943162496737], [-0.541737055881241, -1.3505674084021646, -0.1948311435455778, 1.3821836149418487, -1.47099974974066, -0.5039873886690072, -1.0205071667456604, -1.0113464741920213, 0.6256571546957067, -0.07819819833407429, 1.2634894796120004, 1.6117127395374062, -0.15750885259972847, 0.04207875947191769, -0.713113450317977, 0.9844500305345261], [-0.4901615511002835, -0.9937015676095693, 1.3670858561599026, -0.35466373822671343, -0.8952681718214212, 1.4388421221260423, 1.240719903143291, -0.9519985426546643, 1.7029705506780461, 1.2795676302680532, -1.454303165845644, -0.48862775606462616, -1.2749781722590423, 1.763789132020295, 0.2951573620537878, 1.3206329600215174], [-0.6918311844428099, 1.7531150526103039, -1.0621658577911997, -0.28348838002572074, -1.7258910078679068, 0.7531584695497058, -1.2600090920279923, -0.962932842964283, 1.4345069126481407, -1.1467816132978121, 0.7376734970535944, -1.090962279781439, -1.4651522901394525, 0.7718558086874764, 1.8683722068517497, 0.25966911694565303], [-0.1131828796502519, -1.5291610083100953, -0.5515442143879923, 1.873696066080616, -0.6610007047824511, -0.4247252589395747, -1.075637492171003, -1.3484884520058402, -2.090289892888096, 1.658813890560014, 0.8925704550303021, 0.5207411058581297, 0.6321006817592132, 1.588284596587731, 0.6576626989588633, -0.462733033568855], [1.0875072566403636, 1.0471718295461325, -0.11068124677161212, 0.14094378618222583, 1.2677570919405703, -0.6561220857269383, -0.4481902778598503, 1.683561028191186, 0.31898239226880937, 1.2886152167422127, 1.0762169557573522, 0.15097414307242374, 0.9616302755990135, 0.2894912811797353, 2.0430428636922615, 0.24210915885869055], [-0.5507395978804905, 2.1984530845214616, -0.21885134140212104, 0.9049985786125647, -0.3773780177513765, -0.4959707404163938, -0.1621347148986217, -1.3426688665821038, -0.9312192659236053, 0.16202645234691893, 0.8294201607786693, 1.342371426600029, -0.1275560729928551, -1.8270291492055946, 0.5468139225328654, 0.21507243721417654], [-1.2477033491163187, 0.30030369989525674, -0.9832334978477912, -0.7537533613979324, 1.5672746738292247, 0.8962150134452914, 0.6501727987769841, 1.5940151749408997, 1.6391685354370333, 0.39624252684829186, -1.439658071435053, 0.893265095722127, -0.8536314932572999, -1.7171337665022302, 1.0376035649759252, -1.5532386767438584]], [[0.2584331617583306, 1.8129351500285231, 2.0219563380409347, -0.06795182076133408, -0.4909219171603421, 1.1245391182756646, -0.17884790397554234, 1.552701415214145, -0.821506347063399], [-0.11318646776437782, 0.07723136790329198, -2.0915362925460266, -1.0446511490091683, 1.0423894951877672, -0.8899738141036856, 1.21612559413207, 0.10025731032309683, -0.002197294080924894], [-1.5498472478161442, -1.0814617500743071, 1.919345901084827, -1.0755715556374634, -0.5893402503365088, 1.6213478311742502, -0.4548164130775291, 0.9458813172869789, -0.11636233625848959], [-0.23617775270234057, 1.386090798548841, -0.9743886040745632, 1.886324305275154, 1.6354738855061215, -0.39959612822239043, -1.4217624104911832, 1.149146027434048, -0.1785304931373737], [-1.5286864152581598, -0.099072326023947, -1.7636424098525025, 1.1608031466283348, 0.16862727643353012, 0.6873135656326406, -1.6629834006967787, -0.24864582268233495, -0.07347262684830323], [0.949517191697542, 0.3564634626499037, 0.0511520139677832, 1.2829795983177739, 0.5769465526038686, -0.17552328990109695, 1.9496709081334642, -0.24463017930884148, -1.219720298141905], [-1.7956975649647477, 0.6618966078144124, -0.01802348007866203, 0.3796298284782683, -2.181876070375204, -1.932748613552742, -1.3553294630130195, 0.7179147709673882, -1.8259453155882956], [1.6537626949023738, -1.9406702333123844, -0.4062646233291192, 1.0989072188362796, 1.6128504435378075, 0.822636912685829, 0.7834213446949709, -1.9197984957805623, 1.5569245507752199], [0.9270252208048385, -1.0435381831105859, 0.5188634434226294, 1.806430251278705, -1.640510376406333, -0.976746784047621, -0.2272803874779622, 0.8956340842298495, 0.7760899387318128], [-1.2149852895424087, 1.2886620582775676, -1.592400526161659, -1.853102274557809, -0.059776269594198635, 0.8049013856882127, 1.8279029678861138, 2.0002562536746358, 0.9536534597348211], [1.8447101392393725, 1.4428923344111677, 1.3787009988675047, -0.3189761193946674, 1.3828822267038106, 0.9499691487177241, 0.13251482546264523, -1.0236065805411563, 1.9933263627935776], [1.1923751142079084, 2.177120534610809, 0.15629661257173394, -1.4479651140422034, -1.5950293259248434, -1.6959551313346992, 1.9672645189229172, 0.9011605177789389, 0.35890226258042046], [-0.28215659188036607, -1.6086739396017227, -0.0805240577797821, -1.2700354598464327, 0.8803462770422283, 0.3673465358215795, 0.7653591713942092, 0.35777815236446564, 1.9261761176840992], [-1.5949594968841283, 1.35498580167073, 1.4876311999553773, 0.704026391503875, -0.11323584769714634, -0.024734667963934955, -1.876579740508293, 0.3452657930164046, -0.7772130217029146], [0.5322901130457474, -1.7843714072447918, 1.2335668360181526, 0.7491285016698324, -1.4533466220335147, -1.5870191207136293, 0.8390275601075631, 1.989531802734105, -0.42005349645654233], [-0.8023336645308887, -0.834641436194696, 0.4116519458364996, 2.1818885841016287, -0.748669128671023, -0.7973726837912075, 1.97980783415713, 1.195037412958423, -0.6254975496923884]], [[], [], [], [], [], [], [], [], []]], "biases": [[0, 0, 0, 0, 0, 0, 0], [0.16970937995044216, -1.3766417077145139, 0.3474458433844217, -0.3328624104703595, 0.026049082674135964, -0.9844483895120446, -1.0818513738949456, -1.683463245584143, 1.4493531127219392, -0.34777923572501834, 0.3660351899111637, 0.635184335775153, 0.5838607041774534, -1.878773150578229, -1.3418124571477041, 0.25506120024301665], [-0.5032018044315938, -1.7177430554780433, 0.5659274340306049, 0.3218181009679343, 1.0126444157967074, -1.7014377882725622, -0.4887389417767187, 0.9600745334295746, -1.0833109955525961, 0.5051606886458838, 0.07127816753887478, -0.07987420930805404, 0.1750967509208165, -1.4932997081981254, 0.0817167078639459, -1.301604345199796], [1.709853206514417, -1.8997864362163477, 0.8810659966786967, 1.1449548755589476, -0.8282645929868686, 0.1753138870645975, -1.5017237228582792, 1.6477624544567797, -0.20685591935363304]], "score": 600}, {"index": 1, "weights": [[[-1.0860392632120577, 0.8995469428459777, 0.8683622839075064, 0.6349193097721527, 1.7887037669241048, -0.8094541892447614, 0.19716127790286375, -1.6247095650090255, 0.07353816587796409, -1.0000222236235683, -1.9648220668613041, -0.12079996852529179, 0.48266574732038603, -0.9592785217131918, -0.5752590242600346, -0.8718325255644229], [-1.863783846493568, -1.37811060628685, -0.6136300921146691, 0.004295232294497214, -0.7609147189584143, -1.817008154319881, -0.9207166409198475, -1.9282200949670085, -1.8352104396651356, -0.7927571975004201, 1.519729026385573, -0.8962408137842637, -0.7463225867664407, 1.1679677576649192, 0.8056993027633986, 1.7267668977662474], [1.0232271020569068, -1.444518261251703, 1.1461734190912856, 1.4873663110599482, 2.024818048024353, 1.5715291982931372, 1.0700908718655724, 0.051050334561587335, -0.8081143517996552, 0.05646982704967754, 0.6898006055102681, -2.0922810573069044, 0.5422346432752103, -1.0119403695829612, -1.264976667607997, -2.0700892250755256], [1.90879330288071, 1.2810847033619295, 1.3373639914791946, 0.06656542054610166, 1.9185450765622825, -0.9326430575385181, 0.7652059798625703, 1.2714386765550638, -1.2889543413729618, 1.8897949036629074, -1.3414444985345442, -1.8430835026086008, 1.306099025497747, 1.2276062158247663, 0.583191144173924, -0.3152853235998883], [2.1568675089536495, 0.6190591208915439, 1.9223094843213626, -1.3837997209539836, 1.2159244701848535, 1.1853181892142106, -1.0557133956507285, -2.09069172617323, 0.7170492827124132, -0.7752922248992957, 1.7394006452180104, 0.26674888656629714, 1.9527611812813803, 0.393311103012441, -1.1726038314627492, 1.1191763976347], [-0.4071982391316755, -0.5611546830398539, -0.16656443168205043, 1.740073635058596, 1.2011588445651957, -0.17764366258617395, -0.5297310791431412, 1.5131154002818743, -2.028056474629206, 0.9651699241131161, -0.5541952387685858, 0.9347752880252727, -0.8080756854697873, 1.6291844666738755, -0.6060912593439903, -0.3131314550026028], [1.2614131069840624, -1.9058051953014536, 1.0219237519949107, 0.7224782720950778, 0.02739380154519619, -1.146466625414575, -1.6797425559119283, -0.3292486913854933, -0.6107299239028094, -1.433996899666029, -0.6508899348403896, -1.1336859119011005, 0.3774558250507558, 0.43546932812532185, 1.2470531784110435, -0.020478266083146485]], [[1.1683708840415996, 0.3945133091895309, 1.4905269701046675, -0.6659881910809604, 1.6886216636323266, 0.5988562437397602, -1.6810188319514485, 1.0590355403684657, 0.4008462232042066, 0.421944905748179, -0.11714536150745886, 2.0748329509921897, -0.2674381454811371, -1.768507072509039, -0.14414253802976446, 1.5081505543891902], [-1.4927165447423119, 0.3555737592513754, -1.2133182901804564, -0.6406505052280483, -0.8617721843599483, 0.5995979762073564, 1.8467976393003602, -1.105733230979755, -0.8986773009718376, 1.5999663756615503, 0.9725853942574474, -0.24871511681296166, 0.6196503982247821, -0.6395475149319167, -1.568934983283039, -0.8079727036763873], [0.6377083969717784, -1.5042153767236388, -0.2477338369576755, -1.3666512160857567, -1.0142118322823686, -0.7735665809908066, 1.5251299917939982, 1.455454829036189, 2.0192949979898533, 0.7179645145922109, 0.7815032762305645, -0.994207567270616, -1.2092142289699481, -0.3074662305705941, -0.7631527199527537, -1.4099419721128617], [1.5143348855545071, -0.6772661226224912, 0.032797695055542864, 1.8622564915668305, 0.7517513249163661, -1.653793523196549, -0.960768137929864, 1.5977187527766816, -1.7878597677986863, 0.6029382091425695, -1.8003873565496284, 0.787062370006598, -1.6978171513146247, 1.4138953310743663, -0.04966320543515737, 1.0832288384009634], [0.36850817612518727, 0.13046994422301336, -1.9058833225510314, 0.5180456427154823, -0.9166650103005901, -1.4787523003488745, -0.31815119758434385, -1.586173521690106, -0.7317510423128056, 0.44638369624250124, -1.3161697514642885, -1.7923011313460662, -1.984958809165756, -0.5508980027811551, 1.4176553949237558, 1.5138361244414735], [-0.7170242133584702, -1.7019951053719888, 0.3525773499610391, 0.3173998187619057, -2.099720935913541, -0.5691539224705474, -0.18411842470150974, 0.12331680627619455, 0.8901470352005297, -0.4949894408131497, -1.4944017806390972, 1.5576820063215433, -0.06451483922950715, 1.070802017840136, 0.3108297511697785, -1.076874367962339], [-1.236114939518196, 1.7902080843324046, 0.7640108109172233, 0.299890999862197, 0.08874118862915228, -1.255799533190091, 1.1783935602013504, 0.38490929523129014, 1.8536808582314135, -0.9452304918455914, 1.2796304895547916, 0.4090516652422795, -0.8125536753314208, -1.7918234688985415, -1.5181441998978118, -1.8221606077764725], [0.1562104416807278, 1.8097886697343342, 0.467605721646585, -1.5569509105198058, 1.465313727685071, -2.290116996298676, -0.48189487534186976, -0.6786599397190181, -0.33570724103787636, -0.28200852428017104, 0.04370423240914356, -1.1827738970973891, -1.4987417362004936, -1.8917295651253085, 0.22239779363292758, -1.4405678693242268], [-1.1110039091421717, -1.2287066888958433, 0.3833682110374971, 0.7305956746411361, -0.1512890962179339, 0.7829008912527233, 0.03334808037707768, 0.44483246767854134, 0.19807336303983958, -0.4068733097566767, 0.689200458891323, 0.6349987500854066, 0.2447029548843742, -0.17427776460176933, -1.7285268276154055, 1.2562379687019953], [-0.8889128104938733, -1.2471739589740305, -0.31774365758126644, 1.4521804763738062, -1.5321819430038113, -0.49524980449407774, -1.401080396472811, -1.0043247354547407, 0.85164266493501, 0.11610084539343589, 1.322909342605407, 1.3644483827404517, -0.396895131997622, -0.24245813187340276, -0.7389807228281862, 0.880997544546261], [-0.2777424697383265, -1.3099612310715658, 1.3553887142678098, -0.1989266147114178, -0.7031074887381129, 1.5129517941039938, 1.0656203823727477, -0.8323642670338613, 1.8161522962588463, 1.394207394865945, -1.387005382828002, -0.44415444702173174, -1.551188856398986, 1.9438170517152575, 0.3535093199454512, 1.4320603026818626], [-0.75124905069248, 1.8320685715371432, -1.1935517896656223, -0.3956523966913687, -1.8331970767653334, 0.6140848172460649, -1.4491417191166316, -1.169572036524993, 1.331804708400033, -1.0253321117697352, 0.6602185110759535, -0.9815396125273166, -1.6462293521925047, 0.6784248023804782, 1.8422379322040623, 0.34482705718708573], [-0.08882578863102221, -1.5697008869069178, -0.584914705975781, 2.0259727455121097, -0.43444957066414697, -0.5440456956211108, -1.0748118753186526, -1.4044499955074714, -1.8712444031628601, 1.7318792080666576, 1.1353928237962978, 0.6032192220111574, 0.4613083794074057, 1.3732505949648472, 0.6167503318590206, -0.14619454503604376], [1.1190037148681509, 1.009391983964967, -0.3247890639818559, 0.4145703073083432, 1.2223890777116826, -0.8229778739346703, -0.3130005552356199, 1.5236719941150243, 0.3236125842750475, 1.1313154150663154, 1.1201025451330278, 0.2908632578995504, 1.0633313294833056, 0.467279371968492, 1.956706238489178, 0.21480705723001287], [-0.8809344469712636, 1.9468720328303672, -0.08427543638738012, 1.012429439748796, -0.2779667430188768, -0.4404640247505752, -0.4021951589587104, -1.4246818906282521, -1.0216885197701373, 0.1454331767860516, 0.7884142847746655, 1.413906274231406, -0.09208803778793836, -1.9181140565279522, 0.5999928489016594, 0.24116413170463485], [-1.292757130709595, 0.368895286083036, -1.190466606943266, -1.0009346780571042, 1.7336390201685477, 1.037353783051284, 0.689986674787646, 1.6657294297958092, 1.5787823884441377, 0.46194172967632857, -1.0574998006270984, 0.8910610213893604, -0.8922135024305993, -1.8550190680447634, 0.8396998387012465, -1.4414567921101933]], [[0.3156962443177066, 1.6601806180956475, 1.8301460183278682, 0.1261215248437494, -0.6033195765369606, 1.2078786923722136, -0.39843487057118354, 1.4017034228025034, -0.7896917293737105], [-0.267092993817927, -0.22154909989755234, -2.417395064311826, -1.0592275994170168, 0.9228414321321656, -0.7483823443239619, 1.3495519082823646, 0.23793013517866826, -0.004562589633924922], [-1.43429954314534, -1.206247743083508, 1.8903992174806319, -1.0341539426010862, -0.6264999031044567, 1.6362904736522432, -0.5692846186554787, 1.0771429310573621, 0.21132246985844133], [-0.369230303319467, 1.352608377804504, -0.7733777270388711, 1.857228276134057, 1.5256236085933699, -0.4626290460258458, -1.4232925939224608, 1.4971994580341952, -0.47032394339856565], [-1.4955272725731392, -0.4299179610949798, -1.637628587100141, 1.4645168496202023, 0.06429586792798839, 0.5813002484829299, -1.610869947197332, -0.45691460421469876, -0.02663224775157765], [1.0216866447926403, 0.28262529428793004, -0.14644470569962226, 1.296866283207849, 0.30738658441498956, -0.18027752754599874, 1.8866891893954776, -0.4706842617096377, -1.2361162481206758], [-1.8938215400796408, 0.5021977603122051, -0.0895021910944637, 0.373043546670044, -1.907083857123583, -2.152216975272454, -1.3325085875778067, 0.6364242394659965, -1.7279128717182033], [1.5984074015867784, -1.9366117587627654, -0.8915181992508023, 1.3024119948798587, 1.6455402030375532, 1.0575811405494742, 0.7531763645166367, -1.9196422018460695, 1.2653207341438995], [0.9082144664455838, -0.7904819304670604, 0.5138082840762637, 1.9548890491797246, -1.5524763891219626, -0.9964457738406118, -0.1336017276498911, 0.9024187971188873, 0.8204001047915238], [-0.7938746596993917, 1.4852180740317014, -1.5827564988341762, -1.8202313078948222, -0.19878223344586743, 0.5227152537674989, 1.615354514973846, 1.8274094161661276, 1.114036695044401], [1.717098100015774, 1.3585014900002272, 1.3378964137282428, -0.2479129339131402, 1.4884616425681998, 0.8066090280827576, 0.06197318629611091, -0.9953330369254382, 1.9256958647305522], [1.2972991011716262, 1.949531145087756, 0.34070148454428023, -1.4474409286590284, -1.3879255090319975, -2.0190743002042044, 1.7912471326645922, 1.1642138261456598, 0.18948541245657569], [-0.28949976137327393, -1.6513671970846897, 0.03683223300606336, -1.1068945542967965, 0.8116267089592433, 0.4842730201971032, 0.7784133875706115, 0.3750572864986799, 1.9090206950843607], [-1.64928224380234, 1.5130409782768839, 1.6520408016106383, 0.974611991461438, -0.07495728275500296, 0.09977183109095061, -1.7756793861058764, 0.5946150682477563, -0.7690516109224076], [0.34098406697281713, -1.8156027021953984, 1.319300293675374, 0.8192868543457952, -1.3579167011608964, -1.4599419244412555, 0.8590535977225706, 1.8934536861004438, -0.11545164277327574], [-0.7075287299308182, -0.8010295458909521, 0.20121942348435345, 2.2898400812725566, -0.7090956881291834, -0.9644192266305107, 1.9213783676650322, 1.1303777643939414, -0.6225036912036888]], [[], [], [], [], [], [], [], [], []]], "biases": [[0, 0, 0, 0, 0, 0, 0], [0.14993087694087143, -1.4270939440863166, 0.2700775916334405, -0.16469713859954238, -0.007303311993380062, -1.0712240744176493, -0.6926809647815309, -1.7420995187414732, 1.4635773140645825, -0.37855117968458807, 0.6159070588190465, 0.9643620245472728, 0.6160180571226544, -1.8733297191197857, -1.5140188030232238, 0.3756683074157069], [-0.4499990107168395, -1.9560809996470867, 0.46626173361615336, 0.29438466421828213, 1.0189552930870305, -1.8465738845245554, -0.49715677149620163, 0.9434544145950869, -1.012190275308762, 0.8103299639327348, -0.10207158204108666, -0.006547408701373714, 0.2868806252301087, -1.675111646808435, 0.15201867705936384, -1.1815856830142397], [1.5282827746171113, -1.8415041485983528, 0.6353472865379108, 0.9881880629736439, -0.6830559597679717, 0.09195543032229803, -1.3123955394719886, 1.5025596548533282, -0.05191808493137337]], "score": 710}, {"index": 2, "weights": [[[-1.0007413389735396, 0.8811383277272187, 0.9965670499819207, 0.6058192050774268, 1.7846679682365063, -0.6640552645682957, 0.42485784153731143, -1.6269788174906417, 0.11328989980868756, -1.0665157560712386, -1.940155216733649, -0.3500297967749417, 0.6078253158799727, -1.2599961394768007, -0.5306332543237335, -0.8944181823204648], [-1.6496845606163753, -1.2254508898398828, -0.5486413710878347, 0.18615873049360948, -0.7452602919985509, -1.6785527114691927, -0.9865255610774424, -1.6596608056632185, -1.7818325220100744, -0.49802423687446506, 1.619430883239106, -0.9125532575710542, -0.721141314479621, 1.1855736665605117, 0.8443253534765582, 1.9568066201044145], [0.9320671359131915, -1.3625548912456147, 1.0255909295144363, 1.6523057429255121, 2.0922644520887435, 1.675044047592483, 1.3908993407385324, -0.08497736974990686, -0.9438718233268418, 0.08467550152987763, 0.5469329327841276, -2.013436033141893, 0.5282232574989474, -1.0165274899553836, -1.435078382008799, -2.099324268856089], [1.8680868175175527, 1.2646594273406513, 1.509881425974452, 0.11124639314800716, 1.7424630803748549, -0.7462956709854636, 0.7066512632069278, 1.140388133503876, -1.0662764822966946, 1.9725774145953288, -1.4690783960818727, -2.0341577411212497, 1.3941716472109325, 1.1838734522559378, 0.4280469701600078, -0.33483255593509353], [2.1695873107580765, 0.5473622947659719, 1.7353778610989672, -1.2663500222269295, 1.0195323999494417, 1.1668119251331468, -1.5107173372015414, -1.988709291139845, 0.583456966684496, -0.803389812308809, 1.9266565685407127, 0.19563809956826844, 1.761305191805945, 0.2617725446143153, -1.4129306408239541, 0.786142517744931], [-0.3396566312868449, -0.4493786449292298, -0.257255919379634, 1.7625986297736833, 1.1726558876573674, -0.2144391748597015, -0.3997370061825547, 1.4336476310631319, -2.0357867759982198, 0.681971051999741, -0.9161192625174303, 0.6722854175215043, -1.1253820625244664, 1.5483438567788848, -0.23619464963564457, -0.4974956034755774], [1.2461953262274519, -1.6199062931809178, 0.7953568031792644, 0.7530200452933082, 0.10745937020340282, -1.1710052298986222, -1.6327497492801202, -0.40139336164839273, -0.6048223498877173, -1.4088420393048713, -0.711475674034284, -1.2834386761821246, 0.22249385464098348, 0.5013695493854945, 1.2897192390847507, 0.04716608273105475]], [[0.9735251096391131, 0.4142475703358062, 1.4831156430743853, -0.5767717380854414, 1.4960558425448771, 0.22781920757689664, -1.752242539373644, 1.0622373010383008, 0.38152451641106844, 0.18567325004361368, -0.08477923429570822, 1.9257711697367474, -0.29160681719367565, -1.52695466451647, 0.03391659324408995, 1.6346545481114583], [-1.3283442971701778, 0.5184074111512287, -1.2595455080324023, -0.7882113583858128, -0.7517915257398987, 0.6077530740201991, 1.9755505495089003, -0.7716094889541386, -1.0848795388353256, 1.5984403525959365, 1.1004273625456285, -0.2591507614716736, 0.6225344171378636, -0.7261132617637702, -1.6770031292430725, -0.8398888953345307], [0.6232008640306944, -1.4323787486975195, -0.19459684179241954, -1.4455454075840737, -1.0769154370313705, -0.6798755351560067, 1.4282584083317662, 1.4300690794251367, 2.1313087276296, 0.7439071365927366, 0.6238730750475305, -1.004750129275968, -1.06622691897602, -0.2602424937207348, -0.9578933185358057, -1.4307316570960766], [1.4337902121717128, -0.836039472692686, -0.0410044041202551, 2.1072125355875357, 0.7530410379883157, -1.69497146073092, -0.8779166898545766, 1.6354168166443102, -1.8588880604856446, 0.31842845486327703, -1.7071226096296006, 0.7820031979425628, -1.7866660502793037, 1.4862118476761312, 0.14999468760842186, 1.0917770064876895], [0.27372941227416664, -0.011444452010385686, -1.8144965508071897, 0.4059613526553183, -0.7015282587481675, -1.3476350949208022, -0.14142183855111462, -1.4673821631363517, -0.4783034851215526, 0.5564111994225983, -1.1097091179515095, -1.70625840931787, -2.1110869443828126, -0.6741626108887848, 1.2100928602062637, 1.5164395060496842], [-0.7682016476379911, -1.6458640259862265, 0.17142801856247716, 0.16025911255363212, -1.9949061291965557, -0.6159580541251893, -0.07444268288960261, 0.05743681940882303, 0.6766997650549049, -0.3375912725438585, -1.2488348968214067, 1.5209179316069903, -0.19071473608106976, 1.0416508543314622, 0.2592003393491765, -1.2771465051785862], [-1.1820120873317368, 1.7055341082021076, 0.7736491843503877, 0.13298033971992226, 0.2734844475113207, -1.2737731875464104, 1.152363753374225, 0.4345134384174438, 1.8003751108365247, -0.9794341500355914, 1.3733004584720923, 0.31402573110871346, -0.6724719778009082, -1.9565437187527575, -1.5865076429410183, -1.6277444424251282], [-0.032904445918039614, 2.1383717407355145, 0.35529644862752136, -1.7250870771650115, 1.4270550525889742, -2.2140986815535175, -0.6992610228308386, -0.6424636488343064, -0.2406870421168765, -0.26738243800215866, -0.02794291161040313, -1.4247822972451145, -1.457477090913638, -1.8895732268652448, 0.17740687014643897, -1.4245764347309535], [-1.07186531329217, -1.2596558799072224, 0.48792459297847524, 0.8712624123971179, -0.2798925329766171, 0.638404342135355, 0.17404140755393352, 0.44701531697632596, 0.35390974936459046, -0.3586092730566468, 1.1014590264995912, 0.5540718572166665, 0.15957408013007668, -0.05051515197412333, -1.6609101728620597, 1.3706002954304763], [-0.7826460517161703, -1.3261108440242457, -0.24602708686807623, 1.2801512135443074, -1.5051126580636263, -0.5649235189122827, -1.167579444959191, -1.080705419665598, 0.7999692528740285, 0.2151929997503441, 1.222252799749925, 1.6498696721166586, -0.5018405248311462, -0.08073421637568622, -0.7759603509091635, 0.6753206162916217], [-0.5870116815237343, -1.2056616809778145, 1.4564383532579648, -0.20268964511531115, -0.8255580552810972, 1.413960051143647, 1.1936232308803567, -0.9962993179388244, 1.6468520067542054, 1.338902175214621, -1.4384628905409504, -0.3839628154028477, -1.3690605940492855, 1.8761842620860019, 0.22632158313358686, 1.4148889120646915], [-0.7662359065206367, 1.9064698016092274, -1.0208221228511813, -0.21460234969458636, -1.8024528246365348, 0.6762566496978282, -1.2862689294025014, -1.0091939205105733, 1.4084691068491635, -1.0867655814879822, 0.5833910461058057, -0.8413621448107121, -1.5073789489755942, 0.5478643694534201, 1.8051852635572245, 0.21201591237864653], [0.05205157469409462, -1.6653330808391498, -0.5575137907740209, 1.725755729563873, -0.4099627528448996, -0.5660233563301768, -1.169026313015668, -1.30896314390748, -2.1374076957093404, 1.678679633264845, 0.9205756069883113, 0.5182096832724205, 0.580486438500445, 1.2026459697088945, 0.992378050688175, -0.16950447518917156], [1.1093781972046777, 1.24115138897643, -0.264640787998516, 0.21206435712508268, 1.3876095640712813, -0.6692345965830772, -0.5008625441183833, 1.4502686491989134, 0.2173676617549144, 1.113972565666616, 1.0237432003853948, 0.3710514368716127, 0.9663167452371012, 0.33309633745759526, 1.7280790032562754, 0.01843271722750306], [-0.7038587664181404, 1.99752299545939, 0.059810163954611764, 1.0533379812363355, -0.4384488583871915, -0.6283769935547739, -0.21445629774945213, -1.2032897057920229, -1.1573227488868274, 0.12919759248429868, 0.7716972036813693, 1.3639442661931955, 0.08523677211769368, -1.5416931967946605, 0.8334057922491641, 0.2784126263784994], [-1.4813381253333626, 0.4537991049579065, -1.1661387455830121, -0.8897625420619822, 1.6523428758219247, 0.9366941699760033, 0.7769155633214262, 1.8049883514792422, 1.3352043194334682, 0.4614040593262324, -1.296554104062874, 1.1738045947901312, -0.9413566156878473, -1.7175886360131067, 0.8401825016327508, -1.3825111967995718]], [[0.25587651643024123, 1.7936804819784835, 2.0394213555375105, -0.0833476340361557, -0.4467891230445872, 1.1584474622422845, -0.19528196705503692, 1.5684574399940927, -0.9360261384205728], [-0.2982549028550503, 0.20983006974686957, -2.2777501840819516, -0.7976795951381722, 0.847449068349427, -0.9883012150133653, 1.249717072763271, -0.10188712618792051, -0.052590707238373224], [-1.591487074359356, -1.448458610401934, 1.9296529669524312, -0.997456113787165, -0.5845532866290883, 1.6399818632939867, -0.6068769505880534, 1.0169068792544476, 0.02225063130753427], [-0.24236610647732482, 1.315778745443649, -0.9617210661856654, 1.9263647527404697, 1.7031018291074669, -0.5932168038475513, -1.172673102462958, 1.2569655860526003, -0.2035509819974452], [-1.510699982895385, -0.49642707944314224, -1.8687745211156714, 1.3046493765071796, 0.16217686699266173, 0.4931008438460716, -1.6863321722686226, -0.38627446512196784, -0.031204401305905915], [0.7920929564266562, 0.35162981543373717, 0.2378402307238307, 1.1588796301110023, 0.3857764338434335, -0.14388762407076597, 1.9941806383926026, -0.34542812623788627, -1.2084042695706407], [-1.731199057541316, 0.6081768129227949, -0.07360186370026958, 0.34726436010482165, -1.9912549403085176, -1.9182829603602012, -1.3871717965135282, 0.735763428034908, -1.9195289970113867], [1.6537748557165324, -1.802949634424269, -0.7722764365304386, 1.3300326698262541, 1.5952485899135669, 0.996969515041887, 0.7213165720003376, -1.9339441590872841, 1.4451255913600947], [1.0098402372356932, -0.8181424382292508, 0.5102245899537002, 1.9165321748656423, -1.6547230315142318, -1.0024110627157794, -0.041848453050172235, 0.993620703794711, 0.7459027754154215], [-0.9090928470554241, 1.2846390767532092, -1.360787368779273, -1.7498371438643485, 0.053508679074481716, 0.8017698165885092, 1.6309732783941786, 1.9912062240549568, 0.9621902800773522], [1.9091701314953353, 1.2416304214788447, 1.1283326490913284, -0.3316934934189561, 1.3934307964068342, 1.0558950575230721, 0.12077802794053957, -1.094353961970592, 1.9427371357867578], [1.4267488662023575, 1.9647097517881127, 0.14776580075606965, -1.3424614028431725, -1.460014189213596, -1.750231951494076, 1.840072344292288, 0.9076553024120482, 0.10102075203524558], [-0.30803025466300343, -1.6031742107105111, 0.017051851336942016, -1.1146568170591382, 0.6948325810102639, 0.461909008435881, 0.844031864339492, 0.42671612664878306, 2.14073342555546], [-1.489196032900027, 1.343051454471871, 1.6429493782694284, 0.8940504165915931, -0.007361542389174504, -0.06686639702387744, -1.7352734900615925, 0.5314861079573076, -0.6625675996949691], [0.6013559643971995, -2.046650846260555, 1.2704858823371787, 0.8487316158516715, -1.280722311547176, -1.584247351648912, 0.6942642920210017, 1.9183318310296353, -0.4573792397107867], [-1.0429765103377775, -0.9509616624250788, 0.31254068145690106, 2.055293898923961, -0.845011857342989, -0.8943807790693928, 1.640452202201137, 0.9525923186264451, -0.5278349995918479]], [[], [], [], [], [], [], [], [], []]], "biases": [[0, 0, 0, 0, 0, 0, 0], [0.32841353222502123, -1.6350682377801435, 0.3279981858586459, -0.29823490351699233, 0.1259077782522875, -1.0216402704931158, -0.9368540242372996, -1.5488567456321471, 1.3969551290032898, -0.6641800494620522, 0.6593586727646874, 0.6400077193413795, 0.5389068544027863, -1.5723628146891881, -1.374740795766527, 0.4670361758692949], [-0.5330497062123369, -1.8902893033024843, 0.4011866934539923, 0.2637356404671767, 0.9331185213094142, -1.8188817018295234, -0.5970119609182776, 1.0758816354762817, -1.01906345697329, 0.5376674381488885, 0.1939416134925254, -0.14897577065490694, 0.368173086265241, -1.7022966808531979, 0.12292983041562351, -1.309131962951382], [1.6796119675887267, -1.8382538814370666, 0.7976505112653626, 1.3274203709957406, -0.6490236114786699, 0.25087753244590655, -1.549706448507942, 1.7780614913624972, -0.03322723072398469]], "score": 600}, {"index": 3, "weights": [[[-1.1359360738347584, 0.9076304312795287, 0.9332042800549434, 0.6026900794328865, 1.885085671000768, -0.7119924604980526, 0.23941576637366763, -1.781080411593173, 0.1527655799918546, -1.018147204204218, -1.9565376276485984, -0.08144544851345581, 0.5281297162954601, -1.1602117127119482, -0.4821786403331676, -0.9202469013500532], [-1.7732319010906414, -1.157958218902672, -0.5817268639802532, -0.1543817965011534, -0.7152488907614529, -1.6089207414186992, -0.9425633798868382, -1.9835936821769482, -1.9685013140963503, -0.5827550524961894, 1.506663368998822, -0.9145650186773646, -0.8963022993797254, 1.2243830893149423, 0.603430155502426, 1.7884877645027561], [1.0163163053291562, -1.2822503133015115, 0.9390821992180272, 1.6943271951946621, 1.9887758690844595, 1.650353873183037, 1.0627291701458563, 0.07709013890199269, -0.7981238755074307, 0.28212155483708046, 0.7276544375700215, -2.107378062426748, 0.6978033910206378, -1.156837451439601, -1.3405105013865228, -1.929881686550585], [1.9247916732713644, 1.3077120000947735, 1.3507840349995504, -0.010086632081835134, 1.8217313051823494, -0.9016277673922963, 0.6828355346490128, 1.2404882838519788, -1.3091193700435924, 1.915342285557065, -1.3675302377624783, -1.9069903861005995, 1.2948750335721475, 1.1820928638794612, 0.47290363137994623, -0.36707767483068593], [2.167116852876171, 0.4657620101904969, 1.7064034318856682, -1.2483731961875495, 1.1719955287722692, 1.2659186242873008, -1.2214071724243594, -2.0662538155872894, 0.7424850614191644, -1.163314383782764, 1.8673423426117437, 0.12169440779458765, 1.9670564707039957, 0.4739961203240275, -1.23959795282849, 1.0270900750534375], [-0.2376933565824194, -0.5240725982030346, -0.23754626837916504, 1.8566466653247318, 1.083219242237086, -0.346225041061303, -0.5583312342175506, 1.5285581679379143, -1.9429745974386088, 0.8452187453349385, -0.7490942053757137, 0.7372574887114531, -0.9857414524002667, 1.6411567246616563, -0.5422232178106627, -0.29368715009740165], [1.245908142798435, -1.704808758639035, 1.000325650216079, 0.8136923282346286, 0.08484532585084953, -1.1746827710224332, -1.6160333651609373, -0.6619000410253527, -0.5996136857079253, -1.3940425839529282, -0.671288376309541, -1.3557291196720362, 0.6422390738453346, 0.4477311524875154, 1.3681314617602334, -0.07429993860957215]], [[1.0612511228519774, 0.1917025452697384, 1.3634337154329312, -0.7410050645224628, 1.40248461963011, 0.4651059799240615, -1.7660580278229707, 1.3352726878907029, 0.2614426327617526, 0.35976629417579775, -0.2750471612615838, 2.123566203581185, -0.37381273781294283, -1.7445262097224608, 0.048274856042682564, 1.6241752304324983], [-1.473768572363656, 0.4090104189761591, -1.3273793136356464, -0.7942115541337132, -0.9178907855328051, 0.5546493364106382, 1.8105083105691129, -0.9163894673827272, -0.8990104512383648, 1.5660577185263016, 0.9695442302242114, -0.2779021805160788, 0.7896478806082441, -0.7567371794931543, -1.5686027667900213, -1.098114499580869], [0.6122918211806911, -1.353003879958089, -0.36599017694751623, -1.540558426997518, -1.1892459090494898, -0.6797770119902389, 1.3497782570997197, 1.5355247324521926, 2.2120398541129487, 0.7408150765967927, 0.5854115801826165, -1.0038122355823915, -1.4099088607912182, -0.1767983125539817, -0.9203296094404642, -1.2841121796363861], [1.5727395988686506, -0.7847580558991655, -0.05567332384225389, 2.0554583493902228, 0.6783046093412269, -1.6618260986329674, -0.9567673558006076, 1.4699202290414672, -1.8362000722953808, 0.3570793174293835, -1.8143557966410366, 0.8774373942452286, -1.661317403805784, 1.5498774148635868, 0.11609235867142012, 1.1224730435384511], [0.3024275733561388, 0.27848208546215036, -1.9474588444670429, 0.12139643096963454, -0.9642691262039242, -1.4723961995274701, -0.21563491872136045, -1.6177577720472633, -0.6260428671703019, 0.47911276379116796, -1.4887890720842727, -1.7638606751389188, -1.912287434131017, -0.31412596978731766, 1.328960886249476, 1.5119085398890983], [-0.836618793199227, -1.6280329405244844, 0.2681868074407236, 0.1579523601023885, -2.0577453265631536, -0.42526434621248377, 0.16241740710609034, 0.00802397878259864, 0.6600473663925, -0.30742730516246697, -1.5037502703575494, 1.638170473352892, -0.15823358192869985, 0.9798608536557687, 0.26404500160243133, -1.2137740811712108], [-1.328243071604865, 1.681703777576406, 0.9852129776798556, 0.06141996191674705, 0.20017907210904495, -0.9296698224888345, 1.137930946362129, 0.414052808150873, 1.8859560260088488, -0.9966689390105636, 1.3615785244787004, 0.395551011190086, -0.6820382595657182, -1.789678875153686, -1.350833566372778, -1.4705362557719075], [-0.07868880765642078, 1.938815042778525, 0.36998068416884783, -1.54795633519467, 1.2973979634476809, -2.1886800466717853, -0.7307723195775981, -0.6385958202707771, -0.269851630974344, -0.3953269738196894, -0.0994635653539139, -1.3074603844699606, -1.518777834933402, -1.7923077034705985, 0.19699854001866127, -1.5359633350820407], [-1.0870034313863224, -1.0886945079280455, 0.6223492236369617, 0.6784931030026834, -0.19983366501371327, 0.6947546414443451, 0.01430371893300672, 0.5372083602010422, 0.3397427373037379, -0.40865609029163935, 0.8319337235615886, 0.3193987876375592, 0.33960223228391234, 0.0005324503018064846, -1.6142291132362443, 1.450433534613011], [-0.6727893047881077, -1.3837809263144858, -0.061751604110132724, 1.2820042046974967, -1.6790600201858576, -0.43674404229033237, -1.3961152757874793, -1.0244197810833644, 0.6194755797067573, 0.1545560725222186, 1.2887584421683016, 1.5512566839005493, -0.4096548501194942, -0.09847823449874517, -0.7441993546488257, 0.8258023376129515], [-0.3793497962460538, -1.2215096531808767, 1.3650355510675243, -0.21120948526346695, -0.6771340577516622, 1.5442191315358673, 1.1914074714343923, -0.9772177552111022, 1.8367452366298347, 1.1678241232006459, -1.4681479705562104, -0.37406732987583297, -1.4479602463661112, 1.9434686129604446, 0.289634513379239, 1.5579748132597897], [-0.6059060642288443, 1.9053817938921036, -1.2229926812793166, -0.251018344691044, -1.9766831260798605, 0.8925673016809914, -1.3922185563744274, -1.015372717790321, 1.3060937046018815, -1.1892555581379158, 0.7729138547384041, -1.0531661558827408, -1.7720099580253614, 0.6227129658112576, 1.8472709164553098, 0.34704364015701106], [0.08183054024705301, -1.6238686916503617, -0.6363914588674588, 1.6428670151133697, -0.45956898447976324, -0.5725012707324776, -1.0965156014963093, -1.3105089650368233, -2.03008751115538, 1.601880698665913, 0.7693493017162759, 0.5612796559392649, 0.5034632035926431, 1.3862098405701022, 0.6878618188644757, -0.19513882465419846], [1.0248123587286186, 0.9437838194838486, -0.31752245122827005, 0.33590204344678, 1.312546486772966, -0.7729480912428102, -0.4494159808811833, 1.7334352108824476, 0.49500678511327867, 1.2060539584430692, 1.0817991424302091, 0.2184223341779493, 1.075475439957378, 0.5391561412407603, 1.907236675647698, 0.09373083252991633], [-0.7751277634581974, 2.0502004370321263, -0.27931131052310865, 1.064686233679538, -0.46551263410410443, -0.43628842991990613, -0.3767893867394347, -1.4312116281239864, -1.0697811438198304, 0.060635853975467155, 0.5768764076525729, 1.3217200990536093, -0.0966132600341987, -1.6506021022233814, 0.8129011801588293, 0.3808729198769556], [-1.2985517406520843, 0.4122107168169342, -1.278754884297969, -0.8145534840407747, 1.6790746902830722, 1.1648439661666947, 0.48648367111532304, 1.6483550212772804, 1.5496283584723567, 0.24818013640773792, -1.2533265444011124, 1.1330932022310485, -0.9374897925673751, -1.7600193234348145, 0.8871662676368686, -1.5847686698908978]], [[0.4597311901286688, 1.7700449415144022, 2.009182697608078, 0.19343359650459746, -0.2074662851770775, 1.1917522222821146, -0.12995188195859764, 1.4857953999255715, -0.9582412160792669], [-0.208981311001303, 0.13971872307660765, -2.309431706165663, -1.0761830868449906, 1.0541410451677709, -0.9097023071645046, 1.4487706192747054, -0.11483217010726354, -0.040160728490903456], [-1.3747085421769847, -1.21213870888588, 1.8320193059768421, -0.9687350715837358, -0.6287057918023008, 1.6642839886804661, -0.6405951189140526, 0.9256812112860108, 0.04619895808230333], [-0.28671686680863334, 1.2523505534586508, -0.7596397668667648, 1.9320005284820945, 1.5560542245322766, -0.43473623034502007, -1.4872793537443163, 1.462837633350851, -0.5881027728425939], [-1.6488799586869511, -0.274023581346409, -1.9197794378310218, 1.271382036413725, 0.09146922908276034, 0.6145793252497709, -1.718135226632135, -0.3004077519518335, -0.14793915998917684], [1.1404584466120125, 0.38738757888320907, 0.00764176701969474, 1.0977372950097157, 0.32729161018454705, -0.17211317117749167, 1.9930938677891585, -0.4205482644410043, -1.2671492000198894], [-1.7255374672810564, 0.42517153226710264, -0.05233373180238052, 0.2162409129147118, -1.8425453644202514, -2.001014654357465, -1.3325857706164703, 0.8010520373789216, -1.96287558105309], [1.7675125086773706, -2.040444072787939, -0.7129463398150417, 1.2417857489524127, 1.470805939422287, 0.977513365856832, 0.7650295959495791, -2.0151586411309896, 1.5307193779979662], [1.307952811852942, -0.8770150395914579, 0.6859752037357263, 2.002269796526315, -1.5677607556830846, -0.9770558173106997, -0.18853846274958067, 0.9929293624981171, 0.8673794593680701], [-0.8834739793518162, 1.2843737510783915, -1.429323710594137, -1.8024273078551363, -0.13869307342549342, 0.7339875966414602, 1.7530470497436006, 2.1537881966744803, 1.0611526834151335], [1.8713453589999578, 1.4260866699204409, 1.464604938077505, -0.33918120645599087, 1.5346393023719627, 1.0139224978726993, 0.13074832182973492, -0.9927552989262066, 1.8577215138666068], [1.1251044926306968, 2.187171663062148, 0.014323533003591987, -1.2426692747657806, -1.416394787302174, -1.8004123996682457, 1.6541853303976541, 0.7513334917924748, 0.24614776979985498], [-0.28444387195085785, -1.6186753606855018, -0.20569748160556764, -1.182419880124668, 0.825095806160877, 0.5355964566052408, 0.8420526913262469, 0.5175994435889759, 2.1053750423826947], [-1.5501925568900785, 1.3621462774624165, 1.4682979276459611, 0.5870274775770499, -0.05791995263484161, 0.1485503454207287, -1.873055920491791, 0.5612828894179694, -0.614190035843623], [0.5244214605584427, -2.0417510815726425, 1.1792140252268661, 0.7905121350571436, -1.4044780557783245, -1.394322128871773, 0.8297441009849572, 1.825517427721368, -0.45473652089043276], [-0.7085810833116802, -0.9389947016353091, 0.2026447759660739, 2.2798424810098634, -0.8281150878253078, -0.9418852847412517, 1.8218733237492302, 1.2599679970365965, -0.7208824185298783]], [[], [], [], [], [], [], [], [], []]], "biases": [[0, 0, 0, 0, 0, 0, 0], [0.19656942535312202, -1.3815039898282668, 0.2953422321730063, -0.267004819030308, 0.028855639290216714, -0.9966464136346214, -1.079647516511688, -1.8674987798086264, 1.273021300954554, -0.3583749806468099, 0.5735706156403145, 0.637843519218435, 0.6016633594341411, -1.9095287912287922, -1.5349140684295979, 0.23737041088585278], [-0.2806924841484808, -1.8005101217890993, 0.37199299291612326, 0.12579766125180183, 1.0127194356964364, -1.7772201520285555, -0.5507418630802325, 1.0539993899695415, -0.9487647863552455, 0.6321365181401497, -0.01684678063871936, -0.20008377292310175, 0.4341086640092968, -1.728654989021097, 0.011557074789482442, -1.4682518179745356], [1.7455175595530221, -1.8921067048164693, 0.6763678764341504, 1.3759702992740606, -0.7574722989510688, 0.3876352309036131, -1.3984604051032918, 1.7075287020004428, 0.0008065423922870435]], "score": 808}, {"index": 4, "weights": [[[-1.1463833040353337, 0.7404711512706148, 0.8620251977294775, 0.7465021848804443, 1.9014723331248444, -0.5929134906524638, 0.4186063426456682, -1.7691797037569446, 0.019877736695614254, -0.9981162510386317, -1.7754006339376032, 0.06272588565060783, 0.6824060341300778, -1.1077732624709349, -0.3541654180000974, -0.9655221031379114], [-1.714209530917871, -1.3170882635300951, -0.6281247711274937, -0.006105021375999314, -0.8698027557145017, -1.7787576665362028, -0.9237019976493952, -1.9360093815192836, -1.8327989028497034, -0.6241287144138004, 1.5730042434292626, -0.9683411761791986, -0.791598422685279, 1.0703967424288527, 0.7472326293338868, 1.9734249260882373], [1.0067846001894956, -1.2399397078477978, 1.0422978289579061, 1.5905958589395401, 1.917941032055324, 1.452044307363113, 1.243711999160881, 0.14660295374969884, -0.9076440476210788, -0.031080459597223747, 0.6743539830962304, -2.0711373922159804, 0.5463059686162162, -1.0883695032368155, -1.1437210847056138, -1.9091136633243126], [1.918322298280971, 1.199984333523123, 1.2631997301763391, -0.028842698645498502, 1.8473419738783432, -0.8673532833018285, 0.7694290919230307, 1.1551021276965001, -1.3133319466335922, 1.7454278755316777, -1.3494389588303355, -1.9136681714547283, 1.4317536732061185, 1.2867422601226446, 0.6775267547888764, -0.3447492707369486], [2.245888394862943, 0.5963716485385923, 1.8455423036006526, -1.2862759083125537, 1.276963551782747, 1.2208943464609225, -1.3431255142546428, -1.8820901630195133, 0.6439382958746521, -0.9121063768858384, 1.6532977479973123, 0.19578895547612665, 1.969770650644127, 0.4939869923189866, -1.3327661200682235, 1.1795149303256924], [-0.46702779504444586, -0.5763408622681722, -0.3152966937334035, 1.9083287696940021, 1.1884717994843965, -0.1315429350461915, -0.5279973542176418, 1.607083309640571, -1.9331818485383596, 0.9089689009056342, -0.560759896660135, 0.688766337543491, -1.0025803929973054, 1.6815630837955913, -0.474116952788685, -0.3340870397677028], [1.372461682318674, -1.522391621923728, 0.9459777525407526, 0.6640681741146389, 0.1967083948028417, -1.2170722619292034, -1.6627129535288105, -0.3393964578639496, -0.7557413086081302, -1.4912054472531022, -0.5339937032914729, -1.1422458139339629, 0.36545916495099884, 0.5102667114197489, 1.2180023322673246, 0.12294392473276816]], [[1.045994993975195, 0.24736496870824662, 1.4579728920602861, -0.5500302339690941, 1.4909952610543782, 0.7176308437068766, -1.6710054538691455, 1.3748158047270143, 0.2695216096620626, 0.5256086989841418, -0.12721423680495741, 2.1879973302465805, -0.23380734684862192, -1.651593138019132, 0.004015980445681772, 1.6342459755018925], [-1.3537068451365597, 0.3924488101837408, -1.3727873514984512, -0.8218407538164909, -0.7444603165038921, 0.8019572587225566, 1.8684667707169043, -0.6754690473023074, -0.9674695026984756, 1.4677777372705716, 0.9981182093040915, -0.19834894118465918, 0.703296880662245, -0.7375838467495904, -1.5897460411245719, -0.9066814832674749], [0.6284494992369941, -1.561024727621295, -0.10757572219114414, -1.3193364273390242, -1.2306826554009196, -0.715749450976749, 1.415634887649486, 1.6039101406467116, 2.2273079748374576, 0.6737868250939897, 0.5764437288823668, -1.204548040941319, -1.4769889089173387, -0.32385767925007264, -0.9255582899478647, -1.607836611279996], [1.2975981066034656, -0.9437567550574695, -0.055804180152509764, 1.9022440845194213, 0.8116216214484715, -1.6847875462812727, -0.8274140497356501, 1.3463338412491346, -1.855770953672523, 0.2518120836642207, -1.8613971879666202, 0.653626605866574, -1.5251959978909913, 1.4302098457643322, 0.11571334895845423, 1.0983019337310853], [0.31858706664915415, 0.11000954131581309, -2.0961181936358235, 0.45828899854261107, -0.9515175701791521, -1.5371519480914184, -0.2993948069029687, -1.6577444860818806, -0.6080329687330119, 0.40918559250378195, -1.3525463077516702, -1.5724499571309574, -2.1974667805391777, -0.6785605396432095, 1.3983503708541178, 1.6386834520374556], [-0.6582372912551753, -1.5672819377967597, 0.28713358369777436, 0.3533861871074327, -2.1340415471763907, -0.4671724615027011, -0.17354247445953297, -0.017564675927432827, 0.9814520312328008, -0.3778613474259796, -1.4356040252888302, 1.5549305308190935, -0.14728264975166308, 1.1332724951806534, 0.15639921334557963, -1.2274239902907766], [-1.2918580639826265, 1.820920685292369, 0.7117577474026743, 0.31043722801671125, 0.27861039490632505, -1.2220531637875898, 1.38345857365174, 0.5090701058944942, 1.8730253397713155, -1.2696372213943412, 1.526187342715913, 0.24587533643461384, -0.7407152979618035, -1.8029914471168755, -1.5752832924100957, -1.911409222150411], [0.07479033305232181, 1.927662253130825, 0.22787549144964495, -1.5482158814036941, 1.283790585931406, -1.8963633406928018, -0.6740249541650836, -0.6894444147357441, -0.3245365205731461, -0.18837367904570196, -0.023451670785750597, -1.4535825643513451, -1.534180884956691, -1.8050091442686313, 0.14441196750468893, -1.484112839339564], [-1.0243250006652702, -1.0540107405171242, 0.4762361955781149, 0.9124653108839476, -0.238370898653293, 0.8332879898381649, 0.15112729472502273, 0.30434764498828587, 0.1933686718744439, -0.5541444195416898, 0.8608255280721979, 0.5141982075508746, 0.3283631428187442, 0.07170241962438584, -1.6819161284819293, 1.2372529502643503], [-0.783208876665223, -1.2830245197167747, -0.08432690982605252, 1.4761786403497656, -1.5719702600257062, -0.38161666002204675, -1.2578599548547522, -1.3560072193588426, 0.6705879210502738, 0.06950896458255003, 1.3064862450686274, 1.5186558265692933, -0.5671433141155402, -0.015328629591058365, -0.7076375775347699, 0.5540645894634657], [-0.5495595848052377, -1.1575730771856563, 1.4318265192596937, -0.2975178092827031, -0.7780556219473477, 1.2686590109706652, 1.2967934564243295, -1.0429241109565865, 1.8575482177258598, 1.333218015721098, -1.5595566930135227, -0.4077143647722276, -1.3725478505269213, 1.9470243285538962, 0.354716736785318, 1.352249809514651], [-0.794486653832637, 1.4847160754452342, -1.0541456757754932, -0.18513954743408834, -1.7694916499870739, 0.6426950342568786, -1.2425437431132975, -1.1760278142330278, 1.4348112714049444, -1.2316087598861494, 0.8750385141451816, -1.0475760449189426, -1.6945788690467714, 0.7333119564655219, 1.9518580861105645, 0.3221954455999347], [-0.19052277769435758, -1.5890794812243638, -0.3591554136069114, 1.6158222423612452, -0.46835052339369243, -0.7399065411227443, -1.1035059510287955, -1.388980305172542, -1.891487908903187, 1.5367740364258522, 0.9557007278976162, 0.5424333519890276, 0.6284613622770766, 1.5413361103058325, 0.6818630555226034, -0.2401688240155561], [1.104060497639219, 1.0373206069028182, -0.14338584963978945, 0.3202451147732326, 1.3766860848525027, -0.6553807039636335, -0.4101192361325317, 1.4297244212928093, 0.21422136130157926, 1.0096983266707635, 0.9607703622949102, 0.283250084133649, 1.0040141308243407, 0.5199933607888296, 1.871283438984696, 0.0832717883671773], [-0.5902905616775709, 1.9172050289569003, -0.04558940881106897, 1.0203311203023009, -0.22909660437222792, -0.45820219543119, -0.39654291085093357, -1.3877405883000715, -1.1039470270094371, -0.13092086190937774, 0.7654160901956345, 1.089983697113238, -0.11962433547452882, -1.779938494967333, 0.7957801880006269, 0.28208161057751907], [-1.5767485850759393, 0.5040366114215383, -1.116513462047646, -0.8963787768689973, 1.571462170929368, 1.1732385188449848, 0.7211995002220496, 1.6155684592680435, 1.6189316337882786, 0.45007469112810206, -1.323567021163405, 1.1740048110431, -0.7510784367846236, -1.7112393432176765, 0.9455652746084311, -1.4572205528257114]], [[0.11365610660053166, 1.6828803233743843, 2.02190763559614, -0.07123967987471114, -0.3046873944209086, 1.0460465719842422, -0.166893399009855, 1.5840719184294874, -0.8614353513712688], [-0.1510570074278899, 0.10264343670954076, -2.2860668125155454, -0.9640829011765487, 1.237910042340065, -0.9158655746842019, 1.3402848143647033, 0.13309860968665777, 0.040207935452195795], [-1.6307644850443765, -1.160648422885663, 1.793625213530855, -1.3392163947362359, -0.5616910490031943, 1.4550317928631815, -0.6556596816759931, 0.979955072084024, 0.1367382490346769], [-0.13330909581777275, 1.5319066413262439, -0.8446022935339412, 1.8260930880290518, 1.5768599513815544, -0.5262604347749705, -1.3805947661326907, 1.3450681510684261, -0.273826549025678], [-1.4825638043421672, -0.3845198554879022, -1.9390499267420456, 1.2663862335953353, -0.020333041378802087, 0.2578027228605853, -1.675992959181608, -0.324477681680447, -0.06637697363474676], [0.9010138201333667, 0.27724634378051244, -0.1124468553648154, 1.1505754849515266, 0.4705020459625695, -0.058220970464979, 2.123181996059867, -0.563626707472884, -1.0189725842113253], [-1.7237827615155263, 0.48829087633510065, -0.2850766638576922, 0.25796712529041727, -2.094836289332556, -1.9872678610475618, -1.3819898320383415, 0.8384520583164451, -1.9557251941701999], [1.584832504364329, -1.9744230403730159, -0.6329022114683983, 1.197799494724927, 1.5943377187014407, 0.9472731912361866, 0.7431105487676027, -1.625826739141339, 1.491462436514067], [0.8893322899419842, -0.8935294560175588, 0.3992778225885053, 2.056559855430539, -1.583400088173948, -1.0021595281257665, -0.3675818937578934, 1.0812058951944101, 0.8140993482698948], [-0.898534936115946, 1.329028324789367, -1.674751574459713, -1.7064216637974496, -0.28668331353843485, 0.8796786130307515, 1.6919824746191652, 2.009745943883453, 1.0483653590457997], [1.8596302954337351, 1.4092702651681435, 1.2657723588428695, -0.45679588223721007, 1.6622928855046843, 0.9123701558438918, 0.057737821879234576, -1.0245800669734084, 1.8920902013415493], [1.2481723269530394, 2.016594009444782, 0.1575771667572165, -1.352965862648921, -1.469222518092427, -1.8561141939407413, 1.742377529002096, 0.9465464689858302, 0.1993280721435881], [-0.31704708942094145, -1.7033818169817674, 0.21049370063532605, -0.9845387376933898, 0.8917001396809664, 0.6587911967055982, 0.8755944689124024, 0.4193136525541174, 2.0254130243699815], [-1.4971656168213012, 1.4450171832749457, 1.4289365640092002, 0.872287846900778, -0.03708973314065225, 0.13819839570404938, -1.6904397337207284, 0.5124840789203148, -0.698662484600612], [0.5962081767894059, -1.6811616303269652, 1.1141682811810938, 0.870185812152364, -1.5217396023349665, -1.5658862310601953, 0.8127228683575907, 1.7839973015408745, -0.2514701431972739], [-0.7449693316092834, -0.7510150120987004, 0.2368426146448723, 2.1380024660804082, -0.7152921139531813, -0.9158259209637469, 1.9533264638677388, 1.3347081001843044, -0.5156008303035976]], [[], [], [], [], [], [], [], [], []]], "biases": [[0, 0, 0, 0, 0, 0, 0], [0.11554548058772296, -1.5684141579912905, 0.11186294812128486, -0.36936263508948725, 0.09251627047753426, -0.9437379350272244, -1.0031711253163125, -1.6934101252269227, 1.4453051192125683, -0.3178960664192845, 0.5774462738244854, 0.7552821771516677, 0.579334363765319, -1.971039292644653, -1.5703311218697251, 0.29642000729176937], [-0.3216135193239222, -1.7851856955596102, 0.29296445660866577, 0.40181329165294066, 0.9632086316655257, -1.7253278470024713, -0.45707252739509185, 1.138299754360509, -0.953939113739171, 0.6694816810097924, -0.018625375387087237, -0.10385898076762169, 0.31931543406094937, -1.7448149868130665, -0.13367795724830675, -1.4166335429362278], [1.5078728771587957, -1.9347219102392583, 0.8530159425697574, 1.2703439008588737, -0.7228727218936569, 0.2903604950309974, -1.4593639209326659, 1.5933815486094636, -0.11376127611816887]], "score": 600}, {"index": 5, "weights": [[[-1.1896190349143199, 0.8237774204340759, 0.8649916566720953, 0.7258586140963292, 1.860480532868172, -0.6433683979816411, 0.5629261678681754, -1.6144915682669438, 0.10429891300185648, -0.9268748961587171, -1.8434130232176953, -0.21503440289949838, 0.35073274838218454, -1.1561080073991201, -0.4805794547130641, -1.1675697930022704], [-1.7550974899605838, -1.2136900744403525, -0.7203081668372517, 0.12297584748466353, -0.8837069457437388, -1.7966634901933318, -0.8430312198145591, -1.723530932224731, -2.0208196702565577, -0.7873061361786519, 1.5757214391524483, -0.9253837968965034, -0.8513188060774721, 1.364824482195543, 0.6955402030938284, 1.9404898976711678], [0.8753769654259672, -1.1147928436224557, 1.0651009104408145, 1.4626392591609327, 1.9360449758624831, 1.353692715715307, 1.264150972455673, 0.09233010132649631, -0.7932218795911157, 0.0596774882580539, 0.4303867838112405, -1.7615856135217998, 0.6196766297634856, -1.0939176555779366, -1.2693183933918102, -2.0189773751737063], [1.8249256771191023, 1.3138080033357475, 1.4480461269471168, -0.008980384061540267, 1.8464608794012225, -0.8525533531699643, 0.7015983274504699, 1.1897864400461229, -1.3294054482097257, 1.987567428884313, -1.3360617713951257, -1.9135711825245987, 1.459497263408974, 1.1321228354859243, 0.44054151056963436, -0.46701058868826417], [2.185865030572146, 0.6286750629769695, 1.989086448682019, -1.237191634357319, 1.2318849411591644, 1.3566483995738832, -1.3124576243935653, -1.8827196601846028, 0.780613179390994, -0.8686489576780053, 1.7838985471531683, 0.15263949027166945, 1.7137152836342686, 0.5535654182588083, -1.0197691773260722, 1.11940366831337], [-0.2243252362427698, -0.5359661321667014, -0.39293521890272953, 1.6630001409076531, 1.172200899571782, -0.2082148715458347, -0.5016276756084139, 1.3580588488509564, -1.9934914221995363, 0.9705931979556872, -0.6374834581619409, 0.8273462632111892, -1.0744201694952413, 1.6922463250080721, -0.5762564647838153, -0.5596648342079995], [1.2988845476962638, -1.7958933044493328, 1.0777506426435437, 0.5914051046664831, 0.11037642215334648, -1.2046417883684084, -1.563238338272574, -0.4597846061641472, -0.48383075259011665, -1.2219268902372613, -0.6017547348624732, -1.1232867063472878, 0.3974083035762325, 0.4844484246836346, 1.0847456827510562, -0.11408453517207492]], [[1.0383942758418216, 0.27768459320386185, 1.5460861364573644, -0.5875545617798251, 1.670489770571598, 0.474831136962228, -1.6520343526513221, 1.2220937697607073, 0.2282289757404443, 0.32720769072599304, -0.3324779467422476, 2.311336384005945, -0.2576858861985866, -1.711936771370974, 0.1258650934474603, 1.426264630909313], [-1.5550641592763648, 0.4751666075817732, -1.0723098017067718, -0.7143597936535603, -0.7886278000802263, 0.8265507806633279, 1.9002898670204622, -0.9118296809843222, -0.867944580067452, 1.7167759897112786, 0.8503812030824646, -0.14647787866121545, 0.5759337306091608, -0.7005700122155958, -1.805380972935493, -0.8958239475829173], [0.3478277764685147, -1.3035027689877678, -0.2906880525112057, -1.5097074277580407, -1.0299938872888343, -0.7139079645610173, 1.6750703616559037, 1.506420797429886, 2.207190550387646, 0.6756769471235391, 0.4805323723780167, -1.0344991205031506, -1.2255954247346117, -0.43208412309903443, -0.7894312800670303, -1.4890835192707086], [1.3604264850292636, -0.8536865363565634, -0.09710581268255243, 1.9612284754241933, 0.5769273494593083, -1.6157396273429068, -1.2025313714970112, 1.6893298308982934, -1.8258814328784072, 0.42459649648049985, -1.6865832227294277, 0.7049099923578055, -1.4907478132206058, 1.3674739966765541, 0.007978173824110951, 1.0699594960886212], [0.26148908185547604, 0.14106801601880475, -1.916756412852923, 0.45849921867353255, -0.7968939842496893, -1.429770388796682, -0.2230449201314627, -1.551570156454614, -0.5411054600118308, 0.6497243807538133, -1.3513455880300076, -1.5987587974912298, -2.336482635156572, -0.3890049474897913, 1.5174442896896894, 1.5186453556668829], [-0.7086710599484269, -1.8084643769026194, 0.28485846175069707, 0.20034107147637004, -2.07504243881184, -0.5817037367820376, 0.17496717411033383, -0.06924301932784949, 0.7434520230371755, -0.5034829596994131, -1.4300520138576351, 1.5256328015949756, -0.12312227053719689, 1.0286520539970745, 0.34615048588229397, -1.153539522422925], [-1.2158688949281966, 1.843662791934625, 0.8772890505462335, 0.23196021619107163, 0.38376840010634683, -1.2374475319565024, 1.273832987055162, 0.49192434061880475, 1.76524480699507, -1.0856343652164975, 1.445118980184162, 0.37934263167507726, -0.6534437187275745, -1.9116760605216345, -1.5811703343589074, -1.7841641719769057], [-0.07555458807079879, 1.9409376102938363, 0.27035294866260673, -1.478973646341271, 1.3735780833084792, -2.274450620262942, -0.4740688563637141, -0.7238517098982659, -0.2276566691492655, -0.24100487384520428, -0.07367334776040439, -1.3745743327834894, -1.3878930789667392, -1.866661924032139, 0.33065509659180536, -1.6134521182913937], [-0.9978535904124616, -0.722000662204229, 0.5992511763116598, 0.8690903329049279, -0.07091642409973106, 0.7121785579797436, 0.08461717998028669, 0.4745932869416324, 0.3041447097269851, -0.37010711429828136, 0.9880924161417013, 0.7719366710308871, 0.22421482981019822, 0.04750308500810227, -1.6433605480622349, 1.171742489496602], [-0.5990999853688564, -1.3231006551953597, -0.16758525113402767, 1.3432254240038037, -1.5425128689845196, -0.577441060922132, -1.299382052472247, -1.0452802804439711, 0.7347706801870445, 0.05438795268659545, 1.4002316310269625, 1.4950881710607546, -0.39264041442847974, -0.15670545636225164, -0.7410988808480137, 0.8734116163270426], [-0.19788547456387215, -1.2029982048171697, 1.3858489177393765, -0.19950579390769388, -0.840563487571288, 1.1812468244474263, 1.3392065997719167, -0.8512070796046424, 2.0234785352765225, 1.4298346150883758, -1.3451661264338266, -0.4795964619460664, -1.3362710236715056, 2.020353038375638, 0.22732394379989684, 1.3073777942010967], [-0.6842209773111744, 1.5332250980312536, -1.0376049450341234, -0.16056474292746478, -1.8603303259741422, 0.6852889681233041, -1.2155581283112102, -1.1511053784657086, 1.2551121024866674, -1.2121273792943617, 0.8196193091251469, -0.927885082743332, -1.5850916049111, 0.6483831763883737, 1.7022148852627093, 0.2722821411942741], [0.10777170027679588, -1.5006916294813009, -0.6035113913642253, 1.8328416525456905, -0.5364638015968995, -0.4527565399610095, -0.8462486951967643, -1.3878837071187518, -2.082431130883013, 1.7444627203138339, 1.071310103155322, 0.5213044614880442, 0.2665612362325022, 1.4859270420707844, 0.7050451501365019, -0.4052503606140443], [0.9919020428956206, 1.1164706327875187, -0.17674609911756198, 0.2851286849691533, 1.2147850556497641, -0.64536929148089, -0.4539625993260397, 1.5107064994583175, 0.25356142182830976, 1.269289041100087, 1.0140328810871977, 0.20486119474314746, 0.9668728407011129, 0.2486877890429825, 1.9577569710591307, 0.038839374741345634], [-0.7831631503020638, 2.0508493431906833, -0.1292862381102818, 1.1771213523648938, -0.36866614698243777, -0.5587919898702941, -0.3387805189806471, -1.6013610830674494, -1.067150417626069, -0.08782161181224184, 0.6730322039901221, 1.3002020572568647, -0.07335937715204834, -1.8234658569897975, 0.6597233817029141, 0.23610564898994746], [-1.5522137415222175, 0.5361506922173799, -1.244512372682618, -0.9131144531113632, 1.763813383017101, 1.0592553681012353, 0.5160824077256781, 1.7332296614624145, 1.6609119312175742, 0.4798638379109149, -1.310904885205963, 1.0632764110175827, -0.8332353423290033, -1.7941682790806206, 0.9162925140573195, -1.385303233652509]], [[0.20135124418338554, 2.000542769190294, 2.048661628464517, 0.10550720885166526, -0.5001534664680743, 1.1665617847449365, -0.12461172787576727, 1.6317798377556625, -1.019948742902493], [-0.24288600766426763, 0.06405540399458498, -2.2055321300410853, -0.9499972233897378, 1.0822136570456398, -0.925901547451971, 1.245406939816059, 0.12018790264270288, 0.032578217213505054], [-1.6636122473902362, -1.0406680945309006, 1.873546270050863, -0.9656132154419454, -0.7407254261440704, 1.602692585300021, -0.7123005245083358, 0.9677315884340063, 0.17334684979647705], [-0.2107545457184431, 1.2459038088558096, -0.8421061523840105, 1.7618939924457695, 1.625820155548865, -0.5719692450014029, -1.3847399550030974, 1.1736431649835577, -0.41151986080963365], [-1.816652090911967, -0.3949755677656721, -2.068221910800219, 1.3781196490268801, 0.0704385021884043, 0.6055004152413905, -1.6603555723494436, -0.36628367744410706, -0.2506910785080397], [1.0934982090684295, 0.4585029557444366, -0.12973741027629024, 1.2478809704276759, 0.49507425369930774, -0.22744129792011175, 2.004924924742969, -0.280649445313941, -1.0858852678625006], [-1.736486611966337, 0.46863095044002384, 0.055337405478914206, 0.5619320460968293, -1.8067077137934842, -2.1055493685395903, -1.2118609692908886, 0.9085377754450905, -2.0032954986102443], [1.7407514885795037, -2.0923314134951143, -0.5952122339768365, 1.4439536714839312, 1.6179264414550214, 0.9284410505004457, 0.6811838853949143, -1.9102116484729292, 1.5109067621057535], [1.042800112553029, -0.7758002870787639, 0.516206874578278, 2.1529541373351337, -1.5154168220510542, -0.9309666092498414, -0.2670778618444641, 0.8947492771190163, 0.6665231299500503], [-1.1071553602413071, 1.2351562500490345, -1.3715645808841235, -1.8663182141704115, -0.05634236019617407, 0.6646632236626698, 1.5694452016359333, 1.9480480579246418, 0.9882419550842593], [1.8794878096508925, 1.3438563154045227, 1.204735524635771, -0.3316049429237578, 1.5468192849981561, 0.9464620665222886, -0.0840603640224886, -1.189642279901908, 2.0756967458492], [1.1060115076042727, 2.022845357462909, -0.016494430762669238, -1.4215033739540752, -1.225601369518825, -2.0201915632346523, 1.832961789123922, 0.8348413243224441, 0.06506306591982301], [-0.3752780980657404, -1.550166280029361, -0.047519138126317875, -1.056741468641259, 0.8233103227214581, 0.46402407566603493, 0.9763208846878958, 0.5479938045131418, 2.2102682335235646], [-1.4789640259337717, 1.550557704911554, 1.5871092984115753, 0.8328951119385423, -0.0462930066490169, -0.06787030779550722, -1.867395905327119, 0.28277764845320297, -0.6833257214565043], [0.4254633124607597, -1.9150001755874482, 1.1079410891680692, 0.8854870865745216, -1.3696970565471418, -1.487544350990789, 0.7842402705109967, 1.90236522005885, -0.34072654838368116], [-0.8840340886723336, -0.9106866112827969, 0.2856008256700817, 2.2249624605512843, -0.8312321825700317, -0.7611053112141113, 1.9672575037535083, 1.3361451406719804, -0.5432219094316657]], [[], [], [], [], [], [], [], [], []]], "biases": [[0, 0, 0, 0, 0, 0, 0], [0.1987873931751512, -1.5300911492500509, 0.2119113390127702, -0.32259392243174556, -0.08146001491171176, -0.9285113089867473, -0.8131640680259228, -1.6143562642315208, 1.623730366443235, -0.5260632695101106, 0.7911152007982383, 0.6798169368032119, 0.6411457784956897, -1.82733250583381, -1.5179692266854776, 0.361322856821198], [-0.4024660004103115, -1.6406083140440646, 0.3847959786948686, 0.3192970872589334, 0.9364034056677518, -1.66243661914772, -0.6307765884514136, 1.3875164330534153, -1.091094364706747, 0.5556763624519112, 0.1478233673278443, -0.13572774627341502, 0.23780095971563547, -1.578048875674441, -0.11589032160388785, -1.2941054834109782], [1.7276155454687228, -1.7826802302301497, 0.6542888499251394, 1.4526787470252043, -0.7173081587740682, 0.27296052314715197, -1.59665616293878, 1.8470012068311594, -0.23336120416304312]], "score": 728}, {"index": 6, "weights": [[[-1.1571840785762095, 0.8224078660474322, 0.9390419513610359, 0.6801169464537358, 1.7832105558505567, -0.7478551902326727, 0.12499334105433901, -1.730244975683284, -0.013361877345974674, -0.9357812439223385, -1.8347108293792358, -0.18610350004164644, 0.6970678290121196, -1.1098781116276568, -0.3445659828527522, -0.9829770729779626], [-1.7157748327367754, -1.2949897873593976, -0.7025907342098014, -0.18843028205716905, -0.9699946817136782, -1.6069651288372124, -0.9666838328507672, -1.8170828037385598, -1.8595033427963799, -0.6364035897844877, 1.526060711261114, -1.0548467396323473, -0.8586060172852581, 1.0573894334675715, 0.7380469866598132, 1.7242292584521448], [1.0862490250392844, -1.259238348863845, 0.9088483676755795, 1.653005003096527, 2.001172985034935, 1.493669770911845, 1.137432097842077, -0.052904509507286035, -0.8604917408340146, 0.15111257685439136, 0.5751146946241702, -1.864485660595328, 0.6790249500734147, -1.2302860479280313, -1.25537831343788, -1.9962715083739013], [1.6611873299155027, 1.0963128081391917, 1.5289162050352094, 0.2330204230077004, 1.9295489595704922, -0.6596471468678853, 0.6858362928490337, 1.1995497680597609, -1.226062089014173, 1.8680938702719865, -1.4207999696249736, -1.8416976134089038, 1.2596492065736447, 1.0646001668404441, 0.5026109661858866, -0.29553094829949234], [2.2395619142141467, 0.6336566997617037, 1.8896473439431951, -1.160243922558156, 1.1605539023920757, 1.145412150775103, -1.4429760270508805, -2.2251910348065986, 0.625493544127225, -1.017074942892066, 1.8474073117417178, 0.09880846997811754, 1.9279605299191647, 0.3909635101134336, -1.0476545714031675, 1.1004900461812446], [-0.205810403228797, -0.6036328590417936, -0.4067656305590693, 2.062532161960701, 1.2460712341193627, -0.09103197068584454, -0.5887843588791248, 1.405775521137369, -1.9761472076567146, 0.45275870457458584, -0.9312566089765256, 0.6514928344129745, -0.9468161524541004, 1.636821944271688, -0.3517499861056602, -0.5147966928744372], [1.3073547627513606, -1.6741611580686733, 0.994356368616663, 0.7126522623461317, -0.056982606196252145, -1.1473049968182583, -1.8332354486710485, -0.573844597647944, -0.5835237783500791, -1.349946405763227, -0.6318663303669295, -1.3456863735597087, 0.485738805450197, 0.29849555445013454, 1.2018539000762913, -0.04868085479253347]], [[1.062707142961157, 0.5280143204214858, 1.4634118526200048, -0.5580825911288297, 1.4169171962043785, 0.5727117205355262, -1.7215122457700969, 1.1062222892934406, 0.1591108163249031, 0.31126299333815804, -0.24083884536631264, 2.1333483619835207, -0.6311261324901536, -1.524859989573648, 0.2062287392494404, 1.8021676617724884], [-1.4302540246951905, 0.37104728979618246, -1.27756336184805, -0.9147311540348915, -0.7797588481606661, 0.749890925147074, 1.7197758132411896, -0.8623412581939381, -0.8638045633355117, 1.4819226477454874, 0.910281366709238, -0.1394470650004813, 0.7506072471228227, -0.7390839001183673, -1.6520117665862206, -0.7483012914966329], [0.7577378458174482, -1.4107135467192684, -0.291569512336059, -1.3415382091301988, -1.05767724181669, -0.6768020582048293, 1.5436341807706644, 1.6067427652461137, 1.9719854115076776, 0.8168156775608723, 0.6852336463542789, -0.9760266132792446, -1.329904321354233, -0.1310510075326417, -0.9111347353354889, -1.377486939567309], [1.3277460854464624, -0.7239135676425734, -0.14721659428090167, 2.126455111441977, 0.6559344203844693, -1.6349768662168973, -0.9747356623852829, 1.3032504588592082, -1.7863033721232224, 0.5390594242276437, -1.7977872013202274, 0.7307729951586464, -1.6505525077187162, 1.4457621448837419, 0.07558058030457396, 1.1586387435400785], [0.3359485814968948, 0.21683914191462264, -2.0141146058905415, 0.364129621696411, -0.8041690540154791, -1.5637500182060098, -0.27869628521124445, -1.4243048694607063, -0.8161927478031972, 0.4407498279469736, -1.4285501532171485, -1.7094353163923175, -2.04600221744898, -0.5313763302986467, 1.3777870755668442, 1.620030552429851], [-0.7181317996278791, -1.764593535579725, 0.25120463962769163, 0.20587495927956562, -2.1122481718278503, -0.40458689836661765, -0.17341603654281665, 0.10203706397910334, 0.7328484044396336, -0.6224749232013319, -1.3800865992957165, 1.289988796257218, -0.25231125577825697, 1.0770956447042355, 0.2804847352374212, -0.9658240080358527], [-1.3249128917391735, 1.786062206086707, 0.8407774397808854, 0.21515800008942348, 0.2931236998316176, -1.0642243559527131, 1.2791915388429047, 0.25740465326456996, 1.9677569659001735, -0.986146012304074, 1.3412341335850622, 0.321022115201931, -0.7633953878100522, -2.0968170075573953, -1.366537909133255, -1.666619615794921], [-0.07232278011661936, 1.8469184282534115, 0.21173995211795074, -1.4877259881850595, 1.4549248121521934, -2.075827274303252, -0.6546956317806291, -0.7206514907211967, -0.32758417338484574, -0.225480328257929, -0.12023272057337006, -1.3747391918926493, -1.5509516280882263, -1.7517712627718232, 0.20071542079376126, -1.5153472220992896], [-0.9155910556906035, -1.125964096573255, 0.5775769834371738, 0.6540633491758204, -0.08078154825743, 0.6317045150004983, 0.16728186377910922, 0.48661187025302677, 0.40310743639978025, -0.520722244971849, 0.9813282098989102, 0.7236681915602634, -2.039291399563714e-05, -0.17903339713314168, -1.6912857472679843, 1.5077629524936078], [-0.9670790185062668, -1.339969394243124, -0.14574716795741988, 1.1408749392241941, -1.446780738207151, -0.5851840992711184, -1.2451898092009743, -1.0796426759497642, 0.7407864091058202, 0.2327809316392054, 1.4586615708550528, 1.6347406345414774, -0.4200464130142551, -0.08426304622395997, -1.0371126759626925, 0.8594847214859266], [-0.45909881445421014, -1.1109541088792292, 1.3463053085608399, -0.29702384726035613, -0.7950724431904397, 1.3151728003687462, 1.351271651368313, -1.0512333619462946, 1.90086177681993, 1.4491430670781607, -1.3610897126430304, -0.4234627409491495, -1.6286107993879904, 1.9324451292884262, 0.353630775788144, 1.512459874254652], [-0.8758580353991149, 1.606292333346367, -1.014227741958193, -0.3898326044636132, -1.7451149834424924, 0.7029002718996523, -1.2464494399219581, -0.9608299486222682, 1.3506360684724383, -1.1483957576582569, 0.9909080710874001, -0.9584235244048114, -1.6418969022408723, 0.7165390990220638, 1.7341748450053345, 0.3234709079472722], [-0.12892524549239426, -1.7757170634663764, -0.5303863534944427, 1.589995378826259, -0.385309494049051, -0.8075607654993975, -0.9968667195901365, -1.4433281115236765, -2.0214918988960564, 1.463364627965794, 1.0267713537823853, 0.5996928922034452, 0.6135157188965763, 1.4289680621762533, 0.632387840031346, -0.2610954103017683], [1.013249594226852, 0.9543480699731658, -0.15007360758342805, 0.2832952712866032, 1.366493682189238, -0.7935571419052235, -0.5953980924716138, 1.6608755888339228, 0.3917346199480544, 1.2004569665491986, 1.1399358971795004, 0.3369926727372638, 0.9925038432383007, 0.31194576827635845, 1.8459735770905423, 0.13709448392029217], [-0.7219842099926236, 1.806851923644249, -0.03458685199072402, 1.306903888539668, -0.6257855072854139, -0.6292238272465698, -0.20117114788796997, -1.5863133618754794, -0.9662609073270376, 0.0709575396281534, 0.652173007885171, 1.4094604999614657, 0.016825560906262374, -1.581304178082412, 0.6825102941826972, 0.2441780827840121], [-1.2688194160350823, 0.4032628781024149, -0.9947934424619282, -1.1658865889883905, 1.8489831207673788, 0.9661320352815702, 0.5996404212817773, 1.5711422336257028, 1.4487479944736055, 0.3936779448479393, -1.2108363312924817, 1.0452126592542774, -0.7062481239458636, -1.849821613095455, 0.8953464374923272, -1.543821090203563]], [[0.33253705085166774, 1.8004095119695986, 1.8007931477873627, -0.11481755056607809, -0.5049072040147499, 1.1505991381232075, -0.16677591380000883, 1.2596379409583487, -1.1043920113190373], [-0.26583730021701935, 0.10083561513985141, -2.297499836824799, -1.1322477241220386, 1.0561752639397395, -0.8180406041979865, 1.5293301501044652, -0.12382967787903518, 0.030316838447028746], [-1.5554490121259847, -0.91567457986521, 2.0357649960011397, -0.955672416903234, -0.765333418324577, 1.5446403809511364, -0.5252728102949379, 0.8801688323977274, 0.1778876203085175], [-0.2196660357304922, 1.4554509792834023, -0.6837103398511526, 1.8309924536614086, 1.5541215344125967, -0.48272159596760655, -1.420265428033119, 1.1196157892195313, -0.2990423200563874], [-1.6951822286522387, -0.48531257395273597, -1.6354906171608843, 1.3570957637296317, 0.11454019419187887, 0.46473757611924954, -1.76923078171514, -0.31387334695398134, 0.01295085853870882], [0.9255669119717178, 0.30953769250687585, 0.17246978233468152, 1.321874361770899, 0.35115328720919764, -0.08994824852178926, 1.962064034209973, -0.3441409886952387, -1.301144562136923], [-1.8750358610901758, 0.4780054043282345, -0.22579739401102183, 0.257824091637776, -2.063957657895642, -2.0054557585985893, -1.174156770490133, 0.7836974336751681, -1.8771664894648337], [1.6829997025589407, -1.9924218204039963, -0.4798573885357069, 1.1366207834559519, 1.4943920274503906, 0.8462559739372727, 0.8022533258311726, -1.82987717249205, 1.4943375855045786], [1.0618271475670527, -0.83886455944767, 0.5786621426186379, 2.003671262431849, -1.508302145211685, -1.0831195597519268, -0.3383076237721224, 0.7844009548596462, 0.8555325379810074], [-1.1321868402211566, 1.2620905138610565, -1.4477919797981882, -1.8733999630828837, -0.08286644842569624, 0.6978522142540211, 1.7801604369469082, 1.9862544156692599, 1.125489397292156], [1.7946279239447867, 1.4413371711932053, 1.3380468141239164, -0.34379271559019275, 1.360442481468369, 0.8943053284298684, 0.11640530176593776, -1.0100934506335473, 2.0198822903257825], [1.2767522645275067, 2.103768139185006, 0.31621009345458156, -1.5348898896758691, -1.5438544739362206, -2.0623196580387373, 1.9824729809052661, 0.8616143732527883, 0.37204250213135437], [-0.28064595562288613, -1.5751424995773222, 0.0057176165043427984, -1.1368740936046233, 0.7426335822650547, 0.3751669740301489, 0.9461358722957508, 0.3615959699705748, 2.19192900541087], [-1.3048980241411003, 1.3811746338102247, 1.463922301223182, 0.7413172169450666, 0.03461890790752133, -0.11180108849462875, -1.907738559430904, 0.47523700858059936, -0.49785018370958234], [0.6208628350224268, -1.8308990596360344, 1.1422419685934881, 0.6224517568420325, -1.5505060172538991, -1.5501507532922911, 0.6944684017458709, 1.9399663269745226, -0.3266556404105651], [-0.8534764877132024, -0.7904752920137763, 0.16840463686636964, 2.034599983012921, -0.7769862871233096, -1.104144177752504, 1.9720331179237554, 1.3218862633682136, -0.6336559898174172]], [[], [], [], [], [], [], [], [], []]], "biases": [[0, 0, 0, 0, 0, 0, 0], [0.5270568123654624, -1.4280123491079906, 0.19368733241626984, -0.1995163328218364, 0.006667859087884867, -0.9546770950058003, -0.9520958875534178, -1.567821845626838, 1.4862505769835124, -0.38474091584219844, 0.5166814453137228, 0.7425566041019079, 0.5759192195177611, -1.790862984919659, -1.6856106779384015, 0.2667830643661573], [-0.3097968935565358, -1.829743196022012, 0.4240650621302805, 0.44800195000054244, 1.0232595035080032, -1.6904171431379413, -0.6105179098699768, 0.9969424075488517, -0.9788622750979725, 0.5792298207920739, 0.10378495828612735, -0.016087293331708247, 0.4599699186227718, -1.8063476732255144, -0.018236751760357564, -1.337461579940977], [1.6104312691931297, -1.69370366647229, 0.6387838089328659, 1.2003228731763975, -0.7058046326733859, 0.3210381287189148, -1.5272325579947186, 1.7866604635573218, -0.06858448414418752]], "score": 740}, {"index": 7, "weights": [[[-1.023358963627749, 0.8999307050254733, 0.8326495109243846, 0.34880122505752814, 1.8943475439139834, -0.7946635203674182, 0.24184334562461507, -1.6342229575498435, 0.020227148284773434, -1.1119247700255204, -1.7567130735711272, -0.29832706955070426, 0.6722625294536684, -1.0727845560189613, -0.4835214134067432, -0.9245767038774078], [-1.7471379804984475, -1.3439175209653087, -0.533512758160646, 0.0812584588392054, -0.7463993167625083, -1.7457939528860673, -0.7662383772071519, -1.5552390836324796, -1.9011873586762573, -0.518976108593298, 1.4142286105999133, -0.8732931033470325, -0.8286019100675723, 1.16256682491313, 0.7995393157100652, 1.8599908529384999], [1.0197174563990266, -1.273222515837998, 1.215707621825595, 1.7179727363777002, 1.8400733273333916, 1.7126134605245404, 1.02202084912207, 0.19670850021052816, -0.7907335099300687, 0.15148319087301487, 0.9846892968031977, -2.1055905033446116, 0.5966257896513006, -1.0273080617652528, -1.37870872168451, -1.912666473216694], [1.7524846082046028, 1.2253438727785944, 1.521312673845419, -0.005284114259168263, 1.8269904401013004, -1.022458193486907, 0.5818428950395244, 1.1166646908857687, -1.0343525433772633, 1.7960113953643553, -1.3828101362268452, -1.9336353973222813, 1.562459076387436, 1.1849255429060999, 0.3431338334160675, -0.18385169387389405], [1.9188875691507161, 0.6412419754428018, 2.002966227697152, -1.3860592142207449, 1.1488496695768178, 1.329703557624179, -1.4821135158782486, -1.9291312275097883, 0.6404254705635015, -0.846533864084157, 1.6953799882757172, 0.383324441209823, 1.9663388168626013, 0.4637114027401366, -1.390628054047433, 1.1167378740107285], [-0.10667038010316907, -0.6041730358957549, -0.29514054203220036, 1.9025557744316266, 1.1243632321814108, -0.1898825469876099, -0.5623471032841307, 1.3253702208328142, -2.0726384383257264, 0.635675245171961, -0.6916012394790786, 0.6435632407513088, -1.073847244232337, 1.7128167278073072, -0.7898446208013037, -0.3742617815652234], [1.3622285125702875, -1.6938535264048888, 0.7869309105595794, 0.5448847791652627, 0.04837010877069503, -1.0614104652259102, -1.8298900861569918, -0.3219837348395146, -0.5332280823116399, -1.4216185134217618, -0.7366170715180295, -1.315304278142527, 0.6039822971462266, 0.2958494229453136, 1.2377597861135612, 0.10300124390664137]], [[1.1494923431395487, 0.5558303952189252, 1.6789507398229202, -0.45155135727021145, 1.6615650744752704, 0.4271871003898662, -1.7508034737727258, 1.3953290322946459, 0.10012870994572762, 0.2592546562582554, -0.22043067231212204, 2.1180526633100256, -0.2992749129006221, -1.5930490857374038, 0.13379756456837852, 1.5286946130460943], [-1.5388961668716123, 0.18028161601577575, -1.1618897970639765, -0.774887442984382, -0.8536336086118607, 0.7230266719379131, 1.7254131909618096, -0.7724521926849885, -1.073706283082456, 1.7948568415863049, 0.8967430005793021, -0.2888412371553519, 0.7582639911660036, -0.7364168693199646, -1.7464003223200968, -1.0293358073766146], [0.6489243904224932, -1.4261251069107392, -0.30081575870250427, -1.3865231692497595, -0.916678339239561, -0.7174576163288267, 1.451573463177765, 1.6535296974183327, 2.1404731826322827, 0.7076198422959651, 0.5818077967886734, -1.2017884340129241, -1.4590996274210304, -0.4081940671000345, -0.8864731608313129, -1.7120041860211463], [1.3194244518466804, -0.7675553569745993, -0.06709392964070235, 1.8766108508110688, 0.8579845730055725, -1.6531891428271144, -1.0430439693348552, 1.5045848842757708, -1.7598281928793007, 0.5064822280831919, -1.7379042709537855, 0.8256573733741537, -1.5698081470406764, 1.5348906689131305, 0.09188771398042661, 1.1900751946793449], [0.19770155178785875, 0.28103665427576985, -1.8572048127568688, 0.2490097912997637, -0.7982832259924043, -1.5277434683985391, -0.1754403305395107, -1.537686293517013, -0.44736283947410227, 0.4393081881027124, -1.4076821262929018, -1.5761676607526292, -2.008874150288665, -0.5043942913264101, 1.3636805620619228, 1.6720545404130138], [-0.6023374846166275, -1.6975397961775693, 0.07204547134801736, 0.24857269207112626, -2.1560739323396865, -0.4636400275136531, -0.04274109259908554, 0.19373147173129657, 0.7605613121511673, -0.315088654937398, -1.5051419047300312, 1.6287689326311052, -0.2845879619742927, 1.1495313579664443, 0.016849481161400115, -1.3846714401643518], [-1.3323289234185367, 1.66621597240066, 0.875991356659553, 0.14844188219960214, 0.17531046699507913, -1.163547854250446, 1.1682030470423834, 0.5108833751455891, 1.8353525565548006, -1.139839764876529, 1.3603498663089684, 0.46555081822595606, -0.7391963819693096, -1.8334132629884472, -1.5786600988763135, -1.6615530025727836], [-0.11727172163459132, 1.9077059626266575, 0.3568408467397864, -1.2032399684224528, 1.3215800947936096, -2.190341660587824, -0.5526231884206639, -0.6735588175441483, -0.07083742547513006, 0.06182013064930192, -0.08624379002181559, -1.4109112522796532, -1.3816549627055141, -2.0374680919868062, 0.17116575485118066, -1.5138423339424198], [-0.9179515087164127, -1.0958738729673796, 0.46590167909841995, 0.7963820873446401, -0.2069516867996285, 0.8204334698016356, 0.05418985814506133, 0.49268107146829787, 0.3581862736020476, -0.28083553981330556, 0.7922690437926659, 0.8993383538405809, 0.2842265415247899, -0.004423854453532005, -1.7036569441150016, 1.3471953525961362], [-0.8280632850715229, -1.3926067564425721, -0.14984193075113503, 1.33495223863388, -1.4318354337843513, -0.35467108733365993, -1.2514054333808866, -1.1349198300665664, 0.6136094415373706, 0.02703511865875026, 1.3279011477219016, 1.5776302442061414, -0.5424973552068032, 0.017236612181733058, -0.7602111990755407, 0.5170898546087512], [-0.4543624597084976, -1.2481365894353074, 1.4092026571085354, -0.21426369981230795, -0.6681736555985616, 1.3794179080421405, 1.1661430827230057, -0.9478960543661719, 1.8333409771158213, 1.2955785868424385, -1.3607526932940612, -0.48320895494384825, -1.447376503371532, 2.062833770326521, 0.3775097344292271, 1.354419045704794], [-0.9425398695480827, 1.9732056503447857, -1.1524051350863258, -0.2282564708658937, -1.9217159059141677, 0.6050545727099735, -1.361126518873314, -1.1101288795452322, 1.3994011622033808, -1.0339283918110502, 0.6015273740167939, -1.0343159782916505, -1.7172577915506062, 0.554775150768218, 1.9168682057524498, 0.23632783752425687], [0.012958168047240204, -1.5555405299286797, -0.5146440128637809, 1.9078090766802998, -0.5741877377668569, -0.7252158544843786, -1.0612181431403007, -1.3783098192969379, -1.9449664950510848, 1.630793198504744, 0.7528908391648513, 0.4607512142329558, 0.31710845478174143, 1.4661669009439375, 0.7938137368258902, -0.17652808401312603], [1.0461794145931596, 1.115133388366251, -0.13328397400997477, 0.22794814614343095, 1.079606029792896, -0.6384063243059621, -0.25758724436835445, 1.3662735900353258, 0.2307762734014291, 1.2443206621742802, 1.1098747757242076, 0.440103417768155, 0.9986997603101408, 0.4212041043169028, 1.8900279503198902, 0.1310086090169108], [-0.7239565607390777, 1.7901207853643488, -0.13219465489267865, 1.0095084553657077, -0.5650644920006163, -0.7245521722844457, -0.49466972724906394, -1.505037187180002, -1.2455950608577633, 0.03546042290206897, 0.6168662051250247, 1.2245920157017682, -0.278819067545793, -1.7199893270324984, 0.574186807464472, 0.08482289675283128], [-1.5371561619060035, 0.3717062169089615, -1.162834245727237, -0.8454626058709169, 1.653386945762192, 1.2099343890556729, 0.6489369013334233, 1.642095358852165, 1.5563313148016444, 0.554011852615546, -1.4338057232282437, 1.028515742919709, -0.8982805432180145, -1.6666127317282613, 1.0878488122077528, -1.6809219610782506]], [[0.2605608393678035, 1.7261434594131106, 1.9572671922749596, 0.022467772253279533, -0.5305505127378308, 1.1509365352770726, -0.180498277999752, 1.5921434701635258, -0.9474115419732093], [-0.28805731818158686, 0.17936826377430604, -2.2284717098515587, -1.1336970979633332, 0.986187698503075, -0.7985268175188874, 1.259356013602368, 0.0792863120335991, 0.07338604717314211], [-1.587889982630092, -1.0730706428277825, 1.875112036472981, -1.108556231696709, -0.517801041426184, 1.6357484081793316, -0.39370672533492257, 1.0411384769008543, 0.0904729835184938], [-0.3962236047256367, 1.3804523536309796, -0.936149741856691, 1.6269068703078096, 1.7590432780390366, -0.31158136727154817, -1.274159703326361, 1.1651412684074167, -0.27204685038408455], [-1.6643211360891537, -0.25379510352932044, -1.8309155168394673, 1.2563055230799913, 0.020749563227122406, 0.5063329866986462, -1.8265544547698014, -0.4025613419606813, -0.08469253699287205], [0.9587723607975338, 0.3919787250529847, 0.04513433771496471, 1.3682866288523097, 0.3423327139510145, -0.1556397470453769, 1.9090168536539074, -0.4587467414207782, -1.2744597714288288], [-1.927824293767916, 0.46829051390405557, 0.06192821418426914, 0.4128099849739272, -1.859563007670488, -1.7471893454269152, -1.2915036277110648, 0.7627417799016268, -2.035593148189828], [1.6839684189696411, -2.0490896551939306, -0.8186031887276085, 1.2619790740783772, 1.582137580839492, 0.8334162044716431, 0.683101575234787, -1.9050857141549535, 1.4967839195052781], [1.003616418095197, -0.769723347104148, 0.39145593094934084, 1.8823434576183689, -1.6985509332174407, -0.9201114116649493, -0.22739918739486248, 0.8998249157292137, 0.7621593088601364], [-0.9977776954117936, 1.3035628200517597, -1.4290466658675898, -1.817238778701861, -0.10484104336065635, 0.6512213275795855, 1.5974100214207514, 1.7923999441785654, 0.9869719879399732], [1.9330054477888916, 1.2818451916417664, 1.3961830318453188, -0.3538761278976248, 1.3255403351917865, 0.9411169278975797, 0.0687661497229939, -0.993133965182916, 1.8662910927625134], [1.1854430864280425, 2.0465088326953933, 0.01201475758408807, -1.4692568705181408, -1.502337102488439, -1.9514367444925926, 1.897013013257545, 1.0779144262034124, -0.019488901979649836], [-0.2868090637578773, -1.565275439603251, -0.10978147566764346, -1.0378710330147685, 0.8758116015260087, 0.30105389508121294, 0.8384720576284667, 0.36819008678134574, 2.1586885007292156], [-1.500332769766188, 1.3969778498640641, 1.48844332815919, 0.7139340380144288, -0.029672600779272782, 0.018994192786023552, -1.831075027938868, 0.5370279224967884, -0.6182951935655149], [0.2995957934786948, -2.0677360233688673, 1.1140168190915636, 0.6851036253457163, -1.3954597214742166, -1.6012546996214772, 0.9552270860232029, 1.749185792431111, -0.2723452563413202], [-0.9573153548185539, -0.5672477790689827, 0.2715013056814354, 2.258738798169902, -0.999085260393854, -0.8594590223997487, 1.940693572299662, 1.2605960789277366, -0.5405539261798363]], [[], [], [], [], [], [], [], [], []]], "biases": [[0, 0, 0, 0, 0, 0, 0], [0.23087916700215008, -1.6125314328731684, 0.4125830084647481, -0.35068117566205953, -0.03668515589403571, -0.7333455354196593, -0.8706845245085114, -1.6986123873151278, 1.5592992860475725, -0.47833053417311844, 0.4516970604290516, 0.8098750134309338, 0.6597830077027276, -1.8273808319055387, -1.5194750247865039, 0.3392706138266377], [-0.4546642318277865, -1.9285012865494353, 0.28250886767563904, 0.16808638121410777, 0.8097253209814312, -1.7247741181825584, -0.6399568154276893, 0.9198527894623102, -0.7922097917893687, 0.5728160196999141, 0.21293368726993497, -0.26517785772031455, 0.26390211150692683, -1.809572283848571, -0.07839969869298435, -1.3037897543323929], [1.5585003665352253, -1.832100064806338, 0.5503703936730203, 1.2213148723981886, -0.6830801250737731, 0.21141800863366123, -1.4053267631123634, 1.4595994572794142, -0.0880870624698301]], "score": 787}, {"index": 8, "weights": [[[-1.1304975361531466, 0.7404930434759762, 1.0746798857579194, 0.7070855571524425, 1.9978121648275495, -0.6738941621798687, 0.30790027074510123, -1.6817838034587793, 0.22862868462600916, -0.9976734620669864, -1.939671457432267, -0.11526346724663109, 0.6312586292207698, -1.1146794348978584, -0.5661754497160725, -0.9366161774791534], [-1.6677073348514218, -1.2988641717628344, -0.5586894951053333, -0.16395963565719113, -1.0550348573186363, -1.5596654017515559, -1.0183141666399231, -1.6883811489015745, -2.139335464606453, -0.3803284875659187, 1.4632140969599476, -1.2222930289143328, -0.7318378211294322, 1.1445285301672306, 0.8511000721941677, 1.8396782426002058], [0.9495373234912836, -1.430571782306546, 1.1711313970389305, 1.5783499280990736, 2.0681169802646906, 1.4565242895415453, 1.3774021143910116, 0.06540503940564751, -0.8264275758262207, 0.12436697273374951, 0.5539375284120414, -1.839648201314333, 0.6875518958866728, -1.064470339348919, -1.3233050190580595, -1.9304037938248924], [1.7472077793536471, 1.3519091073060023, 1.2310115149578436, 0.006659872592282769, 1.9062481213161258, -0.863425880026417, 0.7377087279478246, 1.1498124386321207, -1.2294633951100722, 1.9111329507677037, -1.3868444370974404, -1.7955091410577015, 1.3819746679719587, 1.252006602060908, 0.4670691543620596, -0.42768739619544294], [2.0455036005299863, 0.4489750871941572, 1.7034012030362735, -1.3433175686801182, 1.2839471112841363, 1.168418456130679, -1.2923080021629887, -2.2047093932542463, 0.7000453353104081, -1.0424318767171197, 1.7245272207567874, 0.12768289638737235, 1.8434961818636002, 0.5348348853344687, -1.2932586545097453, 1.1626317193430846], [-0.3699927419994997, -0.6014391328350339, -0.44731508196471736, 2.033623026012322, 1.043062392643649, -0.07272687087944174, -0.5680243935773097, 1.4344985621013397, -2.0200433242313647, 0.9049728301071747, -0.6340803762117267, 0.80328402675731, -0.9901539384055201, 1.845985009154815, -0.604003427727436, -0.555139674101546], [1.333422751350897, -1.7789105833810328, 1.0494619787135067, 0.6502998318052787, 0.10888158669715928, -1.03515840970793, -1.838643037295756, -0.37885977503488705, -0.470952769456939, -1.3407151170045004, -0.6485632674738765, -1.2315816020786343, 0.6200369410729291, 0.3720927213506144, 1.2187445115221942, 0.14606840206978014]], [[1.092982351573918, 0.2410445550873297, 1.5355559883102077, -0.5607906620303165, 1.6257426312345384, 0.4702060767171225, -1.709576730748826, 1.196355883196434, 0.2684562416513785, 0.520364140917898, -0.15516665412031505, 2.0790980179057943, -0.26544323481707366, -1.449225151353134, 0.10841765838987764, 1.5678445135536871], [-1.4393754524499267, 0.3133060035593664, -1.3166573938680424, -0.8714671640637909, -0.8038000094308848, 0.6881540619858436, 1.7464620279275582, -0.9300002100517617, -0.8703840012628239, 1.41607385446745, 0.9097872444442983, -0.07311227480561526, 0.7161555684034044, -0.6707506817801908, -1.8637765720660027, -0.8365429651270002], [0.6543423204274109, -1.4000736482622906, -0.2044822868195012, -1.2980709743981915, -1.3215730987082233, -0.9103433355105646, 1.5495937109743863, 1.4481103001378965, 2.0897220983903924, 0.5749978856469455, 0.6935710823246871, -1.0300684589721465, -1.3692061005133687, -0.22242936412528294, -0.9103543536181768, -1.6099302448785857], [1.4616950909380009, -0.7465806790587729, 0.07175468312338983, 1.7857256716959722, 0.6815077928158212, -1.6569592197647238, -0.8424789725802222, 1.6268530094854374, -1.824442611434757, 0.4064688157658463, -1.8761736133242086, 0.7979439387953652, -1.5442244245025107, 1.2744430519976961, 0.05184763988750299, 1.2255727971411357], [0.2953518218271591, 0.177905746640862, -1.9278883518170291, 0.5262109259535346, -0.6582560958734129, -1.6388697581539735, -0.1373060444678348, -1.5083204243443453, -0.5800265511381171, 0.5315256116038232, -1.3831344559662042, -1.8705717797112194, -2.079329909791058, -0.5069887878366414, 1.4215519330847068, 1.5934529902359666], [-0.7077025519677963, -1.7472135954155854, 0.3347552020658125, 0.4420258934123187, -1.9544217938192512, -0.6329536845248274, -0.07706808917194663, -0.055213117821486996, 0.7154714776909135, -0.4166584802158758, -1.3394679766409285, 1.5536418051442988, -0.1245790703203161, 0.8216054196141366, 0.3002255110641161, -1.068762286175834], [-1.1246888042095906, 1.6783074616752969, 0.9492817908582741, 0.25517494158820453, 0.30822773856137686, -1.0613583981965533, 1.150228250417124, 0.48664668441446224, 1.9097804786669301, -1.2323079371718313, 1.2359139822098502, 0.1892005016781338, -0.5455235728941659, -1.845977623632574, -1.4518212685904146, -1.415866622698747], [-0.10542766352342461, 1.7614799558073833, 0.5889523759482359, -1.5418656497094103, 1.192445628961644, -2.129665621751765, -0.5294280474073088, -0.6395951140430244, -0.33294044964149905, -0.09236462943564877, 0.21041310587745407, -1.2833689777302952, -1.5227384157662927, -1.8688617302502286, 0.23444724321888002, -1.4524357881670256], [-1.2005138203599772, -0.9905743246906283, 0.497513093996934, 0.8036476544153107, -0.02953899189506834, 0.7126423388258937, 0.13858336403294558, 0.49725080550382, 0.25521783922206437, -0.44674240769721646, 0.9026514540542556, 0.571485157554964, 0.13188421595385896, 0.057782944431207406, -1.5910858131521204, 1.36768559491534], [-0.8440030263321812, -1.5170064926512745, -0.3191747817144563, 1.4393698378978208, -1.7625628808065312, -0.4996347618951815, -1.2144646714931377, -0.926047910000738, 0.6084807214226472, 0.25217465347409385, 1.3813180055776455, 1.474967468243759, -0.3919797466773143, -0.06339484743356816, -0.8342332006814001, 0.9014444311785664], [-0.45025345179490817, -1.1286975372010222, 1.55695019971684, -0.05946699994467586, -0.7542150429330029, 1.441627755622451, 1.1742474493393453, -0.864531404750715, 1.8499913073745022, 1.413155614737756, -1.29710067979904, -0.6011537075185216, -1.266901962780335, 1.9145385020192858, 0.3761897009047052, 1.2935122812196587], [-0.7853268394088251, 1.7800123984111964, -0.8501176593357931, -0.25507124141924536, -1.7857501775395894, 0.7721494407998863, -1.2867893080290842, -1.1417997026035862, 1.147845449437045, -1.1666380103110785, 0.7674031155265709, -0.786524211491533, -1.7000952328811307, 0.5103609648030285, 1.898854752428002, 0.26220458108275335], [-0.13743289861995325, -1.6916791910399218, -0.5369367381488721, 1.6666448807299932, -0.5426591279670321, -0.6323746790893232, -1.0937272660116415, -1.3376527718012003, -2.1674775969431948, 1.5606019671807618, 0.8739529329218623, 0.44602932870451073, 0.6205123292032271, 1.4804208197053215, 0.5943553228143362, -0.3582243047921485], [0.9410246333057297, 1.0173032057452582, -0.10112538094565265, 0.059623321185115236, 1.3222174423213098, -0.6714177222316254, -0.34029759786172736, 1.5103257584671, 0.33338100020126277, 1.3067991347466963, 1.0243108583953255, 0.4086625249070117, 1.1523644270169844, 0.6934614576411062, 1.8101992575996944, 0.30250779399308464], [-0.8100013004099922, 1.92069659526546, -0.18720701646597476, 1.1752137286880795, -0.5142586135933899, -0.557445746507334, -0.2356357724592379, -1.4774909940768899, -1.1529259473080777, 0.1109420994537349, 0.6712367612901182, 1.2847032201346127, -0.05236290432353655, -1.6767810580969675, 0.8809230347446072, 0.40041890291925797], [-1.3354532365653218, 0.26016007355487153, -1.1590654899777793, -1.077726598687807, 1.6453221075391058, 0.9861577221745399, 0.436333558806668, 1.77961246986852, 1.4271392218410779, 0.43561099556661903, -1.2618544065813961, 1.1030429288917316, -0.7737271023152551, -1.830239944076649, 0.9815648734706814, -1.4060033837946981]], [[0.2786037199274624, 1.834336990029376, 