[{"index": 0, "weights": [[[0.2338901564210878, -0.8699089384139106, 0.6839578899888673, -0.1400851284565919, -0.9376743223351293, 0.021280568676167913, 0.009105823868071211, -0.6302073638886179, 0.11183367213477056, -1.140198624290549, -0.09954514913264154, 1.887536588850056, -0.5637262341547498, 1.0957526643371864, -1.532549401075708, 0.6447352205617846], [-0.28896399157345803, -0.5427840251826777, -0.4402665596282415, 1.8709489336884537, 1.3519622677367598, 1.36227896141284, -1.4419134174924193, 1.0549920062874134, 1.7648721284035735, 1.8452460113218787, 1.3354059314398776, -1.8934541278283863, 1.1031400930293362, -1.7197689092377313, -0.5984275034384361, 0.7542471734632121], [1.9211253500112315, -0.46152709990571406, -0.015678298227433315, -1.1764521542756519, -0.5698343644484511, 1.8119698144451684, -2.1384926225257574, -1.794432268975393, -0.6775011839692392, 0.22881390461230028, 0.6195413615354146, 1.3562814690389526, -0.33913113927882854, 0.4181943016712655, 1.602596655869766, 1.2872843322937078], [0.8990711154092091, 1.76513716592788, -1.449018075004497, -0.7036140077547683, -1.6042820121822037, 1.7036230643101107, 1.7384095065576926, 1.0994248263315012, -0.6706386960498273, -1.7132260053484574, 1.1877925431150993, -0.4052441187815683, -1.419792996347586, -2.0088704829325486, 0.055755300740355396, 1.238088913540512], [0.5894506110183704, -1.573914115521425, 1.2151963391719096, 0.12455307088124257, 1.5522348645041455, -0.9391580562565038, -1.2232560179735303, 1.0774228983059801, -0.44270536235706304, 1.1524542694353812, -0.37399972536395854, 1.5820079949665546, 0.9682096035627135, 1.6683605390087002, 1.8876822700444107, -0.2933545678560124], [0.04526472426469538, 1.8411963269192417, -0.9253449176419436, -1.6857870261904875, -0.7878717316318394, -1.563304646366956, 0.948743474112728, 1.3757447797408475, 0.5666401312500045, -0.3049917061369197, 0.35138983694269643, 1.7108660778748082, 0.7144113674485225, -1.6170644843239423, 1.2157239160875288, -0.47866845112707457], [1.3923050570919424, 1.0854203968832978, 1.119207978583966, -0.3528106459755435, -0.31849104371022996, -1.7922727392927646, -1.2198687548589924, -1.472676300794323, -1.6158006869886845, 0.7543622796943337, -0.05531025009654536, 0.1554695339100426, -1.4210625862462176, -0.006421401959764289, 1.6298043217123912, -1.2574705360858014]], [[0.12416262814535672, 0.47699343148573703, -1.6045138364742766, 0.19018467035882716, 2.0481991681467466, 1.6823387606987943, 0.7139000264692579, 1.247830850639774, -2.125388635250763, -0.5425035060697422, -1.1172018748187533, 0.329066419788265, -0.8028806706907188, 1.370361383766437, 1.2713036377425515, -0.6842765677198104], [-1.7023929806687583, -1.7340987870067286, 1.1532714142840599, -1.4964970039393393, -0.9468013352862781, -0.8825793860716242, -0.2987121747668479, -0.5055803530302998, -1.3249096172554833, -0.7764399309490521, 1.3898765010098375, -1.301860540381834, 0.8309234127604916, -0.86235237304386, 1.8258651822433405, 0.9607003179673628], [1.4888538436435186, -0.6968822340508442, 0.35743283183187896, 1.4220945951824422, -0.8004789308222177, 0.5254419254636363, -0.7068417459742882, 1.1148392876175939, -1.5363627142861778, -1.8463908860543667, 1.8277101839069716, 0.2461641686085346, 0.30546194515727265, 1.224710024290307, -1.8389800629427324, -0.7114065520181261], [1.8260088582408682, -0.7574213825503993, 0.30327677960791083, -1.3188105348809527, 1.2125969893716642, 1.8249630002304538, -1.9639920884301398, -0.35129270737141316, 2.076541773330819, -1.0054365889449632, 1.51391510933573, -0.6198552666700317, 1.4515829950865844, -0.45638999480139797, -1.5783463616864803, -0.3676873144928229], [-1.233197786851709, -1.1238181068284712, -1.62908380807955, 0.8633682657545442, -0.9644743106472328, 1.5481024676546076, -1.3502295593142242, -1.8109905655967662, 0.40554706312907196, 0.6508205079538296, -0.740316476461172, -1.0508344080018184, -1.2457879727511958, 0.5888350636958283, 0.625348548640153, -1.4263510772127734], [-0.24736600896061106, 1.260400056107771, -0.9164290830423953, 0.33832388758004633, -0.22243361322106403, -1.0892248516315362, -0.257426807280154, -1.919446488665217, -0.7811111220599359, -0.5827459103668744, 0.9265570496049466, 0.2353405928336914, -2.0323603960297474, -1.7626051007243286, -0.5586587933279913, 0.06043969175997155], [-0.8567648895931245, -0.933828356874542, 1.744085159542052, 1.3757078283937676, -0.2937265258249364, 1.8114750339198378, -1.5421472363484674, 1.300996402562902, -0.33163021903420786, -1.745974108519746, -0.7489738958224991, -0.6904053185376223, 0.46867692675530753, -0.5176106471915982, 0.2763106181953904, -1.3472819749218454], [-0.16777815232216686, 0.29184826462096725, -1.6698358559404747, -0.9018518822940955, -1.383891701262454, -0.25214755985591675, 0.9849202837103802, -0.9264511232500497, 2.042775372789839, -0.18103161888165215, -0.502802598435145, 0.395198042787959, 1.175248757490705, -1.5555913335485665, 1.0832265593170094, 1.3746222489766529], [0.6170135107985875, -0.5066663401738392, -0.7034627851530484, -0.21456841417662914, 0.7706851038872775, 1.321620655847864, 2.064149874667816, -2.042279079576964, 0.6574065887705695, 0.8039469698972674, 0.2771505141832248, 0.21999087108259618, 0.9401979389405699, -1.0272757470308553, 0.2412588468873314, 1.363622192112835], [1.1153728207327982, 0.4360047415749184, 0.3345259920238935, 0.6265136508771167, -0.275118399745472, -0.43328567272720653, -0.0008920250549016018, 1.4183619571579498, -0.4870991068226601, 0.30488761270776515, 1.6705234796299009, -0.45438274723993494, 0.6330127111778004, -0.10712152252001844, 0.24247009404775566, -1.3754090814398081], [-0.09031614436129189, 0.9578439834012586, -1.8085059053659718, -1.7268474366960849, 1.946319944151191, 0.15393236767101717, 1.9137994521638473, 1.662728320574013, -0.9080899374091818, 0.10141549876803371, -0.5803276510152705, 0.8848488872886985, 0.8393755949972805, 1.2499042442337114, -0.8778822687381302, -1.2360453293747944], [1.375167226317216, 1.8443590537359547, 1.8299239776734577, -1.1494568675994692, 0.1418761652695168, -0.3019801500495495, 0.2910664102423165, -1.0944835441609313, 0.3135569086174024, -0.628733151988408, 0.365189537687579, -1.4406308615705226, 0.31805294651251137, 1.45451490340235, 0.036286508162175296, -1.9162863843044111], [0.9782486237453273, 1.6931746115962534, 0.5081616667646116, 0.44520496318821257, 1.4558023459766318, -0.6549076322446196, -1.904660184316884, 1.112053058000873, 0.2745940020729176, -1.6014280411190662, 0.23738483043355627, 1.6238453769562193, -0.00977783416954139, 1.6575913854574407, -1.442926609769559, -0.8308331439318494], [0.7394239657103124, 1.4002093219048348, -1.7345200405101353, -1.2943187039269974, -1.693068917242557, 1.4157546679333228, 1.6798119000003213, -1.1901728945563648, -1.4603211363478161, 1.2894151329285188, -1.9786776333361726, 1.175686814277188, -1.5886250558469777, 0.34789244453256385, -0.3738044019111877, 1.257936027922062], [-1.7039998196393242, 0.8873234978122952, -1.6867781063834912, -1.3945841237244267, 1.1275215132184946, -1.1430550493195326, -0.5639050862340139, -0.586941309894317, 0.5001442907207804, -0.015411621343491964, 1.0287562000030142, -0.26824935003418043, -0.4792930728586525, 0.29139781876964843, 1.8973096826156661, -1.5407212420496503], [0.578602115069988, -1.2748612863191413, 1.2994628636798136, -1.009234872911449, 0.11803849143581988, 1.013848767681323, -1.976900204896087, -1.6069419246589955, 0.24390082504316968, -0.8103432737701182, 1.4856522614480439, -1.8115515411627547, 1.5467449259940111, 1.3851300462575922, -0.26989921011768103, 1.4865232571444473]], [[-1.0414304931544094, 0.11582761600559138, -1.126345463894775, -1.10251054907221, -1.8310097404952048, 1.9021753380744473, -0.6358359658098602, -1.6769231734164625, -0.9179886712510249], [-1.1266660961043102, -0.2147518454512436, 0.6876597171941217, -1.4991652902156487, 0.4705514632639655, -1.8415063324610481, -0.04028093769507868, -0.715240274109256, 1.716814339388086], [-1.8786055222149831, -1.164043829030255, 0.6251437870915504, -0.30481192424448117, -0.9415959841833486, -0.5102376781046551, -0.8072247817382965, -1.5941731049433503, -1.5042443806208607], [-1.984427325388896, 0.28291228013533776, -0.12250667072712856, 0.8514415200629004, 0.3374321546561632, -0.17160743504257597, 1.4869981353504846, 1.6631815250222224, 0.8144718656553029], [1.2712176116477618, 0.07375460933565017, -1.5583671750808346, 1.1736056105488055, -1.003624233316503, -0.2674062395182666, 1.4684845633978518, -0.8705562149013233, -1.5521416499509153], [1.1675222506303184, -2.012937612977162, 1.2003523521195774, 1.185672170017107, 0.10631483732454058, 0.8936511257273476, 0.9866130003042309, -1.0778522409196776, 0.41095700506625155], [1.0096327138666457, 0.08635518682994567, -1.7882110704727079, -0.20372698325583902, -0.9312730713143175, -0.3021119752756534, 0.8725115086786454, -1.348615455173785, -1.311856699876092], [0.607338819518709, -0.5071400203175762, -0.8891577290389724, -1.319178370753419, -1.4625063665144669, 0.9502495880755543, 0.4859658793260469, 0.5008612278547112, 0.14551747920832764], [0.9741213647946929, -0.3011561066987475, -0.1647815779382077, 1.2203222199430908, 1.1061392352781112, 0.30503870656488175, -0.19218684750138657, 0.5439363187179219, -0.4914499858823342], [0.32614408250724886, 0.6821079209258133, -1.6413403170000527, -1.3243368463457237, -0.9506642023224263, 1.8202319915272342, 1.2621816219892887, 1.3657893820677047, -0.40275461456136796], [-1.176799894518446, -0.8680000951689956, 1.4589559183663385, 1.1526616499425888, -1.074641632351312, -1.0246596903406746, 0.1166057348645483, 0.3559131286285517, -1.8029223924533624], [1.8942371493986314, -1.7565849411642107, 1.2783746876138598, 1.5353866953942048, -1.2895006438001495, -1.9577417009077027, 1.2364974706601437, 1.8093459441923614, 0.5437173684922267], [-1.7745738476030861, -0.15870507350141588, -1.9964751953293187, 1.2060415120106636, 1.0996615458231556, 0.7030340904591293, -1.0243614118398903, -0.10174719624663953, -0.04075289711290795], [-0.4852456827686282, 1.6024096116157358, 1.743768092553449, -0.30644945229288323, -0.08049867056996331, 0.9410022946767868, 0.8865548774811228, 0.12606014318071943, 0.2707612501728813], [0.33535753217448916, 1.2264530933682067, 0.5166706507129735, -1.1521669063588458, 1.3525999515549623, 1.4892143515936505, 0.5846367391481921, 1.6378720476401274, 0.7178095730871361], [0.7822901695950992, -1.422417459151016, 0.3523894164662985, 0.6704859475624745, -0.5900186891805407, -0.8272997149673784, -0.8235677987929491, -1.3668001426878744, -1.2271509224437616]], [[], [], [], [], [], [], [], [], []]], "biases": [[0, 0, 0, 0, 0, 0, 0], [1.4087907589132946, 0.7015058181943606, 1.518508194408277, 1.475221869877121, -1.2149232677093158, -1.0507047550878177, 0.2463923768514406, 1.8449289333994943, -0.11452400202047668, -0.12522446740711243, 1.3992238615006973, -1.465850769099538, -1.3817596545179922, -1.6242485129273403, 2.021563547677729, 1.0091683917790735], [0.08674057286708754, -1.0017280033807605, -1.8044151683234693, 0.9470541083698446, 0.03498220383642592, -1.3584160350651282, -0.36740806533709547, 1.0767057443428814, -1.3255195391107542, -0.8460166962164479, 0.06269683515354535, 0.0824695530509358, 0.9372000158966735, -1.5494743024512418, -1.1260447243355314, -0.34111963428660863], [-1.486760050949387, 1.178471508806692, -1.2663807004746948, -0.8314438668216424, 1.2229352105762543, -0.27718221084178957, -0.318022486273389, 0.027787214071643113, -1.4442683142048762]], "score": 334}, {"index": 1, "weights": [[[0.204064479844128, -0.9657862669634873, 0.668420911033421, -0.12933952927520456, -1.125232804635094, -0.18047132157782766, 0.09634446086427426, -0.5562403691649098, 0.11093852130295992, -1.282866597259116, -0.26156072028133165, 1.9091009920334905, -0.5949091392296888, 0.9945802939521733, -1.4465970928320806, 0.37803073958823186], [-0.28696310032235095, -0.5756716206345404, -0.2780959545307045, 1.8258215000981286, 1.308772438140064, 1.6643845943971405, -1.2757699288915971, 1.0416761185032404, 1.7710331004621507, 1.6673832322864564, 1.371354982143003, -1.697294998100361, 1.0947431503546816, -1.7309650407198829, -0.5354594429154667, 0.7205560571196464], [1.9483124124263573, -0.2812988136065907, -0.3645130504040053, -1.1937979182843168, -0.6346768671528171, 1.5420471042708368, -2.04674523965241, -2.011509500732008, -0.5511664991700661, 0.03964388342086142, 0.6484729180924698, 1.297927199623294, -0.4180945162108122, 0.3392748916549862, 1.698940090606589, 1.1632447381693003], [0.9580240188154903, 1.7925691483164152, -1.744734448568304, -0.7777358242762568, -1.689020730024105, 1.5773131102782783, 1.6895253354101565, 1.2377691512192257, -0.6347686434604654, -1.5815133877888272, 1.202476598946685, -0.4136951902778051, -1.4608099596913395, -1.9217802150445196, 0.08970680683602554, 1.2219516271963051], [0.6411830753612412, -1.4703360716668334, 1.1213351704908694, 0.10879466084305306, 1.4593060527189519, -0.8672441663481626, -1.5573914420843642, 1.0856750822757, -0.250866574584798, 0.7693961563427121, -0.5888140593306677, 1.4766835714207043, 1.2232559713703635, 1.4610436379002245, 2.122180267798693, -0.1996133542515135], [-0.17291620852836448, 1.882430063893515, -0.9688410503652201, -1.6266831121978282, -0.8551362407601257, -1.2942790491084628, 0.8431410657561852, 1.3288380931477852, 0.597886503725826, -0.33387661281514386, 0.4014665465704063, 1.8258501552301156, 0.682418480137539, -1.6437991298982741, 1.2494211998229003, -0.32981727273265926], [1.4160410279896072, 1.160617052763986, 1.0690614123787119, -0.33279414150412495, -0.4369475309854426, -1.6982713376100311, -1.3466462818714464, -1.4373815354968809, -1.641179937816202, 0.9014826954303498, -0.016172452521276554, 0.21603235864975534, -1.403118237915518, 0.10266886099044253, 1.64951503849134, -1.0547226771554878]], [[0.1550021510282358, 0.35589756477289103, -1.900853628823649, -0.028144722736753336, 2.155896371967105, 1.5269960286935684, 0.5489408605834978, 1.1580572706832803, -1.9547141959117675, -0.6108565453943672, -1.4708426388822209, 0.40444652041485296, -0.8543315823301559, 1.4653623265046605, 1.1874659889151953, -0.6969498289413109], [-1.6295046345097233, -1.61514821351948, 1.1172556312412165, -1.60953632074445, -0.8724286179777707, -0.9651538685681125, -0.2089054155804768, -0.31725860076977525, -1.2717519845438086, -0.8202099203271473, 1.13298259742368, -1.0483625844633648, 0.7735274630422756, -0.7253818962335178, 1.8834150319329888, 0.8242002137267166], [1.4227191779805974, -0.8409293479590787, 0.014297233315197916, 1.6043105011048668, -0.7742658616625429, 0.5288503042939645, -0.7177415585609571, 1.1969909707154804, -1.331121647943616, -1.6546251093722761, 1.7414996113416519, 0.05379491661582789, 0.5748007863623019, 1.3696198161500548, -1.7594228806515135, -0.6307398392735096], [1.7800415485595316, -1.1128905042445272, 0.4476300216076883, -1.2946142312093838, 1.1614041730464866, 1.7718337333559384, -1.7121056163000679, -0.2893687008266812, 2.0024001037412513, -0.9301123388331421, 1.5656678778616706, -0.6444212282628488, 1.2634684372850724, -0.4057836887729745, -1.790314239879889, -0.28884294833186214], [-1.0191019012435356, -1.1283097516134588, -1.801060675783198, 1.096154389389039, -0.8767216438095076, 1.6555783448191146, -1.3230097535088363, -2.0576673226030673, 0.3204384547110292, 0.6752223483670892, -0.902575514643216, -1.121085691787602, -1.1945718633491484, 0.500705678729479, 0.7545110065077502, -1.6697479737551926], [-0.13086355180043566, 1.3989104276812603, -0.7569020119590422, 0.3826828685648254, -0.07069349550098805, -1.0718151120316128, -0.16733600873039484, -1.8978883609348494, -0.7849888464281648, -0.30018526140052243, 0.7964140854805, 0.45034245655370386, -2.046012170623773, -1.545989002455285, -0.5552077415334069, 0.1820106520277159], [-0.8497394929785023, -0.9221768566942361, 1.760104728712009, 1.3575696059340625, -0.24929392753182572, 2.009540597240039, -1.5680436523985901, 1.301511754400396, -0.36516234122189273, -1.7515270178673386, -0.9791792561218448, -0.6393642835165287, 0.42272104938320726, -0.34634855483013804, 0.2779973057413001, -1.3384047120312883], [-0.10133933070132586, 0.49323483863267187, -1.575197926670236, -0.7376465900544946, -1.3403048069874075, -0.056297591691178886, 1.0955070563779836, -1.0599135119785388, 1.9422731731663523, -0.09052730701764183, -0.490098632445477, 0.3033504293518403, 1.187332568693422, -1.5082640885488103, 1.1823372490792046, 1.088953806451554], [0.6641474156716056, -0.43685548206090824, -0.7495573539406567, -0.2623050444118829, 0.7526934489172823, 1.3762192910293893, 2.0544756487191163, -2.0718603734750345, 0.8550060833150261, 0.6923867430166633, 0.22975286768695383, 0.1535788638068556, 0.919333034402689, -0.6848264864471362, 0.12429159424250849, 1.1874337050984451], [1.0960132020725506, 0.24534308765519805, 0.37167992132103617, 0.6766515542135207, -0.3268020667642293, -0.43519170364624404, -0.2577487439438571, 1.3444971837163149, -0.07651305438464612, 0.39024553240724824, 1.601696437733929, -0.39070942910416834, 0.8988441159489602, -0.17736097519308275, 0.0852018424225219, -1.4625929827833204], [-0.0799101332365045, 1.0512344312737318, -1.7786881573321924, -1.7221714045234218, 2.0880553938101616, -0.0337930901873571, 1.8429808094957116, 1.8089240714175958, -1.1289492175425229, 0.1921767144428674, -0.6459575057102334, 0.7265570033916975, 0.8297777643784404, 1.4170244368526081, -0.9119470518651337, -1.1545159922206534], [1.431016482881408, 1.601901222170846, 1.9648074209840602, -1.1049776028341682, 0.07093520747732228, -0.4400125085139279, 0.24014218944488414, -0.8582024984579879, 0.35705854172618723, -0.6252444670188256, 0.2590251933001514, -1.3245606079462233, 0.5249779816378216, 1.5638722002535987, -0.024550015091295355, -1.8695874419967171], [0.9255669538078375, 1.796673704209045, 0.5367106797133057, 0.4989689529969555, 1.7457255399147018, -0.34280160714475694, -1.8518901090433164, 1.1312327716718715, 0.37213098346048984, -1.5425311401640698, 0.5948091809851891, 1.566841061251904, -0.013749065384293928, 1.551155653021939, -1.7685354661390937, -0.8826403609318835], [0.7597548773247897, 1.0737943888003265, -1.6788035375394041, -1.4779638247177274, -1.7025306088678687, 1.7073745016628041, 1.4827483374512114, -1.3418967884749609, -1.4599606119731816, 0.9272162722261044, -1.9667398554141526, 1.0559175352434345, -1.7351848861983517, 0.4744872153337597, -0.3215522454909072, 0.969236200618269], [-1.8024394527790306, 0.7996650824138092, -1.6044338693181117, -1.4459183528392747, 1.1717106036330585, -1.3544285629999844, -0.34181933170099393, -0.5494289139876776, 0.41074796355975784, -0.04849621992565438, 1.2648307265082477, -0.3524407712210961, -0.3147182846674044, 0.11317306577712105, 1.9120532214763961, -1.6551328795065632], [0.5609842220482087, -1.259541878123983, 1.2721310512604025, -1.0895906732995482, 0.09559077255888, 0.9517039854568423, -1.9791968716338602, -1.8454959953529368, 0.2746845523124727, -0.8516993120690681, 1.461333813409905, -1.7171749464266206, 1.4213406415265224, 1.5003602181331837, -0.4106582509356809, 1.6691731457858001]], [[-1.328669795996667, -0.1205719335579638, -1.1955506049859008, -1.4163131205997952, -1.9237268016619395, 1.866556835904574, -0.5316609993466722, -1.712213157190526, -1.0584364365476076], [-1.2167900927033273, 0.1593644532637058, 0.5447379257110888, -1.5569637542609707, 0.5965762571283054, -1.7406841841134353, -0.35334396215570346, -0.6652474058767885, 2.02389895889914], [-1.940245813186461, -1.228107947525004, 0.5073816105373764, -0.45963812012456273, -0.9485971121001365, -0.5515179462794424, -0.871267148000437, -1.6220745113593087, -1.5832408806114853], [-1.795088607575583, 0.21278709567143828, -0.26511119276855977, 0.9507773770828041, 0.4455334157248494, -0.30502281209973675, 1.6854918987712122, 1.771385119512364, 0.8847306020520624], [1.135801184312018, 0.08303120053493923, -1.725105462480615, 1.2629398704101373, -1.0501054258192781, -0.15710038667532422, 1.6248307995938764, -0.9512110408608505, -1.399612133190208], [1.0767752843617817, -2.040802593907674, 1.0332257221121843, 1.4155181341382317, 0.2077260562639232, 0.9415885164841419, 1.1443756686835915, -1.0929524037336007, 0.48321632345156496], [1.041531280107556, 0.32329762101639503, -1.874591197676917, -0.32973328762838644, -0.8711601563533936, -0.31341532388589854, 0.9369095334936077, -1.3770316569005845, -1.3570518311298205], [0.7066535079503165, -0.6343409930576761, -0.9284042841986496, -1.0200936815338468, -1.3900511819399564, 0.8864575300281536, 0.3316295591590821, 0.580409987083299, 0.3924828534970801], [0.68229103084544, -0.34535468396723806, -0.033819850332738904, 1.1476038472264665, 1.0108394737177935, 0.24543397064577835, -0.3689728641463765, 0.628714993903374, -0.7987177752951121], [0.4026137041789366, 0.7346708871548755, -1.7178424229912828, -1.2911236749811297, -0.8682057007234781, 1.6834711223535035, 1.3023858219878752, 1.5079389591359826, -0.5121126240343415], [-1.2041344414027984, -0.6926570933306391, 1.3910495448125566, 1.1902262154206766, -1.0631869365395088, -0.9950829059598388, 0.06400493498928991, 0.29701794180644064, -1.833844232218225], [1.988119532716169, -1.8907741411810934, 1.2244525502157382, 1.6330370801534246, -1.3529725649346735, -2.073702960189527, 1.3473702284131108, 1.706210907031345, 0.504968758030132], [-1.703138494001495, -0.08082650164230715, -1.7952479915621784, 1.0050958830862788, 0.9243933460877596, 0.6131962529845425, -1.1845885264484064, -0.26287739258796616, 0.005699891246963004], [-0.5156524621803888, 1.5813183497225498, 1.4554222883255719, -0.41573334335318585, -0.16583604048295558, 0.8023050216490335, 0.8550823673930501, 0.16617308277472392, 0.2656986724558527], [0.27074250787949894, 1.2658431853121335, 0.7007031026615301, -1.1586640490544367, 1.5070972445155657, 1.6115451553078057, 0.39705585980561453, 1.5904729374290336, 0.787042670254671], [0.5544414200441191, -1.5356522890758497, 0.21789170338841649, 0.6256091920635604, -0.6432233848444369, -0.843722622033473, -0.7006462187879543, -1.260096251255741, -1.4738838866204107]], [[], [], [], [], [], [], [], [], []]], "biases": [[0, 0, 0, 0, 0, 0, 0], [1.256118283949513, 0.8239735541076509, 1.1907974165823192, 1.4810394326346425, -1.052438723084704, -0.9235486971815922, 0.16325370083946872, 1.8322470513187923, -0.448562361464348, -0.03494653263049552, 1.285286146242496, -1.3186546710167797, -1.3729889306901213, -1.7257678058247075, 2.022558690711433, 0.7776115680370996], [-0.02982989092322716, -1.2481250067589993, -2.0609320001162508, 0.913255759694972, 0.09545728468739091, -1.4264918826436246, -0.38207134983043994, 1.077227456050713, -1.241866441800381, -0.9210289930077156, -0.12432365600725206, -0.05910365199086745, 1.032242747906257, -1.8130933160765486, -1.1723186244243466, -0.4205333413758379], [-1.689068243069367, 1.0536668964622522, -1.3911599648975679, -0.8653497991625783, 1.1791539511063023, -0.4691342158853675, -0.07739594231717817, 0.06366015501765887, -1.3273311177118878]], "score": 418}, {"index": 2, "weights": [[[0.10826581150344475, -1.0094392524710276, 0.899501260179726, -0.03735588354986047, -1.0182386656537656, 0.01810886368300136, -0.06534371333272508, -0.5355407146082038, 0.17717961928595446, -1.2075429424936894, -0.2189785227732923, 1.9019018942656412, -0.6197086365267455, 1.0302097340317842, -1.620410764239291, 0.5506889263869115], [-0.28788115492890054, -0.43931306071074877, -0.5068150603158667, 1.8593748474430656, 1.3817924098182282, 1.5603021484601978, -1.2576117087412344, 1.1092005445701876, 1.8351020769956123, 1.7656016830201324, 1.415646150270396, -1.6036673812789786, 1.1346111977028388, -1.8469822927640116, -0.6722316497202452, 0.6549989092809331], [1.8198455590991043, -0.20788550682575502, -0.05338478269141468, -1.004575654063145, -0.5325888640383801, 1.5489633043815698, -1.9092185880907009, -1.9175401561609298, -0.927795632674242, -0.03855964244503614, 0.7557319258745142, 1.3439058292537844, -0.21048453435328435, 0.35214163788903363, 1.5826034792417976, 1.0906834294126229], [0.9564129821305278, 1.7156524449059545, -1.7275124288392938, -0.8099864253590976, -1.835811165257859, 1.496620889840297, 1.786346017232932, 1.1178225354858062, -0.7149151533047383, -1.747307697598834, 1.2212884538882232, -0.36700801071100736, -1.5698791523779376, -1.849271872390716, 0.061141903819697314, 1.319041695424082], [0.7681239312860687, -1.7094578815095183, 1.118500109991212, 0.23259236593568114, 1.2924220203111674, -0.9571850810515702, -1.4678310165866773, 0.8160532788708488, -0.36028024688308236, 1.012944467736374, -0.22850351033431043, 1.3770375227483564, 1.289306384194727, 1.6478880430775125, 1.8472605956192343, -0.24481550549210904], [-0.24615964160781573, 2.0069800465511056, -0.8226619073862329, -1.508375677510115, -0.6530321713295582, -1.2505484070362656, 0.7180508425809352, 1.566932452133047, 0.5809112146766339, -0.5645581874586306, 0.38619679705422294, 1.8066141000918539, 0.8270305568400335, -1.5448470196499593, 1.158522615672726, -0.2454114944082322], [1.2788228020361243, 1.1252924213466322, 1.0941008328165833, -0.2439201391601146, -0.18882613297840256, -1.883426114821364, -1.1288063651118818, -1.3344072310308117, -1.564822665054846, 1.0417679518083531, 0.2797164921246788, 0.19530858475958895, -1.5675623937889045, 0.010242999836927898, 1.5094393465452094, -1.1247636089703024]], [[0.43321811366523927, 0.2882233151771122, -1.9419984686857916, 0.2608926557822535, 1.9515644126923146, 1.5669221978982057, 0.6385222064436464, 1.3382830457547155, -2.0577577181382183, -0.5869624915542365, -1.4530279068191896, 0.5842088424963693, -0.7594104541759636, 1.6111368594684445, 1.1373838899958588, -0.549486810814235], [-1.6805520030348666, -1.7397752596864335, 1.1952600091185306, -1.8252973754326018, -0.819522651455855, -1.1306859477131765, -0.08377572702947082, -0.45951426830496617, -1.4782606642204825, -0.6117973590010519, 1.2499327198322931, -0.9579079609683955, 0.6654134489187038, -0.9410442838663096, 1.8949205800102065, 0.8240704079847418], [1.5189492589117226, -1.023677667751802, 0.27665358921145955, 1.2587658555359569, -0.6773527684240267, 0.6308334133304025, -0.5302048528173047, 1.025616893255049, -1.2064359962235394, -1.8506384350420877, 1.823365070040182, -0.02305980419537726, 0.42439576858074485, 1.2614724149018794, -1.86473720470907, -0.7199499429730674], [1.6884972272270953, -0.953724266651919, 0.4771002643236333, -1.336403924014527, 1.3558100939268003, 1.7595089334922989, -1.8928967402440595, -0.454332995499347, 1.8775700730810916, -0.825324951131675, 1.627471762782446, -0.5936460587323253, 1.4319757284744616, -0.6799018625040876, -1.77858954034673, -0.2698047828954422], [-1.0502319310557273, -1.1747646257378184, -1.6655537259472655, 0.7807326083854954, -0.9668991103460403, 1.698909757041804, -1.4189758778570527, -1.8780669570267206, 0.29880672330081626, 0.6917601001990203, -0.6632945014906338, -0.8730163224033651, -1.1288191221592911, 0.458158112363074, 0.6097278853511986, -1.6110618330518203], [-0.13314710160980242, 1.390229532246571, -0.8188794412549344, 0.18723360784447032, -0.13237084817856404, -1.1436547651644762, -0.21419985500011163, -2.0210859395331227, -0.6938319911102407, -0.5462336351291738, 0.805317070512145, 0.1382390061578067, -2.0101089403796037, -1.5091246493120543, -0.7354287047031436, 0.21530156746093426], [-0.9999495462366994, -0.9450482780993313, 1.5464924361751224, 1.4097271603285155, -0.18364227189694385, 1.901386822801071, -1.3806943114431793, 1.212304111984139, -0.31102676935335016, -1.5382578699546623, -0.740703726397219, -0.6813289897206347, 0.5198603973930931, -0.45342990598997973, 0.11899004767284385, -1.2507777855405702], [-0.09980023877755978, 0.45436550864179087, -1.557620527762958, -0.7539463627528824, -1.4198169891701569, -0.08930220147396947, 1.2990475319041301, -1.101596230615736, 1.972100907752831, -0.350162543184964, -0.3700451703184126, 0.3501529402084546, 1.0024160581636086, -1.6679840859860748, 1.2982341573613727, 0.9935121834556391], [0.825034307115746, -0.4012167512238915, -0.7729182125779777, -0.3212156748728945, 0.5656667816324998, 1.3807608201439012, 2.0822944328810715, -1.9861892645009591, 0.7980482458383693, 0.708258295527924, 0.1090520384943854, 0.45479150029436977, 0.7587955585237343, -0.9110991086949198, 0.4204165479981521, 1.1428200261216392], [1.3912572239295238, 0.424307148190183, 0.4698635373736739, 0.8690084916480318, -0.42306694502066267, -0.454948125674989, -0.16954752152832048, 1.4457415248092917, -0.4378296814622302, 0.17099910678007907, 1.7278855025523372, -0.38852381705329425, 0.8249554325240475, -0.3434461862372117, 0.16110156261931638, -1.5995625404678673], [-0.042500143922027986, 1.0443987172905285, -1.6485840005949541, -1.8296767038915374, 1.9138136407580344, 0.10628457645854497, 1.8011108948974845, 1.571661604064496, -1.1538803558614437, 0.21862464294009246, -0.5383312188809449, 0.8760869463846539, 0.5883551744712476, 1.541820986014034, -0.9635813801112689, -1.0192305380737685], [1.5496772656064546, 1.8036284799339328, 1.8998750760133538, -1.0924533292016847, -0.07057860228417656, -0.39621799440247096, 0.27118113860221355, -0.9184736341598088, 0.33069739372185575, -0.7788661902751447, 0.25236215760356806, -1.4409475864857828, 0.5432738215448676, 1.5237454136032265, -0.1868824876606595, -1.772659094145336], [0.9275014857719045, 1.6852152632212145, 0.8514023507656969, 0.5796678843891789, 1.5845145721979506, -0.5956740374795951, -2.0080461725900642, 1.1143228981100046, 0.3409375700318482, -1.4336663053027405, 0.22269721746122106, 1.6475388922904552, 0.1672934051817242, 1.727438044376482, -1.4998563363900497, -0.8812072101250898], [0.7759495321663397, 1.186716380976286, -1.4946695162253956, -1.4754413002122317, -1.6900362675948448, 1.311149680186561, 1.6848277047824094, -0.9316088564867657, -1.3168468740015622, 1.1482596408815866, -2.1164936535536416, 1.2731488328629494, -1.755004917303065, 0.5876869669273923, -0.10291994446461808, 1.0893845506315212], [-1.8118786635965394, 0.7058908069665032, -1.4936063588853035, -1.3693091522126564, 1.1724471230092546, -1.064656292121012, -0.5705185046092001, -0.3763864446371478, 0.5277718074972044, -0.11995784217685716, 0.9097704175401835, -0.36597928543187996, -0.40723593044395456, 0.2491321315581228, 1.6922167763756217, -1.7600696402470044], [0.3956978498362393, -1.3621414177659656, 1.2611390010610717, -0.9639119226620058, -0.13969042670069165, 0.8730919039797667, -1.9899198464080687, -1.753102510543499, 0.26774850923835736, -0.9955407340371323, 1.486588175796538, -1.5803161469585985, 1.5846473125638727, 1.2747036328091312, -0.3778282770642371, 1.3679379954994455]], [[-1.2202970315588464, -0.0965743788380235, -1.2462555428447601, -1.1389428175583494, -1.7383158076833676, 1.9760657436020652, -0.5165473249308822, -1.5888132571532227, -1.1820625681258285], [-1.0025162582817635, -9.996972997112011e-05, 0.5886071549483127, -1.4587805430160243, 0.5920333082575907, -1.6367945613757306, -0.1350859810278891, -0.7944346159143533, 1.831154329121884], [-1.7665255930855648, -1.4119979884926623, 0.5806296020433547, -0.4227018630575712, -0.7754449609788197, -0.4996568198368621, -0.9635444428538679, -1.7104653178721252, -1.610585301480643], [-1.9439282344456426, 0.250965502242246, -0.23729204947823568, 0.729815230438343, 0.6067377547812963, -0.4197988026931814, 1.5250252318764101, 1.7314800587217563, 0.8032072464476989], [1.4934734334489252, 0.060245668488300735, -1.655547323924999, 1.1626799281832607, -1.1204613483970436, -0.3829014681529298, 1.4818009480264056, -0.8950070578076484, -1.3267978750833849], [1.1517959120467784, -1.734336080876941, 0.9398421480718597, 1.2531953687221906, 0.14459070335232926, 0.9462349552814088, 0.9835012008722948, -1.2122465668896316, 0.6350323690613635], [0.8973074520674497, 0.1636527837186229, -1.934452440531243, -0.30534949611423423, -0.9452513762630844, -0.14716037864863263, 0.7632681738999201, -1.324016931285806, -1.2652839499698658], [0.5884233091299541, -0.3684706669962212, -0.7311063047602779, -1.046165998486583, -1.310019868225206, 0.969034484427803, 0.4779854004709133, 0.6389058281055969, 0.20269536373879068], [0.8122998879936979, -0.40458250580559446, -0.029642946255866102, 1.22094450532311, 1.2112006432958249, 0.2770538822091017, -0.2894765712577846, 0.37645189438587723, -0.572063054858953], [0.3855492758960425, 0.8002626061037427, -1.6917993396205706, -1.5251603161170841, -1.003018475867199, 1.705785154727104, 1.2931285881714956, 1.3796791675357154, -0.23547902446532343], [-1.2030761106023644, -0.9957555837233377, 1.5475653841115544, 1.2445365486946591, -1.1431112201598204, -0.8137923583488376, -0.015352008871198974, 0.29020037997675896, -1.7143917230086798], [1.9355062050558023, -1.7865030104625967, 1.0504405183550083, 1.5664100860376393, -1.1456623599146387, -1.99339183969535, 1.0579933521289588, 1.747992452510472, 0.6115771494367208], [-1.7426184815602297, -0.23370185798668833, -1.698308803406407, 1.1395487287034467, 0.9033885714267249, 0.5463784178629214, -1.1127960173488158, -0.01005950962747694, -0.014636601918176763], [-0.3312358603668154, 1.4121012920775131, 1.8645863373873663, -0.34139195387778687, -0.09708437374846805, 0.7658777143626888, 0.9120629754331679, 0.04684425859114193, -0.017666566740589307], [0.2499804379464864, 1.1817762784869887, 0.33452204817165143, -1.20208639934331, 1.3115497931456686, 1.6462270139961785, 0.4695630672958659, 1.752534408528684, 0.6540197130260477], [0.7499740395674919, -1.4351305609345155, 0.3106517669439071, 0.5889111810469141, -0.6229039225049388, -0.838073081937439, -0.8326190885360815, -1.3583746242896375, -1.2715633600460854]], [[], [], [], [], [], [], [], [], []]], "biases": [[0, 0, 0, 0, 0, 0, 0], [1.3041266094439172, 0.8047865367631042, 1.2445409418683124, 1.555487036286787, -0.9327577964162558, -0.8856913647097159, 0.08956886439104768, 1.724965961394493, -0.1516566528552799, -0.092038409965628, 1.236663706199368, -1.3032747414651151, -1.2367621562488573, -1.5990204135585835, 1.9775572198587468, 0.9149417472497493], [-0.05914055694763398, -1.1484168253694613, -1.8428340885194872, 0.8352151802467442, 0.14598305632493042, -1.5174525099229703, -0.4085812894002277, 1.0036573084162295, -1.2592424206078645, -0.8488866545961935, -0.00952679382934754, 0.13084497645132176, 1.0089184448434456, -1.8201302877158785, -1.1243104045199799, -0.3320299127615204], [-1.6091527288784722, 1.1787602122624108, -1.299417210710249, -0.8572357150694006, 1.1942335280370489, -0.4937212126555134, -0.2755263955982157, 0.07089313194543533, -1.4155468967295812]], "score": 773}, {"index": 3, "weights": [[[0.17771922310436222, -0.9349629131087261, 0.9705307649884353, -0.0028674340717133873, -1.1589275153535747, -0.10779920323789954, -0.169539611548768, -0.6375332958408133, -0.0008194416610566302, -1.4762022921553994, -0.08873536823268947, 1.9388948985073917, -0.4660444794488428, 1.038046626243759, -1.5786420399485823, 0.5307334477611914], [-0.40991328270834415, -0.6403330871191122, -0.3990276439451066, 1.9304463398412706, 1.3933254574458904, 1.4594087460885383, -1.3402800260467163, 0.9387209662131286, 1.6239442612239503, 1.8460363431239004, 1.4737577231341672, -1.7781270554215678, 0.9896594046211735, -1.9074061159801352, -0.665462553721257, 0.5873243937020585], [1.9639683505134156, -0.23968427453925484, -0.3156128692486937, -1.1916025957092438, -0.46023044068273133, 1.5771187008582759, -1.9876190088107237, -1.8798900180372822, -0.9763700812530958, -0.026948062495960434, 0.6360185356439294, 1.338568043647569, -0.3335125025712721, 0.42118927609249107, 1.740036331549471, 1.2642300839970186], [0.7177756896726302, 1.7816722971204515, -1.8344825121678443, -0.7522582713097672, -1.5750736471718016, 1.5400113833341607, 1.5469310368000753, 1.3108166575893352, -0.5558468821672278, -1.4267407629293425, 1.180479030988541, -0.41172402876045905, -1.429726180893289, -2.031224467411603, 0.10382261444537055, 0.9139055180006825], [0.5289549287835686, -1.3974813767050867, 1.1842397206840085, 0.33672275168811594, 1.3156408240246393, -0.8293384062289272, -1.144156758739241, 0.982340864856491, -0.4811690847729312, 0.9953037725916717, -0.6289890384779758, 1.4016990609665063, 1.1685705448646087, 1.6203701300413247, 1.9449570857090719, -0.2281558477103255], [-0.10098575689307678, 1.9341129810870605, -0.8843913210557489, -1.729563207326222, -0.6781295708311813, -1.5347787366497785, 0.7198723778301074, 1.4442772549559948, 0.6092704556181427, -0.3187034163567053, 0.22635247313785126, 1.7184953012738347, 0.9196159322095478, -1.5106181259176972, 0.9867857321635672, -0.10079923488949763], [1.2905036673096875, 1.0470678210466697, 0.9509870362690138, -0.22922093918024553, -0.3327865025146885, -1.9471010405673932, -1.2315213854805642, -1.3027978112946623, -1.5284490023789805, 0.9906874994948844, 0.05089938145495543, -0.006863764233737579, -1.4923927897443903, -0.0040806078620814305, 1.6537483903919212, -1.223339839948331]], [[0.09678925148014982, 0.3463748905107029, -1.9902162516497541, 0.1483344663283493, 1.9491731438468607, 1.3872327300282739, 0.6237293839210101, 1.2361234340809022, -2.0366388789429846, -0.490128591625573, -1.328702360437714, 0.4109668397967272, -0.7985753088593085, 1.409744728144909, 1.1687193877128161, -0.6358915601900552], [-1.6678592322168835, -1.6247561387525833, 1.0935167230264164, -1.6685440199255615, -0.69927258792069, -0.753849936380753, -0.2535471319096356, -0.3370006139793039, -1.4523685813285019, -0.7744456353676329, 1.2400960529467748, -1.1045048676848908, 0.6297016115861895, -0.8966749549748416, 1.7979815544865867, 0.781382836247168], [1.3348402159637427, -0.7537826866568489, 0.298753148877078, 1.1417909803967663, -0.7158327744072899, 0.5145363592064893, -0.9729530163370531, 1.1226320051999885, -1.4294308897163417, -1.757245119258775, 1.6457421654522433, 0.0741462509744841, 0.39506287357034575, 1.3284479193478498, -1.8044326262252994, -0.6432849493589718], [1.772949028031986, -0.8544508930758375, 0.38102291722754583, -1.285937858465028, 1.2808257273296277, 1.848641121613197, -1.7919794562439264, -0.3903648006880223, 2.0223616164276788, -1.0177571552166063, 1.7187383682709756, -0.7434333173957519, 1.649658693572147, -0.3969140544877161, -1.6385623540090397, -0.3698382285270375], [-1.3382783576019446, -1.2104570917937574, -1.602566469464359, 0.7790504931960254, -0.8078565334687718, 1.5840055715001398, -1.2663844246119889, -2.0600502209920566, 0.33144585475376404, 0.6443125890810554, -0.9174532231638886, -1.066905442361279, -1.14091571910119, 0.7253831168104747, 0.5983881988102181, -1.5584632805468375], [-0.18377755980847263, 1.22210194254685, -0.6323258947148944, 0.3783723612281796, 0.23070501636483184, -0.9217082863701336, -0.1031341436719328, -2.0818966904562157, -0.8543347426763138, -0.48934508971907686, 0.7292514207109141, 0.3995315790838129, -1.829199818510598, -1.4163360820639768, -0.5165077711660678, 0.379465296354331], [-0.9014937446445264, -0.94256760047696, 1.7787953183583773, 1.1982375607645726, -0.2034756511062647, 1.9633107095354385, -1.594295618251477, 1.3677140830994587, -0.49134284005028944, -1.9052255327266923, -0.8960993418408341, -0.7301349965948791, 0.4508170389781093, -0.47186375471065894, 0.2084331004602259, -1.3176681637563503], [-0.16646144137280933, 0.5030246297020105, -1.5187183425678201, -0.8734183977352544, -1.237231584200174, -0.1735096486929417, 1.2808744871231115, -1.1461058518168479, 1.907533500372478, 0.02035050384871956, -0.20217781080137798, 0.5387550434221325, 1.1285948508202097, -1.4842024341293514, 1.009063849184065, 1.1571559577407313], [0.9111870379071492, -0.40849320819756396, -0.7254423450544755, -0.26659100944757225, 0.748171722088955, 1.3257654783223138, 1.909347493364524, -1.9507001812860316, 0.6928298386090775, 0.8040794982551278, 0.11078728171630711, 0.3058738102099762, 0.7974316071176237, -0.8259791000895159, 0.40291088108144013, 1.1747414702651169], [1.0022929016198878, 0.2726608442197654, 0.18137435638596025, 0.8624900676769535, -0.5430289525697343, -0.5205036538857092, -0.014215594203162388, 1.4260571746533992, -0.16297633687874158, 0.21923409613034753, 1.6393728194966681, -0.49170512384104936, 0.7854790603532833, -0.1365358380400747, 0.07119808730261597, -1.402251781554553], [-0.0037278291005318487, 0.9165319497989721, -1.6201992091777093, -2.001812734659931, 1.9249064443648678, 0.06140969054531857, 1.8998783506410246, 1.619295959305954, -0.8511381095705831, -0.1106465245705667, -0.7328951537716394, 0.8038850676534207, 0.8213164887054396, 1.5832743611610132, -0.8257990831137825, -1.047659009270812], [1.5672396828893473, 1.6246289655572577, 2.0319532382559764, -1.2239042225715968, 0.10626113093122135, -0.5111892719559749, 0.200802460687416, -1.032455580921299, 0.35106933361080395, -0.8334867757032471, 0.1668095359776688, -1.5696655875755519, 0.298543006414069, 1.470360584591481, 0.0025959825816998933, -1.9287882187609076], [0.7650449403862667, 1.4698284856455668, 0.6714056254845496, 0.530527578077687, 1.5487506619048712, -0.3949238728151475, -2.07144658725983, 0.9939841648241303, 0.4492746863266497, -1.6058210720715373, 0.5365985420427599, 1.484679697515438, 0.10992406949858019, 1.601658066783387, -1.6059811789107106, -0.9283335234952941], [0.8230838227327387, 1.1650219218373163, -1.501597005777096, -1.441839431131862, -1.526444445571539, 1.4691064860320922, 1.634568351411725, -1.0973115899959176, -1.4449835045463704, 1.1074725912373167, -1.9043594107087287, 0.9871543051467064, -1.7673222142044491, 0.5508934236276819, -0.29696024569884744, 1.135242728262761], [-1.8924581798745712, 0.7416794637235045, -1.5175646295527874, -1.5965777641418626, 1.449130252101581, -1.2828565180063307, -0.34201709310305056, -0.6468119180559847, 0.5464973950763058, 0.13374579609628223, 1.0612613500348402, -0.20778799113497387, -0.5675013058624957, 0.2475015737955093, 1.9025476014691876, -1.7679652471820102], [0.6314376023438754, -1.466075458439559, 1.3398518376597168, -1.0253803622083246, 0.13061133367287855, 0.8773722729437564, -1.9087609718978122, -1.6521049041502345, 0.1906975244420769, -1.1272392883797326, 1.3141833467908026, -1.9467952160562387, 1.3922308338398939, 1.4627152840594675, -0.6070183321848595, 1.3837423774439321]], [[-1.261352793049822, 0.0415698215816263, -0.9863053919068928, -1.2243700799584056, -1.4769742679668154, 1.8443085952038718, -0.41531033848988086, -1.5660868448976313, -1.0783056560405235], [-1.2762358786864938, 0.09340431542732719, 0.6396168410867747, -1.4089748686408627, 0.677469357213287, -1.708906272561431, -0.31848696518543884, -0.9805530378877356, 1.8795583342206805], [-1.8934569184761356, -1.2242433481090393, 0.47670616061948073, -0.39068733820318124, -0.9127085408789819, -0.505449947896475, -0.8903705810493414, -1.595753918578723, -1.5561773114688493], [-1.9185385503706407, 0.22586681830077843, -0.18319171577640092, 0.8167888248200265, 0.579118266752228, -0.3669663145160343, 1.4927787920288158, 1.6010878112132028, 0.6228253143050262], [1.4278009425741514, 0.023596210665246163, -1.6351559747678888, 1.4479689769423385, -1.0595232839914888, -0.26278229684099363, 1.6468557098451688, -0.9173829147936379, -1.4381864685120571], [1.2480203979663722, -1.8858009294209594, 1.0846389066131175, 1.2552499273485658, 0.17317289111078293, 0.9071882166031646, 1.0554843019588591, -1.12794605536337, 0.356231646278069], [1.1657845546121401, 0.25552889995138783, -1.8407409906400103, -0.31862900939778227, -0.9994005164878155, -0.23384319131193226, 0.8900129186091581, -1.4104331524796565, -1.4170963493345419], [0.6907220319960621, -0.4970650858961436, -0.9081788179454777, -1.2508794607632385, -1.3512000779830688, 0.8467134429077636, 0.5946591088807403, 0.7849745121559977, 0.31846101947584793], [0.7415891935479578, -0.34887591709099963, -0.2749821101207709, 1.3005456371445343, 1.0475963109654114, 0.09702785025701952, -0.22483751598829302, 0.40318968950347095, -0.7435596021202947], [0.5025652999805781, 0.7330300567341286, -1.320654343517834, -1.4078365057584687, -0.831596985881291, 1.6317875026369868, 1.1835083147808563, 1.6709317223264506, -0.12693935105790663], [-1.2822227281931693, -0.9346547042803415, 1.3729871341422992, 1.2559797182768973, -1.162083937190575, -0.9852354091261764, -0.10261155375907233, 0.37144325579383564, -1.802955917942864], [1.9195069643957758, -1.8530817986454717, 1.263254364759656, 1.5237775566892304, -1.2408079425418719, -2.0418165001769517, 1.3522310967818318, 1.6929314491702256, 0.4919281399562197], [-1.6393764307146788, -0.27410955262526626, -1.8621330856680838, 0.9352472203555835, 1.048253328987782, 0.4924122404665233, -1.1431172329168813, -0.32766103938316815, -0.13083407319681745], [-0.4791968988917017, 1.5617631588185765, 1.7441781578612456, -0.48407959990430904, -0.14617022075526137, 0.9257256299283718, 0.8879444634122157, 0.1474386403579424, 0.3620747523158281], [0.24264383845300705, 1.162163917506602, 0.4729784985795666, -1.388830105846222, 1.516971168119331, 1.5372235797781895, 0.4266130832441747, 1.639110888272779, 0.7199149205311218], [0.8229486460352289, -1.5852189824404324, 0.21028799502966583, 0.4399028070706694, -0.507127730000157, -0.6341746986398035, -0.8317692776887445, -1.258875217445647, -1.448310884901056]], [[], [], [], [], [], [], [], [], []]], "biases": [[0, 0, 0, 0, 0, 0, 0], [1.4489800995952857, 0.8021714888718515, 1.189272519161604, 1.535817269362178, -0.9526931289621631, -1.0430661085891213, 0.14214482399529732, 1.983349149535989, -0.273607161899406, -0.10953645901303066, 1.5167105051553698, -1.4901259932979334, -1.1467185361692025, -1.672782621754055, 1.9651978046226315, 0.8432830431261059], [-0.04825662362418784, -1.3003146355394843, -1.7963545964521201, 1.1140816003730505, 0.04966346384868178, -1.3411820977583846, -0.2946110935753689, 1.2679559152571984, -1.2024855872623392, -0.7267977110010836, -0.14110097415050687, -0.09713257279503318, 1.0666682618245416, -1.8066538652800457, -1.2426200936622498, -0.12318893052240829], [-1.450894437025228, 1.2248898595233937, -1.2605174816592384, -0.9401192853158947, 1.4280221035087235, -0.3250704548291993, -0.05146218797066324, 0.12426455250905892, -1.5157691661930894]], "score": 713}, {"index": 4, "weights": [[[0.01607142638549512, -0.9451403409896364, 0.7992142512635099, -0.0863207902245376, -1.074984720839404, -0.11610347103810183, -0.024814862268970395, -0.7232797378429224, 0.09882416366104793, -1.2040768552844163, -0.21380824364715076, 1.796066555729639, -0.5410499423834751, 1.2374512626594647, -1.676924502844569, 0.6067980179201241], [-0.4881814042769028, -0.5310154475776326, -0.29934416980560336, 1.9465577758483, 1.363742845221724, 1.5376349173566068, -1.4177126815723349, 1.0106224493043166, 1.8171632169169991, 1.8465143383639606, 1.4257078816060167, -1.6573275517117967, 0.9990858075440355, -1.9078115209123523, -0.5927946578498043, 0.7368879610375584], [1.970372255015735, -0.3125609721618402, -0.08529290802282032, -1.1423723120364926, -0.5669836678983957, 1.5869049889158682, -1.9196786310055278, -1.8570427261449576, -0.7553731762223624, 0.02247962530025638, 0.7164747882441498, 1.3120027162351056, -0.30719935842933244, 0.3988184008112174, 1.5362899278586353, 1.2805541068550401], [0.7821392073293432, 1.610637432644018, -1.626060222654345, -0.9160741720401615, -1.5556434153661507, 1.3950354159296068, 1.6982311980934632, 1.0478765597790307, -0.6017984181761047, -1.7061758991513165, 1.195077197883891, -0.3776705167855116, -1.2855144569265522, -2.0167452077424852, 0.1101893034801877, 1.331590277190795], [0.5119788581443068, -1.4065816834918947, 1.2481804772437652, 0.3438948076026157, 1.3395562245233508, -0.9483376581013588, -1.3511674387710684, 0.8985462602358133, -0.33642833015249046, 1.1741757031370865, -0.7202117463343135, 1.398242874515794, 1.2003870891752475, 1.5910950860726318, 1.8788863026710692, -0.337941745279351], [-0.17743499699129026, 1.8352306239843967, -0.7790566304886465, -1.6043237523896328, -0.6569537372082483, -1.3222580115782425, 0.7005952502561065, 1.2924604925674286, 0.8186160304520154, -0.4030639186440639, 0.18629132353260125, 1.7100475927982592, 0.6427260638547077, -1.5065007730267936, 1.0983271851760605, -0.31648100182030486], [1.4599506496716355, 1.0317535786354362, 1.205496803750286, -0.4473807205143957, -0.19616248992895663, -1.9802834982432431, -1.0380118480355613, -1.602585574703395, -1.5593862123412994, 1.0266761685061279, 0.06271521552409393, 0.2020933883120542, -1.4494137972618695, 0.04599489382498384, 1.65983883102956, -1.1090066356106287]], [[0.3603822179476274, 0.4035489478903057, -2.021645364403075, 0.3073807518122865, 2.073436977951176, 1.3839017236920055, 0.49120261329493187, 1.2814332229939802, -2.0160328823638283, -0.5513030762632013, -1.4842813327989177, 0.4253002037460516, -0.7105013248508583, 1.3844666481432175, 1.09664760521788, -0.44341842057798364], [-1.8002408024467804, -1.4381135665753213, 1.0275634620791052, -1.675990538392501, -0.773693479342183, -0.8723889862445183, -0.20548681463593757, -0.39001367967113454, -1.3822542546609828, -0.7740607846934725, 0.9588032014836271, -1.2477011632282502, 0.8077912040228712, -0.8891415612695351, 1.869429241044825, 0.8503561690720349], [1.5191143349094953, -0.893558899334216, 0.46523261486496864, 1.2296570067105939, -0.8202245873999916, 0.5915307346387273, -0.6677889170489516, 1.18762320359481, -1.1910522570154474, -1.6998525814827241, 1.7922373759029817, 0.1428767051540654, 0.5155171608354012, 1.220261712328814, -1.8127404593945686, -0.5193087409404322], [1.9670224172191342, -0.7907853208854458, 0.5997187158631014, -1.3790775417280356, 1.3197250418540427, 1.8763896386743797, -1.780840486145755, -0.19565191732107717, 2.0247761836549754, -1.0231046273603042, 1.6225415529624374, -0.4726532622551657, 1.5030638333406197, -0.40633684181759266, -1.734224634112515, -0.42995901444883916], [-1.1912078663605774, -1.294251549251455, -1.7884878834340816, 0.9696791161532924, -0.857973067818704, 1.64082816162399, -1.228900574672737, -2.0839405994898264, 0.34352423251302533, 0.5003108451616282, -0.6657319246095913, -0.8638595548362364, -1.1579916920509774, 0.5232782385307928, 0.8516367769135154, -1.7848754522474466], [-0.21273844560048988, 1.4435215466296385, -0.8847011688879257, 0.31515173794508033, -0.16225375166206982, -0.9349781263583036, -0.17894862633866887, -2.1428730135414367, -0.9035701043096401, -0.5198734704792884, 0.6638980564939527, 0.5324390703374469, -1.907807464238501, -1.418830518014512, -0.3946350353028536, 0.26466187055180057], [-1.0022881584647896, -1.0064842365784874, 1.8008630391315945, 1.2792733906399514, -0.2277807315941827, 1.9434751251397249, -1.6300200016783328, 1.2762456242501659, -0.5509515178460315, -1.766778476701772, -0.8626684784053718, -0.8489020114159183, 0.6565599029535761, -0.3445055849126214, 0.1455029346398508, -1.3048726634448693], [-0.11874738684146274, 0.369249583117248, -1.4868656535104814, -0.9311294219841535, -1.3994497514760387, -0.21610739159987813, 1.090386582744835, -1.1913019599210317, 1.9819389347736742, -0.25842738950104693, -0.45486782195088515, 0.4473270845918307, 1.0462294602398226, -1.5965594669182392, 1.2092710536596745, 1.0566334438083174], [0.811225054338477, -0.40402691933174395, -0.8085337133574204, -0.38416910846719277, 0.5802075408582864, 1.4407586680577356, 1.9008819736025575, -1.907764910225204, 0.7085466610762737, 0.47097084880396445, 0.12058315776836179, 0.22133322158168658, 0.9215317742222244, -0.9679068193297877, 0.2657788558612367, 1.22084636931486], [1.0699663929147105, 0.3172115255459021, 0.32058731603162854, 0.8474434745294346, -0.31198882333848277, -0.38819701494667724, -0.03341113240491328, 1.3217453953173428, -0.36232283559107814, 0.19850229184342857, 1.6667253032780267, -0.4109060738762071, 0.9485199029997652, -0.04639092352498923, 0.08754942960838569, -1.2005926498939408], [-0.07836128609249636, 1.0902504151305414, -2.0077707777832163, -1.8725537029215824, 2.0462484294623557, -0.01756300320171443, 1.919889777453633, 1.543575631050653, -1.010437733469298, 0.08224191518463793, -0.5754371717495542, 0.6148105899824349, 0.6085830110600429, 1.6364701846899568, -0.9219503348704953, -1.1851846724990398], [1.490004790446776, 1.8825993275542214, 1.9619182602443208, -1.2474166490658734, 0.16643957721438632, -0.46954986262535064, 0.2583450658945905, -0.9678851346069202, 0.30089805423471394, -0.7177437671002116, 0.2713040236751886, -1.465445109330503, 0.10044333210548256, 1.6152377961998234, -0.041106578500509146, -1.90446711047972], [1.0903145753429444, 1.4862891454958438, 0.5970364860614363, 0.5540233904933488, 1.6685757874918534, -0.34507472628499153, -1.9081141636815633, 1.3443008715632145, 0.29601549458214593, -1.7484126900662362, 0.4638408504746829, 1.4106074000909323, -0.03871165887250653, 1.6339154910259674, -1.6200823309355816, -0.6910647059603893], [0.6158756726817348, 1.2065726760384525, -1.4008429402292262, -1.2088800928393688, -1.6863508002033292, 1.5207237411427124, 1.6699877294867105, -1.1654745421941988, -1.5101054262081544, 1.2531520885572087, -1.8662215062929657, 1.135989498166011, -1.864010551709979, 0.5075563393089011, -0.23617291018729603, 1.3403678237488306], [-1.5929759535539805, 0.7904679499922637, -1.6460442543163993, -1.3901710099560352, 1.2042792440712802, -1.3641449637212766, -0.3700665635472702, -0.37134616963941985, 0.42050609076066836, 0.07888169052887817, 1.1045682759997237, -0.21320225619198316, -0.32040484094183985, 0.005907024863467308, 1.6347146624084234, -1.5902220473996236], [0.5129578143025725, -1.4489852560042276, 1.3549353303379097, -0.9852480566008588, -0.14132176024589732, 1.0989548816634052, -2.0010593042526077, -1.7153245588527506, 0.1921642780091249, -0.845530059678185, 1.4508587569728113, -1.919962517882137, 1.588367905801891, 1.5272545862151319, -0.2878821687414226, 1.4553963061135324]], [[-1.1261448950223543, -0.08059132836261818, -1.1981271291887092, -1.1711459778275755, -1.768607215218505, 2.095460115637483, -0.6102445535299754, -1.6703779852157603, -0.9667517527439858], [-0.9864234530009239, 0.09282995836586645, 0.5473450503563142, -1.466014795418366, 0.6866290276565972, -1.6792005039444085, -0.06529805950300449, -0.8457401084653706, 1.8012613451358133], [-2.016692394499181, -1.4762355398692972, 0.43721189259967436, -0.5560943789771533, -0.9193182231673345, -0.5215374755211843, -0.9093541859493868, -1.4757701067671554, -1.5667657271604396], [-1.9304311267509942, 0.2956162697916083, -0.14373345099236615, 0.6518119591422125, 0.5114926980404113, -0.23921136020396216, 1.6308858297120938, 1.6633225864324996, 0.806739233535788], [1.2307493627442132, 0.139021065105691, -1.6419746732168221, 1.1049288541229447, -1.0901049044868942, -0.283924281377982, 1.4600343033246768, -1.0225477439054145, -1.3189177626691213], [1.2769066696333036, -1.9063072832913213, 1.0323518525904167, 1.4581481013349538, 0.2788622563149598, 0.9044151977151, 1.0576810957665856, -1.0032814660823055, 0.4817669872480703], [0.9207349214997753, 0.20449369019161803, -1.8673659364838286, -0.2859495691961822, -0.8905277216401125, -0.40908457518644914, 1.0311491813424414, -1.555766741385814, -1.176385508484933], [0.5521981996355221, -0.6467440919858513, -0.8947243474168662, -1.1446701757838385, -1.3232441324791453, 1.1040620816307043, 0.47979517819610606, 0.4367480099830059, 0.24956322043303675], [0.8775029111968186, -0.3879248756245125, -0.05656949041613991, 1.3479892387520975, 1.2579182550459613, 0.24055135294640845, -0.19862508350160793, 0.6344304226501282, -0.4942859478797765], [0.5245663229969849, 0.7807733360013578, -1.56056078717607, -1.2461655061691796, -0.8923324943902741, 1.6365657371376328, 1.1143152158074257, 1.5128089858907368, -0.29179426640381706], [-1.3601863959024723, -0.8738872825014526, 1.4912397422157526, 1.237457727363358, -1.0884876753914523, -1.0356492258607322, -0.034514827111293375, 0.21373218378904107, -1.7927644803492955], [1.8390563036987584, -1.841048405970323, 1.1823600387355193, 1.4311294641016676, -1.2444480848411477, -1.9118658370237536, 0.9964941989239161, 1.7426831650013033, 0.5084148192176419], [-1.6137211380884038, -0.2788991408390734, -1.7880192323903303, 1.1956683997469593, 1.0441668735894427, 0.759259118159877, -1.17289935852964, -0.14247598526315644, 0.01777710507984359], [-0.43709409749173467, 1.5952823842586037, 1.7979558402784648, -0.2312360949530783, -0.009912581196323475, 0.9914535050837255, 0.9875457106279144, 0.08917102589702997, 0.40512544252575095], [0.32983654878675583, 1.1692414024178586, 0.5297928261143043, -0.8924033017766435, 1.3205281024037194, 1.5261047882569887, 0.3813562427746294, 1.7092336434292061, 0.6324849502574844], [0.7421725545707335, -1.3373297204549286, 0.32365706904748415, 0.6997010112293868, -0.5726935059630593, -0.8770666539144553, -0.8878581639280348, -1.3147417479561307, -1.4038537782537015]], [[], [], [], [], [], [], [], [], []]], "biases": [[0, 0, 0, 0, 0, 0, 0], [1.097761281881575, 0.9060618010261331, 1.338556903823913, 1.6421329013361796, -0.9620019985655688, -1.2459038877472692, 0.14511897344818694, 1.7682825845872254, -0.23711865649896469, -0.258841736568845, 1.2838354665157163, -1.387698273061195, -1.2802526470534528, -1.8533538259838394, 2.101459251360985, 0.7910079204607532], [-0.02853744627003707, -1.3152710626694446, -1.75074610615792, 0.861461002626142, 0.07187955066704241, -1.236311586122439, -0.312368597366172, 1.167703608921046, -1.3170199761423511, -0.7952516726690573, -0.12980241357540245, -0.07776837442766049, 1.1324062447714185, -1.7649690976198353, -1.1809054015404867, -0.3975215688644749], [-1.4252754438783963, 1.2798187493206519, -1.2311998180777894, -0.8595611002603636, 1.2337262176968595, -0.3040374316588423, -0.25928292271218, 0.08495439027497552, -1.5111351171679064]], "score": 334}, {"index": 5, "weights": [[[0.0943999594715581, -0.8436447414082842, 0.859923725279478, -0.17028614379475257, -1.0808600406582185, 0.01962133954254036, -0.20455634650783372, -0.7634676849409121, 0.007542230434637642, -1.275665163064876, -0.1842426677534813, 1.8215203094061956, -0.6712604832015706, 0.9264210049870325, -1.6444041847445388, 0.5413820079338637], [-0.382300433576773, -0.33995914199427746, -0.35284804691854577, 1.7373131429785404, 1.4090846818966796, 1.5281667490084077, -1.2531516525588315, 1.034460289325981, 1.7041066411259385, 1.7545700736984176, 1.422303550527203, -1.7750502873222336, 1.1819633278431443, -1.9498882299101747, -0.5398657489414801, 0.9092155370626843], [1.9334335313728757, -0.5313061570409912, 0.12542783550084707, -1.1122242700586265, -0.39560177094097493, 1.3901342783167374, -1.9497535163262096, -1.8656382757404961, -0.5879484587346613, -0.11921437069599997, 0.7311323730600189, 1.3092490823340803, -0.3179739457530044, 0.3574739855044876, 1.7396255846620243, 1.2420289323891442], [0.809126470946374, 1.894407958696159, -1.598070016359913, -0.7113771038166319, -1.7576361103294467, 1.5038295911539508, 1.5763507926250018, 1.317075104070691, -0.4660572214813381, -1.505295267568684, 1.2209196763140389, -0.3065965832919631, -1.445276019033089, -1.8627711717959394, -0.06116718080186652, 1.2222638424103471], [0.6028074123201141, -1.6787404770986896, 1.1446977985674291, 0.21532771612048185, 1.3034980047546785, -0.8081731885788941, -1.3685269548156709, 1.1318397533769955, -0.3087494750695925, 0.9842030283540036, -0.5122577985324953, 1.3987303143475036, 1.0672960509537934, 1.6432993408234564, 1.9523836423214556, -0.2939291777246465], [-0.08999887733024467, 1.8522673834069039, -0.8450417223906774, -1.5347925522582566, -0.6628595657716322, -1.4441103120679977, 0.8761035597536584, 1.2701920814571683, 0.7379249507853678, -0.22167682887025225, 0.32531991063453103, 1.7696938610093063, 0.7836152308591092, -1.5770233606672273, 1.0920728993673863, -0.2569621726719063], [1.5177532923917778, 1.0506407522376244, 1.2887768830704391, -0.2640305156285399, -0.18012234936092775, -1.9184728138213136, -1.013512584137942, -1.2989752652714, -1.7432490046688036, 0.8904515846310616, 0.2960815067694462, 0.13027235360317474, -1.3564715101882234, -0.0088973913657166, 1.7848137862730333, -1.1184695147151968]], [[0.20166377516358722, 0.41561875324984443, -1.7962659683909736, 0.17985207980133952, 1.8420070185153357, 1.380658197058409, 0.6586174660484062, 1.2183812181364937, -1.9738424966766743, -0.39338283187190803, -1.236428862722594, 0.5596266803157274, -0.8873208021055288, 1.4609521219798458, 1.2165537252530978, -0.4482096594217816], [-1.7846986628154509, -1.6585168505218915, 1.126561076466381, -1.7493609356581021, -0.6993191981727207, -0.9692127138365941, -0.14465889528603348, -0.38846029997732573, -1.486949456578086, -0.8419065981082898, 1.0670932488777236, -1.0937951748475028, 0.9168282840651398, -0.8816679266533779, 2.0357949667137687, 0.7038330224195731], [1.3485321950470586, -0.7501483101705075, 0.2606233032711137, 1.3450546847413194, -0.7543831476154247, 0.39434977474363553, -0.6921004531827104, 1.2893818401210317, -1.136539774655106, -1.6301859934626726, 1.7363742984006711, 0.05915935819843333, 0.5317746541429219, 1.197393375449388, -1.732300693830891, -0.7491337834332953], [1.9646926974093288, -0.854825004958472, 0.311652542872868, -1.0683323494980457, 1.2375029586624622, 1.6049918248977293, -1.8364092512690382, -0.3710482839607801, 2.0514187787451004, -0.7346896768532344, 1.4836484005616069, -0.6290011994033546, 1.3796989358013545, -0.4932969768277694, -1.6712378426996526, -0.3744288019913267], [-1.1961942070922855, -1.283110942470752, -1.643282429369684, 0.9217860762279011, -1.1146335980158937, 1.4229734527572782, -1.2335272466689304, -1.83955456301936, 0.22899488486651587, 0.5760938524505415, -0.6793872685544062, -0.9788024089365609, -1.346465281251575, 0.49011516497846125, 0.6087100428175248, -1.6461847980426818], [-0.07221055726980675, 1.3875769936787723, -0.7803257430158608, 0.4591071833245885, -0.0950170640661788, -1.083159143652003, -0.050828690937684426, -1.9253491452440399, -0.832893595604459, -0.5271841389818063, 0.7550056409990693, 0.34745016512876, -2.0604175048227464, -1.3801877001927942, -0.45501315967353967, 0.23049703984126535], [-0.6852710792590007, -1.1673053363637067, 1.7766565940019916, 1.399039507050436, -0.1062535017994454, 2.084004502299864, -1.6088307850563976, 1.2685077023734064, -0.4098976703649999, -1.6937867325508256, -1.096480045165821, -0.7322724393671718, 0.4160268169332658, -0.37020095644563233, 0.1448268733000553, -1.2788713298989933], [-0.13278208738396305, 0.29263842483853336, -1.659707387125117, -0.8185518780853669, -1.3453096454207927, -0.06798735442354668, 1.3764806446908922, -1.1174451119316506, 1.8691389917662837, -0.2948697651308374, -0.4086506644710137, 0.4708704831909219, 1.0428056321842178, -1.576926995622756, 1.0212755751262286, 0.9703271748079725], [0.926857863569949, -0.40314064949716505, -0.7913080044685672, -0.1554703440395251, 0.6541977263698814, 1.4004857128071635, 2.0119264995621875, -2.0759471042233835, 0.5734548581201181, 0.602197422460004, 0.1512308587770876, 0.1769144844500848, 0.8375905270902422, -0.8647828519069016, 0.3848106808602203, 1.0788437220495417], [1.1389539682023273, 0.13906535581375692, 0.2999267244033252, 0.7617932767726008, -0.5247001785272429, -0.413832365006409, -0.17982669813602042, 1.4397850993274146, -0.3294801998884716, 0.2865712309944759, 1.7576857361306484, -0.37123206023482413, 0.8933959137765941, -0.011036239631039502, 0.3744014083559557, -1.417863975883502], [-0.2227227249464286, 1.1363318526940904, -1.9132972680739888, -1.744265148015531, 1.9361527265791998, 0.13419337048481556, 1.8614709280525086, 1.7723490976062795, -0.8799916102316782, 0.2741846906845499, -0.7312670698749681, 0.6095637075542188, 0.6059093129453963, 1.545392909281108, -0.9002280419537402, -1.0061376869151786], [1.5809645190801485, 1.733796524283493, 2.0520173785553344, -1.1337031562542104, -0.15488754913119462, -0.312111036122126, 0.2257462052738673, -1.0151234347408442, 0.44416620062884354, -0.7423214372523305, 0.21188946452775367, -1.3540119686820156, 0.33635760112368646, 1.405217384147516, -0.057859321887109336, -1.845509991895724], [1.0823705387593527, 1.5008762916097473, 0.5860245479729801, 0.5702599923439823, 1.625498409839092, -0.4835279938485796, -2.121999712002778, 0.9407124002701227, 0.31348057923062284, -1.4538451175233642, 0.4189440105536848, 1.5517606185575188, -0.06364832059522704, 1.729881403273078, -1.5330828837739057, -0.8597001255424138], [0.7874318848881078, 1.2889406914936072, -1.6950060897613555, -1.3976247694829538, -1.590350405514713, 1.392042724336587, 1.4893609920417867, -1.0482723970903935, -1.5343285890442724, 1.1544440604456356, -1.8802313024487525, 1.1411961339683356, -1.908905230021923, 0.4662236389133614, -0.22010317402284135, 1.1703922630616839], [-1.5496444177914643, 0.7779042050911195, -1.6942455935464245, -1.4190470535500082, 1.0154248922810327, -1.3559173812757397, -0.5618422366299402, -0.5296540481735845, 0.5559617893062181, -0.1622217197923584, 0.9318749070184142, -0.5006022018482734, -0.5082828890290753, -0.041833991845116075, 1.7270899827668837, -1.5596304608058276], [0.5005014991533113, -1.3752073879886493, 1.213396752106452, -0.8661569899281917, 0.10183312129780586, 1.0363283768941958, -1.973176826716662, -1.664420505710515, 0.2949888539550153, -0.9291934022216919, 1.3039743735418874, -1.8984055654333385, 1.4741547697508253, 1.4939612700275329, -0.4220676198367148, 1.7939476338426132]], [[-1.1277832611365197, -0.06890664560472973, -1.1903127205160495, -1.2204000924024003, -1.7358445921235568, 1.6482024638602533, -0.4340918136675493, -1.8856509402671184, -0.913570767013091], [-1.2437350810613006, -0.0037533476708800154, 0.705998568676915, -1.4445622275720655, 0.5997843754156001, -1.6923395077216403, -0.2264382233040294, -0.7487534600451116, 1.810244221597672], [-1.8631758416787225, -1.485091923896128, 0.5000052794049128, -0.37433284310700865, -0.860148015517687, -0.5015251591255037, -0.9383236442016413, -1.645835546549943, -1.5324857169502186], [-1.8841616867553854, 0.4047694487511353, -0.14432219186607415, 0.7493147526640965, 0.5894506120361906, -0.29879056400773785, 1.7186775814415702, 1.481637635242059, 0.6510448889654553], [1.4938963932106164, -0.0452782881493224, -1.7906585608174213, 1.235487457545444, -1.149548485351228, -0.47323150330381736, 1.5659423440541185, -1.013132757819785, -1.6189001717459834], [1.0027052693361533, -2.0633723683961547, 0.9260238013980393, 1.455036524437628, -0.025070012053682228, 0.9682028923983208, 0.9134273410311919, -1.1010692617317424, 0.6421866650016324], [1.0689882875117185, 0.10665754805064583, -1.7506804480823792, -0.17914943897489594, -0.9541041368925451, -0.3303342964687322, 0.7418998170199566, -1.5939133775581915, -1.504055388790749], [0.6897025573034288, -0.49279905222067516, -0.9508179091961985, -1.0234970708728734, -1.406895188201752, 0.785263413804832, 0.5329128558745726, 0.6318414089045787, 0.402782696189942], [0.8944194906505356, -0.08625439634959359, -0.02626931513875834, 1.3578228119326874, 0.9370042093770538, 0.36521196044784043, -0.1758600896142469, 0.6600079899651737, -0.7085833751946026], [0.3540013277983469, 0.6330961544051854, -1.7908210194801206, -1.2279420809066144, -1.0937685746589474, 1.8130507507080649, 1.337631244556462, 1.4883875145125103, -0.2706059435239774], [-1.2991749480632178, -0.8783700368521209, 1.4838046968911316, 1.162352453799486, -1.170167247260198, -0.979206013630242, 0.07908641413905616, 0.2463247744359779, -1.7719841176313817], [1.933906674040402, -1.7586781056920782, 1.4825633120062431, 1.4864172028186562, -1.222519745680155, -1.999934218034041, 1.093374274371911, 1.7793807368269134, 1.0014115685560527], [-1.6738787796619106, -0.10205721904018587, -1.9064625239317123, 1.0757023073517398, 0.9666567747150965, 0.4775972980188502, -1.0707572585930671, -0.01345497590908748, -0.12899184191179872], [-0.44259896246507885, 1.6707162349238691, 1.819777745131465, -0.3948377710545024, -0.1243946737531906, 0.9807405931660285, 0.9435514488042989, 0.32590345974348556, 0.29916789112685666], [0.09432740576199139, 1.1569386787932432, 0.6062439546667967, -0.9564858266647338, 1.4088304557485214, 1.6718473656824278, 0.220995526572061, 1.422808005210603, 0.7428111810701595], [0.539625906733721, -1.527511193544821, 0.0927090925208385, 0.6718468434566099, -0.6751416253995579, -0.6775203829684704, -0.6223096981348017, -1.3118173963942201, -1.3397904572937982]], [[], [], [], [], [], [], [], [], []]], "biases": [[0, 0, 0, 0, 0, 0, 0], [1.226511998898128, 1.0557977906367526, 1.2131037989584663, 1.5596749540746404, -0.8063050477265647, -1.0598000170246764, 0.16561777794483018, 1.7807471125208596, -0.1001698232130758, -0.13255495813106072, 1.1489760839476268, -1.4771379427823106, -1.3051855643477366, -1.6028036418744838, 2.023065257478298, 0.8310492762108509], [-0.14914688873906468, -1.027654990549054, -1.852622353597787, 0.7144532223908409, -0.08542627363934346, -1.4814199265875132, -0.35349479043464127, 0.9943622482088905, -1.330356865868199, -0.7617740176912335, -0.1785503420826402, 0.17042223046158195, 1.129753183185795, -1.9241564415370207, -1.2202837794775725, -0.31351775398349324], [-1.5236918273065287, 1.0774959936245592, -1.163074997610825, -0.9629478713398757, 1.2695889807574072, -0.32013754180562054, -0.180230269250094, -0.007404804496703152, -1.2179229851379674]], "score": 717}, {"index": 6, "weights": [[[0.05409490997224144, -0.8582252510655364, 0.8745877489553993, -0.09017050191568737, -1.1806663988524941, 0.09655055810826481, -0.15357411637066798, -0.612439191912107, 0.26136041281949596, -1.3139042074478733, -0.16356189034375057, 1.8207118316641524, -0.7269900312867871, 1.3013946560540741, -1.6742817665450729, 0.47556458986545735], [-0.5558344240032239, -0.6026819422527036, -0.48847928861843937, 1.816008952197482, 1.3727998814224378, 1.5788989242912093, -1.2645416375834415, 0.9797292489894616, 1.7930619459203905, 1.8379038371817538, 1.432899534721821, -1.6789634124469364, 1.2325188720681595, -1.8896633779260914, -0.5698557260706082, 0.744498155216885], [1.9371135013111351, -0.07418565181351999, -0.040884419551104764, -1.143521354807919, -0.7237084883885705, 1.6111708298985048, -2.038050391786636, -1.952718836348975, -0.5798660440210794, -0.07887180991697801, 0.778407874171458, 1.3810381117559773, -0.3601773179551745, 0.4191529571960675, 1.6956306797206793, 1.137550659519176], [0.8872205024827886, 1.4847822348809026, -1.662984300373306, -0.8436863938696765, -1.487859927194299, 1.4507740515461824, 1.487761251149454, 1.2186109777231489, -0.7063930853859746, -1.6056858457707512, 1.1321228007710502, -0.4797100826397504, -1.524485330307328, -1.8688634785722233, -0.050534898322728505, 1.2329903406717235], [0.5609430282009251, -1.6874150719703298, 1.1241980054159324, 0.23003829070478818, 1.2681878017186736, -0.9252882579537701, -1.3557501137146386, 1.1549280717898294, -0.31622700676334614, 1.0848203503969334, -0.292619569538559, 1.3451848293561306, 1.128491978187045, 1.6347868669631158, 2.075016965710864, -0.20371169246152954], [-0.03548842816308685, 1.848130245823519, -1.014951890735965, -1.6427634757590095, -0.5184586827087188, -1.6512018613503947, 0.817605126519539, 1.3379410439631882, 0.6870949141096713, -0.20922664367760374, 0.42935450649669143, 1.7959271908121164, 0.6359855800915432, -1.7523139484071555, 1.0824668391207724, -0.28767356424655544], [1.364580156347841, 1.0270849352829357, 1.0934024985035462, -0.10665844239646216, -0.3883651229790045, -1.8555755636600615, -1.174578129370481, -1.4435454413296773, -1.4822237963892244, 0.9806784843904365, 0.25415721192687224, 0.26190158591689433, -1.535604392797828, -0.0833423202874347, 1.6658893971759177, -1.0643847776533013]], [[0.22558933757991442, 0.32642493988293964, -1.8192114715813192, 0.07218706079525228, 1.9245489821712727, 1.4018713680591959, 0.46901047403664936, 1.0101599055356751, -1.9239055636370308, -0.4023027504460358, -1.0859638572507038, 0.645930692334381, -0.9607264395325852, 1.643988007795236, 1.0885461643091618, -0.546648038176399], [-1.673176568687401, -1.6304704656722502, 1.0969220082306332, -1.451853887514461, -0.918683295737887, -0.8381874378940598, -0.040296782496268835, -0.40262922685426084, -1.4763051241800793, -0.8180083139958195, 1.171223537763001, -1.1291403099727935, 0.7759296233304862, -0.8559761722997206, 1.632003444509091, 0.8345132654350164], [1.4965360510923233, -0.685743372693709, 0.08361819146599622, 1.0667288481279975, -0.6757424154712621, 0.5081031585691799, -0.7194586558280328, 0.997696903837109, -1.3929897248823682, -1.8703536019920826, 1.5642678113961477, 0.05107897792054894, 0.4460844324063405, 1.2660448982633576, -2.059717695867187, -0.7545905398023082], [1.6992509762414165, -0.968834882921423, 0.24497747345091678, -1.069084479601859, 1.311470723121564, 1.721626100330354, -1.7004075895329636, -0.30672822634242936, 2.1165529645447094, -0.7044301427260631, 1.5788658217058542, -0.461465777512699, 1.4024419470686, -0.4529012211385049, -1.559632456788773, -0.3683356929633854], [-1.1955840974170162, -1.4678667411151425, -1.6351743055847288, 0.797443362283851, -0.9355132479973794, 1.3949451454623547, -1.217511551305487, -1.91706349932522, 0.3046496640094799, 0.49826638370060444, -0.7033894550615634, -1.1939359797634979, -1.2586434795855534, 0.5076089323111042, 0.785540980053482, -1.747943642377491], [-0.07511120053383032, 1.3561871602601714, -0.8804338807839953, 0.45084619619844607, -0.10921586498054187, -1.0679941010575584, -0.08584506794237856, -1.9160100229868002, -0.9695229303270005, -0.3641079820396308, 0.9848282027912918, 0.1009011954147111, -2.2008541731487705, -1.5319930839554323, -0.6101788584843735, 0.16340235308133189], [-1.0456682473209895, -0.9776722850542293, 1.8337544565936168, 1.1838478562428827, -0.20197301945673318, 1.7885204497357443, -1.6455490134359392, 1.1205687457998823, -0.46175627793382373, -1.6852784231828177, -0.71040335630655, -0.6449040991609797, 0.47063954566828337, -0.3589976589046243, 0.2639266835235445, -1.4474893784181702], [0.02389091867592555, 0.3376557347290522, -1.5964330440186703, -1.0781650503515552, -1.405923400125316, 0.10030632247542745, 1.0912105605062745, -1.2002770809179126, 1.9621940257985395, -0.24345649943233424, -0.3423534194165164, 0.3078988380289136, 1.1344870712056079, -1.3349995095505904, 1.1084379233082247, 1.1269182950701209], [0.8863614093519251, -0.47750776842659576, -0.7706080143338216, -0.18957187496418032, 0.76301964018114, 1.319140616008893, 2.1451606677774153, -1.9478136819692307, 0.6326849441144868, 0.6526652043338224, 0.17344447541530708, 0.3415913233203526, 0.8069897067528282, -0.7795228806044416, 0.5403012519954472, 1.2172332122729612], [1.1410984135212157, 0.49130247821446693, 0.264161548941313, 0.9638301813311215, -0.30851076657800647, -0.5364924020966523, -0.08899616108257137, 1.2645638746589032, -0.48627565422488545, 0.04983702406375029, 1.7099589906404413, -0.3654230592327202, 0.6525104538272918, -0.03980154882339651, 0.019795685799270213, -1.3370277104919983], [-0.0826400286892364, 1.081442101238157, -1.7019196757469048, -1.9828254860159196, 1.97892727565828, 0.0467211409247703, 1.9300595567707695, 1.4947825354856317, -1.0356164955725957, -0.003469981537099931, -0.5730637363080718, 0.7489014938094725, 0.697444550712353, 1.3986560923676246, -0.8043430531267471, -1.0811870533753274], [1.5528295146019595, 1.8071847575450393, 1.8920121057481245, -1.1875164659890511, 0.057903412665847226, -0.3160750340244305, 0.09232712184673397, -1.0245727306872756, 0.3349036542060221, -0.5797443979356192, 0.3846500671335129, -1.4115864859449647, 0.2816330291213246, 1.4474112374677126, 0.1342047126077296, -1.8849377862464927], [0.9124108111274345, 1.6193658607110393, 0.5606078445584272, 0.4961284883821751, 1.4442001093142396, -0.5450917973914796, -1.8711889414145488, 1.3449311795720695, 0.4817595632715683, -1.5082876259782958, 0.3551286415681285, 1.7668579218598666, -0.024890627356918976, 1.684276329870798, -1.5343683061874414, -1.0801210277924553], [0.6608841412205936, 1.2503587461996188, -1.7280976499670822, -1.417560934754054, -1.735664170830943, 1.4007278907316711, 1.6019325855319926, -1.1532658398579754, -1.4154005286256535, 1.130702451438613, -1.7458788857527097, 1.0235087606715612, -1.7204311968211015, 0.4609504329812194, -0.2621375352478041, 1.272610080368652], [-1.6323497975206076, 0.67219809243161, -1.5802939082141167, -1.3245879516042482, 1.0992796286781237, -1.2000816804350762, -0.2274052592559889, -0.6912689961490264, 0.52483172209756, -0.1663993196909086, 1.1070369902142607, -0.3177375455476393, -0.5948889349940216, 0.08915439395605976, 1.755505053461963, -1.9225525564091743], [0.6102041139697703, -1.2992784289536798, 1.5598693482078274, -1.1762693308309817, -0.11885175973521162, 0.839825706233053, -1.998120020657045, -1.6959805838744948, 0.2136374330222569, -0.8378447952794744, 1.193184040291333, -1.7057302200130553, 1.4434726465061427, 1.4646457400471837, -0.17890185330806574, 1.6059573394365825]], [[-1.254585730776036, 0.1459496017530978, -1.079963439646859, -1.2001112275119674, -1.7550211355531535, 1.9575840375080478, -0.41819597352822496, -1.6967588362561563, -1.0216662032816752], [-1.1211659315669047, 0.0651879827206778, 0.8012516182215546, -1.564761413696674, 0.6722191200004466, -1.6389300752091085, -0.2835035637691648, -1.1164482568768554, 1.9315160088402228], [-1.8017488257111498, -1.4461385108883849, 0.47453822801730305, -0.3655598387164271, -0.978739400852393, -0.4790406108342715, -0.8478947033644454, -1.748487420912654, -1.5480265695469582], [-1.8230715105298754, 0.24165684386063968, -0.09098920916035858, 0.7066552544455693, 0.8104947141269934, -0.3604001630516447, 1.6956187880068192, 1.7121785319239433, 0.7687356847204339], [1.484775955368293, 0.13307936535106518, -1.6714895145224353, 1.2194773545094295, -1.1311435292924288, -0.52416264638333, 1.5985301598261823, -0.95849345975272, -1.35908470958573], [1.0341149605527955, -1.8682512631871697, 1.2330212613967557, 1.3449703085609301, 0.06067344571300558, 0.9369840117693741, 1.0805849550633004, -1.225798084997756, 0.5091823661366947], [1.0716785920676362, 0.053052469092108964, -1.7228726052169603, -0.21123057262946804, -0.9066900953178458, -0.3552226545003018, 0.9501762455234333, -1.306019875045835, -1.5973051362281367], [0.6903703816651529, -0.5604505965029688, -0.8740214812049738, -1.3021068529063111, -1.5060855108300901, 0.9271905233394228, 0.8446266605125009, 0.7501284770996417, 0.38638123361874827], [0.7286656018624378, -0.5410855157119987, -0.027385165575458108, 1.4322723789359213, 1.2000863403778643, 0.350526681605559, -0.07162726474192982, 0.46759801870333073, -0.6070659897260314], [0.6651171722647929, 0.7439319159284385, -1.5884991865785871, -1.4119674218940066, -0.8927774246536329, 1.4635521669911116, 1.3461998367455812, 1.4933728455890576, -0.2806396681982462], [-1.2902379990549022, -0.8426655780100782, 1.573856642342496, 1.3345827910461574, -1.4878102108744886, -1.086989012839012, 0.22314869812990398, 0.26356580350854825, -1.6313682577967152], [2.0104026355344393, -1.7587550189289411, 1.272316617006291, 1.457451712275189, -1.1581098131104028, -2.0082729093260028, 1.4353003059919425, 1.6471274251485906, 0.5633994059227491], [-1.6483035764520202, -0.4130269591894275, -1.9217129993335553, 1.2882606468160624, 0.9048403200180706, 0.5683779744760382, -1.02038891089335, -0.034202311307378774, -0.009997805160567502], [-0.39627562429197416, 1.568185482137901, 1.4455317584388896, -0.48863637857030473, -0.048296582976762426, 0.9046590309839813, 0.9693132271603242, 0.04843338235682093, 0.4596350012758451], [0.21184464440108625, 1.3006784112768697, 0.43603461536074306, -1.1701034538860606, 1.4145097513973683, 1.5970491032391159, 0.3414187411370209, 1.4750228656845221, 0.5479617338497071], [0.7229739840424886, -1.5613079399606005, 0.2757980491907551, 0.5868305104216448, -0.3835835207377296, -0.9208209609517822, -0.9178225825956658, -1.2511021269298979, -1.4795472883790393]], [[], [], [], [], [], [], [], [], []]], "biases": [[0, 0, 0, 0, 0, 0, 0], [1.4407692980603657, 0.7059350844192092, 1.1632138900330506, 1.3980762490354461, -0.8076862449472785, -1.3002832158486877, 0.15640185813427093, 1.7804438968539518, -0.23003332962999457, -0.11679517293258887, 1.3749502561846532, -1.2467815237205329, -1.4196766973495505, -1.549812616436808, 2.031202631078188, 0.8987312372335652], [-0.012098592315149523, -1.3083233875604052, -1.9682548724080124, 0.8290362495232362, -0.09006746212799738, -1.4083699826537268, -0.4594816830889769, 1.0159039128954497, -1.1347040347183424, -0.8175581992049302, -0.11707635766959812, 0.06078286336631324, 1.0054736147946772, -1.7598590582194884, -1.2984209271540437, -0.31293659566333215], [-1.3614576305162744, 1.0030687929070539, -1.2701703593206164, -1.079250389019263, 1.1662412285425612, -0.5097245665785638, -0.18303823771714825, 0.06137836814103331, -1.381553050129124]], "score": 418}, {"index": 7, "weights": [[[0.16635647982998256, -0.8585050234953719, 0.9621962993654687, -0.014143357518606015, -1.0994383162601582, -0.049915540395189924, -0.1056742454850614, -0.859089717165201, 0.16165845190791303, -1.2462681763435264, -0.12104481275054535, 1.9917656990186545, -0.49991498810698165, 1.0826519211104229, -1.4786829740635303, 0.5312984013583201], [-0.25522515620543307, -0.4946774160022428, -0.3534431859715484, 1.9715199938231633, 1.4802437015516354, 1.3593702017543263, -1.3749417982097818, 1.276922480479917, 1.9032797695668597, 1.8553284015174651, 1.3577297512708417, -1.7171196958886827, 1.1533566089406546, -1.7657943693536564, -0.6126685451254433, 0.5485150058015958], [1.8786228027914857, -0.2297520567810284, -0.09436175553282508, -1.1092444068894811, -0.43185833458325046, 1.436761472492386, -1.894730404441897, -1.7627750953391028, -0.6945886916852371, -0.0170023041968594, 0.6252218430985901, 1.487356540654264, -0.27421264421502156, 0.4748675049067305, 1.7399201982206691, 1.106438256621777], [0.9262564460515739, 1.7145719135161457, -1.590816188029706, -0.726274483529975, -1.549490003259458, 1.4626206059651425, 1.7095693443082183, 1.0814643515519948, -0.43642050071885063, -1.7602921967184588, 1.208905357437066, -0.5120494147886346, -1.493217925189092, -2.09516173607493, 0.012917846263622475, 1.0995025299558414], [0.6862478168649272, -1.7148154138278602, 1.1371463412735223, 0.22120771823550334, 1.3461064852615883, -0.9971304735772284, -1.4790928508331316, 1.0590266284350542, -0.2778999826821972, 0.9806281519132425, -0.7019683833269469, 1.3877172090887968, 1.1818870105403034, 1.6599174886247567, 1.9617795414124746, -0.2996898718546948], [-0.18786310422777458, 1.8336328138321332, -0.8025642738632792, -1.600988414514942, -0.7957873201743195, -1.3990369655937025, 0.7617732268809256, 1.439054383938858, 0.6481969662583895, -0.2345322234821859, 0.3482985881930172, 1.7101920239122546, 0.6396592444997726, -1.5962521860520402, 0.8937407368216908, -0.4582620570748489], [1.3887403042505555, 0.7946296373043078, 1.034299474995712, -0.4131164900413865, -0.21054974730392012, -1.9368412765124072, -1.1631580872416654, -1.3381823601613625, -1.5230344946494208, 0.9726741555978786, 0.22692487572266642, 0.11258001862938957, -1.3830032584245915, -0.02176971553219051, 1.6456991570054298, -1.216786334164269]], [[0.27379030366785334, 0.45109287615437393, -1.7777842352896323, 0.2484253928427693, 1.983009433584945, 1.4770893324952734, 0.8333901943497951, 1.1283604505417055, -1.8899706347456058, -0.7255769516022552, -1.4731692589925085, 0.4636613818879957, -0.8332261548128881, 1.3667809220723357, 1.061984068315893, -0.5702179739119421], [-2.016453000429168, -1.5384982850002482, 1.303463080945089, -1.6001189713772106, -0.7857682439793229, -0.8908186628164556, -0.10580650814409732, -0.2811796079004108, -1.4983186212899577, -0.8691129486465192, 1.0672615003485444, -1.0595347872370804, 0.7206044132516112, -0.8433490064066383, 1.838324190973246, 0.7623770440042132], [1.2732453157290744, -0.8332018514245106, 0.279043892125142, 1.3559729097003574, -0.6729643650572594, 0.55229087234592, -0.5905200213297038, 1.0816879342178565, -1.2504576584766456, -1.5210303829134484, 1.5855982758495404, 0.2085649756262633, 0.4167743638038378, 1.2604241381584231, -1.8378784279011786, -0.7460334671431905], [1.9034280541566913, -0.9670824001170412, 0.32639582343097184, -0.9737117694941682, 1.242735950464548, 1.687710845268426, -1.7757976998474285, -0.3214844674532543, 1.9373944712958204, -0.9285824471503995, 1.4527507556466732, -0.7725777812576047, 1.3210380499345162, -0.5085553046687695, -1.6879986426732192, -0.3471264373825794], [-1.184760900901121, -0.9584504079364481, -1.6252554448229213, 1.0721646435803664, -1.146665774277887, 1.6954263032454224, -1.3887773790439453, -1.89849196031759, 0.4476111277020318, 0.5308256445634452, -0.6375755287309199, -1.110196168730455, -1.3835940173013126, 0.48462431950058094, 0.5934047919756682, -1.4764628228224213], [-0.2914709384985814, 1.3896814624936713, -0.7499483517758198, 0.35260672724650505, -0.039528685402888133, -0.9316155870808053, -0.1609413852062522, -2.211736571988826, -0.7756841678898644, -0.6198649034979452, 0.5805560202240533, 0.3045654124595455, -2.093245764087561, -1.6741958854771029, -0.6684760544317193, 0.23033959669863055], [-0.9282045911237605, -1.1230494133679356, 1.6048352327830766, 1.3864430706923518, -0.22858687315264223, 1.9692534721604695, -1.6217432568200092, 0.9833163733972771, -0.4239291693695029, -1.8793927859328474, -0.8631487241399463, -0.5728814088482466, 0.5451661140980958, -0.41896886454911103, 0.11125651132629093, -1.390290739484586], [-0.024058644841713217, 0.4085858335774763, -1.5316664548554357, -0.9521026556446629, -1.079531663619276, -0.2882860818910251, 1.1382249269848141, -1.1789619074976387, 2.098213058561626, -0.17985172892526524, -0.3464702471726723, 0.643083243127932, 1.0340684609594744, -1.486350326055145, 1.118162564351971, 1.165555630869211], [0.8774303015616607, -0.25690660544512944, -0.500146474141519, -0.24619789763907515, 0.5543009391003724, 1.619242984540282, 1.8235014731222563, -2.0252448884147003, 0.6096657736698788, 0.8533309063095955, 0.06902021395731063, 0.0784589971823201, 0.6782799553180308, -0.6997254453736393, 0.4732260165298268, 1.3826164106841539], [1.0055960051201294, 0.4251314613563629, 0.1327919196091823, 1.13000491650177, -0.3982205237540739, -0.37428151847934377, -0.022952566650272593, 1.3728818723902003, -0.12908538666139038, 0.40049352263685534, 1.6506696888694459, -0.5410805338486459, 0.8206893539112401, -0.14275369844489727, 0.3081741332187985, -1.2448206436519733], [0.04227477176791983, 1.200517483850889, -1.7839389153043694, -1.7959703481112874, 1.8132729178931133, -0.11738767214124143, 2.0101999725956783, 1.7216693112987265, -0.9650346014617865, -0.00022921525096597506, -0.8046027658066065, 0.9081354375328042, 0.8270065300411604, 1.6574810920710503, -0.757609057984728, -1.0221246608892818], [1.5543425890040121, 1.8077057379786743, 2.0715399458588184, -1.030552380477508, 0.2296350639982038, -0.3728209500121958, 0.2151054848867665, -0.8792652326842451, 0.2752914882648089, -0.7375345545997275, 0.23156413530987877, -1.5562952287751197, 0.5622995284251477, 1.4544295554658773, 0.006345210310340493, -1.895433549657002], [0.8958949249384826, 1.5684234796494003, 0.4511085411140487, 0.4220077323791062, 1.777316295612665, -0.4976808992691183, -2.0304086225616427, 1.0460360829954642, 0.34447060082004105, -1.3539650257617768, 0.6434075414076017, 1.5497172106511, 0.005076262013333039, 1.3957144414997007, -1.4685027986979116, -0.7133038673313377], [0.7764070727282021, 1.114553030834466, -1.5177032039541425, -1.5108019476079106, -1.6657561700695116, 1.2290832203247994, 1.7949240183430746, -1.161444283958391, -1.3770225008432107, 0.9844785468445306, -1.8228308708885428, 1.216795237197754, -1.6958006343494263, 0.6366990749457715, -0.287383796258094, 1.3244176427538426], [-1.6697379794113285, 0.9879749989785609, -1.421693995236104, -1.2161729507421875, 1.2069951724869568, -1.3238644341605053, -0.3191289607721118, -0.5584254824750817, 0.5943377297049853, -0.21320812384931495, 0.9957650027971371, -0.1976445758208269, -0.6119169760824215, 0.07086621263589407, 1.658811382905357, -1.539791127183873], [0.41216464418230536, -1.5359845048225962, 1.5333263713393352, -1.1585300879605263, -0.09923236628454107, 0.8685799839005162, -1.763933932879996, -1.6801435938329068, 0.19736963717904696, -0.9284621760464503, 1.3308767371099595, -1.8194453088255333, 1.5090821021035685, 1.4104439341670676, -0.4896187898599167, 1.5966625708671176]], [[-1.260867373448501, 0.03666239120423002, -0.9345370502650034, -1.1534080915151028, -1.7422619042949432, 1.8208898169007874, -0.5139478551569966, -1.6227902838238164, -1.0682336669462185], [-1.141559189792091, 0.06126652713770624, 0.6253652413441713, -1.5406315137523785, 0.7360555736849554, -1.6292864649582424, -0.18818470544954885, -0.8518408342238727, 1.848417420596436], [-1.7117899188571892, -1.4043995938145446, 0.5382092217397293, -0.3517283555350345, -0.7607985516600863, -0.5559743879779262, -0.8130521228024125, -1.6215237320520925, -1.6957771227154261], [-1.7515777178164917, 0.23342802268503407, -0.1302597013906342, 1.1686269023138274, 0.5698681712729933, -0.2590096466698388, 1.7854201670649266, 1.7373923308307229, 0.8439870578142105], [1.4198436489212056, 0.07073805259945247, -1.6831957362025545, 1.307219752516521, -0.9634773618239197, -0.4300484205714416, 1.5471794764646996, -0.9640083760316973, -1.3681270540875394], [0.98842370709852, -1.902067941807197, 1.1086064430865747, 1.41770866783775, 0.11227548699642334, 0.9559087686174381, 0.9353164305947166, -1.205621937333056, 0.6481696238426754], [0.9032629979774357, 0.16679068492469382, -1.8543180211796855, -0.23215001741928132, -0.9094421131945348, -0.3587744968396044, 0.8226416965775122, -1.36876670910211, -1.442193598755665], [0.4468592433091207, -0.45798086711240277, -0.9149501904810173, -1.0506248474092195, -1.4548830692305361, 0.9003394878213965, 0.4976199318065374, 0.8040938590806967, 0.15373175569632425], [0.7614304217508238, -0.3097933743564234, -0.0026201967422015745, 1.216782263473079, 1.118374551839713, 0.07538792422371318, -0.37648493766136437, 0.4167490398965145, -0.5132298486320355], [0.3313069759296481, 0.8737873087947977, -1.4797948988870067, -1.1721996041936587, -1.0288816534816583, 1.7045344426766746, 1.2850310764948707, 1.5157571532753, -0.3231245629807419], [-1.298719937717081, -0.9336013775655719, 1.4861250050743962, 1.3459504124535033, -1.4468693515753974, -0.9324491558389209, 0.1438207097023914, -0.05002063212715402, -1.628327609195037], [1.7899321138289548, -1.9102294834167763, 1.2504002417318842, 1.503927264031374, -1.2188365884549035, -1.9330555139596404, 1.2848797324332424, 1.6538110890167472, 0.44270522737371165], [-1.6634804535737306, -0.3553749935615228, -1.9999405986551466, 1.008377154115365, 0.8580148774194248, 0.6107819926617842, -1.251625876340808, 0.06408230455252847, -0.0793058623862308], [-0.3059191584744375, 1.5897653549179331, 1.631087634373717, -0.2762249857065148, -0.09553596777705717, 1.010829986062677, 0.8848166525304116, 0.1675864096424914, 0.49926728783643076], [0.20921679185144865, 1.15882877966151, 0.42693423840973777, -1.1599229265935238, 1.5198793785649745, 1.5384729632961773, 0.29944783105419104, 1.431861619069815, 0.6057941111100599], [0.5656983890528884, -1.3737675474630742, 0.09369239051768677, 0.5271460250442275, -0.43077157556253665, -0.7090487288375855, -0.6572574489052235, -1.2890830027651174, -1.3353679939867076]], [[], [], [], [], [], [], [], [], []]], "biases": [[0, 0, 0, 0, 0, 0, 0], [1.4171756483848075, 0.896126986838788, 1.3392950243763493, 1.6764089419158044, -1.0433070520046523, -0.9695110149776699, 0.25948478158380983, 1.7568860180251233, -0.23680306848416047, -0.13531575838477852, 1.3072081213541367, -1.2838414353571435, -1.2972836295309091, -1.7239325605948752, 1.9186427132553179, 0.6568217104587973], [0.24519960897491125, -1.1146947995962615, -1.7586364439611208, 0.9967978595077951, -0.05813187926613049, -1.4108886128027767, -0.3120520699501628, 1.110906665740953, -1.0912921072479422, -0.9008629683913734, -0.1296738790179251, 0.27618578830194274, 1.17356698833049, -1.757355636772557, -1.1453017770146678, -0.3928400919855638], [-1.4598569357187972, 1.2281502222541452, -1.2459089952414326, -0.7388045827329199, 1.258243082954985, -0.2566285252067114, -0.283534838038096, -0.036893328435939926, -1.34999325322319]], "score": 450}, {"index": 8, "weights": [[[0.3235749676230153, -1.0554130673406115, 0.8861717401857636, -0.07910400693734063, -0.9210236343358965, -0.09227067864782028, -0.10960217944495035, -0.7575897831719511, 0.05949355853028272, -1.3746917422332512, 0.06103415190021991, 2.040069538770953, -0.2737220661383627, 1.0963209615124028, -1.658692431725097, 0.4394936373334636], [-0.3328400169065033, -0.4793642482714106, -0.2737325656629656, 2.0259013091437326, 1.2858418555552786, 1.4384694909193632, -1.3617908264395315, 1.0725282827604676, 1.6988231773096005, 2.004009466802215, 1.315122305778467, -1.7130734725928973, 0.9572120385683343, -1.608179694396196, -0.5601122567412318, 0.7816526196432135], [1.89402814157432, -0.26235670399930733, -0.22358809755879883, -1.0321216486620164, -0.5064052791202108, 1.401595785452626, -1.7798156597797323, -1.9172667080130934, -0.7199611684198556, -0.16880645321682014, 0.8323851941032132, 1.31312226112093, -0.509390209219517, 0.38170227578151594, 1.8357058657247862, 1.296615712893763], [0.8857181495053343, 1.8976509849596488, -1.6568628510278318, -0.7855269750366487, -1.4692693357782536, 1.3558303998567809, 1.727268767938521, 1.1043144999557697, -0.6334187339824365, -1.615677228829908, 1.1062851954577204, -0.2742625504830971, -1.3849999426261994, -1.8131427430319682, 0.052540608617275344, 1.2619067716583958], [0.5684965346923969, -1.6972391995518583, 1.2207856323971116, 0.233218476346408, 1.6115765594347011, -0.7452772315711718, -1.199865559472295, 0.9394150315250388, -0.34626626775870156, 0.9296919846933074, -0.2844000224616262, 1.173799242200495, 0.954428953755673, 1.6746657376707075, 2.047167541517745, -0.42418926335913987], [-0.2443016865948459, 1.9330872902631513, -0.9802391913485219, -1.836456660197342, -0.7018058133487606, -1.439472555835573, 0.8260406083561408, 1.3555360390076063, 0.7758154129612276, -0.20873956034740654, 0.17939059686634312, 1.916746779729224, 0.8611554566295296, -1.6312831670208077, 1.1944843718621807, -0.20012614167071585], [1.3499267913276736, 0.9659893935566402, 1.2365595305871475, -0.3822481386146358, -0.4417656134234199, -1.7940927637567001, -1.210084064186285, -1.4180744788445965, -1.5892117847621825, 0.9454843877096444, 0.24609598455444837, 0.269162502743779, -1.5751133981386796, 0.04427657486162843, 1.7607584211409475, -1.0196520859706386]], [[0.2715604115303117, 0.3927977671942811, -1.7617539819344241, 0.2986331810410702, 2.022494529366455, 1.45052887348382, 0.5760629470468627, 1.2020093461725438, -1.8718402931175129, -0.45956656919199734, -1.1859128953704525, 0.47887403300956033, -0.818431766702726, 1.347231151355611, 1.1000744316366706, -0.5220946233524848], [-1.5574248666773722, -1.6740896853603813, 1.3323103106375767, -1.5107356104241771, -0.6817353251267595, -0.9949623752822219, -0.1604232215696927, -0.46589513194792254, -1.5023711944675637, -0.8408556566189925, 1.146482280248264, -1.0172465837231144, 0.8727487379684391, -0.9488639279228898, 1.8083049381262657, 0.8604582951238733], [1.414297254779896, -0.8364736012543377, 0.12424917906658733, 1.336911105263244, -0.7125564691987604, 0.492705177601538, -0.73927197555049, 1.0483606674903856, -1.326259995356921, -1.7531424951946297, 1.7144574825521581, 0.00803583079889926, 0.41197766910497924, 1.2673355359535141, -1.8302472434338093, -0.7786487509659964], [1.7012013703780022, -0.7901619829487279, 0.1533514620042224, -1.1129326758890838, 1.100791280809144, 1.7517990055728054, -1.761608148419273, -0.2995722850619239, 1.9525101354971115, -0.8143196758048857, 1.4539187777872853, -0.5194504131039177, 1.299760283187573, -0.7149975539757496, -1.6216688595221604, -0.3553347089722506], [-1.0881216484467768, -1.0863455709065313, -1.6734591555499496, 0.866775769476442, -0.868421833709947, 1.4948093238076656, -1.354297083387157, -1.9788158632460469, 0.6462367430716287, 0.6162457317639138, -0.7082214129572841, -1.0303547799607424, -1.3006773344939466, 0.47230277604149346, 0.6695275063013741, -1.7663664828657781], [-0.02162688659945504, 1.2978278507723147, -0.7541025812816243, 0.36398760543242836, -0.09317150546794531, -1.1872255588824037, -0.15953002965645072, -1.8864012306476297, -0.8992287915355094, -0.6535711302769337, 0.9323621366201074, 0.4628567416147065, -1.844338027305624, -1.4871632158375467, -0.30481090389013554, 0.14678466041695754], [-0.8966765849918701, -1.001195818332617, 1.8887378660973704, 1.2051495609440115, -0.3815553479978244, 1.9375234903204506, -1.6860040772655678, 1.1836521804097382, -0.4577033173220082, -1.889145137640007, -0.7988804545456851, -0.6310237027470869, 0.49619883776957435, -0.3116636209474874, 0.07346490242477285, -1.3876942000423926], [0.01395717504371212, 0.2766969747684368, -1.537265667461046, -0.8114332386845955, -1.2854823951700798, -0.1619693304922323, 1.3095283850339206, -1.0006432325047745, 1.7422378866500075, -0.01683544094267435, -0.3652587000338223, 0.46238216625036016, 1.0940144136261458, -1.4148164496397075, 1.191036542029429, 1.1875828268762239], [0.9797804341551528, -0.5577880178829123, -0.7303614989882175, -0.13707034557973402, 0.7789419920496886, 1.191328011861952, 2.016033549009655, -2.1686317047646657, 0.5442695948796373, 0.8003881549003655, -0.04088814746400271, 0.2411966173500586, 0.842677980005009, -0.9241266409479065, 0.328977301681473, 1.0178718853501252], [1.1297869754446581, 0.2943975275527403, 0.420004359032172, 0.8931962290768598, -0.3519524045482725, -0.5364794903475918, -0.05168502956321628, 1.3547713758350346, -0.44135784924263155, 0.2745950038647278, 1.5368008167729919, -0.24856935442989467, 0.7100134124665192, -0.049106750508103175, 0.21069790935494453, -1.3264326239501762], [0.00330354170535406, 1.10006886074579, -1.8346694276823625, -1.8229627628274983, 2.1369058522726094, 0.1525497648381018, 1.9394487137724052, 1.832317806826556, -0.9804276607940724, 0.03663343374153316, -0.6144529824609668, 0.6721120296290741, 0.8211311067246814, 1.5322705806407435, -0.9830173594270445, -1.087809247758181], [1.5673035102487285, 1.781178731460488, 1.9394976723679507, -1.1417432645463788, 0.15581163851752744, -0.4653429143202197, 0.10436247412652352, -1.0827074872942908, 0.20029530847648452, -0.669288999165352, 0.2485354154769074, -1.5523591817836997, 0.2311330259816584, 1.4907837949320335, 0.06772772153207957, -1.926287857170517], [1.112017920769196, 1.7279242966842192, 0.6173453080703197, 0.4627047137751631, 1.5991294080659875, -0.44786843939941445, -1.731743932104998, 1.2395312294546328, 0.2437383593628918, -1.6238593086151563, 0.5525484695813725, 1.5869807582280036, 0.11778378896316061, 1.5365139390074416, -1.3969783331189407, -0.8215737697057245], [0.869955019767109, 1.172857028500229, -1.4588796426907409, -1.3421263143991753, -1.870024434473826, 1.366804567930178, 1.7748924897207121, -1.4923926668531666, -1.4638166399504993, 1.3579514426891273, -1.9549241637152475, 1.0835089308242636, -1.6728860019425256, 0.26288088811286314, -0.2710137793691588, 1.2793285402479975], [-1.7893960688502721, 0.6859819901334375, -1.5416555113567325, -1.4716992663557114, 1.0879045962724594, -1.2815271993583326, -0.35656848768971905, -0.36919069409658056, 0.5616247096809182, -0.06497466537422802, 0.9982449739898698, -0.15278216282302937, -0.3621050119443526, 0.26448576621971165, 1.596247224035634, -1.6690550406957658], [0.4907984308054142, -1.3568941852757104, 1.1084942564899212, -1.0104368540835553, 0.06777351419994257, 1.0470593598393758, -1.8800290205021177, -1.5979880086322975, 0.2547454630517637, -0.9534374528890782, 1.3170030493173868, -1.8458759920919894, 1.4822832930488656, 1.525117855030402, 